{"W3":{"v":1,"dim":[5,7],"data":[0.24398512,0.5279647,-0.13615209,-0.059901793,-0.46604484,0.03290208,-0.27636015,0.30702192,0.6263239,-0.15062045,-0.018664546,0.29981747,-0.18217853,-0.22176966,0.18149681,-0.48512614,-0.49132487,-0.27111635,-0.3809712,0.12203557,1.1009463,-0.07615357,0.64813095,0.21412326,0.37599796,0.38078555,0.18842967,-0.33898053,0.32395795,-0.47813845,-0.19428268,-0.06516344,-0.14477883,0.3823658,-0.21177244]},"b4":{"v":1,"dim":[1,1],"data":[-0.15132982]},"b2":{"v":1,"dim":[7,1],"data":[0.0033951362,-0.006438772,0.0014365833,0.008991861,0.0015423578,0.000014202499,0.06957413]},"W1":{"v":1,"dim":[20,12288],"data":[0.0004476706,-0.0005246712,-0.009267404,0.0030869707,-0.0034494498,-0.007464393,0.009302273,-0.009480575,-0.002514242,-0.0048350752,-0.0016416023,-0.0067948806,0.009700732,0.0059230663,-0.005511771,0.0025553138,-0.0019065946,0.0058807577,0.00808817,-0.009973516,-0.0021723288,-0.0028862439,-0.00563364,-0.00017370442,0.011087366,-0.0068293144,0.0025612724,0.0007879639,-0.005094821,0.0016437621,-0.00031582988,-0.0082961675,0.0027235565,0.0034545027,-0.009458359,-0.0022125805,-0.00634195,-0.0067463634,0.004711981,0.0030174486,-0.0056619025,-0.0013870233,-0.0015339414,-0.003253464,0.0012438488,-0.0026641705,-0.0028041769,-0.009579733,-0.00004621992,-0.010025825,0.0014483719,0.0023097228,-0.0068944274,0.00036749305,-0.0009194099,-0.00015091994,0.0047519803,-0.0017582641,0.0069058067,-0.007828385,0.0016432888,0.006129621,0.0075061624,0.0066765873,-0.0062977606,0.003451901,-0.002890833,0.009235064,-0.0045309523,-0.0015234336,-0.0049468563,0.009360673,0.004479899,0.00090564066,0.010966974,0.008526685,-0.0024410882,-0.004921906,0.00412793,-0.0009351582,0.00065610243,0.0067114127,-0.006520513,-0.0076337694,0.00017214159,0.002707693,-0.008953549,-0.007315559,0.0007156366,0.001429858,0.008479635,-0.011226767,-0.006992478,-0.0043863514,0.0003333504,-0.002872522,-0.0073503694,0.0050706835,-0.003666681,-0.0016663194,0.007226983,-0.0074524293,-0.0071304464,-0.0072117085,-0.0076580495,-0.005069553,-0.006646415,0.0025281478,-0.005950831,0.0043263137,0.0026507182,-0.0069056456,0.002274173,0.0014845544,0.0013002063,-0.008614498,0.0015069372,0.005330422,-0.0023719324,-0.0053149643,-0.0032316141,-0.008962479,0.0047745425,0.00364512,-0.004382273,0.009029276,0.010537053,0.003818798,-0.0030336562,0.009968572,0.0046766666,0.0004439202,0.009062747,-0.002996327,0.01034104,0.0074649896,0.004148512,0.0052236724,0.01082949,0.0050049615,0.0018635453,0.015234574,-0.0038016078,-0.00073593855,0.012894333,0.002773485,-0.0021175253,-0.004935963,0.0042346977,0.004442541,0.007369117,-0.0061676065,-0.0064655263,0.011230043,0.0063136015,0.0064558196,0.004273741,0.00287365,-0.006393217,-0.0031335503,-0.0052389195,-0.0070868903,0.015271435,-0.0019949568,-0.0011724764,-0.00026939064,0.0032700156,0.004651765,0.0129759945,-0.001883904,-0.0033934182,0.00010028649,0.0009187768,0.00067388953,0.013179546,0.009009921,0.0013673396,0.007968099,-0.00049107015,-0.0018818456,0.012998735,0.010693178,0.01021565,0.0029337853,0.012807889,0.008342659,0.014518511,-0.0014126347,0.009506508,-0.0004393401,0.002897391,0.008807069,-0.004506075,-0.0012377941,-0.007347948,0.007301515,-0.009001677,-0.0056558955,0.007840919,-0.002859613,-0.0065833344,0.004924386,0.008026491,-0.0030735226,-0.003159531,-0.00518561,0.008740547,-0.005174786,-0.007810199,0.0042947694,0.008311624,0.007434136,-0.0026963125,0.0050520254,-0.0049644383,0.001240818,0.013329022,-0.006610342,0.006482728,0.010988362,-0.005443169,0.004455561,-0.007443046,0.0060655074,0.0059982166,-0.00638327,0.0022087402,-0.000394757,-0.0039495695,-0.0072731166,-0.0020714793,0.008442848,-0.009682202,-0.008887284,-0.0041421005,0.0045291875,0.009348932,0.00456936,-0.00018457434,0.0044049816,-0.0045444905,-0.00828333,0.004322703,0.006492104,-0.010085336,-0.006590825,-0.007069963,-0.0057980716,0.004582127,0.009030649,-0.0057311156,0.00029737124,0.0051389574,0.0045354515,-0.004629127,0.004582517,0.008121768,0.0016673387,0.008217235,0.008833417,0.004487277,-0.0014548117,-0.0039989226,-0.004602542,0.0054815034,0.0003173435,0.0014636184,0.010968808,0.0039594374,-0.0017113615,0.00021753275,-0.007449213,0.00887636,-0.0033823017,-0.0022375956,-0.0048539387,0.0038531758,-0.005374518,-0.000054901277,0.0032843628,-0.0045575867,0.0009696466,-0.005198938,-0.0013540658,-0.000096558455,-0.0067914976,0.0054555633,-0.0037610652,0.004691683,-0.006171964,0.0012613678,-0.0005565177,0.0030699852,0.0033350254,0.0078029116,0.0043669674,-0.0005535693,-0.004967194,0.0040053795,0.006365506,-0.009728949,-0.0026881436,0.0010775026,-0.0011759986,0.00600655,-0.001204072,-0.002980254,0.0010311106,-0.0012680666,0.0011060021,0.00083132595,-0.0014940641,0.0037912026,-0.0053867744,-0.006386722,-0.0035326171,-0.0004089013,0.008777767,0.00044957676,-0.00768218,0.009188043,0.0022150578,-0.000741364,-0.001723781,0.007064331,0.004854926,0.003113886,0.00063017895,0.003983778,0.012440698,0.009726059,0.00326166,-0.003904143,0.0055775503,0.0028725958,0.002343785,-0.0017884774,-0.0022643975,0.009928946,0.007752178,-0.0053818696,0.0023875341,0.0019274384,0.00079261063,0.0040129623,-0.00017366227,0.005118306,-0.005752503,0.0046930946,0.0027486146,-0.0010166139,0.014713003,-0.0017937911,-0.0003060877,0.007333691,-0.0050319405,0.0024402165,0.009937343,0.00058152096,0.0075664,0.011784783,-0.0040465984,-0.004681408,0.0038844002,-0.0068761017,0.007379962,0.01362513,-0.0023092215,-0.0062620128,0.0026282058,0.00017823512,0.0051904405,0.003216673,-0.004093407,-0.0051060864,-0.0019672567,0.005950283,-0.0033216055,0.0087107625,0.002879497,0.010687257,0.0010154437,-0.0010959278,0.0016967878,0.010272719,0.003001926,-0.003645551,0.0061198818,-0.0009964426,0.0006738813,0.00435755,0.005825443,0.0003724652,0.008061304,-0.0020991836,0.006739865,-0.0011403447,0.003430883,-0.0057859803,-0.0013138873,-0.0058083907,0.00420165,0.0013772654,0.0026811662,0.0053810403,0.008690806,-0.0009990088,-0.00025651007,0.0053185886,-0.0052891537,0.0020787586,-0.0006668081,0.002688596,-0.003601965,-0.0008393979,0.0014168656,-0.0056486065,0.00018223107,-0.0009943199,-0.0050211856,0.007887012,-0.00616007,0.005376128,-0.0049942657,-0.006052183,-0.0076483395,0.0074853147,-0.006200972,0.004415368,0.0071600657,-0.0070101656,0.0025032335,-0.00587684,0.0068798484,0.0024161704,0.0059490344,-0.0062305615,-0.0051184394,-0.0054429425,-0.0054465085,0.0075246654,0.0026761189,-0.0003422518,0.006442832,0.0010608196,-0.0040676906,0.0014407114,0.008135377,0.0042647077,0.0070889406,-0.0010666299,0.0017412375,0.009956513,0.0000052717137,0.0028978079,-0.0015582823,0.0013646134,0.0023130102,0.010566873,0.011277128,0.0056065917,0.008771118,-0.0017253547,-0.0034885022,0.0034342273,0.0073648393,0.0065165185,0.008139836,0.0063969623,-0.0066707423,-0.0023352895,-0.00016428449,-0.0048083477,-0.0010169196,0.0012067797,-0.00522556,0.0031536424,0.010829041,0.00692912,0.0027384404,0.0075483597,0.0009341607,0.0019363522,0.007437214,0.0021695844,-0.008927942,-0.002044976,-0.008887684,-0.00923439,-0.0055823773,-0.004376707,0.010219971,-0.0016681699,0.007940381,0.002130481,0.008839621,0.0028683026,-0.006298213,0.006312012,-0.0002838304,0.00018201754,0.0014532997,0.01023756,0.0059153247,-0.006899543,-0.006985758,-0.0018885095,-0.0052893492,0.008760529,0.0049944767,0.0055141924,0.010072925,0.006723971,0.005550362,0.005220486,-0.0044871536,0.012861452,-0.0005940736,-0.0050678304,-0.0014478189,-0.0026580044,0.002084201,0.0031438193,0.0042006997,-0.00073399226,0.0031571118,0.008318402,0.0005505397,0.004250904,0.0054410547,0.010440017,0.0065186894,-0.0025247077,-0.006607752,-0.0031969037,0.00683381,-0.0032031739,-0.0054064337,-0.004197251,0.0015142891,-0.0010119663,-0.003892361,-0.009427137,0.011371027,0.00012976752,-0.0061586504,0.0075021526,0.0017277028,0.009951978,0.0077453754,0.0021927601,-0.006284084,0.0098293675,0.0023411275,-0.0020665717,-0.00020481621,0.009201986,0.0013924671,0.00365172,-0.006723714,0.0077778343,0.0087176245,0.009230634,0.0034635963,-0.0032706696,0.0032692917,0.010187727,0.011089455,0.00403768,0.0036312158,-0.0020759883,-0.004020415,0.010283028,0.002062335,-0.0032143816,0.00069912366,0.008542867,0.0021162264,0.00061307877,0.009237164,-0.0015938458,-0.00024140715,-0.004255928,0.00090192346,-0.0013870187,0.0039747343,-0.005208831,-0.005434386,0.007814536,0.008294095,0.0012073888,0.0015131207,0.006392847,-0.0002702349,0.007406869,0.0054471935,0.00784443,-0.003361173,-0.00010727287,0.0020212259,0.0023226792,0.007119139,0.009085925,0.009110288,0.00035178757,0.004818072,0.0076676332,0.0030970448,-0.0060326587,-0.0010860732,0.0059639914,-0.0070893094,0.005089112,-0.009754783,-0.008571359,-0.006367175,0.005337988,-0.0012607668,0.0031204827,0.0028088687,-0.006799699,0.011978661,0.0064250813,0.005670778,0.005207638,-0.004145397,-0.0029907941,-0.0011286972,0.0066316584,0.005474864,0.00023815906,0.007926719,0.0022490267,-0.00037587993,-0.0068450244,0.0010049047,-0.0061825574,-0.0015639886,-0.0018374077,-0.0033684217,-0.0009916932,0.008057435,0.0018970127,0.0067426944,0.009031243,0.006695715,0.0029837121,0.009049495,0.010325587,0.002008898,0.014649835,-0.0020443173,0.005941417,0.006206259,-0.0011482696,-0.003539512,0.0045959996,0.0029363977,-0.0021816546,0.001249512,0.004118704,0.0017059399,0.008182166,-0.0019785753,0.0008945374,-0.006517829,-0.0038418921,-0.0023500288,-0.0076542133,0.0014930521,0.0056593465,0.002169171,0.010305527,0.0023915381,0.0036423043,0.006929057,-0.00526773,-0.006937084,0.0014512162,-0.011065781,0.00034172073,0.003680023,0.0014913513,0.0066645155,0.0018861152,-0.00040819272,-0.004279277,0.0039153774,0.0060930937,0.0107171945,-0.006614432,0.010347621,0.00260744,-0.0018465937,-0.0018634113,0.0035881554,0.006054581,0.0056754607,-0.0034879379,-0.0009549504,-0.00019843625,0.00036331578,-0.004808464,-0.0041748113,-0.006366913,-0.0018078727,0.00003405803,-0.008376693,-0.002259994,-0.0052621253,0.005928365,0.011514376,-0.004554131,-0.0065374924,0.013225137,-0.00011758161,0.00844955,0.011404576,-0.0070749614,0.0028195258,0.0075958655,-0.0018637516,-0.0048379907,0.008952101,-0.0025342607,-0.008743379,0.009310104,-0.0031726176,0.0016368466,0.0029464422,-0.00096472644,-0.0027267397,-0.0026382417,-0.0002973567,-0.0025201873,-0.0029931264,0.007817219,0.006742188,-0.0010280974,-0.003059597,0.007875832,0.00019523344,0.0076119537,-0.0068702777,0.0100790495,-0.002561668,0.0046398705,-0.004117773,-0.00280907,-0.006193124,0.0023207292,0.0027617682,-0.0001647774,0.009543546,0.006651912,-0.0006629745,0.012986903,0.007803291,0.005531608,0.008892339,0.0016062813,0.00083606126,0.0017501835,0.0044604493,0.005276553,0.0014676645,0.00093411945,0.0009143299,0.003302703,-0.002227716,-0.0019034146,-0.0018294891,-0.011794638,-0.0018552861,-0.006830412,0.0019644822,0.003942194,0.0061725243,0.0048046145,-0.004819191,0.010029708,-0.002313335,0.007358637,0.010716829,-0.0013809372,0.0062263156,0.00480544,0.00097366096,-0.003678337,0.013579727,-0.002120939,-0.003445769,0.003934291,-0.0041656657,0.00094777794,0.012527169,-0.0022576603,-0.005789832,0.007958236,-0.003036237,0.0039283843,0.00627337,0.005481917,0.00608048,0.0069220057,0.000045682475,-0.006682857,0.0029232043,-0.0018651914,-0.00080656336,0.0022388105,0.0075876084,0.0038874072,-0.0044181137,0.0010255544,-0.0039120526,0.008708022,0.0011377822,-0.008175577,0.0022322647,0.005833541,-0.002231185,0.0071749412,0.0042786337,-0.0060264287,0.004503413,0.0028140866,-0.0020062665,0.0036398533,0.004144614,0.008504495,0.0047049085,0.008238103,0.004261293,0.013320247,-0.000038373077,0.0002528071,0.0022232032,0.0010966392,0.014278777,0.009770312,0.011742106,0.006100222,0.0060634357,-0.0013965655,0.0006499225,-0.00071607996,0.0022015767,-0.00541808,-0.0039103725,0.009096506,0.0109064765,-0.0018798086,-0.00036889056,0.00035655074,-0.00096538523,0.0016368232,0.00048379277,0.007471216,0.007048537,-0.0036055134,0.009744387,-0.0067446386,0.0022604405,0.007886157,-0.0043136165,-0.00079453987,-0.0035958423,0.0067397538,-0.0029423889,0.00094900344,0.0007393278,0.0058874404,0.0059798546,-0.0071804575,-0.00044602898,-0.0063411505,-0.006451431,0.0050765625,0.0073469235,0.00784754,-0.007221819,0.0029668543,0.009041457,0.008742219,-0.0035651305,-0.00035274905,0.0032350488,-0.0032040419,-2.8472547e-7,0.008345956,-0.0029714853,0.011091087,0.0009302415,0.000826411,0.005759163,-0.002028065,0.0023754896,-0.010115876,-0.003302359,0.008445589,-0.0035675163,-0.0024515924,-0.004943114,0.007318352,0.002470271,0.0061411434,-0.005385208,0.009265025,0.0018504452,0.008392404,0.00076562946,-0.0017366332,0.0043126685,0.0039525935,0.0040265042,-0.008892779,0.0031277828,-0.0027277586,-0.00079159264,-0.0020161665,0.009635319,0.0071830163,-0.0063415547,-0.0034391615,-0.002363771,0.0016529589,0.0077531035,-0.006001763,-0.0009875679,0.0045752153,0.00019360452,0.008386385,-0.0024666868,0.0062484164,-0.008488151,0.003543737,-0.0041609313,-0.0072496654,0.00026143165,0.0040787347,0.00081370765,0.0012978389,0.007120275,-0.008359531,0.0014198913,0.0008447552,0.0003198595,0.0053361505,0.0023336485,0.011693446,-0.001922484,-0.0039018726,-0.0021684102,0.0053454884,0.0011211329,0.007089052,0.005915078,0.010476046,0.0058484874,0.002475098,-0.0040949956,-0.0074703465,0.008166548,-0.0016933976,-0.00418347,0.0030245702,0.0021574695,-0.0035597961,0.0068453676,0.0029749447,-0.0070251185,-0.005241179,-0.008330971,-0.005502783,0.0039647496,0.006452763,0.0017579764,0.00066982786,0.0035628811,0.008705105,-0.004825126,0.0070472937,-0.0051438096,0.0046047764,0.0012753098,-0.003937569,0.003564709,-0.007903452,0.0023454619,0.005974401,-0.0027371664,-0.0019269406,0.0031368118,-0.0057862187,0.0021910982,0.005915764,-0.0062091467,-0.00025110337,0.0024794855,-0.0032463772,0.004767123,0.000013587759,0.0076649347,0.00015438,0.010694827,0.0075829015,0.0009690432,0.008194384,-0.008020907,-0.0036904365,-0.0007404889,-0.0017681008,0.010486459,0.014799242,0.0019091682,0.008679127,0.0089271,0.009607871,-0.0064070555,-0.00005671879,0.0077899415,-0.00018209452,0.0011859109,-0.0051729428,0.010510638,-0.00076095934,-0.0031370374,-0.00095594465,0.014435142,0.002133618,0.0007242069,0.0010048973,0.01244076,0.0034203436,0.010694673,-0.0015191815,0.0052253027,0.008708898,0.0016552029,0.00015470225,0.0052079833,0.0054164464,-0.0008889605,0.0070453607,0.0022769812,0.006215364,-0.0030388266,0.009077321,0.009062346,0.006900603,-0.0018927043,-0.0066917553,0.009471529,-0.004661855,-0.009252141,0.0072776345,-0.0013656034,-0.00075162784,0.0023637677,-0.006294156,0.0045691757,-0.007560415,-0.0046718833,0.0070240456,-0.003538209,0.008234042,0.00947726,-0.0050528096,0.0059357886,-0.00029247953,0.007416191,0.008408242,0.003328281,0.008301285,0.00001658964,0.0048038624,-0.0049181255,-0.005085013,0.009707597,0.0070274496,0.009699508,-0.005371433,0.0055585634,0.006870917,0.0012812826,-0.0034890359,-0.008905302,-0.006083085,-0.006641025,-0.011157254,0.003903242,-0.00011375651,0.0040312223,-0.0009435652,-0.006473516,0.0015141856,-0.0051445705,-0.0022173505,0.003198031,0.00388919,-0.004809978,0.0062378584,0.008533124,0.002185023,-0.0034294766,0.002760172,0.0052030226,0.007276928,0.00813663,0.0041471305,0.008572227,-0.0016539154,-0.004618456,0.0028427565,0.0088021085,-0.0047012363,0.0012236214,-0.0022456609,-0.006315131,0.007320549,0.007836877,0.000089474335,0.0076950234,0.0040872092,0.007553889,-0.0063592754,-0.007807227,-0.00055660936,-0.003987991,-0.004467428,0.0012976021,-0.005798102,0.003974026,0.009194428,-0.005328157,0.0037094983,0.015113051,-0.0037125065,0.00021586298,0.00613594,0.006884361,-0.0006359156,0.0070192046,0.011950987,0.0008708244,0.008041775,0.0005976898,0.009503298,0.008990614,0.00696567,0.000044136057,0.0103453,-0.002278244,-0.0077877534,0.008684919,0.0011641441,-0.008116141,0.004290023,-0.00017006308,0.0037188902,0.006967086,0.004344375,0.0009631101,0.007063726,0.0054235132,0.0062257894,0.0049605486,0.006821489,0.008843598,0.0046543386,0.005823066,0.00228472,0.0026303055,0.0104077235,-0.0035784536,0.0044898763,0.008464736,-0.0001411373,0.009976068,-0.0019799375,0.012897041,0.0055769826,0.010078665,0.0014366808,0.010410114,-0.0025628274,0.009651217,-0.0038542412,-0.0031489339,-0.00079325715,-0.001965145,-0.0042520966,-0.008505299,0.010059179,0.006913856,-0.004246566,-0.0020281388,0.002640386,0.0066707344,-0.0048013157,-0.0072937603,-0.007293799,0.0002381465,0.008614873,0.005263476,-0.0032322889,0.0051071183,0.0013848714,0.0056037926,-0.0069137933,-0.0049688555,0.011854474,0.0003134554,-0.008077909,0.0020069461,0.0016990645,0.0066370415,0.005918163,-0.0025197472,-0.004772742,0.000201511,0.000008799345,-0.00013093819,0.009608612,-0.003969987,0.0116752405,0.003831803,0.0027650793,-0.00058531377,0.006234651,0.006555458,0.0074202423,-0.004769817,-0.006231275,-0.0010833886,0.011888581,-0.0027973393,0.0071518742,0.0012992609,-0.0047249165,-0.0088809645,-0.0043525468,0.004751246,-0.006513255,0.011798353,0.01078591,-0.009391229,-0.0018578205,0.0005071855,-0.005307517,0.011437098,0.0033771675,0.0021160056,0.0037802106,-0.0067010596,0.009673725,0.0035986612,-0.00054831343,0.009331809,-0.0063812886,-0.002411157,0.010835682,0.0012867851,0.008140175,0.0028311245,-0.003943918,0.00789611,0.006287393,-0.001607226,0.004114082,0.010186897,-0.0043921275,-0.00046099589,0.0050956286,-0.0048887855,0.009409409,0.004973591,-0.006790087,-0.0022513978,0.0039175623,0.004960507,-0.0034527162,-0.00041063406,0.007950984,0.00010239313,-0.0012929793,-0.00045845346,0.002589375,0.00056966767,0.0059207925,0.00089492614,-0.00583403,-0.0007076314,0.0031916236,0.0060433107,0.0012931438,-0.002308447,0.007947106,0.0013592797,0.008808061,-0.000070844515,-0.0057373177,-0.0078023584,0.00060374534,0.002770324,-0.0018094874,-0.0010268106,-0.0046906383,0.009019804,-0.00091824663,0.009550025,0.0017597519,0.006418036,0.008749737,-0.005204386,0.007207991,0.007565005,-0.0048400797,-0.0034003605,0.014335541,0.008080667,0.00031000408,0.0048695533,0.006977005,0.0005814964,0.0037932715,-0.0071307817,0.0055475724,0.013321253,0.009567205,0.009621403,-0.0018383213,-0.0035901014,0.009947395,0.004502138,0.0060061766,0.003801906,0.012641201,0.010349206,-0.0010897912,-0.0019658408,0.010687201,0.0032726373,0.002668956,0.00094469724,0.009383705,-0.00079889974,-0.008596933,0.0021991136,-0.00094091153,0.00040765855,0.00649358,0.014127294,0.004423941,-0.00024119944,0.012170099,0.0021779893,0.005593574,0.0011129582,0.003994884,0.0035026108,0.009049294,0.0067055314,0.009788201,0.006380797,-0.006194698,0.0071693854,0.007603878,0.006264954,0.00056105584,0.0034684523,0.01214574,0.0053553893,0.009882027,0.009893004,0.0019274845,-0.0014319186,-0.0018381122,0.004574243,0.010883637,0.007260133,-0.0013309658,-0.0005875674,0.004882607,0.0043175276,0.0071198707,-0.0002683759,-0.0023952215,0.016015565,0.0037461708,0.002309518,0.00083148456,-0.005616367,0.006785055,-0.0034212791,0.004667745,0.0008696636,0.0069751577,0.004655334,0.005826665,0.00617696,0.0072537726,0.009307627,0.013580476,0.0038271404,-0.0040983753,0.0037771703,-0.0038780496,0.0006474791,-0.0071423147,-0.00034054098,0.0067889336,-0.001860863,0.0025073527,0.006607892,0.0076743346,-0.0011264731,0.006306355,-0.004030389,0.004364056,0.010046419,-0.005444199,0.0020202277,0.009432254,0.0016083568,0.005736064,0.0028389548,-0.0012743253,0.0068094265,0.007221905,0.009996311,-0.003271424,0.0067064445,0.0046138237,0.0046734908,-0.0036700426,0.00540457,0.003436641,0.0023095987,0.014988403,0.008188101,0.00645115,0.0017872656,0.0058325683,-0.007113623,-0.0036538478,0.00511961,0.0028076903,0.004485809,-0.0042975573,0.011780883,-0.002740532,0.002086118,0.010614004,0.008532877,0.012097947,0.007908868,-0.002300776,0.008825868,0.0055926195,0.0070569604,0.00404312,0.003831458,0.007047312,-0.0029581983,0.008545801,0.0070855976,0.01061668,-0.0039626122,0.0039972574,-0.0039124964,0.010060131,0.010260294,-0.0019772286,-0.0046423418,0.00096370117,0.0031016348,0.0005505996,0.010703642,-0.004490901,-0.0054548285,-0.0032274805,0.0021641725,0.008369488,0.002954004,0.005777305,0.0034664413,0.011144099,-0.0046441723,0.005309202,-0.0013687272,0.00023542657,0.0061846934,-0.0023791876,0.0063193697,-0.00072785246,0.0038805623,-0.0048681092,-0.0052143573,0.0064908797,-0.0020101683,-0.005703219,-0.0058854334,-0.00030322126,-0.007943857,-0.0041088643,0.00518399,-0.008148415,0.006140577,0.0061597894,0.0063287434,0.008119305,-0.0014739921,-0.006864896,0.010781922,0.002395772,-0.006350757,0.0005165475,-0.0045428444,-0.0054246224,0.005139008,0.00004291015,-0.0014501422,0.0051180795,0.008119802,0.0071066953,0.0036537074,-0.0042694574,0.0075889155,0.010991469,0.0052936603,0.007088483,-0.0026292047,0.008282488,0.004969208,0.01151345,0.0021204879,0.0040684943,-0.0025655162,-0.0021814804,0.0019593602,-0.0041889097,0.0005327447,0.0033681781,-0.0035462072,0.008871549,0.0032192583,0.00653785,-0.0032456801,0.009363141,0.01482549,-0.0061489097,-0.0021486129,0.004272006,0.001615563,0.0043457607,0.0056729703,0.011073293,0.010233474,0.01218552,-0.0037705242,-0.0046144756,0.0015771743,0.0024905112,0.0036622824,0.010171728,0.0057728835,0.0015137134,0.011424889,0.008218783,0.009290281,0.008992019,0.011621571,0.007852976,-0.0011890739,-0.0019337303,-0.0019778153,0.0065609487,0.009045867,0.011329301,0.0022850235,0.008969442,0.0043584146,0.016411113,-0.0010830036,0.0007064708,0.012301989,0.0013377825,0.010318586,0.015150438,-0.0035398335,0.0021120952,-0.0009397589,-0.002481977,0.0047340253,0.0024991338,0.0061335745,-0.00101687,0.0038124598,0.0069187917,-0.0060851905,-0.0016255553,-0.000143113,0.003760295,0.0062965816,0.0066855685,0.00033609758,0.004652902,-0.0008527138,0.0076859207,-0.0024997734,0.004883614,0.0047667623,0.0028869915,-0.006414869,-0.007154944,0.0042163804,0.0063415226,-0.0059171827,-0.001883811,-0.002926228,-0.0022353942,0.0075021535,0.010979504,0.0070908736,0.010927246,-0.0025837503,0.0044296496,0.0026844179,0.010068069,-0.0033762404,0.010769912,0.0038465026,0.009421307,0.0069223666,0.010340221,0.010972197,0.00270942,0.00584886,0.005897597,-0.004131308,0.00410068,-0.0015923763,-0.0026426413,0.0035471006,0.00984131,-0.0062588523,0.005622028,0.005343888,0.003426457,0.009799182,0.0037217054,0.0025000174,0.0007831252,-0.00069685845,0.0057240487,0.012198592,-0.0028605019,0.0071564945,-0.0026730273,0.005910143,-0.00788418,0.0005323053,-0.005144345,-0.002069002,0.006070738,-0.0029246437,0.011109265,0.0006951404,0.0010623191,-0.0037783047,-0.004204173,-0.0064962017,0.0022744904,0.005744976,-0.0048988126,-0.0033961665,0.00013513767,-0.0028538401,-0.002554306,0.007852745,-0.0028891407,-0.002417409,-0.007050718,0.0017395223,0.0050079487,0.0059055844,-0.007293361,0.0062547945,-0.0024114787,0.008931004,-0.0030476064,0.00022967836,-0.001500075,-0.00041342666,0.0032882283,0.0070488164,0.009684259,-0.0010273621,0.0029937292,-0.0040869345,0.002517732,0.0066403616,0.006270622,-0.003955951,0.0052735927,-0.0012633571,0.00043754585,0.009051052,0.009106569,-0.0043013636,0.0017955917,-0.0023651777,0.009160013,-0.0018379994,0.00933554,-0.0059464225,0.0009322939,0.009051012,0.0052376483,-0.0042413147,-0.0052283052,0.009093078,-0.005946772,0.00044438918,-0.0029171642,0.0060180905,0.00052769034,0.0071510887,0.004033278,0.009963292,0.0033915986,0.00396409,0.00046405685,0.0050260075,-0.006004595,0.009331039,-0.0048519787,-0.0017615015,0.0059022927,0.0034420362,0.0054675904,0.008727495,-0.004571927,0.0073199538,0.013446476,0.009123784,-0.003392393,0.011979984,0.008420947,-0.0021733074,0.010425606,0.0070964326,0.009593842,0.010279185,0.0076564606,0.0027744076,0.0009289333,0.0063962047,-0.0024248622,0.00021225975,0.00021466069,0.013430762,0.009977467,0.0065077865,0.0037707917,0.0012434472,0.0036684931,0.0019294048,0.0058637904,-0.0022619471,0.00784049,0.016858095,0.0038961757,0.009558373,0.010098685,0.008869981,0.0061616483,0.0020179688,0.0011995202,0.0031506955,0.0025567303,0.00537153,0.005448059,0.0058957003,-0.0016794262,0.002427461,-0.0008752315,0.009209748,0.00073222554,0.007984164,0.007031816,-0.0033813925,-0.006224097,-0.003925441,0.003150333,0.006216912,0.0030441252,-0.0059059467,0.0017981067,0.0041116304,0.0090536615,0.0019369039,-0.006403248,0.00029145431,0.0033747416,0.0037815867,-0.008399077,0.008796408,0.010267382,-0.006653484,0.0053716674,0.008687186,-0.007410223,0.001722605,-0.0000467949,0.0029177237,0.010341921,-0.0020553174,0.010435085,0.0026196407,0.0038238494,-0.001738245,0.008019314,0.014541329,0.010907922,0.015283357,0.0035007284,0.009583168,0.008121859,0.0042531285,0.011627215,-0.0026505617,0.0045123072,0.0073281107,0.0024950076,0.0006999924,0.004404239,0.009784779,0.009821689,0.004332988,-0.0048779924,0.0022501135,0.004119104,0.0063869446,0.0054318556,0.0028116615,0.011892576,-0.0022189522,0.012032324,0.012608384,0.0022397102,0.013283778,-0.0061003016,-0.00026362686,0.0046892255,0.0062069264,-0.0012057946,0.010621166,0.001873073,0.011212678,-0.0015059797,0.004967604,0.0026335742,0.010986451,0.0021391134,0.000005004002,0.011981641,-0.00006784808,0.004995235,0.008114033,-0.0004012919,0.0048626126,-0.007126763,0.0006743536,-0.0070110587,-0.006930119,0.0019615116,0.0011507183,0.0024163146,-0.0027569113,0.0039620907,0.007543722,0.005011311,0.0022730255,-0.000036721405,0.0013499382,0.002915152,-0.0013980329,0.0011258714,0.0020502778,-0.009918822,0.003394213,-0.007683993,0.005170155,0.004822056,-0.006054116,-0.0009340249,0.0046560164,-0.0050356467,0.007199555,0.01089379,0.008700238,-0.0070178164,0.004135901,-0.00059142127,-0.0025217822,0.011453881,0.0013048297,0.0027328115,0.00007552031,0.004259275,0.009127065,-0.0022173033,-0.0034312408,-0.0009798668,0.011358622,-0.00064672425,0.0069597247,0.0039324397,-0.0058726687,-0.0038744966,-0.004413843,0.007388331,0.004455016,-0.00023850951,0.0017290835,0.0009061414,0.0012107689,-0.0047519947,0.007591201,-0.0034520477,-0.0065651285,-0.00033630186,-0.00310987,-0.008961313,0.0010339062,0.004447955,-0.005815699,0.0051596356,-0.0007368008,0.00003754903,-0.0012759741,-0.0003920953,9.365037e-7,-0.005836938,-0.000632665,0.0050508105,0.0073091704,-0.001069699,0.008082241,0.0075748423,0.0013273568,-0.0014307919,0.00039057515,0.010385372,0.007958744,0.010535058,0.00047574885,-0.008187739,-0.00087626616,0.0056902687,-0.0068649715,0.005584588,-0.0011339237,-0.002680336,0.009798881,0.010972511,0.0052007614,-0.006175423,0.012035402,0.0044296617,0.0037003749,0.01259813,0.01110329,0.012408219,-0.0025412757,0.010320452,0.0066968217,0.0032827212,0.0080359895,0.013045678,0.0071302583,0.0035115543,-0.0016496384,0.0011134978,-0.0039029876,0.0007955701,-0.0041677463,0.0032387604,0.0057178754,0.0019358144,0.008424089,-0.004122231,-0.00089496304,-0.0030228663,0.004084616,-0.0018141889,0.009905677,-0.002164027,0.0063006375,0.005567101,0.0009773088,0.012731781,-0.0003578137,0.0072801556,-0.0053727967,0.00050265214,-0.008630983,0.0033120401,0.010776309,-0.0015550485,0.0065808333,-0.0013284817,-0.004853678,0.010218005,0.011127427,0.0018445408,0.0025921508,0.01229172,0.00858156,-0.0046198894,0.007392693,0.011005966,0.00934068,0.0050699604,0.0007131455,0.00049709267,-0.0006817535,0.00366979,0.002568427,0.004179108,0.00428827,0.0055289264,0.006965183,0.0032416927,0.00042551386,0.0036246572,0.0003326861,0.0019036173,-0.003911094,0.0094438605,-0.0041290782,0.002419002,0.005013592,0.001333674,0.004595577,0.0007474502,0.007477211,0.005459529,0.0019385151,0.00832698,0.00493789,0.0018396791,-0.003031279,0.0015735958,-0.0022977805,-0.002047692,-0.0016920195,0.00747283,0.008242872,0.0042314613,-0.0008107014,0.0014678055,0.0043389895,-0.0028968197,-0.00008279146,0.0039686193,-0.009298076,-0.0024632718,-0.008391118,0.00264351,0.0069648516,0.0046927803,0.006398206,0.007001405,-0.001601417,-0.0089537185,-0.0038259001,-0.0015299653,0.005607389,0.00080910046,-0.0021060104,-0.0024758982,0.004717736,0.005658457,0.005950886,-0.0029679288,-0.0044882996,0.002756313,-0.0049895416,0.0075139827,-0.007266804,-0.0006387784,0.0016846753,-0.001267495,0.00042314242,-0.002979821,-0.00142592,-0.0041381423,0.00076137285,0.008164691,0.0040415293,-0.0077316305,-0.0070335683,0.0039127646,-0.009003531,0.0031805981,0.0032296486,-0.0049818307,0.0029043828,-0.002043226,0.0016608085,0.0059891534,0.010412697,0.0013872357,-0.0064540757,0.0008190066,-0.0007157631,-0.00080956036,0.010032383,-0.0073579256,-0.0059979116,0.011970918,-0.0072317803,-0.005482941,-0.0002838169,-0.0034694045,0.004633526,0.010518952,-0.0031602215,0.0019921216,0.0026539965,-0.000564021,0.005223278,0.010893004,-0.0007077712,0.009275809,0.0037862726,-0.0014572584,-0.0031703888,0.01080362,0.004260386,-0.0053720414,0.004107817,-0.0041180244,0.0068697063,0.008328955,0.0108477445,0.0034368436,0.010903399,0.00097086834,-0.004424349,0.007919548,0.0012486392,0.012805365,0.008864208,-0.0012568135,0.0020714467,0.0034136074,0.0015637779,-0.0024728323,-0.004473469,0.008579317,-0.0069067096,-0.0017668612,0.012916242,0.0110342875,0.0073496904,0.0099399,0.0058110333,0.012047843,0.012514403,-0.0038892438,-0.002182094,0.00091774145,0.0027982625,0.010685672,-0.002490801,0.0006088787,0.008463822,-0.0009097552,0.008822269,-0.0042941864,0.003259551,0.0012296385,0.003994761,0.0022761398,0.0043906583,0.012592015,-0.00090430514,0.0043452354,0.0022405589,-0.002985258,0.006446313,0.013122258,-0.0020085045,0.0038389093,0.009158227,-0.004192976,-0.0026624287,-0.004199548,-0.003622891,-0.009130582,-0.0036516574,0.0002707028,0.0025670398,0.0015127191,0.0018230187,0.0059727007,0.008937288,-0.00016675172,0.006244405,-0.0026123375,0.00081882905,-0.003284296,0.008423463,0.0026055533,0.0132671045,-0.0064595276,0.009723802,0.00022993358,-0.00020197805,0.008360044,-0.0034286163,0.00034007264,0.0009220767,0.012666474,-0.005107506,-0.0009586936,0.01310571,0.0075141643,-0.0028172745,-0.004731312,-0.004538242,0.00787933,0.0049320417,-0.0056208763,0.008242355,0.00643245,-0.0055183624,0.0059774234,-0.007903913,-0.0017613362,-0.0034673912,-0.0025737437,0.008723925,0.005665661,0.00069905224,0.0062325434,-0.0047714426,-0.0059339525,0.008597218,-0.007643472,0.008216565,-0.0024809896,-0.007053887,-0.00920513,0.009925007,-0.0072252364,0.0030818598,-0.004740296,-0.0007399163,0.0007535932,-0.0012491072,-0.0059407675,0.0021479346,0.007687358,-0.003497163,-0.008255042,0.00878304,0.0013552172,0.0041479366,-0.007090201,-0.0067114113,0.0034404746,-0.004002303,0.0055610514,-0.010970138,-0.0007817748,-0.003713147,-0.00817161,0.0015530974,-0.0068498286,0.00042318983,0.0029874034,-0.00079940935,-0.0025075816,0.00907629,0.004427871,0.009987122,-0.003182148,0.006692222,-0.003740772,0.008367961,-0.007999193,-0.00041939993,0.004565988,-0.0071663335,-0.0059104594,-0.0053917645,0.0028159868,0.0039608916,-0.0007702044,-0.0037237022,0.011658933,0.008418863,0.0025775502,-0.0025676112,0.004701214,-0.00067281205,0.0037738378,0.001162725,-0.0058913967,0.009472854,-0.0044160974,-0.0063395193,0.0026689614,0.0067337947,-0.009783104,-0.0028025128,0.0018904388,0.00090267695,0.00011980389,0.00501429,-0.0045724344,-0.0013111257,-0.0023706974,-0.005601696,0.011416981,0.0012707785,0.008014921,0.0036624784,0.0043032453,-0.0060642925,-0.0010051787,0.01023528,0.007354756,0.0019554184,0.01275225,-0.0036572143,-0.00027851015,0.0003499469,-0.004162849,0.004469589,0.007374585,-0.004932416,0.009088591,0.010208057,0.008602976,0.0010069729,0.0033562768,-0.007359803,0.004381865,-0.003411566,0.007897598,0.0048820614,0.004831956,-0.0019284039,0.0014191046,0.008459223,0.011503854,0.0035210967,0.0031027661,-0.0035681422,0.012666977,0.0015155976,-0.0033941274,0.0058943145,-0.0016626678,-0.0011174189,-0.0033758795,-0.0047591496,0.008601974,0.007350826,0.0022948564,0.003963638,-0.0027345358,0.0010533165,0.00904786,0.005791848,0.0065698,0.0006119453,0.008830583,0.011505904,-0.00047749022,-0.001875133,0.0011559053,0.0046962933,0.010039247,0.0026580633,0.0037034675,0.0061124424,-0.00093271735,0.00670419,0.004831573,-0.0014773612,0.010530188,0.01072452,0.010101373,0.0028407492,0.0038946085,0.0036130275,0.0015176525,0.0057007764,-0.004081134,0.0019092171,0.0075058416,-0.003472287,0.0009990041,0.01239688,0.0048567196,0.0022397302,0.0015919778,0.0045082383,-0.0031771904,0.0037430783,0.0054676034,0.007354982,0.01138646,-0.007820206,0.00043678164,0.007437518,-0.0057851104,0.007626814,0.009879332,-0.0025256854,0.008892781,0.008371674,-0.004582282,0.0028865924,0.005415186,0.003553356,-0.0024104144,-0.002542696,0.0032491183,0.004963411,0.0010036513,0.0072595472,-0.00028423456,0.00026259437,0.0072234683,-0.0003116227,0.0040422743,0.00018037,0.0016648072,-0.004649214,-0.00014732139,-0.004805809,-0.006743588,0.008962378,0.0064917943,-0.011135823,0.00067873346,0.0040888493,-0.01070867,0.00067346904,0.008799149,-0.011457606,0.0014911405,0.0035980064,-0.0037727612,0.008713391,-0.007916435,-0.0071991426,0.0061966954,-0.0117637925,-0.00037422814,0.0068841767,-0.0012174505,0.004347618,0.0072987494,-0.0038893302,-0.0019925858,0.0075456235,-0.004375815,-0.0039095446,0.011333581,0.0051198597,0.0011435482,-0.0015675101,-0.0009574713,-0.003250721,0.0024720493,0.0049991044,0.0017819698,-0.0017221861,-0.0026489526,0.00082233053,0.012595478,-0.0049777455,0.006272527,-0.002554626,0.0070606614,-0.0062119756,-0.0027177685,-0.0000739046,0.0066693374,0.0008715271,-0.0040298416,0.00597656,0.0011880912,0.008542028,-0.0025522998,0.00865553,-0.007663092,-0.00815282,0.007452607,0.000247144,-0.0089548575,-0.003707452,-0.0038104584,0.005654214,0.0032871112,-0.0009267791,-0.006123103,-0.0029115449,-0.004209675,0.0045917425,-0.0007290454,0.009399823,0.000007728635,-0.0010118065,-0.00014706678,-0.0040828884,-0.0017368533,-0.0068202503,-0.005422414,0.0029357567,0.00310088,0.0083485665,0.010917828,0.011128794,0.011817043,-0.0031887083,0.0038496123,-0.004073587,0.009029045,0.008636211,-0.0051014135,0.006131119,-0.0031555735,0.002963169,0.0038372814,-0.00047161581,0.00012828156,0.0029831694,0.008011751,0.0015629388,-0.005160588,0.011517638,-0.0019090695,-0.0014898223,0.0059779887,-0.002288842,0.0002806281,-0.0005840822,0.0006987167,0.005122518,0.007966032,0.0013952296,0.0065568476,-0.003020767,0.00026460367,0.0030537974,0.0053791944,-0.0016974617,0.011210595,0.0028593342,0.008219285,0.0045024226,0.0051199533,-0.006006019,0.0031093406,-0.0028627492,-0.0018353156,-0.003088016,0.010347094,0.011188334,0.010542372,0.002006435,0.011362146,0.0043971664,0.0019847981,-0.0011102646,0.008455185,-0.0038842561,0.007941016,0.0042025098,-0.00024672452,0.002933269,0.004373107,-0.0011881284,0.008139094,0.0015979566,0.0011159906,-0.0041469806,0.0074985866,0.0006714937,0.01258463,-0.00110228,-0.0010991994,0.0027853597,-0.008990765,0.0016605286,0.009525864,-0.0071890466,0.011550841,0.0001754764,0.007139813,0.008537894,0.012653308,0.0038162104,0.004123149,-0.0026847546,-0.0039022882,-0.00011523469,0.00565321,0.0040980615,-0.0013428967,-0.0028085564,-0.0033142986,0.006968131,0.0018576594,0.004899829,-0.00636939,0.00028713624,-0.0043215808,-0.0012960312,-0.010629173,-0.0011550931,0.007056675,0.004343313,-0.0028941191,-0.0050324677,0.0064736805,-0.0060817953,-0.0067135505,-0.0023339235,0.00076707505,-0.0031208142,-0.0115832025,-0.0075856354,-0.0015541323,-0.013917831,0.010420359,0.00486067,-0.0032620651,-0.001997866,-0.0049765366,0.0044526528,0.008513272,0.0021629443,0.0057221125,0.009798287,-0.0036870383,-0.009148129,-0.00107513,-0.0056149256,-0.009718559,0.004814427,-0.0045870426,-0.012623431,0.0034408013,-0.005618994,-0.003944137,0.008349439,0.003100265,-0.0022894547,0.011276991,0.008572143,-0.0040458404,0.007126451,0.003017424,0.0058918856,-0.0030521122,-0.0045998995,0.0030168698,0.006740306,-0.008255738,-0.0055706524,0.009628572,0.006328318,-0.0022619555,0.00626469,-0.0053539397,-0.00050300953,0.011302744,0.0068743727,0.008752868,0.008532767,-0.0046905293,-0.0015806849,0.0081447745,-0.00027940815,0.0010311911,-0.0036188643,0.0071917223,0.0046098856,0.004241687,-0.004662136,-0.0027463217,-0.006224746,-0.004128769,0.0025065504,0.0004090632,-0.00083284976,-0.0007041271,0.012316106,-0.0041636685,-0.0001723266,0.004094967,-0.00035435686,0.0020982202,0.012793142,-0.005115703,-0.0052413675,0.012633421,-0.0037747605,-0.005376554,0.007066128,-0.0029689262,0.006066061,0.0018355584,0.0032568604,0.0130548775,0.010571315,0.005723911,0.003121961,0.0014091505,0.0070707616,0.0010185222,-0.0019396568,0.010174411,0.0017910374,0.005421613,0.009009651,-0.0049657896,0.0022124771,0.0035219495,0.0016328823,0.008329207,0.009365563,0.0010645485,-0.0042216415,0.0060449042,-0.0043814387,0.000053929416,0.011689016,0.005932123,0.00032798704,0.012003768,0.0064342045,0.0026671942,0.015723536,0.008056059,0.0045594573,0.009557128,0.011275011,0.009905897,0.0027706143,0.009911058,0.010860687,0.0031088027,0.0057321503,0.008821177,0.012107897,0.0009616756,0.008361172,0.002256551,0.002516758,0.0014277983,-0.0041582994,-0.0043627033,-0.0081609385,0.0075125843,-0.009269821,0.008364305,0.0017341275,0.007903538,0.0007624557,0.0026649176,0.0014376855,0.009199327,-0.0024545477,-0.0015105958,-0.0030521695,-0.0011357226,0.004273863,-0.0039862082,-0.0014617031,-0.0012289529,0.0068880348,0.0077932775,0.005103934,0.0075621842,-0.005992816,0.005668027,0.00028576385,0.0070225904,0.0051367222,0.0052210186,0.0015046338,0.005578621,-0.0031920113,-0.0001398726,0.007131783,-0.0067997403,-0.000937013,-0.006504859,-0.0053325268,0.0055389134,-0.008639922,-0.0041946513,-0.0069268174,-0.0062894872,-0.0040848576,-0.002782705,0.0025657732,-0.0064359796,0.0035184706,0.004286423,0.005925355,0.004137489,0.00481801,0.0086670825,-0.0034963654,0.0044721356,0.005695923,-0.0007601478,-0.0017797113,-0.0024352095,-0.0024292748,-0.005781459,0.00092719233,0.0070527634,-0.008328067,0.00254365,0.011142003,-0.003292722,0.009801293,-0.0057385834,-0.0018770777,-0.0028034712,-0.006380853,-0.002258854,0.0014908809,0.0004669554,0.00013428545,0.0076138405,-0.009029979,-0.009417522,0.009688427,0.0039344546,-0.0064846757,0.011076873,0.0022036664,-0.006506046,0.010964059,-0.008101852,-0.0010747585,0.0040628808,0.008243948,0.007960693,-0.0024806035,-0.00069822173,0.0034463024,0.0054985457,0.0048281597,0.0035023321,-0.0017126524,-0.0024903612,0.00024114159,0.008234296,0.0075856824,-0.0038032506,0.012094543,0.0033205713,0.0070863757,0.008342599,-0.0043852287,-0.004252965,0.008956151,-0.00042070658,-0.00032449132,0.0016372032,-0.0033651907,-0.0051147942,0.0068547707,-0.0065723485,-0.0032037846,-0.002881257,-0.0034473897,0.00041153145,0.011420425,0.004167847,-0.0040804744,0.005348602,-0.0023664627,-0.003461156,-0.005432417,-0.0028155071,0.001137185,0.009540782,0.00007621174,0.0076469476,-0.0042930143,-0.0060644196,0.001795802,0.0021861768,0.007260451,0.0061239973,0.007957439,0.0055215005,0.010972988,0.0060391296,0.0059560807,0.0060306615,-0.0047002463,0.005066886,-0.0024838585,0.012229143,0.0011303884,-0.0008062643,0.001016836,-0.0015713228,-0.00083992217,-0.005239391,0.00048981566,-0.005493267,0.0065967645,0.005253299,0.0038056758,0.011007741,-0.0013642627,-0.0006469844,-0.00059711206,-0.0031441257,0.0068758097,-0.004484997,-0.000087611785,-0.0004888322,0.014603562,-0.0011264972,0.008467633,0.01545345,0.0035280245,0.009106496,0.014947214,0.000099721205,-0.0030976376,0.009809186,-0.002616679,0.011721575,-0.0032114543,0.004837283,0.005841107,-0.00025673583,0.012408608,0.0011322867,0.005139525,0.006178919,0.012419693,-0.005876798,0.0019827543,-0.0031352867,0.0050417944,0.0016245197,-0.0047507547,0.00901186,0.0046639713,0.0038755704,-0.00384464,0.0032076503,0.0070305686,-0.00327093,-0.0014395933,-0.0039700377,0.0063086497,0.00690403,-0.0012309533,-0.008476937,-0.0044111665,0.005394335,-0.003066501,-0.0077076433,0.005336287,-0.0042746766,-0.0021771088,-0.006062124,-0.003174082,0.0036483863,0.0034832174,0.00014655096,0.0017623381,-0.0002571456,0.0031557507,-0.002993245,-0.004339247,0.00875472,-0.0052662287,-0.006689192,0.00079773297,0.00062604476,0.0008255857,-0.0036161013,0.008894044,0.007436521,0.005091615,0.0054097893,0.0068298373,-0.00079341826,0.00086256315,-0.00241593,-0.0033097551,0.006782814,-0.0047780117,-0.0028456128,0.008093489,-0.005617675,-0.009371788,0.00602387,-0.0031154337,0.004982728,0.0084618535,0.002689122,0.0058058454,0.0076741106,-0.0058305487,0.010877178,-0.0023267954,-0.0056821057,-0.0031361708,0.00352298,0.00565184,0.00977944,-0.0058518737,0.000101422316,-0.0016742264,0.008027297,0.006634813,0.0015454231,-0.0050668307,-0.005020778,0.011862588,0.0056887935,0.005656905,0.011424849,0.005736637,-0.0033552963,0.008140258,0.002549855,0.008778779,0.0011561001,-0.004604349,-0.0031797527,-0.0054310635,-0.005741107,0.00938936,0.00023858226,0.00324498,0.008485463,-0.0032689986,0.0016939348,0.010436147,0.013672748,-0.0058392314,0.00604999,-0.0026776723,-0.004386664,0.0066652778,-0.002715887,0.0029083735,0.008409214,0.0012965314,-0.0059372806,0.0054371706,0.006995226,0.0038134821,-0.0069998293,0.0050856164,-0.00021179389,-0.0018281419,-0.0025779735,0.005877226,-0.0055249375,-0.00090533355,-0.005274378,0.003075657,-0.001664503,-0.003284227,0.0073429467,0.005588493,0.0071096,0.0068043945,0.004091289,0.0008206179,0.0071239085,0.0028985671,0.0023360683,0.009453679,-0.00054049474,-0.0031758596,0.0033376347,0.006070851,0.004211215,0.0058769686,-0.0048572384,0.0024618248,-0.0036081737,-0.0037744534,-0.004254137,0.0010954095,0.007857459,-0.00039930653,0.004510217,0.010621957,0.011707441,0.0019313163,0.002865037,-0.0021725495,0.0084467735,-0.0031285814,0.013323143,0.008849743,0.014068959,0.003656871,0.00619784,0.004595323,0.0077427686,0.0001540284,0.009202179,0.008465409,0.01168322,0.0035467558,0.013883796,0.009295684,0.0076907654,0.0013482595,0.010527568,0.01196433,0.005108709,-0.000041199244,0.0004192763,-0.0030033118,0.0026298151,0.0054579442,0.011523691,0.009599932,-0.002254276,-0.0026218046,0.007847305,0.006502745,0.007522875,0.009369217,0.0057134195,0.0035117706,-0.0073380983,0.0042955982,-0.0016169567,0.0031456738,0.0006012226,0.004165425,-0.008892782,-0.004286192,-0.004881451,-0.001502428,-0.002271593,0.009866378,-0.0048573036,-0.0065950505,-0.0013492281,-0.007077252,0.0036289222,-0.0056501282,0.0019622117,0.0021465565,0.0008439882,0.003041031,0.0028161486,-0.0026381875,0.0062764776,0.002413129,0.00009732621,0.0019953772,0.010738043,0.003687867,0.001198839,0.002484551,-0.0017518409,-0.0022193696,0.0073171444,0.0040823244,0.007175035,0.0070608594,-0.0057252827,-0.0012907778,0.0025136776,0.00043187622,0.009137217,-0.0038252573,-0.0005932427,0.00048152756,0.004033728,0.0027773273,0.005224956,-0.00064954656,-0.0065358896,-0.0005961394,-0.0037179468,0.005120567,-0.0047490653,-0.0066083143,-0.006869407,0.0024651978,0.007263829,-0.004696433,0.009063675,-0.0003970081,0.005351158,-0.002050837,-0.0015951142,-0.0028813148,0.0030275146,-0.00007641692,0.004056957,-0.0038852154,0.013479687,0.0050519705,-0.0023227744,-0.0011557936,-0.000619602,-0.0038555253,0.0054695588,-0.006084788,0.009173369,0.013533391,0.008461956,0.0060702474,0.0049165636,-0.006070922,0.0008830744,-0.0016693615,-0.006721438,0.0026206833,0.0055110916,0.003752062,0.0038242792,0.008369261,-0.0032730398,0.0029875827,0.0064975275,0.008028756,0.009074832,0.0010054325,0.007950559,0.00670832,0.014771503,0.003118883,0.0012727627,0.011651736,0.003097377,0.004560521,0.000039975897,-0.005073682,0.0026545154,-0.0013460269,0.009766382,-0.0035964062,0.010567771,-0.0033080832,0.009997014,0.0051522907,0.0063170707,-0.004573674,0.0055545126,0.0026432225,0.008931776,0.0066682524,-0.0068198796,-0.004807201,0.0070430045,-0.0024458852,-0.011068618,-0.0017584127,-0.007919815,-0.005333191,-0.0077201216,-0.0047404864,-0.00897372,0.003880316,-0.0003533961,0.0010885417,-0.0051026144,0.0020440824,0.004983636,0.0027413657,-0.003281169,0.0023159266,0.011067188,0.002918119,0.008623504,0.008060472,0.007344115,0.0089146895,-0.0054471903,-0.0009662741,0.0029021113,-0.0021203014,-0.0045663617,0.0032642893,-0.003829108,-0.0056186994,0.000777278,0.011179303,0.007999493,0.002481339,-0.004202357,-0.002690419,0.004036761,-0.0009365687,-0.00017256633,0.01084878,0.0067069638,0.009961188,0.0063828453,0.009028949,0.0075636227,-0.00024465137,-0.0015834605,0.010913679,0.009327628,0.008981905,0.004003288,0.0068785483,-0.0031067869,0.01385569,0.010405028,0.008431239,0.013172406,0.007836833,0.009423427,0.010005424,0.009486322,-0.00036333298,-0.0015719882,-0.0082680285,0.0071569113,0.0046704486,0.0026580507,0.0038499685,0.0067205415,0.0039011678,-0.0030923989,0.0029917776,0.0039291107,0.0046949047,-0.0035017831,0.0038445469,-0.0034627619,-0.0013454845,-0.0020670344,-0.0021032388,-0.004443723,0.00018548891,0.0037402422,-0.00456411,-0.00067832315,-0.0011508963,-0.005242433,-0.00097147876,-0.002620478,-0.0006628718,0.0050090495,-0.0005678449,0.0030643712,0.008849798,0.00032311244,0.011682873,-0.0009772942,0.00506907,-0.0020395499,0.009414802,-0.0008257927,0.0047199805,-0.003920369,0.00757742,-0.0031264182,0.0053078756,0.0011806216,-0.0045478297,0.0041602612,0.0040723584,-0.0041247415,0.0012956243,0.008064141,0.0060413256,0.000451541,0.0030893697,-0.0015972332,0.008905211,0.008871049,0.0017407513,-0.000619302,0.004297433,0.002606422,-0.007809917,-0.0061576925,-0.0014269735,-0.0061131916,-0.00025577593,-0.0076416084,-0.000056939887,-0.0031796023,-0.00075436954,0.0073272265,0.011359928,0.000985652,0.00055240374,0.008505643,0.0019862596,0.0029619432,0.012730677,0.008202621,0.008273054,0.013333108,0.005258377,0.0033854155,0.0014438258,-0.0051051714,0.0033844637,0.008748289,-0.0032916758,0.00007519568,0.011715965,0.0056290273,0.0012577865,0.012488898,0.00044534434,0.0063937507,-0.004350538,-0.0073907836,0.0009780644,-0.0007322369,-0.008380065,-0.00208862,0.000432632,-0.0024589875,0.009759775,-0.000508439,0.0045585437,0.0026960564,0.008942904,0.0003812733,0.000027697819,-0.0020449914,-0.0016212106,-0.0050438056,0.00035212643,-0.001238685,0.0092312,0.009963823,-0.0067067244,0.0035652865,-0.0040969895,-0.0025960181,-0.0030257008,-0.007185489,-0.0073055415,-0.008796516,0.0032989138,-0.011305216,-0.0038127627,0.0060033114,-0.0013568694,-0.00995786,-0.0003920701,-0.011237153,-0.011537546,-0.0014533101,-0.0032778105,-0.0035435348,-0.008172722,0.008600785,-0.0024447981,0.0010265793,-0.001296671,0.0034622862,0.004124985,0.00085174094,0.008929312,-0.0013950482,0.0033183687,-0.00030305784,-0.0049068984,0.0026716616,-0.003835667,-0.0074956883,-0.001480529,-0.0017444098,-0.007142481,0.0048531503,0.0028886336,-0.0002942888,0.008602706,0.00495167,0.0037701253,0.008953566,0.0033517613,0.0037290787,0.0075167404,0.009706083,-0.0030959018,0.00999001,0.002895834,-0.005048032,0.012182106,-0.002545874,-0.0038899675,0.0011562384,-0.001747517,0.0005493268,0.011199515,-0.0007566611,0.0030627965,0.005371682,-0.0044406084,0.009319979,0.008496258,-0.00022654304,0.0066783475,0.00077230454,-0.0021736317,0.008870383,-0.0013446867,0.007531506,0.0006709436,0.003707749,0.008749728,0.00024688026,0.012426923,-0.0006833812,0.0001712382,-0.0057902797,-0.0074204723,-0.00008511819,0.008606735,-0.0026639048,-0.0005376739,-0.0060263225,0.004095448,-0.003940472,-0.0071989656,-0.004458219,-0.00074883155,0.005223528,-0.0065640984,-0.009574274,-0.0009960235,0.004664176,-0.0052235066,0.001679669,0.007665034,-0.00044463985,-0.00025496664,-0.0020703722,0.011185302,0.0100685675,0.008814361,0.009058339,0.0045770444,0.0062164147,-0.0048782574,0.0036213147,-0.006878919,0.0004653706,0.0016629075,-0.006695108,0.00061134517,0.012221237,-0.0031334623,0.0067849536,0.0006037324,0.0071076863,-0.002255593,0.0044199144,0.0039524436,0.0098177595,-0.0011920078,-0.0041205976,0.004478058,0.010791851,-0.0015720594,0.011579159,0.0047024107,0.0049040383,-0.003985311,0.0071059233,0.0077200886,-0.0014009756,-0.0009226569,-0.0012423717,0.0051814625,-0.0045487816,0.006058885,0.007851145,-0.0063760155,0.0015764718,-0.0033683553,-0.0029138671,0.008207104,0.0059612854,0.0076452536,-0.006419815,0.00028072798,-0.0058598835,-0.005986283,0.010422895,-0.0023929572,0.0039014015,0.0049926955,-0.007230394,-0.007404118,-0.0018474534,-0.0076019857,0.007933305,-0.0032667588,0.004432649,-0.007820354,0.0066507654,0.006300988,-0.0050900714,-0.0027873002,-0.0056361407,-0.0084960135,-0.002303771,-0.0062382347,-0.0016828278,0.011686557,0.0063609774,0.009065939,0.0012799386,0.0006311424,0.0056776246,0.009643956,0.009469889,-0.0039431904,0.0052568247,0.0034721068,-0.002550911,0.0027464356,-0.0029862646,-0.004403861,-0.004363826,-0.004457331,-0.0057722395,0.0030284105,-0.005800158,-0.0045496975,-0.0061661755,-0.002435547,-0.0023975014,-0.0021880888,-0.009224513,-0.0033016284,-0.0043081944,-0.00011188211,-0.010594187,0.0004908993,-0.006698424,-0.00610788,0.011548679,0.0031254995,-0.0017039023,0.0027661195,0.0066873105,0.001324676,0.006933638,-0.0004978918,0.0023277986,-0.007749007,-0.0015826137,0.010805428,-0.002107642,0.0068734153,-0.0024374132,0.0066462113,0.007850644,0.0043109823,0.009420885,0.008956845,0.010775967,0.0040476783,0.007969681,0.008940769,0.00014819224,0.0019015884,-0.0017016679,0.007534052,-0.0032923408,0.0009814531,0.005875072,-0.0019020593,0.0022586016,-0.0050793197,0.004501983,0.008685099,-0.0012392293,0.0016722851,0.0054657543,-0.00079523964,0.0015145609,-0.0014331808,0.0051170196,-0.0017264818,-0.0054284004,0.006951046,0.0013874325,-0.001235799,-0.0044604074,0.009223748,0.0031716723,-0.0029473081,0.00069874903,-0.00029407765,0.00923773,0.004832358,0.009498062,-0.006237479,0.0024021363,0.002821335,-0.005012037,0.0042332043,0.0010029824,-0.006462269,-0.0016469096,-0.0005843954,0.009393436,-0.0025389523,0.0059905583,-0.0015223211,0.008863896,-0.0043133395,-0.005645157,-0.0063149068,0.0058197496,0.007979362,-0.00034160554,0.004255297,0.008368428,0.0072429865,-0.0036154967,0.004199277,0.0052967058,-0.004077531,0.004434278,-0.006323695,0.009634322,-0.0016691281,0.004318718,0.0012447373,0.010697163,0.009104868,0.008387613,-0.0025647564,0.0090851085,0.009042538,0.0040339804,0.008538996,-0.005594913,0.00030502747,0.00041455415,-0.0064719627,-0.004974674,0.011979879,0.010000254,-0.001799761,0.00086757477,0.0086830165,0.013168302,0.0018150008,0.005561084,0.011749019,0.013849237,-0.0020791108,0.005181987,0.004858652,-0.00031473426,-0.0012348915,0.003676341,-0.00451499,-0.007493563,0.0007839977,-0.000107052154,0.001039332,0.0028531565,-0.007371253,-0.0031383187,-0.004110982,-0.0027854864,0.009987413,0.009295801,0.005650514,0.005493811,-0.0048090015,0.0056284126,0.00066171883,0.0015024913,-0.004300943,0.00066587236,0.0053684195,-0.0028017294,0.005936207,0.0029175822,0.010430166,0.0049206647,-0.0008603912,0.0049763783,0.011704708,-0.005398331,0.00031335704,-0.0024652705,-0.004174144,0.008886274,0.0077397437,-0.0042188764,0.00025903186,0.0026867082,0.009860014,-0.00093483937,0.0008834142,-0.005051256,-0.005037517,0.011080663,0.0033901501,-0.002191626,0.0102582015,0.005700265,0.00079369434,0.002274576,-0.00044769346,0.0054937694,0.00486057,-0.0073360675,-0.0048933993,-0.0031290718,-0.001218484,0.005106588,0.0019072124,-0.0039607864,0.003921888,-0.003761646,-0.0072892434,0.0034311535,-0.0040513137,-0.0045398534,-0.004175163,-0.00020276385,0.0037882791,-0.00876836,0.0017580483,0.0017058599,-0.0028098195,-0.0013437944,-0.0064023873,-0.0030205052,0.002072472,0.009708472,0.0063313227,0.0066957385,0.0031325314,0.003665676,-0.0050105057,0.0075060925,-0.0036963923,0.009919834,0.0060063065,-0.0007507967,0.0043112687,-0.000091972186,0.009124279,0.0073600803,-0.003978653,-0.005161564,0.0025458243,-0.005620297,0.0060050236,-0.00043308912,-0.002496697,-0.002641821,0.009735153,0.0030763159,0.0049701105,0.0032901794,-0.000121616904,0.0060795224,0.0059494106,0.0023826545,-0.002415661,-0.010007584,0.007532444,0.0043750824,-0.0066254595,0.0055707186,0.0068342835,0.006581733,0.0065090354,-0.004895598,-0.0041901604,0.010491437,-0.0028143078,0.0049878117,0.006526975,0.00034074413,-0.00014406285,0.0067515606,-0.00083386217,0.0024031515,0.0047697527,-0.0040808977,0.003333453,0.0042201825,0.0010738291,-0.0060205585,0.008624803,-0.00523122,0.0072227023,0.00016535337,0.007458818,-0.00095630926,-0.0045501203,-0.0071350634,-0.0044908365,0.00890038,-0.00005124131,-0.0026024864,-0.0058703925,-0.0033588533,-0.00037640953,0.008601534,0.007122554,0.00016643667,0.0011368953,-0.002949553,-0.002571289,0.008781001,0.0062342193,-0.005743295,0.007509341,0.006405748,0.0054131695,-0.0024132612,-0.0028224117,-0.005776688,-0.0026592757,0.002901189,-0.00095944555,-0.0028511141,-0.0018035761,0.007916426,0.011959361,0.008621328,0.010060904,0.012980533,0.009936604,0.00004443593,-0.001355925,0.0036881194,-0.00038615832,0.002170041,-0.0017894731,-0.0015858214,0.003901923,0.009656928,0.007584505,0.0004512285,0.0120716635,0.00996341,0.007467431,-0.00034876436,0.0060280417,0.0039052994,0.010106845,-0.007314006,0.006827877,-0.0016582592,0.0075543,0.0035549141,0.008767956,0.008439334,0.012795059,0.007184274,0.014185846,0.0015417164,-0.0021379653,-0.0009992877,-0.005169274,-0.0028262264,0.0035560445,0.0051198313,-0.0018518263,0.006509494,0.0059050885,0.008473432,0.0022213024,0.0042431154,-0.006863744,-0.0017949132,-0.006852694,0.007885629,0.0036740154,-0.0012227661,0.010863966,-0.0033107826,-0.0039299894,-0.0029372564,0.012540237,0.00271697,0.006781313,0.0028101357,0.006131914,0.006458178,0.0056611476,-0.007439408,0.008783739,0.0046606753,-0.0030955535,0.0052773813,-0.0031426996,0.007744296,0.0043759425,0.008232565,0.005113569,0.003720872,0.007534495,-0.0019492354,0.0042417073,0.010038633,-0.0067858174,-0.0040256884,-0.004896805,0.0014111463,0.0066271094,-0.0076694875,-0.008220004,0.0021028176,-0.0051394333,0.0006511643,-0.0035632183,-0.008425992,-0.009721204,0.0030274626,0.007550515,-0.008396242,0.0029080939,-0.0037741663,-0.0033195235,0.0001263454,0.0064355955,0.002925965,0.009916805,-0.009391543,-0.005714312,-0.0022807857,-0.0019513202,0.00711601,-0.0006808199,0.010893601,0.003172371,-0.007528286,-0.0063945707,0.009541726,0.0050348784,0.0049178647,0.00095850404,0.0008893869,0.005690848,0.008340955,-0.0022156194,0.004157211,-0.0011409599,0.008444268,0.00318042,-0.0077709774,0.0018323896,0.0059927953,0.008304365,0.0046255137,0.004272827,0.0036507382,0.0026412534,-0.0048438776,0.0037569574,-0.0020999913,-0.007633324,0.009299459,0.0074565294,0.0045225015,0.010655325,0.009689517,-0.0036336426,-0.0033086939,-0.004781896,-0.001015825,0.0030730902,0.0018506525,0.008280158,-0.0027506906,0.0030236016,0.007958942,0.01129511,-0.003675112,0.0106166955,0.004787386,0.0039440603,0.0047397413,-0.0034304224,-0.0067941,0.010560273,0.008786763,-0.0078789275,0.0017496205,0.013741384,-0.006363008,0.0022622545,0.007111762,-0.0035900378,-0.0035002395,0.0025002083,-0.001732674,0.008339818,0.00076072634,0.0117636835,0.008482351,0.008021798,-0.0017910679,0.006102843,-0.0013571162,-0.0032668684,0.004627277,-0.0013060548,0.0045690006,0.005949171,-0.0015429058,0.0076329373,0.0063698804,0.008187136,0.010157853,-0.004804584,-0.0042446107,0.0061228005,-0.0029391975,-0.0006531388,0.0057176584,0.0021933895,0.006925376,-0.0053862347,-0.0023523807,0.0070963176,0.010107535,0.003093959,-0.0013936592,0.0023274573,0.010816875,0.00023374673,0.00059682754,0.007909472,0.0064370614,-0.0033515468,0.0068135187,0.009816526,0.00050019234,-0.0020879079,0.010591597,-0.0026554938,-0.0035548555,0.006361404,-0.003012344,0.0007832167,0.0048732534,0.004030574,0.013683136,0.005903194,0.0005935945,-0.0007853446,-0.0060365745,0.0012239346,0.0085710045,0.00388612,-0.003639673,0.0030036408,-0.0004471989,-0.0017491275,-0.0010323015,-0.006829966,-0.0055207186,-0.0040196925,0.005463236,0.0016849223,-0.00044517728,0.00873092,-0.0013704344,0.003103355,0.00971553,-0.0024130195,0.0012751827,0.0048146723,-0.0042941645,0.003707364,0.00686256,-0.005149919,-0.0017133692,0.0033254777,-0.005283374,0.005565786,0.0071688583,-0.0018676583,0.0023371254,0.006138291,0.0037972461,-0.0032849314,-0.0068669943,0.0039562173,0.0014739637,0.0075826626,0.0022568728,0.005587179,0.008314063,-0.0012622479,0.004230612,0.005863218,0.0031722456,-0.0048258486,0.0034545048,-0.00027030785,-0.0002220492,-0.0030750544,-0.0057625575,-0.00582299,0.0070443633,-0.005560626,0.0039710943,-0.0063366075,0.0015825232,-0.0071052806,-0.004159259,0.009071552,-0.00394469,-0.00047835088,-0.0055556423,-0.0029845359,0.0016291775,0.0010003,-0.0031468917,-0.00036781674,0.00796961,-0.0021908463,0.0019159722,0.0014370499,-0.0011003221,-0.0039835805,0.00028334788,0.0015341578,-0.008129601,-0.005771425,-0.005207606,-0.008780828,0.0068879365,0.003504131,0.001750057,0.009133003,-0.007875148,0.003057753,0.00049269485,-0.008794763,0.0042051687,0.0030164237,-0.0075054565,0.0055471295,0.0038501876,0.008583962,0.009860287,-0.0004806101,-0.0016689465,0.0032359154,-0.002332511,-0.0052961027,0.0067343386,-0.0024901284,0.012006632,-0.0044251424,-0.0023310627,0.0053860084,0.0077739917,0.0067816568,-0.0060816314,0.009882665,0.005928443,-0.005225946,-0.0024565817,0.00091457367,0.007844765,0.00027126385,-0.0018302847,0.011546827,0.014802791,-0.0031878923,0.0113218045,0.0036389588,0.0050237053,0.0058898735,0.0042053265,0.0065952814,0.008432752,0.008674609,0.0050130314,-0.0037795673,0.008329978,0.0053523076,0.0024149902,-0.00090345676,0.009022998,0.00035280842,0.0032187018,0.0062125344,0.004076383,0.005330668,0.01081207,0.0008487695,0.003848143,0.0006765246,0.0010550866,0.011076011,0.003824364,0.005336619,0.00000981258,0.004201079,0.0065061953,-0.0021812615,0.0022951297,-0.00523572,0.00080420315,0.002581136,0.009813061,0.006261558,0.008852644,0.0033278137,0.0004112722,0.009900434,0.0017530055,0.011343905,0.011569887,0.0021364654,0.0021347995,0.0022029313,0.008779085,0.0108801015,0.009439992,0.0034429121,0.008576395,-0.0021396333,0.008671933,0.0072947345,0.0062167156,0.012118268,0.006915235,0.009744136,-0.004048473,-0.0007859475,-0.0054421155,0.0097536165,0.0046372674,-0.0044421274,0.009116384,0.011824639,-0.003749257,0.0043234425,0.0048195072,-0.004796754,-0.0048976745,0.01094975,0.006670816,-0.00010378706,0.011313154,-0.003491514,0.0076368167,0.005465289,-0.0033071754,0.0042197066,0.0019220548,0.005193216,0.0021057928,-0.0010497293,0.008477921,0.0071956394,-0.0046389685,-0.0066102115,0.011651742,-0.003101737,0.0063991803,0.0009752074,-0.0067734746,-0.0046238443,0.009758706,0.0041600848,-0.0022326407,0.004253933,-0.0001140315,-0.008984979,-0.004089447,0.004094606,0.0033240174,-0.0023207886,-0.0038062225,-0.0026380944,0.0024879838,0.007339185,0.0041567823,0.010960928,-0.0058705704,0.004432279,0.004767812,-0.0070942896,0.007823515,0.00809993,0.0077620535,-0.0068774233,-0.008207245,-0.0019516647,0.006561174,-0.00632366,0.006878544,0.008577899,-0.0038677664,-0.0013797213,-0.0014917827,0.007030673,-0.0033098652,-0.0052445154,-0.0034380585,0.0036832967,-0.006036631,-0.0054924367,-0.0026947877,0.0028623943,0.011249765,0.009045858,-0.0064583677,-0.0005222792,-0.00705478,-0.0052840323,0.008240662,-0.005151087,0.004770873,0.003176189,0.0032786122,-0.0034679016,-0.0049478756,-0.00032881947,-0.004111281,0.008020128,0.006935966,-0.003830989,0.002654367,-0.0024452207,0.0067851213,0.004592834,-0.0033363502,0.007031651,-0.0058956514,0.0006608601,0.009011281,0.0066264183,0.009827125,0.0077774944,0.0016577593,-0.0020322248,-0.0014816895,-0.0021348766,0.0035393925,0.008025385,-0.0064183366,0.0043028123,-0.0043700864,-0.0035814117,-0.003920327,0.0051101213,0.005417269,0.011884457,0.00356351,0.0014759441,0.004758193,-0.0053333146,0.006301825,0.007832456,-0.0015058145,0.009392965,0.0027289675,0.0059742536,0.0021384286,0.013613697,0.010852794,0.008949275,0.010629646,-0.004288316,-0.0020645903,0.0049076076,0.0051564854,0.008929362,0.003311526,0.0070014317,0.008550565,0.003989392,0.002504256,0.014183943,0.0056860074,0.012637129,-0.0050589563,-0.0025544893,0.0008516051,0.0074372254,0.009243854,-0.0027790226,0.003436014,0.010719105,0.0073093707,0.0026173312,0.00561555,-0.0055184914,-0.0045516044,-0.0045691063,-0.0046774345,0.007995663,2.700313e-7,0.0013406896,-0.007618361,-0.003103897,-0.0053624967,-0.003316154,0.012990387,0.010116173,0.0062312204,-0.0013090966,0.010202727,0.005374201,0.0021767975,0.010759852,-0.0010606453,-0.00066171965,0.011970096,-0.0015910895,0.005121176,0.0064798654,0.009995521,0.012218233,0.0074338075,0.0088318065,-0.0012036299,0.008929367,-0.002569981,0.0021090407,-0.0037096608,0.0052221245,0.010075063,0.0009654589,0.0066224993,-0.001442648,0.00023004322,-0.0007538556,0.0071533015,0.008844535,0.0074750804,0.0015940892,0.0038385084,0.0039003333,0.00758145,0.0018892194,0.009720965,-0.00028926323,0.010839787,0.0024765397,0.00014637069,0.004487576,0.008107651,0.0065145283,0.009131911,-0.0018081734,0.008835409,-0.0015425426,0.0056507234,0.0014299804,0.010061253,0.010821674,-0.0049001384,0.007778861,0.0064853285,-0.0035163467,-0.00053630315,0.0035644893,-0.00966005,-0.008892571,-0.0047132554,0.007491343,-0.000029994526,0.0068915365,0.003648914,-0.0027871442,0.0066318917,0.0026489396,-0.0026985253,0.0023964955,0.0028787311,-0.0045626103,-0.0028359923,-0.0014586177,-0.0013083996,0.009861049,-0.0014952263,-0.0026819406,-0.0057049207,-0.00611494,-0.0054502385,0.009707324,0.008803971,-0.0060360474,-0.004931642,0.0020085312,-0.0026015264,0.0057815933,0.0031297065,0.0044789673,0.0073928116,0.008234607,0.00875651,0.0055744224,0.002736947,0.0052510696,-0.0023890391,0.009671392,0.005145861,0.009385866,0.0018274031,0.005488055,-0.0015878926,0.0036807712,-0.0006030788,0.009158241,-0.0024853942,-0.005037062,0.009258472,-0.004054446,0.0055694557,0.0063681095,0.008047036,0.0032659057,-0.0032103634,-0.005149224,-0.0007809754,0.005526226,0.007952095,-0.004257359,0.0020737546,0.0010966874,0.0022669698,0.011497301,0.009130072,0.0071220924,-0.00493228,0.0040130396,0.0022254454,0.008687503,0.00030828879,-0.004381468,0.008960261,0.0088220695,-0.00788863,0.006115147,-0.006042222,-0.006488294,0.0056743156,0.0048902067,-0.006370507,0.01191808,0.0024907973,0.008051735,-0.006261326,0.0025907862,0.0056523923,0.0114104785,0.01525874,-0.0039445213,-0.0011297711,0.014672234,0.01124214,0.003952483,-0.0022166078,0.014212868,0.008648672,0.005559018,0.013073467,0.0015709794,0.010195416,0.0031442905,0.0009098667,0.012611988,-0.00001303695,-0.00034384572,0.0059625315,-0.0001705451,-0.0014525219,0.007752459,0.010118511,0.0077457256,0.0114510795,-0.0006245213,0.0051662643,0.007720239,0.00957404,-0.004790731,-0.0002636647,0.0031018343,-0.0034225483,0.0014616749,0.0066777826,-0.00757229,-0.002585345,-0.0044446895,-0.004916809,0.0000428049,0.010383565,0.0021786569,0.00712923,-0.0004678993,0.010007367,-0.0021557505,0.0024653312,-0.0012390104,0.006098858,0.0054476773,0.0027010792,-0.0062259454,0.00017497769,-0.00816275,0.005287079,0.007066129,-0.0053510168,0.0019930627,0.005803198,-0.0022415873,0.0031768018,-0.00472065,0.008811515,0.0092004705,0.0061441977,0.011501867,-0.0047389893,0.006379673,0.000039212595,0.0025065467,-0.0012048205,0.013010972,0.004726469,-0.0017104949,0.012325858,-0.005604705,0.004500283,0.012803716,0.011878311,0.0019608978,-0.00276626,0.0016742032,0.011892149,-0.0017484131,0.0021875661,0.009678778,0.010250142,0.0025233766,-0.0044144397,0.0053573274,0.0022019092,-0.00097109476,-0.0003971605,-0.004928278,-0.0058028214,0.008775434,0.0032395574,0.004860547,0.009995233,-0.0065244436,0.0016226611,-0.00553561,-0.004896748,0.0031638462,0.007319687,-0.0020840233,-0.0022019516,0.007991568,0.0063520255,0.010181084,0.0021897187,0.009073151,-0.0010760295,0.0063860826,-0.0037544493,-0.005696453,-0.0051695025,-0.0014397899,-0.0066639106,0.002712362,-0.0062444545,-0.0093439175,0.008985991,0.0042041023,-0.0049220263,0.003224339,-0.006976195,0.0037026885,0.005604466,0.0032811714,0.0015254428,0.006384884,-0.000082537976,-0.0036524367,0.005576854,-0.00018761052,0.0034730835,-0.0013205584,0.000112120775,0.00043015394,0.0051340256,0.0022229697,0.0057064835,0.0025028887,0.0026882298,0.003041189,-0.0030726003,0.006822553,0.0076440917,0.009610634,0.0045059957,0.005380279,-0.0035189996,-0.0052704737,-0.0056705885,-0.0048757335,0.00844217,-0.004498397,-0.0026897907,0.0056560086,0.00035604826,0.005435188,0.007429446,0.0020854645,0.004792048,-0.0039950265,-0.0013809425,0.010094804,0.0052701854,-0.004061425,0.007915283,0.008240508,0.0049135294,0.0020256678,-0.0018090002,0.008249511,0.008330092,-0.0029591443,-0.0060123974,0.0067943274,-0.004839087,0.008153141,0.006232854,0.014110737,-0.0038331607,0.0079941405,0.011331939,0.0030427212,0.01104868,0.0048914966,0.004246383,0.0066622356,-0.00191433,-0.00084434,0.0024975326,0.013691021,0.011622356,-0.0050857766,0.01364877,0.0022178134,-0.0018798644,0.00079495664,0.012454812,0.0058320737,0.006690795,-0.00027524628,-0.0035035845,0.012634703,0.0038619938,0.011196814,0.0071442323,-0.0035155413,0.0007748988,0.003967719,0.011733513,0.009298615,0.008195161,0.0023812435,-0.0019342963,0.009658239,0.005802685,-0.0031122987,-0.0028455644,0.0071022804,0.0023873106,0.0027681717,0.00988759,0.0030817352,0.010121604,0.0054518967,-0.007614118,0.011553984,0.009465634,0.004036113,0.0060680625,0.0018820958,-0.0006424741,-0.00441615,-0.001919541,-0.0046045547,0.0033645765,0.0025472722,-0.008478308,-0.006151966,-0.011190397,-0.002176666,0.004880376,-0.010789485,-0.0020235004,0.0035963466,-0.0037456234,-0.008697956,-0.008307162,-0.007212028,0.0049520647,0.007483303,-0.0022514726,0.0008814388,0.00027324047,0.010185585,-0.005102053,0.0070353164,0.009663237,0.0054418985,0.006142256,0.0070516756,0.005220327,-0.0031563074,-0.0057702116,0.0015376236,0.008079185,0.006835193,0.01067926,0.001115643,-0.0017605983,0.010565793,0.007915492,0.000119870034,0.0017048273,0.009267594,0.011505913,0.0050688414,-0.0014243578,0.008506706,0.0124817835,-0.0014654516,-0.003662045,0.0016813207,0.0067619155,0.0051546427,-0.0040603415,-0.0004817848,-0.0037043751,0.0025825126,0.0030469783,-0.0073744515,0.008858037,0.0012939575,0.0012990128,0.011420737,0.008261726,0.0047078123,0.0029348854,0.0038823,-0.009996336,0.0096889855,-0.0011552292,-0.0066792434,0.0013022048,-0.005484789,-0.0065855472,0.00918465,0.0013225821,-0.009513211,0.0088287,-0.009413752,-0.005156069,-0.007719199,0.0009977542,-0.0017482674,0.007066552,-0.0029974387,-0.0072409348,0.007588675,0.0078887455,-0.00061017124,0.0015062196,0.009687846,0.010330482,0.013807573,0.006268228,0.005512898,0.0009688547,-0.0010956109,-0.004605303,-0.00078044325,-0.0003325328,0.0092350375,-0.0023374292,0.00013374879,0.006276382,-0.0015022877,0.0047593797,0.00035309506,-0.0022664403,0.012878841,0.0012766588,0.0099635795,0.013045782,0.011472471,0.009893002,0.0036952375,0.0011272224,0.00545119,0.011170616,0.0058889636,0.0017392447,0.008589061,0.0046203374,0.0055160383,0.005931071,0.009198715,0.007922151,0.005367994,0.008104949,0.010624378,-0.0005486959,0.0052098315,-0.006891553,0.010405421,0.006900755,-0.008127236,-0.0031527332,-0.0012165237,-0.0067090215,0.0061742407,-0.0010001907,0.006867282,-0.0026457054,-0.0028857223,-0.000577636,0.0014195464,0.0028135877,0.00618804,0.009880777,0.0051575494,-0.0026824537,0.009328629,0.0119838575,-0.0047468306,0.005429114,0.0027896038,-0.005717269,-0.0018593812,0.0002866299,-0.0027643319,0.007875027,-0.0014789922,-0.004330699,-0.0036050305,-0.0023984448,0.0013129296,0.015469003,0.008365166,-0.00073247147,0.012195775,0.009541946,0.009611318,0.0047871615,0.0055749607,0.01122619,0.008543487,-0.0013542444,0.007930753,0.012874939,0.004826787,0.0072271684,0.009986613,-0.004484053,0.0050620893,0.0076532415,0.00076110265,-0.0013092235,0.010961702,0.008328421,-0.004428875,0.006716659,0.009534676,-0.0037575553,0.0027969908,0.004226316,-0.0021843563,0.00050564826,-0.010182462,-0.007384341,-0.010404925,-0.0005717151,-0.005859777,0.0011347939,-0.003116917,0.006382246,0.0050100186,-0.011241971,-0.00031991434,0.0067670085,0.0030003146,-0.0069265934,0.007000243,-0.00021514553,-0.0044015897,0.010960132,-0.00452307,0.011217143,0.008093472,-0.001998697,0.0006544787,0.0022155384,-0.0027990649,0.0081934985,0.0097895665,0.001639435,0.00018910496,0.0065930025,0.008093055,0.00055383466,0.0009402906,0.0028428005,0.0032080791,-0.00528498,0.0051045134,0.011674062,-0.0021596919,-0.002873768,-0.0034935658,-0.0033712008,-0.0034961603,0.0104625095,0.0074578933,0.0008914108,-0.005582803,-0.0011017132,0.0035787954,0.0066041634,-0.002538722,0.0029615266,-0.0049721226,-0.009689423,0.0061152014,0.0078086546,-0.00057645276,0.007710876,0.0049102283,-0.00051753724,0.0023454295,-0.0033686694,0.0017761097,0.0066669188,-0.001589774,-0.006647415,-0.0043694302,0.010556034,0.007987345,0.005029424,0.006492793,-0.00203632,-0.0014973974,-0.001622157,-0.0010836305,0.0040503386,0.002469888,0.0013933673,-0.006561039,0.008842065,-0.005583094,0.0048784018,-0.0039473735,-0.0031611833,-0.0019407737,-0.0012170511,0.0052279066,0.008057176,0.010383943,0.005760034,-0.0020750945,-0.00042278788,0.0021364605,0.00038051384,0.0015571851,0.0074298442,0.0016197868,0.003866665,0.007465819,0.004363741,0.009778478,0.007218529,0.0067061884,0.009386457,-0.0038379156,0.012903654,0.0064775385,0.007736805,0.0017226872,-0.0039699897,0.0099279275,-0.004117641,0.0016535943,0.007327303,0.010308089,0.002787427,0.010537377,-0.0015534398,0.008603018,-0.0050806846,-0.00056050805,0.006879264,0.0006388433,0.0011707795,0.0013334181,-0.003685268,-0.0033518067,0.0024928127,0.012446269,0.00667666,0.007190305,-0.0035144791,0.0027461215,0.0053411387,0.0031719317,-0.0011150315,0.0045168386,0.009102547,0.0024435492,0.010622327,0.009510872,0.0005238891,0.0007717941,0.0030534246,0.003974067,0.0017582321,0.003319564,0.00073430466,0.00080802705,0.011622747,0.007117367,-0.0051087686,0.011424854,0.007815227,-0.004403709,0.004141062,0.0020256487,0.007138475,0.0086746635,0.004326031,0.0072368584,0.009272359,0.014181963,-0.00420379,0.0050901216,0.00985642,0.0048238235,0.0091501605,-0.0044972054,-0.0050384933,0.0051976345,-0.0059168893,0.008236982,0.010809105,0.0014593832,0.007030239,0.0047621573,-0.0011836209,-0.004750923,-0.0013712473,0.0069785975,0.0022564265,0.0072656577,0.008284008,-0.0048461067,-0.0022364934,0.010359556,-0.0023480142,-0.0059805736,0.002715434,-0.007550339,-0.005597605,-0.0020477918,0.005555229,0.0025419781,0.004943442,0.0006864342,0.0009094095,-0.0037471126,0.0072021303,0.0039180997,0.0041077174,-0.0013229274,0.0072799465,0.003090611,0.0014548966,0.010652185,0.005829526,0.009517313,0.008828014,-0.0028076095,0.0018634901,0.010644724,0.007196215,-0.0010435135,0.0024368311,0.0006068645,-0.00029425256,-0.0019020253,0.004308322,-0.0038715873,-0.007169442,-0.006006647,0.000055623517,0.009386808,-0.0060385624,0.00800372,0.004928132,-0.0027504961,0.009605066,-0.000076643395,0.005161884,0.012702053,0.0068125958,-0.0032874679,0.004453519,0.009666433,-0.006278252,0.010446272,-0.0033721218,0.0021303021,0.007893468,-0.0029858293,-0.0057015857,0.00359651,0.0051051755,-0.0022985768,0.0030574247,0.006572063,0.0077316393,0.0032617932,-0.0072460203,0.006045172,-0.0028643422,0.007196331,0.0039726347,0.004799475,0.0020001105,0.0048785224,0.011840711,0.0024821416,-0.0072561293,0.005680234,-0.0014532821,-0.007222985,-0.005449423,0.0012509482,-0.0026511943,-0.00786391,-0.0021838571,0.0038781886,0.008901086,-0.00019191293,-0.0007589076,0.0064192982,-0.0057810033,-0.0051112343,0.009487321,-0.004026865,-0.0016731512,0.007155131,0.009334321,0.011324897,0.0026815804,-0.005472572,0.00008781428,0.014524183,0.001492376,-0.0009455105,0.0016904062,0.014630821,0.009013959,0.00020816803,-0.0030210163,0.0055943886,0.007809768,-0.0035634516,-0.0019189944,-0.00039953494,0.0095299855,0.0025729637,0.0019004107,-0.0008474968,0.0006905288,-0.002804294,0.0034758972,-0.0041806647,0.011933982,0.0024709867,0.008955987,-0.00004694008,0.005751661,0.00049044745,-0.0013251238,0.00060285546,0.008196185,-0.0049470635,0.0051330947,-0.0028566357,0.00009530864,0.011053916,-0.0050716996,-0.004543321,0.008741428,0.0054658432,0.00037249213,0.002150425,-0.0072445455,0.0038474826,0.0032417069,-0.0018357751,0.013512886,0.0016695617,0.004228773,0.010133851,0.014872616,-0.004058293,0.0031218287,0.008338025,0.0005802028,0.005115312,-0.005285235,0.010721762,0.0009095589,-0.0028624139,0.006027093,-0.0018198327,-0.0020202114,0.00992841,0.0009379375,0.011644372,0.010972098,0.00307371,-0.001816157,0.0032123039,-0.0003424969,0.006719852,0.010593211,-0.003198511,-0.0041385936,-0.008026858,-0.0030445762,0.0044498467,0.0062074424,0.0057818755,0.0046601715,-0.0007919318,-0.003670926,0.0030755252,0.012928046,0.009266069,0.014846661,-0.0018104861,-0.0053395405,-0.005521005,0.0012132627,0.0011718204,0.0064853616,0.0012793464,0.005480599,0.0056000403,0.010311914,-0.001505575,-0.0074604787,-0.008364141,-0.006208941,-0.006384972,-0.0025754112,0.0037289516,0.0054653506,-0.008521525,0.008252438,-0.0018773214,0.00037057284,0.0010801384,0.0034466635,-0.00710156,0.009825396,-0.00057359587,-0.002748161,-0.00452284,0.001040888,0.0030466358,0.0038985086,0.0068698567,0.001264971,0.011583762,0.008809782,0.009170068,-0.0011202842,0.00041986385,0.0061418503,-0.004228478,-0.004873765,-0.005392035,0.0037288615,-0.0062526194,0.0065267454,0.008276035,0.0029518905,0.0074301376,-0.0009503366,0.0017498211,-0.004560691,-0.0050124265,-0.002638474,0.0069457404,0.007077925,-0.003190895,-0.0029402515,0.011125394,0.0021723607,-0.0020398942,0.0010647804,0.006835503,-0.001284482,-0.00031903366,0.004501308,-0.0060091945,0.0034834964,0.0023079764,0.0045088558,0.002562423,0.007944709,-0.0034478637,0.0014017329,0.00838286,0.0049343356,-0.0012013402,-0.002116103,-0.0046147355,0.0065704477,0.0022143915,-0.002133789,0.008532343,0.004972701,-0.002890953,0.004896998,-0.0045922324,-0.0010468623,0.0101320455,-0.005057812,0.0037480784,0.008028555,0.003970254,0.00038050694,0.008621483,0.001418345,-0.001743671,0.0044433633,-0.0018820808,-0.004484111,-0.005919483,0.008825594,0.002523205,0.00088679616,0.0010001467,0.0072956695,0.001671765,0.008112456,0.006286014,0.013978494,0.008176862,0.0040650484,0.0016500513,0.00044841293,-0.004726002,-0.0024563316,-0.004069967,0.0017531278,0.0056526843,0.0024042355,-0.0036951483,-0.0025447991,0.003440726,0.0032808552,0.0043566977,-0.0043230806,-0.007961628,0.010865782,0.010619052,-0.0019569132,-0.004022444,0.00009084588,-0.008853932,0.00080854725,0.010539036,0.010147143,0.012219791,0.004354933,0.007005375,-0.0016002783,0.00048614535,0.00091620645,0.008416458,0.009019585,0.0048280065,-0.0034043572,-0.0033962273,0.0024021438,0.009914593,0.0032030253,-0.005844272,-0.0034916596,0.010628878,0.0051414203,0.009036056,0.011698299,0.007923972,0.00012837829,0.0055759703,0.01161127,-0.0021753218,0.0030071086,-0.004410963,-0.00091593614,0.010380684,0.014600872,-0.004906268,0.012425614,0.0130477175,0.0088428315,0.003587658,0.014547332,-0.007048556,0.0014389383,-0.0041503347,-0.008757751,-0.0033105763,0.0064919693,-0.007030019,0.011302154,0.0064019263,-0.0029329374,0.0010264671,-0.009761274,-0.007075152,-0.0059688045,0.00044734988,-0.005267422,0.000091870104,-0.0010387965,-0.009706493,0.008885039,0.00110189,0.0068496414,-0.007019218,-0.0046358793,-0.0040494516,0.0010606078,-0.005018315,-0.0013371793,0.0043994025,0.0061513945,0.0028718575,0.007842309,-0.0030598722,-0.0025815037,-0.0030525133,-0.005773565,0.009042036,-0.005404989,0.00023574271,0.0025856057,0.0039843605,-0.0009153846,-0.0064278585,0.0034383398,-0.005796683,0.010031171,0.004759122,0.0077262605,0.00044367914,-0.00018775332,-0.0017671952,-0.003932746,0.010963898,-0.00021697603,-0.00039076028,-0.00017253906,-0.0048530507,0.0053590816,0.0034781294,0.005804881,0.0049104993,-0.0048912317,-0.0015546784,0.007814554,0.0021066174,-0.008507548,0.007438367,-0.005673546,-0.0070340894,-0.0011061926,-0.0028595573,-0.0061354525,0.00046398467,-0.008172252,-0.000039104907,0.007098982,0.009194138,-0.00045466452,-0.003913645,0.0047483,0.006362985,0.0009855833,0.004791781,0.004983834,0.0075091,0.007077848,-0.0008560749,-0.0058131954,0.0037790725,-0.0051372424,0.006853852,-0.0044793114,-0.004291628,0.0019508158,-0.0041528917,-0.0009790288,0.009225808,-0.007493374,-0.008395888,0.0059190947,-0.0033883997,-0.00045594038,0.003525582,-0.0031703925,-0.0010153526,0.010875082,-0.0023697708,-0.0024263607,0.000053235384,-0.009899553,-0.009717993,-0.0010414569,0.005048241,-0.0038877036,0.001078226,-0.010138498,0.0010097583,0.005919352,-0.0074928445,-0.0034022983,0.0018643488,0.00023397895,-0.001729585,-0.007768759,-0.0024876504,-0.0020388686,-0.0046200245,-0.0030940857,0.0070439274,-0.0012255033,-0.0012340245,-0.0029757344,0.010680868,0.0074870302,-0.0065901675,0.0077975597,0.006896574,0.001913783,0.004298861,-0.0018244216,-0.0093605,-0.004433412,0.0015833442,-0.0009609999,0.004823849,0.0013849066,-0.00049420516,-0.0057516578,0.0034195548,-0.00295287,0.0029946028,0.006070783,-0.010151009,-0.0059714066,0.009400637,0.007993339,0.012190605,0.013956914,0.008554869,0.0030240703,0.012257818,0.0016977336,0.008098548,0.0004019166,-0.005661095,0.0051472755,0.0016976681,-0.007358853,0.0043684766,0.010131321,0.0032519943,0.007364091,-0.0030823757,0.01079221,0.009871872,0.007728968,-0.0063698627,0.0018944369,0.009075226,0.00457129,0.0025370568,-0.0007353487,-0.004231728,0.0015373008,-0.0006514096,0.0013179645,-0.0050683436,0.009265175,0.009484026,-0.0012421281,0.00020105956,0.006792664,0.0071972664,0.010155477,0.009938791,-0.0079511,0.003310086,0.011368922,0.002912469,0.01058297,-0.0054186005,0.003207109,0.008587845,0.00021084573,-0.0015978538,0.003039634,-0.0064277686,0.0045772083,0.009441786,-0.00012764684,-0.0081168525,0.0074391,0.007898756,-0.0088852,0.003675487,-0.008396119,-0.005964866,0.0029383376,-0.0055196616,0.0057781385,0.00562644,-0.0027738828,0.0014031978,0.0005749722,-0.007069099,-0.0050847866,0.009256747,-0.010394662,-0.0072648954,-0.00014862134,0.00060578156,-0.0017374104,0.008467464,-0.0041361195,0.0012976042,0.0076236906,-0.0046819937,0.009232676,0.006180049,0.0037485352,-0.0008114152,0.0046717925,-0.0034722758,-0.003209583,0.012117058,-0.0036995015,0.00510339,-0.0030670366,0.010300902,-0.00015045586,-0.0008155904,-0.007549793,0.008094038,-0.0030364087,0.006407489,0.010576058,-0.006373436,-0.0071768225,0.0058417534,-0.007687434,-0.0012422737,0.009508449,-0.0006809726,0.007524869,0.0006057462,-0.0039567174,0.0017634638,-0.0022019781,0.0056940797,-0.0021974288,0.00083722745,0.005227798,0.005588612,0.00330735,-0.0035425029,0.008676934,0.003963725,-0.0037292212,-0.0049528116,-0.0043696933,0.006283739,-0.004492901,-0.0067968853,-0.0035031696,0.0064638928,-0.008403233,0.009667684,-0.0047484855,0.00071912474,0.008000797,0.0074858274,0.008198671,0.0052043246,0.003931901,-0.0012260753,-0.0003480303,-0.005891745,0.00045164968,0.0013885717,-0.0033544425,0.0070355907,0.0035642597,-0.0055855974,0.005412136,0.0037719056,-0.0035830706,-0.0035702637,-0.007754124,-0.00626626,-0.007955336,-0.0021356626,-0.0031757094,0.0046893754,-0.011631954,-0.0025069844,0.0040923553,-0.0032613724,0.005106525,0.0044107307,-0.00077721046,-0.0006814133,-0.00046572206,0.005417631,-0.0012340851,0.0076779025,0.008145864,-0.0059719384,0.006614456,0.0049925633,0.0007713739,-0.002434541,0.000096741605,-0.007878771,-0.0010313344,-0.0021443984,0.0028589854,-0.0046245707,0.007836236,0.0005559882,0.0071538286,-0.006292241,0.0030789692,0.009509973,0.0097237965,-0.0017454302,-0.0077657006,-0.0022272083,0.0046226797,0.0052158297,0.011880684,-0.0044863527,0.01058897,0.013321235,-0.0045701014,0.011046866,0.0054422733,0.0011923589,-0.0030508498,-0.0024619838,0.0072454065,-0.0038309253,0.0034448798,0.005532884,-0.0035464505,-0.0055901115,0.005359879,0.0021263738,0.0060002375,-0.00008434841,0.0005869943,0.0054023815,-0.0050913435,0.00055899896,-0.0005143271,0.0047009964,0.0067177755,0.01145197,0.012242108,-0.007949327,0.009817078,-0.0015401291,-0.0011871298,0.00468232,0.010295488,-0.007548855,-0.00008742195,0.0031910462,-0.0013936327,0.0075817276,0.0030158465,-0.004416174,-0.0023935204,0.00473522,0.010614266,0.009051629,0.0014878685,-0.0055366117,0.0014340458,0.012183067,0.0066733593,0.00989387,0.0051498353,-0.0035942262,-0.009101712,-0.0077610575,0.0067579667,-0.0034397484,0.0033261701,0.00937041,0.0054132636,-0.0038421366,0.0016628915,0.010023582,0.009287231,0.0065799737,0.012057476,0.00228019,0.0091388505,0.012152167,-0.0027446353,0.006385578,-0.003784853,0.007831887,-0.0043687336,-0.0058410685,-0.00298126,0.00014196338,0.0006181871,0.000053633656,0.011337308,0.008651569,-0.0011191493,0.0062113195,0.003827101,-0.0024145502,-0.0006559322,0.0006281983,-0.0035081333,0.006189048,0.0129898805,0.0014822149,-0.0006211549,0.005760175,0.004349983,0.009032083,0.006135483,-0.009056672,0.008518068,-0.0026268275,0.004786108,0.0020080004,-0.0014712851,0.0068471977,-0.0066630864,-0.002712749,0.004397121,-0.0031571733,-0.005889821,0.00013208562,0.00022300672,-0.0039981017,0.0017798281,-0.00067579583,0.0062104473,0.0018209241,0.009873574,-0.0047523724,0.0042483853,0.0051380573,-0.0043647694,0.003954222,0.009022429,-0.005242038,0.0046993946,0.007402431,-0.0051730513,0.010521129,-0.0010055001,0.0018879849,0.0028107138,0.0014408465,0.0099807875,-0.006469205,0.005373974,-0.0011094976,-0.0057654763,0.0057161124,0.0017472623,-0.0045912056,0.0030156362,0.00562556,0.007515737,-0.0052448935,-0.00413089,-0.004664016,-0.0052617444,-0.00075983664,-0.011348657,0.00019053361,-0.012185614,0.00062093366,-0.003114296,0.00036984065,-0.0017904647,0.005539406,0.0021567708,-0.011393946,0.0015310028,0.0047577983,0.004844401,-0.0043135975,-0.0045848927,0.009489213,0.0016721012,0.012390716,0.0036200164,0.0050735576,0.013003509,0.00517221,-0.002694339,0.008397085,-0.0064555584,0.006187656,0.00319988,-0.0012310054,-0.002463772,0.0059561487,-0.00007300198,-0.008549919,-0.0004896918,0.001327416,-0.009653774,0.0002145086,0.0031588753,-0.004437976,0.007890611,-0.0046878895,0.0034732383,-0.0066853054,-0.0031668874,0.0008487475,-0.005420505,0.0077076596,0.001553372,0.0045219488,-0.0048828307,-0.0018951875,-0.006323778,-0.0005699574,0.004627528,0.00063012075,-0.012226043,-0.0066601834,0.0047924095,0.0023037281,0.008426433,0.00447113,0.0049899975,-0.0063044596,0.007495904,0.0041439435,-0.0029773745,-0.00091816846,-0.000060763243,0.0012567461,0.0133668175,-0.0029513307,-0.0038829423,0.0012871822,0.0123438565,-0.007490613,0.012818917,0.010068512,-0.00076854904,0.0040614167,0.0100293495,0.0062820856,0.009794104,0.0075376937,-0.0080383355,-0.0073774713,-0.0022565876,-0.0072770067,-0.005473533,-0.0047079236,-0.0050840406,0.004013098,0.005252871,-0.006601839,0.0033526493,0.0068372106,0.0031010476,0.009587296,0.0022346086,0.0042687054,0.008124274,0.0024742982,0.0033815834,0.0073880134,0.005961893,0.0033535876,0.012611032,-0.0028654689,-0.00089064596,0.0038005111,0.002269183,0.009043674,-0.00039243803,-0.006144454,0.00163854,0.010442049,0.00220925,0.0037779738,0.00078245514,0.0060173552,0.007997925,-0.0024449122,0.009070605,0.0024514708,0.008594134,0.000035502537,0.0069347913,-0.0012803492,-0.00062193855,0.006503119,0.009291401,-0.004487349,-0.0010290379,-0.0006202723,-0.0017604247,0.011581685,-0.0039619226,0.005496403,0.005974456,0.004807634,-0.010177795,0.0047253454,-0.0057273204,-0.005104577,-0.0049536116,-0.00065186137,-0.007386421,-0.0013772376,0.0032242264,0.004164996,-0.0041946885,0.004809063,0.0030708339,-0.0036950987,-0.003338835,-0.006934134,-0.0050674207,0.005073852,-0.0050442433,0.00399161,-0.0007073253,0.006315617,0.00908866,-0.0016552496,0.0030327789,0.013064953,0.002884467,-0.0030153703,0.013226898,0.0029415775,0.009040081,-0.0026206328,0.00026668163,0.005028801,0.00025432534,-0.0030190996,0.0020592338,-0.005624857,0.008262423,-0.0078047477,0.0020295086,-0.00030384262,0.0020645258,0.0098471325,0.008251051,-0.00865281,-0.0075519495,-0.007325619,-0.006661022,0.0028982344,0.0056742984,-0.007990058,-0.0068631927,-0.0061248946,0.0023138886,-0.0050622164,-0.007379142,-0.00048132957,-0.0075580925,-0.00079549104,-0.007971668,0.007197481,0.002805881,-0.00010220472,0.0014308334,-0.005015313,-0.006675432,0.00914517,-0.0073843785,0.0046098554,-0.0043188925,0.0024943617,0.003999298,0.0023798745,0.014602101,0.00046745155,-0.0010433078,0.0017979103,0.004950566,0.009387953,-0.0015809125,0.0029490802,0.001349647,-0.0034406737,0.007348367,-0.0073071877,0.00002335423,-0.0000390058,-0.0050672726,0.0037080194,0.0031946017,0.008732384,0.00031842457,0.0022015814,-0.004643366,-0.0041003856,-0.009869314,0.007698555,-0.0031073866,0.0018702007,-0.005860155,0.003492037,0.00682532,-0.0007775377,0.007908185,0.0058849803,0.0026069067,0.0016053917,0.0011032878,-0.0020712945,-0.006115278,-0.007979324,0.0009810246,0.0041580102,-0.010852657,-0.0014620078,0.008509204,-0.0048166695,-0.006036719,-0.005029623,-0.0043613627,-0.0021794885,0.0018952081,0.006611179,0.007579898,0.008341608,0.012766135,0.002555531,0.0064022853,-0.0012639936,0.008140576,0.0005440447,0.003499406,0.0056808894,0.0059202993,0.0048705633,0.006550122,0.004408164,-0.007022426,0.008861235,-0.004345079,0.00013729541,0.005664545,0.007826434,0.010615241,-0.0032095537,0.0042602457,0.012634999,0.003339773,0.008822667,0.0022483147,0.0055861403,0.008440524,0.0016524936,-0.003528384,0.0000854434,0.008746383,0.0033474022,0.00819114,0.011659578,0.0076460033,-0.0003169911,-0.0027235502,0.013928677,-0.0024091117,0.009763492,0.0007158052,0.0022966694,-0.004327909,0.002610248,0.003910465,-0.0066539547,0.008532186,0.0036198483,-0.00056096056,0.009295224,-0.00034945866,-0.0058711926,0.012123566,0.01095186,0.011862664,0.014335044,0.00512463,-0.0057832343,0.0095816115,0.003974468,-0.0035891158,-0.0034457983,0.013303601,-0.0038816417,-0.00592547,0.00836985,-0.0016078065,0.0049194666,0.0029395407,0.0012352047,0.006451739,-0.0018252322,0.008371133,0.0010455304,-0.0004866066,-0.00517443,0.005179397,0.002023455,0.011454281,-0.0032665562,-0.0008248177,0.008987885,0.010789597,-0.003538125,-0.006293994,0.009016296,-0.007259057,-0.008404964,0.008068839,0.0006894129,0.005540956,0.011869494,0.0059525035,0.0017165989,0.0038960555,-0.00077795755,-0.004184827,0.0059863897,0.0071824943,-0.0042635333,0.0034510274,0.0004001114,0.0070557096,-0.0038542985,0.002472529,0.0035761062,0.009167008,0.006938538,0.0031188861,0.008315865,0.0037117207,-0.0068718386,-0.008131608,0.0035462016,-0.008702208,-0.007473664,-0.006582083,-0.007940142,-0.007610257,0.0023242817,0.0010244206,-0.0018451277,0.005940869,0.0029764154,0.008302831,-0.00858871,0.0021510383,0.008323216,0.0038610743,0.0013666787,-0.004033446,-0.001808314,-0.0074022426,0.005050332,-0.0040439586,0.0066738017,0.00087689795,0.0012110169,0.0070617935,0.0019071029,0.008461025,-0.0057350057,0.008923107,0.014726998,0.0031643095,0.0035339536,0.015602298,0.012076194,0.009869017,0.0064040027,0.0112668555,-0.0020696698,-0.0033762928,-0.0044825207,-0.006464699,-0.0037846046,0.007789747,0.002346647,0.01068714,-0.0028643264,0.00058517104,0.0037781217,0.0047431914,0.0010321275,0.010968204,-0.0061337645,0.00636874,0.0077176336,0.0035934164,0.0029218337,0.012574048,0.0074272947,0.012640416,0.0023517103,-0.0065583806,-0.005167717,0.008101621,-0.006733036,0.0047075297,-0.006723713,-0.00090444536,-0.0035849113,-0.0041703293,0.0065365867,0.0068906206,-0.0025224253,-0.0038711918,-0.0021513067,-0.0028372998,0.0108427685,-0.0009814642,0.005110077,0.004972672,-0.007843229,0.004639002,-0.0019794384,-0.0015609423,-0.0017119481,-0.0044603385,0.0018257867,0.0088740615,0.008386171,0.0070721465,0.004326353,0.008339158,0.0023086462,-0.0011715834,0.0040977523,-0.0072049396,-0.004158174,0.0053606224,-0.00083174795,0.0077672335,0.012838857,0.009142191,0.011557548,0.0004867194,-0.0006746357,-0.00044239173,0.0013120931,0.011387698,0.0077507533,-0.0020296946,0.009272388,0.0126147,0.013276581,0.004859595,0.013755504,0.013323637,0.008525125,0.0037060566,0.013510877,0.009161191,0.009828592,-0.00116611,0.0015019665,0.01343903,-0.001528441,0.01038327,0.00023282711,-0.0069055157,0.0016697419,0.009345859,-0.0022050617,0.010255476,0.01410957,0.005510892,0.009855865,0.013928443,0.0064617037,0.0024709709,-0.0010111611,-0.0046589323,0.006705268,-0.0038129478,0.0010544339,0.0024052619,-0.0026900668,-0.0012308899,0.00022788295,0.004652173,-0.0048014387,-0.0047426443,0.0030895306,0.00433801,-0.003969257,-0.0045342194,-0.0030863455,-0.0038058327,0.006168353,0.0090477215,-0.002693862,0.001928798,0.0026159505,0.0059782015,0.0070531773,-0.004699338,0.0051940097,0.0025566963,-0.0031252925,-0.0011211259,-0.0069222897,0.007637702,0.012032065,0.010126912,-0.0023874508,0.005990054,0.0035341594,-0.0024391909,-0.0009885845,-0.0016210416,0.0036424662,0.006776727,-0.008534748,0.005957238,0.0022975442,-0.0068916003,-0.00044873726,-0.003963441,0.0059098736,0.007453668,-0.0009287198,0.0051888223,0.0060550217,-0.008762879,0.0046260874,-0.009186881,0.007333994,0.0041106506,0.0009141045,0.0030609642,0.003915483,-0.004793319,0.0034152274,-0.0043412787,0.0009273806,0.008958414,0.0035369867,0.0011320475,0.00006659863,0.0023166183,0.0052390606,0.006048121,0.0077602556,-0.0009419648,-0.006455255,-0.007266636,-0.0005332815,-0.005570533,0.00061168236,0.00355892,0.0067061284,-0.0025004866,-0.0050284606,-0.0043770457,-0.0007466859,-0.0028814743,0.001821039,0.010541873,0.011321894,-0.0028473204,-0.002487752,0.006524303,0.0063102413,0.009022681,0.008969308,0.0008135391,0.012056432,0.00021463903,0.005726594,0.004472095,0.006673713,0.00048357187,0.01399878,0.007501197,0.010265771,0.00353963,-0.002800056,-0.0042968397,-0.005868708,0.005567885,0.0031229025,0.008163313,-0.009572691,0.006062967,0.00743981,0.00019109642,0.00050960446,0.00809386,0.007116256,-0.0053845528,0.0011746889,0.0063965465,0.0048667146,0.0011572189,-0.003640818,-0.0059461487,-0.007274848,0.007131495,0.0062056496,-0.006995492,-0.009062365,0.001416206,0.009498413,0.0074806325,0.003807807,0.008827913,-0.000043004453,0.0048629334,-0.00071553915,0.010800713,-0.006905151,0.007765054,-0.0026806172,0.0011540396,0.0010029149,0.011865175,0.0039287084,0.009646266,-0.0031653016,-0.0027942895,0.009597634,-0.0014281581,0.010249018,0.011172768,0.006026256,0.005963082,0.010155163,0.0018212091,0.0010809842,0.0051871706,0.005464439,0.0013197169,0.0061249253,0.0021281906,0.011261588,0.0070288405,0.009009013,0.014319676,0.007827681,-0.00035567133,0.012594578,0.0056391153,-0.0024506638,-0.0011792588,-0.00005133012,-0.0012234965,0.0041981973,0.014855402,-0.0013149938,0.0014560649,0.005450342,0.0019665286,0.0029317867,0.0034035735,-0.002603961,0.0024597214,0.008727375,0.010855633,0.016707808,0.00059377844,0.0020096665,0.0057050977,0.009839328,0.0075647384,0.0090389745,0.00031269423,-0.007705613,0.0026498272,0.0105185555,0.0072594956,0.0012607903,0.000027682196,-0.009532622,0.0076009505,-0.0016542157,-0.0024833945,0.0008987321,0.008594698,-0.003529137,-0.003730438,-0.00090825494,-0.006484432,-0.00068526,0.0032021014,-0.004167897,-0.0044493596,-0.006134429,-0.0049415645,0.0071352813,0.007401395,0.0052843457,0.003353871,-0.0011829447,0.0016689184,0.00497067,0.0089426935,0.006327297,0.014886513,0.0043597873,0.010901436,0.010003834,0.005198821,0.0010716665,-0.001856228,0.005820703,-0.0031035037,-0.001619089,-0.006046391,-0.008017216,-0.0056315255,0.006532107,0.005010648,0.004843939,-0.005658153,0.0005859477,-0.00065400096,-0.0038574634,0.0039757416,0.000121385645,-0.0036198932,-0.0065714666,0.0065793777,-0.00024677737,-0.007100971,-0.008606833,0.0027097617,-0.0036810157,-0.0065172235,0.006335023,0.0066713495,0.007944841,-0.0054700957,-0.00640082,-0.004700257,-0.0080139525,-0.0062954277,0.009163856,-0.009370204,0.0056387354,-0.00614936,0.006828261,-0.00010671431,0.001060903,-0.0077969558,0.000574196,0.008958127,0.00833535,0.003098679,-0.0050468864,0.010663322,-0.0030587842,-0.007056853,0.0020947112,0.0044415644,-0.0061645396,-0.00040808605,-0.0050373985,0.008948704,0.009152672,-0.007206621,0.0016217718,-0.0019101589,0.011088928,0.00042270275,0.005284746,0.0065032635,0.008044799,0.0052578836,0.00671233,-0.0038656637,-0.0020585582,-0.0024181176,0.0001623179,-0.0025215223,-0.0031808838,0.000115142444,0.0013682236,-0.0033587276,-0.0012617647,0.004368602,0.008317375,0.00781004,0.0077814115,-0.0034434085,0.006614827,-0.0023536193,0.002176301,-0.00072971295,0.0034311847,-0.0017199113,-0.0025231156,-0.005630968,0.0049827006,0.0035076786,-0.005349433,0.0071177594,0.0067934454,0.006336704,0.0076243356,0.0025297692,0.008056836,0.0006850406,0.006523769,-0.0025780618,0.00087858527,0.0078103165,-0.0056819855,0.0016739521,0.0009795872,-0.005119356,0.009083452,-0.0009799646,0.00341257,-0.0031344956,-0.0030122953,0.010707918,0.0065958127,0.007894246,-0.0060646157,0.004580193,0.006051893,0.006025956,0.0069716163,0.012554685,-0.0010225363,0.005585433,0.008291411,0.006179697,0.013203545,0.011963162,-0.00028826983,0.015084029,0.0020776023,0.011518123,0.011556929,-0.00097219145,0.0018421443,0.0006529953,-0.0010770389,0.0026173203,0.010070508,0.0035230787,0.012048015,0.006077503,0.007032956,0.000054241817,-0.0063045756,0.0024652977,0.0020890557,-0.0029307785,0.0016878956,0.0035423532,-0.0020823167,-0.0016742555,0.008639141,0.0002302548,0.0013807545,0.0042403196,0.007154395,0.002309888,0.0053214007,-0.009101054,0.010117828,-0.0042140367,-0.007845584,-0.00238845,-0.0024351052,0.005133384,-0.003888021,-0.007944397,0.007124089,-0.0049717487,0.001521902,0.005581177,0.011111948,-0.0012228113,-0.0025237843,0.010460963,0.0049388,0.0025190366,0.0100008985,-0.008428308,-0.0044718795,0.002780668,0.0032821957,0.0025124806,0.011203091,-0.0053900685,0.011470363,0.013738295,0.0091747,0.0053884094,0.0013265775,0.0060330797,0.006501529,-0.0027739485,0.005140105,-0.003593346,-0.008593246,-0.0052260077,0.0042943577,-0.002528711,0.009715,0.00017501325,0.0009799079,-0.008521589,-0.0017419107,-0.009979508,-0.0049332655,-0.0042894925,0.0016010986,0.005891393,-0.00007009129,-0.005386214,-0.0027658835,-0.0009047494,-0.0061054523,-0.010516369,0.0010273895,0.003228462,0.0020436004,0.005093539,0.0023674937,0.009081538,0.0026287013,0.0021949688,-0.009036973,0.0040500057,-0.0068056462,0.0012631938,-0.00997932,-0.008907156,0.0037462148,-0.010658194,-0.0058518318,-0.0024366784,-0.001579596,-0.00063895714,-0.0030290494,-0.0033310433,-0.0010762223,-0.003141753,-0.0015640397,0.005772553,0.011334527,0.0002490769,0.0076701,0.013311321,-0.0026615667,0.000050221483,0.010790105,-0.0044847233,0.00954633,-0.00135493,0.0028294832,0.002903406,-0.0021212087,0.002871057,-0.0045506936,0.000113586706,0.000099943085,0.008575484,0.006092857,-0.0029441277,-0.0020801208,0.0079770945,-0.004491667,-0.0009089918,0.00788721,-0.0005698522,-0.0036625187,0.0072448384,-0.004761705,-0.0034404546,0.0042828657,0.0072151846,0.011552698,0.014195171,0.0009111764,0.000038610073,0.008905139,0.008542595,-0.0018600478,0.0025990154,-0.006627328,0.0022135952,0.0033715593,-0.0043865284,-0.0042468654,0.011246581,-0.0035848725,-0.002721348,0.0021895433,0.0028556348,0.0017771752,0.0010687514,0.011058502,-0.0021551575,-0.0028765434,0.00094005006,0.0051171156,-0.006848027,-0.0024026786,-0.010403542,-0.0013719386,0.005054752,-0.0018125897,-0.0054647652,-0.00377492,-0.00042977405,-0.0069101304,0.010306924,-0.005369474,-0.00845652,-0.0038934667,0.000027219621,0.0012881438,-0.0013606247,0.0105826175,0.005784539,-0.0050871107,0.012012851,0.008625654,0.0062201126,0.0045135636,-0.0054018395,-0.0009793785,-0.003459631,-0.005626401,0.0040707374,0.0051599555,-0.0042350357,-0.0044282675,0.007419121,-0.0064610634,0.00023101812,0.0043372354,0.008062004,-0.004314842,-0.0025952302,0.0017733189,0.0006481933,0.005999518,-0.0009962635,0.002644337,0.0017527026,0.000103020466,-0.0024935328,0.010302743,0.00818733,0.00598855,0.008853872,-0.0069713197,0.0035082176,0.008980054,-0.006149463,0.0002627254,0.004253637,-0.006352563,0.007087634,0.002516444,-0.0073812543,0.0041062757,0.00689889,0.00002172325,0.0013769397,-0.004965922,0.00008669992,-0.007871975,0.0014094352,-0.006891886,0.0005456878,-0.0060832817,-0.00072164077,-0.0012728893,-0.004571002,0.004708026,0.0038182677,-0.003114933,-0.006192395,0.0037839743,-0.0011896923,-0.0055485535,-0.00065314793,0.010301457,0.0024140268,-0.0018543606,-0.004740644,0.008242168,0.0012280438,0.002586701,0.011394647,0.001992789,-0.0075482824,-0.0028392589,0.007527152,-0.0011619569,0.0027990777,0.0021718699,0.0030749864,-0.0062649893,0.0018214708,-0.004295116,-0.0023807946,0.0062212865,-0.008958841,-0.0060299607,-0.0047331676,0.009477162,-0.00033251048,0.007960536,-0.0008453304,-0.003164585,-0.0009534134,-0.002825437,-0.00567005,-0.0014379803,0.0042583286,-0.000110779925,0.002799961,-0.0019148707,-0.009449116,-0.0082703745,0.008697657,0.000998397,-0.0015585249,0.007432397,0.0010098018,-0.006188197,0.004689075,0.0069079194,-0.004634271,0.002111155,0.0020087133,0.005760296,0.004394848,0.0031283959,0.0034539814,0.010443564,-0.0004890073,0.0012258674,0.0020981033,0.0093085,0.0019088605,0.008640114,0.0044194073,0.008518394,0.007046492,-0.0042320006,-0.003833441,0.001702735,0.0067629046,0.008603153,0.0032638,0.00860164,-0.0044591413,0.00281677,0.001010327,0.0096922405,-0.003357058,0.0071155555,0.00006603029,0.0066931136,0.012798428,0.0019420213,0.008595508,0.011653175,0.004709564,0.003125077,0.0006018293,0.009195763,0.0019572587,-0.0054502194,0.009524312,0.008019799,-0.0023971517,0.0023637824,0.0051839775,0.0029892235,-0.0036529766,0.008214278,-0.0023852987,0.009056828,0.006989578,0.0075197998,0.010494982,-0.004927084,0.0041373414,-0.0024674442,0.0016847037,-0.0020280385,-0.00080152636,0.0016615593,-0.00014621553,0.0035589458,0.0072417203,0.0006153481,-0.0049060048,-0.0060230535,0.0074093672,0.00792621,-0.00558134,0.0075750584,0.0027323144,0.0010397198,0.007850271,-0.003284934,0.003993478,-0.0022870265,0.008108704,0.013486191,0.009665038,0.0047200425,0.007906525,0.0041143335,-0.0053063366,-0.0025699744,0.00377201,-0.00032187582,-0.005931372,-0.0013533175,-0.0061056674,0.0046749786,0.004930891,-0.00041278114,-0.0029888346,-0.0049800323,-0.0069102165,0.009628303,-0.0029672305,-0.007524856,0.0038452547,0.0065851626,-0.0039037825,0.009180228,0.0007732613,-0.010862506,0.0005570216,-0.0021305007,-0.0005677891,0.00097141403,0.0052838656,-0.008235685,0.006856713,0.0008244779,0.0055282936,0.01029388,-0.0038137997,0.00031289767,0.005026648,0.0061641405,-0.008866739,-0.0029341567,-0.009392962,-0.007877641,-0.00002022064,-0.0030858193,-0.0021961299,0.005531472,-0.010225528,-0.007032472,-0.0007657494,-0.0057194484,0.005305516,0.008141728,-0.0037283658,-0.0034969014,-0.0025219528,0.004171101,-0.006407254,0.010422249,0.0020670448,0.006811854,0.0020021922,-0.0018730896,0.0073887086,0.0035296425,-0.0048753377,-0.0041855755,-0.007045688,-0.00679191,-0.0009835534,-0.0016098757,0.009820041,-0.004038215,0.003977769,-0.007767888,-0.007638818,-0.0053038686,-0.008025138,-0.0004584925,-0.0012996533,-0.007742222,0.002110461,-0.0029665837,-0.006328429,0.0051730988,-0.002767055,0.006091786,0.0040296162,0.0028061501,0.001096298,0.0043359576,-0.0018127589,-0.002158018,-0.0053790337,0.008793212,0.0017300362,-0.0032447458,-0.0037820907,0.009101835,0.00496759,-0.001242637,-0.0036295338,-0.009056085,0.0031699245,-0.0062637953,-0.0072818035,0.0017104024,0.0024888127,0.00084128143,-0.0044127787,-0.000685343,-0.008803945,0.007995167,0.009170898,-0.004935537,0.003850462,0.0037572,0.0043660267,0.010108983,0.013789093,0.00082804,0.007559849,-0.0016867345,-0.002716117,0.009652849,-0.0020797895,0.0062556076,0.010238577,0.0009099023,-0.003944857,0.009823801,0.005987612,-0.0039022285,0.007744612,-0.000893234,0.010076723,0.00949383,0.0009953966,-0.0005129124,0.0022453703,0.008922637,0.0014117418,-0.009046304,0.0005833317,-0.00656018,0.009216152,0.010813867,0.0023098255,-0.000072146766,0.0073007625,0.001937914,-0.0075452123,-0.0032234464,-0.0060739177,0.0033168613,0.0030895781,-0.0056193704,-0.004327995,0.0027260713,0.0046107583,-0.0008039843,0.011154354,0.0035647722,-0.004543954,-0.00020198754,0.0014048837,0.00005701536,-0.0031224827,0.0050398135,-0.0076661897,0.0041992757,0.0016812319,-0.006159264,0.0096646035,0.0059371046,-0.0004003426,0.0041406043,0.0076157562,0.0037558516,0.005560853,0.005413527,-0.0033458131,-0.006425092,0.004367244,-0.0042607747,0.0065940656,0.005829427,-0.0040512183,0.006480354,0.0077047073,0.011815811,-0.0021005736,0.0026824407,-0.0027953307,0.008572879,-0.003591281,0.012644789,0.011084446,0.0046167085,0.0025304363,0.00071863184,-0.0038154444,0.007314821,-0.006621577,-0.0041015055,0.0055099726,0.007374871,-0.0011090271,-0.0013431216,-0.0009146337,-0.0009107664,0.008626891,0.0007542298,-0.006079079,-0.0034190796,-0.00020495236,0.009093444,0.003184025,-0.0012785663,-0.005218157,-0.0042792894,0.006093659,-0.0035584993,0.00763761,-0.005159884,-0.010408695,0.009074844,0.001628181,