{"b1":{"v":1,"dim":[20,1],"data":[-0.00027445005,-0.00048020543,-0.009303065,-0.006461393,0.00007426442,0.0189086,-0.00966768,0.0026858787,-0.00043727516,0.017126644,0.009782407,0.0014631439,0.004202324,0.007857288,0.012528715,0.008694087,-0.0053057224,0.008349204,0.007012586,0.0]},"W4":{"v":1,"dim":[1,5],"data":[1.1027461,0.10229863,0.07613412,-0.32299715,-1.1294451]},"W1":{"v":1,"dim":[20,12288],"data":[-0.0013947445,-0.006979812,-0.001289732,-0.008924382,-0.0085149845,0.0051741283,-0.004017096,-0.006951439,0.0077837445,-0.0014429996,0.004845535,0.005924156,0.0027400954,-0.0075467257,0.00078736467,0.0014458259,-0.009043019,0.000106210166,-0.0055849524,0.003796081,0.007111404,-0.0011114269,-0.0053604203,0.0074460804,0.00063865987,0.00892138,0.007797725,0.005815545,0.005121336,0.004969083,-0.003181435,-0.0058751265,0.008921416,0.0035175418,0.002282626,-0.0017301893,-0.0023678518,0.007191126,0.006858418,-0.001088408,0.007369758,-0.007832493,0.0049236272,-0.0022233939,0.007505992,0.007069332,-0.00032039307,-0.00048694087,0.0027588762,-0.0051409416,-0.008533442,0.006141527,-0.0006814095,-0.008739575,0.0007132336,0.006554814,-0.0015650749,0.0052290047,0.007629453,0.0031585419,0.006731399,-0.0032814983,-0.002934319,0.0060002357,0.008757122,0.0032380708,-0.008462977,0.0075904108,-0.008388538,-0.008170939,-0.004725332,-0.0075943717,0.005281853,0.002701034,0.0032745926,0.0010105213,-0.00064263097,-0.0015730434,0.008053854,-0.00008485477,0.0050142063,-0.0027599863,0.0069818613,0.0067399037,-0.0007750629,0.0012493734,-0.0042563616,-0.0010414099,0.0021088566,0.0056226035,0.00084342354,0.0016824885,-0.008417562,-0.0027646725,0.005440914,-0.0036004903,0.0013731802,-0.0043940158,0.005046331,-0.0055464488,-0.0044974536,0.006432777,0.0076182135,0.0050628074,-0.0046293205,-0.0029202912,0.006705192,0.002663191,0.0067252633,0.008685325,0.008290122,-0.0004178087,-0.0013312015,-0.0008117403,0.005924387,0.00074175914,-0.0044051865,0.008993798,0.0026769498,-0.0034317768,0.00081593654,-0.00073384715,-0.0056019807,-0.0002611192,-0.006163919,-0.0037177939,-0.000100757905,0.005543339,-0.0022538297,0.008311378,-0.0028714242,0.003391245,-0.0072530746,0.0040565273,0.0018304379,-0.0029464487,-0.0036710156,-0.0017991991,-0.0016745945,0.008654125,-0.00860807,-0.003654338,-0.0013761191,-0.00027910495,0.0031617084,0.0044185566,-0.0038651042,0.0060790344,0.0076688197,0.0019745785,-0.0070860153,0.006750505,0.0007713475,0.0042197895,0.0038716292,-0.0037174672,-0.0018175091,0.00013030971,-0.003052929,-0.005355369,0.0011678713,-0.004305082,-0.007145375,0.0003442772,-0.008541096,0.0014520738,-0.0055827727,0.0076782545,0.0012660061,0.003538063,-0.007281214,-0.0034334767,-0.0046542496,0.0055933315,-0.0036072843,0.0013074054,-0.0076900683,0.0071444507,-0.0037478672,0.003351305,0.0032649627,0.0073487298,-0.005592448,-0.008946834,-0.0073876814,0.008551824,-0.0015697682,-0.0031363089,-0.0017530449,0.0036221654,-0.0062781326,-0.002212923,-0.0067214165,-0.004411756,-0.0033658738,-0.00033320612,0.004525307,0.0018951296,0.007380044,-0.00416964,0.003416187,-0.0024654162,0.007782418,-0.0021567766,-0.008680288,-0.002521435,0.0038331659,0.0036318144,-0.0033419775,-0.0025895317,0.0040998617,-0.008071133,0.0028327769,0.0007822929,-0.0013808626,-0.000008514319,0.0017144401,-0.00539871,-0.005929059,-0.008400181,-0.008585318,-0.009025873,-0.0046630222,-0.003514078,0.008358839,0.008955922,0.007853037,-0.006578281,-0.0024167276,0.00038976272,-0.0034966203,0.0043178215,-0.0018929217,0.001656887,0.0049640373,0.0030489257,0.0044463584,0.0019014258,0.0062488765,-0.0084204525,0.0015834091,-0.005824077,-0.0017029139,0.001210734,0.0042999354,-0.0020251519,0.006233955,-0.0072106714,0.006264102,-0.007983262,-0.007318514,-0.006939703,0.007887597,-0.008351441,0.0064457697,0.0009718567,-0.0074542877,0.0046559414,-0.00828154,-0.0025724347,0.0070440257,0.0029351823,0.002140654,-0.0070398003,0.0007257449,-0.008855352,-0.004665528,0.0015170929,0.0020229863,0.008085663,0.0073109725,0.004966112,-0.0031763508,0.0031954674,-0.002820363,-0.0045225867,0.006175557,0.0032489568,-0.0007659302,-0.0064903647,-0.006745859,0.0064983,0.008959424,0.0017751713,0.0054584676,-0.0026490837,0.007924241,-0.0014550481,-0.009048261,0.0019113447,-0.006183453,-0.00387932,-0.00023519286,0.001905225,-0.0009579216,0.008777814,-0.008126127,-0.005803345,-0.009022343,-0.00035737955,-0.004145229,-0.007961461,-0.0011655344,-0.0011538034,-0.007873545,0.00866551,-0.0008664704,-0.0076709893,-0.002092112,0.007591801,0.0069359886,-0.0021076452,0.008931973,0.005018806,0.0011276746,-0.0067649325,0.001268326,0.003348596,0.00045579375,-0.0022245864,0.0027952616,-0.0023303025,0.005302118,0.0052851355,0.0027205283,0.0063923676,0.0078551145,0.0023086173,0.008889848,0.006385318,-0.004366479,0.0021877969,0.0041571558,0.0036533023,-0.003912826,-0.006697251,0.0014886975,0.004931403,-0.0017789118,-0.0030404394,0.008395579,-0.0018269836,-0.0022214693,-0.00832592,-0.0012532547,-0.0007278052,0.0021757989,-0.008949431,-0.0059706448,0.0022641576,0.0014857636,0.004110927,0.0012181369,-0.007711226,0.0043413523,-0.0010192868,0.008041894,0.0019970357,0.0015346837,0.00042708652,-0.0076802755,-0.002125699,-0.0017808094,-0.0059703733,0.0007247982,-0.007842528,-0.0007322428,-0.004428989,-0.002288974,0.00390348,-0.0020676656,-0.004935342,-0.0077675954,-0.0055412045,0.007903752,0.0063873185,0.00444096,-0.0041886163,0.0031376022,-0.0064671235,-0.008798774,0.0010230101,0.0036143376,0.008754922,0.008970078,0.0056355535,-0.0008829289,-0.0073897867,-0.009086772,0.0059536207,-0.006875383,-0.001243975,-0.005873713,-0.008709971,0.0011354911,0.00780155,0.00080573297,0.0074051665,0.008174987,0.0062883357,0.0032865563,-0.0068609663,-0.0045818905,0.00830449,0.0019532254,0.00770007,0.008146431,-0.0028394943,0.004041506,-0.00903165,0.00665615,-0.0026099554,-0.000659314,0.005243604,-0.008628055,-0.0024277633,-0.0065902025,-0.004689394,0.004838085,-0.004455407,-0.006548444,0.0055523193,0.0008259747,-0.006414095,-0.0038604108,-0.0076566692,0.000058841382,0.0040601874,-0.00207999,-0.003437803,-0.008388647,0.0032237547,0.008847525,0.0006117987,0.0031362937,-0.0075232014,-0.006083069,-0.0033796264,-0.006500993,-0.002383727,0.003924025,0.004117736,-0.0022383183,-0.00033855226,0.004649206,-0.0030147247,-0.0044769966,0.0014550538,-0.008106405,0.0005999777,-0.00302787,-0.00664684,-0.005169608,-0.0016365527,-0.0055002114,-0.0022792362,-0.0039532143,0.004343113,-0.006035056,-0.0039045645,-0.0018082646,0.006799989,-0.0033158194,-0.0077647143,0.002194035,-0.0057398393,0.008807811,0.004272126,0.0066912365,-0.0030530544,-0.0076917587,-0.0014850949,0.007335255,-0.00014337777,-0.0020999678,0.0030002783,-0.008820154,-0.0074550635,-0.008902812,-0.008774833,-0.0030296566,-0.0078980625,-0.0039778342,-0.0062859273,0.004548994,-0.0025366463,0.0062537417,0.005742059,-0.00048920896,-0.006629565,0.0010099745,-0.0061185975,-0.004294169,-0.0003881236,-0.0062056817,-0.004824532,0.004825251,-0.001003109,0.0049197804,0.00712537,-0.008333825,0.0023652576,-0.0051272316,-0.0042395503,0.0027794722,-0.0012072241,-0.001650086,-0.0062057395,0.0014718999,-0.0063046482,0.0007697987,0.006597387,-0.007260875,-0.003195261,0.007639117,-0.00045351515,-0.003911934,0.0048633134,0.0048829913,-0.0063299597,0.0045644613,0.00039253943,0.008972247,0.0067154276,-0.0010493083,0.0038756952,0.008334548,-0.008014201,-0.005755724,-0.004118584,0.0049285674,0.007763637,-0.0037793098,-0.00046623885,0.0030693072,0.0025071988,0.004812398,-0.0028970959,0.0055198055,0.008900111,-0.007091688,-0.006000536,0.0065275296,-0.0015731427,0.0071482896,0.007599977,-0.0017584321,-0.002374602,-0.0022388543,0.000043602515,-0.0039160545,-0.008671858,-0.007933847,-0.005148469,-0.007016665,0.006880859,-0.004028736,-0.0020334658,0.0061592786,-0.0031413096,-0.00714907,-0.0043127746,0.0009457064,-0.004249789,0.004175824,-0.008675085,-0.00243107,-0.006629653,-0.0068991566,0.002970949,-0.002554001,0.0030412553,0.0018209567,0.00328731,-0.0031154356,-0.0047430913,-0.0035702875,0.005789601,0.0031807339,0.00034482902,-0.006069584,0.002203216,0.00797927,-0.0006094099,0.0010395665,0.008418991,-0.0016510508,0.006738342,-0.007901376,0.000064259286,0.0017410078,-0.007945373,0.008785148,-0.0053300504,-0.00090787094,0.0036464431,-0.002672072,0.0042848755,0.0016759778,-0.0023759168,-0.0016979534,0.00049264415,0.00014430202,0.006092843,0.00409931,0.0043990873,0.008357592,-0.0077739134,-0.004006424,0.0014701211,-0.007468396,0.004127854,0.00013351679,0.008850579,-0.0073651886,-0.006653325,0.0030588706,-0.0050650244,0.0024470687,-0.000727277,0.0017817485,0.0019946531,-0.0074716625,-0.007831388,0.003647601,0.001315095,0.0065905266,-0.00026898237,0.0010222036,0.0075101424,0.0055632093,-0.0028530355,0.0016955967,0.0040547373,0.0010834556,-0.007096131,0.0072497823,-0.003642399,-0.0014066185,0.00053363247,-0.008349167,0.0007160349,0.00692641,0.0018561444,-0.008764431,0.0038814256,0.008473747,0.007597325,-0.007869432,-0.0024058262,0.0005024493,-0.0016144045,0.0020360455,-0.0040371837,0.004646675,-0.0005792874,0.00552292,0.00091117737,-0.008977775,-0.0057178256,-0.007459703,-0.0046795905,0.0056314566,0.008145391,-0.00025413948,-0.007894464,-0.00075925497,-0.002816636,0.005912618,-0.0032304088,-0.009086253,0.00456994,0.007318795,-0.002104308,-0.0041586966,-0.0034871998,0.0004996054,-0.0036642207,-0.0039025836,-0.0018935229,-0.0012695569,-0.001558352,0.008284489,0.0020812876,-0.005413908,-0.00542254,0.0066360435,-0.0011379743,0.0030690373,-0.00027024857,0.0046159416,-0.0036800096,0.0033076454,0.0055789775,-0.00019150923,0.00470945,0.0053778267,0.007187616,-0.0054709897,-0.008290219,0.0002689322,-0.004945782,-0.00015811666,0.0013056315,-0.0040011196,0.0033553098,0.0052387966,-0.0030731948,0.008648229,0.007942971,0.001206248,-0.00022603248,-0.006854649,0.0035195067,0.00057811546,0.0027743995,0.008679265,0.005263911,-0.0057203243,0.0007591799,-0.0043923985,-0.0007366287,0.0061950763,-0.00002093857,0.006338535,0.0015298596,0.004533647,0.0006857612,0.0062842374,0.000088935434,0.000030008154,-0.0006437481,0.008084022,0.0040317113,0.0035081184,-0.00075664703,-0.001557231,0.004563832,0.0005041551,0.004561346,-0.0012729969,0.0013175567,-0.00275489,-0.005113191,-0.0023109736,-0.00050051935,-0.006799388,0.0072872657,0.00196046,-0.0063520195,-0.004175182,-0.0035795418,-0.002324644,0.0018504856,-0.00014766962,-0.007847392,0.00841051,0.005964786,0.008839441,0.0024734284,0.0040433896,0.00325305,0.006333849,-0.004242704,0.004300476,-0.008446422,0.008395203,0.007163003,-0.0043880125,-0.0075446684,-0.003689983,0.007305477,0.007650037,-0.0070431163,-0.005334892,-0.004466813,-0.008551174,0.008486546,0.00025488427,-0.008654468,-0.0060841977,0.007584578,0.008139428,-0.0039057864,0.001010498,-0.0027481855,0.0026280938,-0.008816907,-0.008518377,0.0007216602,0.00120769,-0.000802846,-0.0049099894,0.004732808,0.003862168,-0.00014706897,-0.0013551634,0.0043354845,0.0007777035,-0.008472332,-0.0037024105,-0.0075910357,0.002409711,-0.00872223,0.0058785332,0.0054497593,0.001547268,0.0006833164,0.0021525933,-0.0021412368,0.008031562,-0.0068479446,0.0043710573,0.0013413405,0.0032365432,0.0063749617,-0.0057680216,-0.0076661585,0.0010609935,-0.00078429136,0.0016188471,-0.006635094,-0.0046485467,0.006982025,-0.000019716386,-0.0023633346,0.00013168315,-0.0054134093,0.00046474382,0.0025801437,0.0027371643,-0.004372986,-0.0063996986,0.005480496,-0.0054382742,0.004884875,0.005315211,0.007192312,0.0001748501,-0.008002137,0.008173286,0.0016790268,0.00065105216,-0.001718456,-0.008942951,-0.001249427,0.008069504,-0.0041661058,0.0043114023,-0.007699606,0.0031464836,0.00063585973,-0.0060069133,0.0055424655,-0.007114174,0.007136145,-0.0056955353,0.0070433454,-0.007026875,0.007099328,-0.0019704762,-0.006209947,0.0020286979,0.0017586952,0.00900415,0.007420862,-0.007868456,-0.003020199,0.0012004998,-0.0025429481,-0.0051171426,0.007341659,0.0009798602,-0.006258537,0.008380707,0.0078726765,0.0061541214,-0.0076335063,0.003748173,0.00877008,-0.00030023296,0.00029300345,0.007260309,-0.0017770068,0.0019832323,0.0069029867,0.006569877,0.0012347708,0.0033023697,-0.0027699214,-0.008763457,-0.0064057303,-0.008575122,0.0043228385,0.005221945,-0.0035343722,0.001765565,-0.0063977446,-0.008858079,0.007316478,0.0088419635,0.005148257,-0.000879424,-0.0076869954,-0.0029654352,0.0056380583,-0.0028622835,-0.002736295,0.00013513613,-0.000408877,-0.0065721236,0.0051058163,-0.009042892,-0.0022183566,0.0057462933,0.0015441477,-0.0033171917,0.006169092,-0.0067853592,-0.0016631319,0.00627787,-0.009064719,0.005157619,-0.00035165835,0.0025414426,0.008428081,-0.008135689,-0.008203231,-0.008396147,0.0016964509,-0.0025804238,-0.009067347,-0.008842199,-0.000027647993,-0.0023838445,0.0052743983,-0.0015335628,-0.0058960835,0.0058428585,-0.0071913456,-0.0069105327,0.0027416127,0.0056862845,-0.0047824825,-0.0058385073,-0.001969257,0.0059951274,-0.0025751663,-0.006439503,0.008124057,0.0023059053,0.0028695883,-0.0055624023,0.0078018573,0.0053687096,0.0046146433,0.0037999232,-0.008100555,0.0010654521,0.002758726,-0.0073277634,-0.0028244671,-0.004826838,0.006695237,0.00041284156,0.0014356367,-0.0051710703,-0.0072940793,-0.0043983827,0.0021947348,-0.0064565185,0.008428257,0.0011159368,-0.000035266174,-0.004092836,0.0032594542,0.0058700806,0.0036144457,-0.0036708268,-0.006509032,0.004655464,-0.00037525766,-0.003563254,0.0055639297,-0.0032991534,0.00867796,-0.001474919,0.0071857027,-0.0062964275,0.0029445642,-0.00509879,0.0071673687,0.0048649814,-0.0014816509,-0.0014419847,0.008352408,-0.0050591645,-0.004982964,0.006393803,-0.0018625236,-0.004856975,0.0020369699,-0.0033754904,0.0051933345,0.0072507416,-0.003058926,-0.0073467204,0.000953855,0.0057852184,-0.0070592496,0.0030281227,-0.0018050185,0.0059244917,0.006205791,0.0040443414,0.0025505438,-0.00041841355,0.0037284899,-0.0029887652,0.0032411313,0.0070205405,0.009021316,0.0060824635,-0.0048555485,-0.00881932,-0.003526689,-0.0005038669,0.0000493072,-0.0021990195,0.007434618,0.008163568,-0.0011681346,0.004889563,-0.0032254704,-0.0018108862,-0.0026538072,-0.00865152,-0.008890448,-0.0035190864,0.0063574775,-0.00018243205,0.008717966,0.0049793827,0.006691091,0.0019197029,0.0010071434,0.00042174023,0.001745509,0.0081448965,-0.0070708073,0.0061839935,0.0029276093,0.0042534564,-0.006728296,0.001171539,0.005570859,-0.00051101623,-0.006275234,0.007678664,0.007764165,0.0056392094,-0.004569986,-0.007478653,0.006218202,-0.0030445498,-0.0062168315,-0.002722967,-0.0018181497,0.0037775845,-0.005861878,-0.0035213681,0.0068667494,0.0020562503,0.0076321587,0.008392327,-0.008445371,0.0010092752,-0.004041149,0.008707552,0.000064575,0.0055084387,-0.007276445,0.005398344,-0.003119675,-0.00832646,0.00016044703,0.0054937457,-0.0010964329,0.005069528,0.0076606506,-0.008789579,-0.0059466544,-0.00635743,-0.006245925,-0.007895077,-0.0011962414,0.0025333834,-0.00009846851,0.004211525,-0.007761235,-0.0076040416,-0.0030895993,-0.005173066,0.002794478,-0.008820885,-0.004764087,-0.003195308,-0.001603335,-0.007377071,-0.0024706172,-0.004200369,-0.00072295585,-0.0035381047,-0.0025227126,-0.0039378563,-0.0010196485,-0.0023987482,-0.00057823455,-0.0008912806,-0.0028153458,-0.0066189733,0.000094268,-0.003981087,0.0000505229,-0.008802639,-0.0018875365,-0.0063183126,-0.006391253,-0.002780696,-0.0027244017,0.0019026165,0.00831555,-0.0018396529,0.007541001,0.004015796,0.007584837,-0.002882349,0.00380687,-0.003996766,-0.005853038,0.004009177,-0.0077718897,-0.0030506249,-0.0048646173,0.0008568922,0.00870994,0.0029588023,-0.008084999,0.0019320411,-0.0048667807,-0.0070041763,0.0021649892,-0.00016369043,-0.003964506,-0.0018795717,0.004369064,-0.006582462,-0.0075974977,-0.0048978496,0.005558262,-0.0067387223,-0.009013792,-0.001689055,0.008582257,0.0010463347,0.006096564,-0.00022458266,0.0066843308,-0.0028915186,-0.00850507,-0.00013067415,0.007679409,-0.0010901706,-0.0029678633,0.0013172089,0.004073674,0.0034297616,-0.0062693623,-0.00030338243,0.0017443715,-0.0036075572,-0.00023720098,-0.0043854252,0.008054741,-0.000672754,-0.00030972398,0.0050010993,-0.00009126071,0.0057181437,-0.0010799203,0.008909867,0.00722946,-0.005307729,-0.0035233477,-0.008866471,0.0066703265,-0.0033615406,0.007919572,-0.0027161613,0.001277965,0.0053044725,-0.0058190916,0.008433419,0.0028005333,-0.0057567838,0.008530478,-0.0073717656,-0.004976209,0.00437478,0.0034230207,-0.004884891,0.008601173,-0.005912494,0.0076576658,-0.0005641353,-0.0030628303,0.0006120947,0.0010686734,-0.0068079396,0.001273575,-0.007067599,0.0056805992,0.00508292,-0.006642021,0.0008474361,0.0010478626,0.00068736594,-0.0029545457,0.0001476059,0.0076606423,0.0028873915,0.0029530597,0.0074336217,-0.004013758,-0.002613834,-0.005141849,0.0050270436,-0.005603412,0.00012341501,0.0051361783,0.0066282107,-0.00578366,-0.00044198293,-0.0060995347,0.007966061,0.0018069515,0.0057289796,0.0010948809,-0.005737423,0.0074930773,0.0070693204,0.0046486626,-0.0017548891,0.0063743154,-0.0090923915,0.0057524545,0.0019796498,-0.007426013,-0.0022165223,-0.001026542,0.006248921,0.005687454,0.0022596945,-0.006785704,-0.0070299786,-0.0025825312,0.0019185845,0.003920833,-0.00019206399,0.005480376,-0.0018636177,-0.0040836856,-0.008527837,-0.0024096563,-0.008236429,0.0081651425,0.007648065,0.007464854,-0.007688402,-0.0025177763,0.008424647,0.0012952272,-0.0021571661,-0.007091764,0.0025515798,0.0022172367,0.00018197246,0.0020345496,-0.00045401693,-0.007789169,-0.006212399,0.0071339197,0.0057181576,0.00801017,-0.0062413076,-0.004443056,-0.0056107948,-0.0074905246,0.0020657287,-0.0026048694,0.007262859,-0.0011335051,0.008268634,-0.001405707,-0.0005723685,-0.0081367185,-0.006782444,-0.002564645,-0.008219323,0.0034875597,-0.0051194895,0.004354537,0.0009785184,-0.00054206926,-0.0026442837,0.0029135477,-0.0029507193,-0.004758047,-0.0021073376,-0.0037675118,-0.0054156696,-0.0071404125,-0.0010079467,-0.0013448937,0.006498025,-0.0034788824,-0.0047811754,0.00022018906,-0.0055889483,-0.0034156395,0.0044178255,-0.008146723,-0.002716992,-0.00204634,0.0047760806,0.008192145,0.002211377,0.0016218114,-0.0069625457,0.000840282,-0.0037335965,0.006997152,-0.005511895,0.00450399,-0.00068267656,-0.008462957,0.004793801,-0.000818287,0.0039060875,0.005281402,0.005629977,0.00386014,0.0021039895,-0.006266861,-0.008571466,0.002641339,-0.001653239,-0.0059284964,0.0017897539,-0.006524987,0.006116248,-0.008173622,-0.00033143803,-0.0054195346,0.0019951246,-0.0076819644,-0.0028476508,-0.0017642644,0.005511853,0.0009498248,-0.0034415575,-0.005193021,-0.0045269253,0.0067779436,-0.006440008,-0.0019199818,-0.0032365953,0.0031390528,0.0018251709,0.003484053,0.0076865405,0.0066615725,-0.0017641995,-0.0029588086,-0.005114777,0.003969915,0.0022621437,-0.0023989796,-0.0043352153,0.00842653,-0.008167359,0.0058466997,-0.0019235675,0.007189996,-0.0010550361,-0.0051137707,0.002543351,-0.006540573,0.0048685446,0.00026899338,-0.0008445532,-0.008729232,-0.002808873,0.001399891,-0.0070984014,-0.00031122752,-0.0062971013,0.0086957365,0.0041883155,0.008490922,-0.00862084,-0.0031006385,0.0068546943,0.0039745844,-0.00083724625,0.0066137305,0.004480686,-0.0044822334,-0.00150552,0.0069656176,0.00058232807,-0.0044994787,0.008906411,0.00845326,0.007290234,0.0010945337,-0.0049586287,0.0068387594,-0.0043678014,-0.0019870643,-0.00199118,0.0015236221,-0.00080557,0.0065604877,0.0009996564,0.0055681453,-0.0018818051,-0.00784193,0.0017237779,-0.005966297,-0.0008079908,-0.007963744,0.0070512784,-0.007352715,0.0033331416,-0.0051335352,0.0075225662,-0.0045083533,0.0030630685,-0.006483548,-0.006115653,0.008534595,0.0073633688,0.006533568,-0.003788945,0.0006272219,-0.0016163298,-0.0023620443,-0.0021188052,-0.008291935,0.005678234,0.0058686296,0.0061400323,0.0013084573,0.0018446755,0.0003892668,0.0029451482,-0.003309605,-0.008062823,0.005246641,-0.006914624,-0.0050982456,0.0022834423,-0.008128013,-0.0044902926,0.003306407,-0.003273096,-0.008912914,-0.007876835,-0.006271263,0.00603622,0.007029557,0.0046208613,-0.0045275646,-0.0056097833,-0.0022181768,-0.006350805,0.0042757043,-0.0013537793,-0.0033264342,-0.005833964,-0.0033068163,0.0065185726,-0.007743655,0.0041194675,0.0076511386,0.0062463856,0.0049397806,0.0058662663,0.0060447813,0.0026619942,-0.00427984,-0.0003146515,-0.008387637,0.008748464,0.0024300248,0.001764815,0.0040821284,0.0022284698,0.0012752879,-0.0068767355,0.0036375523,-0.003243529,0.0067164493,-0.004422002,-0.0065172557,0.0072211795,0.0015492272,-0.0075138193,0.0017809307,0.00894231,0.00029937905,-0.004900043,0.003446222,-0.002335796,0.00547412,0.007940486,-0.0037244374,0.0030267548,0.00065509975,-0.0015836415,-0.0027220044,-0.001619184,0.0035468268,-0.0026936843,0.0034276121,0.0016326263,-0.00015165407,-0.0043783686,-0.008191718,0.007700471,-0.0054531284,-0.0037009763,0.0024910842,-0.0037894216,0.0014280501,-0.0024712703,0.0071734497,-0.0011761222,-0.004888914,-0.0008601271,0.0011333607,-0.008000074,-0.002055544,-0.008817671,0.004756969,0.008640604,-0.007498717,0.005256135,-0.0014801902,0.0068223015,0.0029964799,-0.006762949,0.008553747,0.0017363937,-0.0044798693,-0.0048573934,0.003211088,-0.006760342,-0.0031292578,-0.008205399,-0.0026043265,0.004514688,0.00001518232,0.0017562105,0.008960716,0.005244282,0.004221909,-0.0063025095,0.0070860903,0.00377869,-0.0034051256,-0.0031048388,0.0039518634,0.0068448163,-0.002884134,0.004578946,-0.005004841,0.00009187602,0.003055284,-0.0016910629,-0.007772371,-0.0011077136,0.0074391044,0.00086791866,-0.00060995464,-0.0010944959,0.003004721,-0.0044388026,0.0030237783,-0.0030686297,0.004460994,-0.0020850296,0.0010210024,0.004490749,-0.0018758936,-0.005044769,0.0075345165,-0.008735977,-0.003723314,0.0020349831,0.005085734,-0.008213914,-0.007087338,-0.0070288903,-0.00085434935,0.0075044804,0.0005046529,-0.0064695245,0.0014872196,0.006576905,-0.0046744286,-0.0050451225,-0.004808127,0.00017207164,-0.008114496,0.002679623,0.0028680614,0.000035688034,-0.005127342,-0.0075640427,-0.0075641447,-0.006949183,0.002973738,0.003917191,-0.000049709768,-0.0067600626,-0.0036502758,-0.008930559,0.005190345,0.00094867335,-0.007429731,0.0018926214,-0.005948464,-0.0038420588,-0.00076562254,0.0051778266,0.0024481106,-0.005611445,0.008868816,-0.004333059,-0.005237912,-0.008101097,-0.0065430556,0.0035356733,-0.0034605628,0.008982789,-0.00906988,0.0008424745,0.00035853992,0.0015982803,-0.008273448,-0.0016247762,-0.005663425,0.00565819,0.008251782,0.0022398501,0.0066445842,0.001352111,0.00085571205,0.006290092,-0.005465036,0.004922764,-0.004029532,0.00105675,-0.0008143608,-0.0029205054,-0.00046135005,-0.008558834,-0.0036556008,-0.0065501546,-0.0032582227,-0.0063642077,-0.00020284517,0.0032575657,0.00021200436,0.002252492,0.005647072,-0.00782838,-0.0031355992,-0.007195077,-0.0050692256,-0.0035827393,0.000102042526,-0.007858778,-0.004174325,0.0048041735,0.008385568,-0.0051235156,0.0069025937,0.005784862,-0.0029993507,0.00002432532,0.008693624,-0.007005232,0.00022791546,0.0057736076,-0.0079722665,-0.007967564,0.0034345912,0.007949261,0.0074970145,0.00097275426,-0.0007468743,0.0068613575,0.0014432153,-0.0041911276,-0.00081889,-0.007491717,-0.009105003,0.003328095,0.0009481382,-0.008092741,0.003630616,0.0006708528,0.001965047,-0.007451035,-0.002355634,0.0001532427,0.0018813255,-0.007086099,0.008701271,-0.008197141,0.00140288,0.0022218737,0.0044944175,-0.0059949583,0.0068634828,-0.0045756944,0.002947688,-0.009192985,-0.0061894553,-0.007576844,0.0013546614,0.007996767,0.0074330433,0.0062143705,-0.0052533075,-0.00036486375,-0.0057356553,0.0010117646,0.0072275135,0.0027661223,-0.0058565307,-0.008544231,-0.0068853605,-0.005756654,0.006209697,0.00086150377,0.0069028344,0.007157076,0.00053373823,0.00561632,0.0037690108,0.0069010537,-0.00900759,-0.0028311126,-0.0014867699,-0.003046593,0.0029453547,0.008686609,-0.005248847,0.002084704,-0.0047620274,-0.0023927293,0.003540364,-0.0005735774,0.0009132192,-0.00792426,-0.006703746,-0.005749787,-0.0030995498,0.0033795435,0.0076350407,-0.008729333,-0.007792722,-0.0070436536,0.00882855,-0.0057846718,0.006656695,-0.008225364,-0.008759745,-0.0080136685,0.0075890156,-0.001230006,-0.008577337,0.00014315244,0.007578089,0.0046080295,-0.005191865,-0.0049837446,-0.00639957,0.004946165,0.0031091904,0.005135699,0.0013255626,-0.0017205451,-0.0010080687,-0.00008718835,0.0058123847,-0.004479517,0.0067924685,-0.005347959,-0.008400691,0.0032176957,-0.00528256,0.004454169,0.006866898,-0.0031836224,-0.00527251,-0.007862619,-0.00455297,-0.008508604,-0.007103564,-0.004756451,0.0027726153,0.00606232,-0.004058928,0.006052493,-0.00670543,0.0033150204,0.004045932,0.0046011605,0.004080814,0.0020265372,0.00027002156,-0.005528679,-0.0062005827,-0.0068061408,-0.00040370334,0.004555872,0.0011052884,-0.0035849998,-0.0061370754,-0.0023799043,-0.009051228,-0.0072783977,0.002835099,-0.0085216705,-0.0022534635,-0.0010525582,0.0049181823,0.004194418,0.002281988,-0.0053905407,0.001937213,0.006527806,0.0036019864,0.0057379683,0.004152794,0.005771144,0.0019312783,0.00056801154,-0.0045719566,0.007833164,0.0034938983,-0.0003469795,0.0027401063,0.0038263993,-0.0050390507,-0.008098087,0.0053169397,0.00890648,-0.0016789589,-0.005048028,-0.008662664,0.0015227202,-0.0049058287,-0.0012654165,0.0020549614,-0.0003922492,0.0048375865,-0.0039739166,0.007023757,-0.0022956966,0.0031221153,-0.004300296,-0.0038662655,0.0007254294,-0.0059186905,0.004708057,0.005544817,0.0046576355,0.0055059018,0.0023640336,-0.003389498,0.007035393,-0.0030598694,0.00004640817,0.0022226297,-0.008637545,-0.0018819713,-0.0012012091,0.0065651205,-0.0002442088,0.0006641502,0.008948669,0.0020372085,0.0011776031,0.006972701,-0.0032441933,0.00059239,-0.008152899,0.0013496749,0.0046166624,0.0009565033,0.004932958,0.0058573834,0.0037248053,0.009058189,-0.0020927615,-0.0032146992,-0.00432251,-0.005385738,0.004741006,0.0050195553,-0.0007248373,-0.0075833374,-0.008216496,-0.000940617,0.007015641,0.0016859894,0.0021539654,0.0015294276,0.0058604283,0.007513949,0.0045377268,0.0006777891,-0.0021080775,0.0050104116,0.002342272,-0.0024392596,0.0047045834,-0.008062128,-0.004870291,0.0020818016,0.0016113998,0.0011862034,0.0047932025,-0.00020935864,-0.0009529047,0.0065989736,0.00348075,-0.005725826,-0.0010227357,0.005614589,-0.0026974888,-0.0015956659,0.0012046052,0.0083062025,0.0012459109,0.0013604003,0.008995961,-0.0076525235,0.005816328,0.006461576,0.00044446025,0.0031711785,0.0036195903,-0.0019043317,0.00846439,-0.0025476182,-0.0068123983,-0.007791517,-0.005011353,0.004508904,-0.0025819372,-0.006687429,-0.006517489,-0.0014725989,-0.00036812315,0.0076919002,0.00395005,0.001967678,-0.005377014,0.0064787045,0.0052205245,0.002234391,-0.0050729536,0.0027556063,-0.007694479,0.00049174123,-0.008688583,-0.0013908393,-0.0036305077,0.0004127848,-0.008283895,0.0077062906,-0.006177322,0.006056622,0.0006291247,0.007911966,0.0056714327,-0.0041664178,-0.0033725656,-0.0018301841,-0.0038858165,0.003638064,-0.0066231387,-0.0077918186,-0.0068230447,-0.0032825132,0.006987022,-0.0032519717,-0.006844171,-0.005277837,-0.0067823716,-0.003562521,0.004790398,0.0014231171,-0.0010679491,-0.0070533287,-0.0038601067,-0.008896293,0.00028312212,0.0040698014,0.0025796755,-0.0028910355,0.0009141591,0.0016322358,0.0025840348,0.0064585265,-0.0055302423,-0.00089814793,-0.003542242,-0.0002383292,-0.003478108,0.000463969,-0.0009802483,0.0030823888,0.00842236,-0.0015045617,0.0022548046,0.0059664403,-0.0023052827,0.0011212036,0.0040596444,-0.0074464837,0.0013218697,-0.009051525,-0.0077181384,0.0059107468,-0.0019720872,-0.002580803,0.0045311432,0.0006381324,0.0021721686,-0.0069382475,0.0035201213,0.0041837017,0.0067695472,0.0045395643,-0.001786727,0.004348492,-0.001854266,-0.005176536,0.0031968427,-0.004379509,0.0050060293,-0.0031512002,-0.0033067754,-0.008775057,0.003753377,0.0027126216,0.0067882906,-0.008984571,-0.0018581212,-0.0052842465,0.0005102247,0.002641558,-0.0061367173,-0.0015596469,0.0036051548,0.0019312938,0.0016250357,0.008412372,-0.00057265075,0.0022531487,0.0037815762,0.0060360786,-0.0037425812,-0.008639077,0.008664314,-0.0024929366,0.001886045,0.0062052202,-0.008015644,-0.0032592104,-0.0054455996,0.008007121,0.004390028,0.0013444455,-0.0067041744,0.0052138376,0.003529446,0.00030349471,-0.003142824,-0.000613531,-0.006877065,-0.0020852843,-0.009051716,-0.0009712447,0.008620252,-0.0063819634,-0.0036769973,-0.0018441052,0.008094112,0.007965865,-0.007997684,0.007111841,-0.000588685,0.0055685393,0.0060155564,0.0020469383,-0.008299146,0.004307752,0.004956729,0.0063311323,-0.0052554943,-0.001372923,-0.007878634,0.0020674074,0.008969906,0.0044738837,-0.005371118,0.007955086,0.00610309,-0.0005310153,-0.0064061233,0.0086114695,-0.0053510913,-0.0080118915,0.000008277565,-0.0023823252,-0.0064783106,0.008091872,-0.007062566,-0.003923141,0.008465529,0.0077659995,0.0016871046,0.00836767,0.009040745,0.005710599,-0.0022455116,-0.006840567,-0.0002582761,-0.00813023,-0.0034976075,0.0025314663,0.0032055066,0.003080107,0.008651511,0.007292185,0.0024434268,-0.0063613793,0.007172165,0.007713597,-0.0021616986,-0.0032773514,0.0042837993,0.0035699527,0.0025732238,0.0053530848,-0.007952284,-0.003221293,0.007501189,0.005277666,0.0035069957,-0.005703282,-0.005848974,0.005502423,-0.0038727901,-0.008024315,-0.004153497,-0.000701997,0.008838404,-0.008168905,0.0054098177,-0.0038396984,0.0049215453,0.0006934522,-0.0034923796,-0.0016332723,0.005777473,0.004046236,0.008102125,-0.0020206242,-0.0030945837,0.0070520784,0.00580311,-0.005460602,0.0015093543,-0.008260263,-0.0018325325,-0.0026128842,0.00018578419,0.0004492329,-0.0010985606,-0.0081269955,0.007530798,0.0005808166,0.0024721075,-0.0022972706,-0.006880646,0.00670585,-0.0055308216,0.0038189862,-0.0014221453,-0.005343631,0.0018219528,-0.006074308,-0.005951249,0.005071901,-0.0050228345,0.0029609725,-0.001894836,-0.0065065003,0.002915491,-0.00043218475,-0.007084489,-0.0066839727,-0.0046049794,0.002090653,-0.0034792656,-0.007327398,0.0074584656,-0.008684224,-0.008498097,0.0037202802,0.006901954,0.0018036265,0.008432428,-0.004798711,-0.008510948,-0.007081331,-0.007682748,0.004861307,0.0066423137,0.00445056,0.006208383,-0.005197771,0.005717167,-0.0022348494,-0.00016930324,-0.0069566327,-0.004529676,-0.0072081387,0.0033640617,-0.0038217183,0.0027955254,0.000988235,0.0013769649,0.0055368547,-0.0057281605,-0.0024967964,0.007550337,0.0021475723,0.0051794127,-0.006707283,-0.006419387,0.002539335,0.0009655401,0.007991833,-0.003458655,-0.0026397582,-0.008017928,0.0010430735,-0.0048696045,0.001524586,0.008944407,-0.008445321,-0.00714774,0.001990811,-0.0046648984,0.00755354,-0.006304673,0.002806362,0.0068367375,0.0039897943,0.00058191764,0.005105777,-0.008430885,-0.0013500222,0.007585616,-0.0070904,-0.0041947467,-0.0073163444,-0.0080983415,-0.0067520677,-0.0043708384,-0.00049004355,0.00048502357,0.0071419827,-0.005749469,0.0016370735,0.0027789297,0.0066981767,0.008323653,-0.007204403,0.0033157985,0.0027698507,0.0017693632,-0.0022790818,-0.0020732332,0.005933118,0.0010790317,-0.00268824,-0.0010332335,-0.008772039,0.0068722223,0.002881954,0.0030573031,-0.008075333,-0.0050910367,-0.006281075,-0.0047046733,-0.006831379,-0.0064662932,-0.0027120453,0.00392955,0.005718628,-0.00036202642,-0.009024346,-0.004844408,-0.008826547,-0.008869317,-0.005270488,0.0044112667,-0.0068038846,-0.0044644983,0.008129392,0.008980428,-0.005709335,-0.0009522467,-0.003943437,-0.0010343784,-0.006721655,-0.0028391057,0.0007409754,0.0069646323,-0.0038935132,-0.0063471934,0.008766866,0.0032690882,-0.0041454774,-0.0016979935,-0.008860118,0.004784465,0.0062734787,-0.0033004715,0.0031628015,0.00041925994,-0.0018779411,0.007928715,0.004093005,-0.005798946,-0.0027000147,0.0053280224,-0.0003592276,-0.008200264,-0.00695894,0.007970824,-0.003574241,0.0008583331,-0.005045583,-0.008932585,-0.005334573,-0.0074336384,-0.0045823404,0.005176093,0.00846964,-0.0068128156,0.0026332932,-0.0011836237,0.00130096,-0.008370698,-0.0038405706,-0.00055607065,0.0019743617,-0.00837989,0.008273243,0.0023143499,0.008117522,-0.0043575116,-0.004886557,0.0050856695,-0.0054635317,0.007405816,0.0066359933,-0.0053215674,0.00583629,-0.0082945675,0.008007553,-0.00014284172,0.004126361,-0.000775369,0.0074082734,0.00091188593,-0.0053773182,0.0017568131,0.0017729774,0.0042400775,0.00013763446,-0.0043305256,0.007917867,-0.007249805,-0.004976907,-0.0011977631,-0.006864156,-0.0039932635,0.00571092,-0.004876724,-0.007959415,-0.0069264933,0.0037440455,0.006089943,-0.006158043,-0.0062755924,0.0012927026,0.0075234375,-0.0046913284,0.005918158,-0.006206669,-0.0012734511,0.008609446,0.0058034193,0.0051672226,-0.007574881,0.002176382,-0.0028894083,0.00862993,0.006043613,-0.0008312619,0.0011445737,0.004469214,-0.0031741792,-0.006017792,0.0043792576,0.00040247533,0.00046552334,0.006708348,-0.0051819496,-0.003070203,-0.0031809139,0.0063793575,-0.0051759793,-0.0008041942,0.0042774198,-0.0065314076,0.0059957984,-0.006948313,-0.0033849636,0.0061502433,-0.005112727,0.0045811925,-0.000408728,0.0042726216,0.0011577304,-0.0032213645,-0.008046702,-0.008389579,-0.00093478867,0.0022602337,-0.008208932,0.0025817684,-0.005146068,-0.0002233427,0.0022669942,0.002074931,-0.007832359,-0.0077939555,0.0015033054,-0.007403612,0.0024217379,-0.008660592,-0.0036626586,-0.007338218,-0.00079807086,-0.0026938086,0.0022259564,0.0074256323,-0.0042439215,-0.0016242889,0.00765716,0.008234146,0.002395449,-0.0017007923,-0.0015677122,0.008383292,-0.007002064,0.00583545,0.0006641363,0.007880606,-0.0021025622,0.0019688383,0.007921707,0.0028264902,-0.0074464623,-0.00282213,0.004064544,0.0021003427,0.0025306835,0.0011177354,0.0052819364,-0.0029979756,-0.0061222967,0.008437236,0.00013328361,0.00022498486,-0.0068107145,0.006816638,-0.0059154676,0.008915658,-0.006790957,0.0063502654,-0.0069276025,0.0058318432,0.0063305283,0.004578187,0.0064872676,-0.0015904324,0.0037161936,-0.0003404127,-0.0064166267,-0.00737769,0.0030201748,0.0059178127,-0.004004756,0.008447113,0.005789195,0.007990442,0.0067489995,0.008859365,-0.00042553977,-0.006433003,-0.009046067,-0.004449602,0.008061109,0.0053195674,-0.006113965,-0.0076319063,0.0028538243,-0.0073016398,-0.0007415574,-0.00492595,-0.004003788,0.0055863094,-0.0032232315,0.00045884264,0.007918944,-0.002415217,0.008698608,-0.000580591,-0.0022095453,0.0016189154,0.0033116736,-0.0015831823,0.00079465506,-0.007133606,0.00048918225,0.006420575,-0.0062354663,-0.0017002826,0.0072264853,0.0047856756,0.008686261,0.008201289,-0.0068300846,0.007960768,0.0032968402,0.005302006,0.008088072,-0.0071575446,0.0080012465,0.007819657,0.0014403617,0.008213967,-0.0016054191,0.0061756196,0.00072780164,-0.000458438,-0.0044418625,0.003398974,0.0003422951,0.005967504,-0.0008106614,0.008956108,0.0056939693,0.0050275805,-0.00653707,-0.004582728,-0.0020240874,0.008045307,0.0026409405,-0.0038370304,0.0076101483,-0.008070451,-0.0068844315,-0.0045530084,0.0050199805,-0.004734563,-0.008368593,-0.0026146253,-0.0056176567,-0.0029291017,-0.00841731,-0.00031422512,-0.002546939,0.0031503243,0.0059204614,0.00091275666,0.0051329415,0.008934999,-0.00043322865,0.006146046,0.00781331,0.007769742,0.000759579,-0.008236333,-0.005026827,-0.00592805,0.00053757254,0.006334901,0.008797222,-0.0011563266,0.0067126327,0.00725641,0.008704691,-0.0011448694,0.0045160805,-0.008210761,-0.0008985992,-0.0018433863,-0.007316363,-0.00009635275,-0.0007141568,0.003911967,-0.0069261026,-0.006181719,0.0004367127,-0.0027175236,0.008279829,-0.0015893835,0.0033263469,-0.0013747143,0.0032929394,-0.005658274,-0.008948352,0.0041989447,-0.00007548335,0.0010225199,0.0077477093,0.0054029506,-0.0029631017,-0.0069795153,-0.0014786652,-0.0050826585,0.0019666299,0.0049371463,-0.0033700487,-0.00869058,-0.004843655,0.006364615,-0.0066500492,0.002315611,0.0037349341,0.007587057,-0.007124981,-0.0031536839,0.007425564,-0.0033754623,-0.000013280368,-0.0002074577,-0.0050714025,-0.0028784825,0.001629703,0.0002194052,0.0044761733,0.0069041066,0.0060722223,0.0051226937,0.004144307,0.0005459669,-0.003661395,0.0032901766,-0.005972981,0.0059664794,-0.0066744704,0.0030844323,0.0024530462,-0.0022348834,-0.004490448,-0.007644579,-0.007378404,-0.0077929446,-0.002716161,0.006275399,0.0069311475,-0.0073198196,0.004078977,-0.0020959324,0.0036598456,0.0032781512,0.0032412447,-0.007714788,0.0028516036,0.0064364998,0.0060534636,0.007994004,0.00016291131,-0.0036495654,-0.0024715397,-0.006578255,-0.0030972045,0.0086082425,-0.0036829088,0.004501692,-0.0041348822,0.0067574964,0.0056370813,-0.004240228,-0.0051729204,-0.003441022,-0.008026456,-0.0025794683,-0.0015497765,0.0025803882,-0.0026363502,0.002159613,-0.0004010311,0.007262974,0.0009350738,0.0076685767,0.0035787271,0.00688121,-0.004694399,0.0072978856,0.0050943997,0.007876318,-0.0074736765,0.007145415,-0.008242633,0.00572429,-0.0009798798,-0.008727778,0.00201809,0.0076529454,-0.003263192,0.0010508449,-0.0028754517,0.008752434,0.008687892,0.0068544946,-0.00111884,0.00073439366,-0.002353715,-0.008957091,0.00009742084,0.008849799,-0.004793102,-0.004895556,0.0009367749,-0.0054792715,-0.009055113,-0.0035714444,-0.003479148,-0.00021226557,-0.00185973,-0.008064031,0.007980977,-0.005559963,-0.007943169,0.001657056,-0.008752447,-0.0031312879,0.008237341,0.008775843,-0.0032309461,0.003405393,0.0068330346,-0.0071218433,0.0042877295,-0.0009569402,0.002250889,0.00086399494,0.0040670065,-0.0022903364,0.004354031,0.0069486476,0.005265358,-0.003277528,0.00005396864,0.004440591,-0.0039211325,0.008324283,0.0065495363,0.0040233536,-0.006558985,0.007651351,-0.0008428031,0.0036398235,0.006426759,-0.0043746997,-0.0036116973,-0.003596427,0.004606504,0.0032242392,-0.0014041298,0.003406968,0.0019854761,0.002916459,-0.004226061,-0.00104295,0.0060611935,0.0033666252,0.0027055757,-0.0014749429,0.006162499,-0.0042489613,-0.0013886277,0.00033036998,-0.004491901,0.0017012991,0.0030729184,-0.0058650286,0.007982142,0.0034574396,-0.0041507534,0.006629746,-0.0053029195,0.008826624,-0.008171721,0.007918126,0.006187154,-0.0043369858,-0.0037133857,-0.006141722,-0.0047127344,0.008321984,-0.004681012,0.0012625351,-0.0019847392,0.008815521,0.005337052,-0.005587899,-0.0032718703,0.0016879148,-0.001632524,0.008962649,0.0077788904,-0.00455023,-0.0029228586,-0.00428853,-0.0026353146,0.002894845,-0.0035174433,0.000057348872,-0.0063888803,0.002348796,-0.004444772,0.008055559,-0.008661948,-0.005298965,0.00027142174,-0.005155356,-0.008259249,-0.0017303369,0.004414029,-0.005194024,-0.008149858,-0.0054891477,-0.0054619005,-0.0024561125,0.002061777,-0.005503589,-0.00051577186,0.003424298,-0.003917735,0.004910251,0.0029949255,-0.007093219,-0.0029589953,-0.0035473125,-0.00039686248,0.008951051,0.005765448,-0.0016125262,-0.0012889234,0.0004113079,-0.003414188,-0.007113064,-0.0060588033,-0.0020151057,0.008526121,0.0026361784,0.004601283,-0.00092661375,-0.0026554503,-0.0048943316,-0.008490581,-0.0015874301,0.0054930313,0.004358315,0.007593478,0.00040526697,0.0052854978,0.0059169927,-0.0052710916,0.0022316487,-0.005392971,-0.00008987865,0.003441591,0.0016605649,-0.000020154472,0.0036612127,-0.0033592372,-0.0035067857,0.004612219,-0.0021168424,0.00604849,0.0015129208,-0.006082006,-0.0067496565,-0.005217204,0.0069081974,-0.007945302,0.0007801098,-0.004937793,-0.007065855,0.0025952107,-0.0069097425,-0.006920959,0.0018543388,-0.0076290723,0.005441169,0.0050972244,-0.008597543,-0.007046112,-0.0079711005,0.0007977363,-0.008978523,-0.008296336,0.007916724,-0.0023390888,-0.00024401862,0.0020094463,-0.0017257151,-0.008190179,0.0049527315,-0.00888611,-0.0007725287,-0.005023458,-0.0073241787,-0.003881883,0.0075461576,0.0033073586,0.0017661552,0.0032065883,0.005992455,-0.007474922,0.0037279462,0.0010155787,-0.0036423982,-0.0076752924,-0.008666279,0.004626305,0.005986927,0.0057173558,0.0062199957,-0.0023852263,0.008210538,0.007145688,0.008177124,0.005759999,-0.006527798,0.0052329423,-0.004393012,-0.005865653,0.003918184,-0.0004953317,0.0024537463,0.009039997,0.0071817134,-0.004407034,-0.0031703417,0.007722017,0.004901823,-0.0037302517,-0.0055011516,-0.0004189511,0.0022251834,-0.00387047,0.00014874326,0.0055179475,0.0024184587,0.0049215406,0.0035967927,-0.00797805,0.005363686,-0.0033402867,0.004085004,0.0020256853,-0.006015195,0.0029508285,0.008776429,-0.003342098,0.0031006369,0.005339331,-0.006314686,-0.0063015874,-0.0012349797,0.0040722233,0.0015907222,-0.0065156207,0.008701883,0.003107737,-0.009128249,-0.002599036,-0.0043696905,-0.00041579411,-0.0026691358,0.000113449874,-0.00014057661,0.0027019724,-0.0017597498,0.0037464567,0.008381285,0.007810588,0.0012711587,-0.0019262728,0.0067814253,0.0062353564,-0.00767041,0.0034308685,0.0049239323,0.004432304,0.0077695376,0.008442312,-0.0014064268,0.0016449806,0.0009919024,0.0022568393,-0.0059870556,-0.0046550427,-0.006223502,-0.0029469766,-0.00016671911,-0.0004899839,0.007971224,-0.0042961207,-0.003950122,-0.00682379,0.001292396,0.008727021,0.008744367,-0.00002043184,0.0019134891,-0.008871695,0.0029865033,0.004021621,-0.0028770484,0.004083814,0.0038985843,0.0059917327,-0.008473375,0.007588366,-0.005619235,-0.008516165,0.007071826,0.009056074,0.004215429,0.0050963685,-0.0015883909,0.0064951275,-0.008774022,0.008071752,0.0052722595,0.007067435,-0.007402947,-0.0060392,0.0025584013,-0.00076100783,0.0050566914,-0.0024239826,0.0024978183,0.008297363,-0.0010289804,0.0065540597,-0.008228028,-0.008887407,-0.0073251342,-0.0058079427,0.0035515202,-0.0006314168,-0.0036762683,-0.0019536037,-0.006312279,0.0004941248,-0.0037037346,0.0015400669,-0.007595293,-0.0011193842,-0.0061837547,-0.005594433,-0.000473917,0.007846405,-0.0025806592,-0.007137188,0.0056943377,0.007564584,0.0042760577,-0.008631889,-0.0013659275,0.0027143413,0.006406636,-0.005896348,0.00654897,0.0010814205,-0.0076145874,0.007685974,-0.00657282,0.00015464533,-0.008583225,0.0013248738,0.006528117,-0.0004953386,0.0011126717,-0.0065267747,0.005697899,-0.002477029,0.0031012555,0.0007868169,-0.003970465,0.0072660157,0.0059819734,0.00078612054,-0.0049607623,0.004012559,0.0062734867,0.0011849091,-0.0007264622,-0.0063753035,0.007349479,0.0056979624,0.005942009,-0.0044289352,0.0023046103,0.0069667255,0.0053770985,0.004792483,-0.0035458638,0.00381117,-0.00894044,-0.008650681,0.0033123994,-0.002207184,0.009000593,-0.0029206302,0.0059200255,0.0012782832,-0.00454828,0.007595117,-0.0015769142,-0.0011241514,0.0029788264,-0.0012463212,-0.0046077785,0.008354253,-0.008193081,-0.00089198916,-0.004321365,0.0025108561,-0.0020449045,0.00017501345,0.004785766,0.005584047,0.0009355329,0.0024730493,0.0069726803,-0.0056977463,-0.00236966,-0.0052772597,0.007047064,0.0016011384,-0.005732176,-0.005598552,-0.0047752545,0.0034378842,0.002982677,0.008765863,-0.0045551574,0.0020482894,0.006518653,0.004592201,0.008936935,0.009076539,-0.0062534967,0.005415479,-0.0070750504,0.007399883,0.0018600032,-0.0043327087,-0.0014509758,0.0007889687,-0.005206621,-0.004374044,-0.00035972855,-0.0060923435,-0.008171688,-0.00902924,0.0058766576,0.0056771482,0.005535861,-0.0071369503,-0.0003661668,0.005632651,0.005444256,-0.002426277,0.00033385234,0.0014257655,-0.007856209,-0.008954986,-0.0003225035,-0.000024599878,-0.0083145825,0.0070787994,0.0061420626,0.00013319589,-0.008396565,-0.0061793854,-0.007390727,0.0021179342,-0.0021739996,0.008474843,0.0015195915,-0.006391443,0.0016244963,0.0080135735,-0.0029520732,0.008490389,-0.005654082,0.008355752,-0.0021260902,-0.008762677,-0.00685898,-0.00045355782,-0.002801971,0.008022475,0.005912294,-0.007443572,0.008366465,-0.002073259,-0.0028750584,-0.0021941122,-0.0044722673,0.009060404,0.008942287,0.00053655123,-0.0025137276,0.005174749,-0.008238282,-0.0023259837,-0.0021903105,0.008738524,0.00020114744,-0.008805308,-0.004645007,-0.008538777,-0.0058928425,-0.0006840695,0.006480073,-0.0033085356,0.008711875,-0.005587259,0.004127342,-0.002628751,0.0039610257,0.0029374857,-0.006666443,-0.004645563,-0.004858087,0.006412745,0.0056313775,0.0012395856,-0.0076755784,0.0055068247,-0.0038953184,0.0007541556,-0.00018261244,-0.00027831475,0.0065425956,-0.0071415156,0.008782163,-0.002499407,-0.0073864684,-0.003033261,-0.00583753,0.008082983,0.0040757186,0.007891458,0.008186877,-0.0076015643,0.0025415441,0.0074416664,0.005946203,0.0048074774,-0.0017838284,0.0054100673,-0.008576331,0.0060079442,0.005299511,-0.0043878504,-0.0014697312,0.008998047,0.0045769042,-0.0020812328,-0.008751379,-0.0075462656,0.0053284583,0.0027528147,0.0013059756,-0.0012236316,0.008183646,0.0047974074,-0.0060291043,-0.006695208,-0.008422785,0.0070343465,-0.0071393126,-0.0010156659,0.0066529424,0.008695955,-0.0068721613,-0.008968859,-0.0016708227,0.0085659195,-0.005418372,-0.002325776,-0.004161345,0.008070255,0.0077720224,-0.0077849296,0.0005324564,0.0030061905,0.0025069553,0.0063742325,-0.0047015897,0.007782224,-0.0031644,0.0006401352,0.00030232294,0.002742545,-0.008513072,0.0012011229,0.0026798395,-0.0016255036,-0.002666011,0.0040835813,0.006306601,-0.00821835,-0.007315035,0.0057718,-0.008125774,0.007058401,0.0014801079,-0.00042150737,0.007300956,-0.007973471,-0.004497683,-0.0069716545,-0.008068092,0.00819383,-0.0021275843,-0.0059425537,0.0048477966,-0.005185379,0.0034274866,0.0048882263,0.006441428,0.007859307,-0.004191848,0.0004790224,0.0017333963,0.00015824467,0.0017198644,-0.0016814474,0.0033029711,0.0007035477,-0.0026695093,0.004833915,-0.0067465915,-0.0015927636,0.00022921516,0.00340712,-0.006839758,-0.007264368,-0.008919001,0.0062949522,-0.0018513398,-0.0034017984,0.002804173,0.002038658,0.005531512,-0.007911631,-0.0068438905,0.005811557,-0.0026774514,0.005035191,0.0006325746,-0.004803949,-0.0043049483,-0.001001742,0.00075452746,-0.007380985,0.0025601133,0.0005814681,0.005171398,0.0005943451,-0.004448594,0.0008084172,-0.0043587335,0.00006228718,0.0039767446,-0.0004799464,0.00090530934,-0.005804629,0.0004867119,-0.0006344069,0.006578622,0.008124719,-0.007957339,-0.004326362,0.0010140206,0.0021347804,0.0018998282,0.0044760727,-0.0039577303,-0.0024309647,0.00080387713,0.0034587763,-0.0018803871,-0.004457382,-0.008334273,0.005542559,0.004227001,0.00026169384,0.007920157,0.0006842997,-0.006286678,0.00071598456,0.007950077,0.008025731,-0.0015086372,-0.0018054254,0.0023336997,0.008768535,-0.00629602,-0.007095083,-0.0044164346,-0.0035563693,-0.0031686644,-0.0072524995,-0.0058302213,0.007741426,0.006160565,-0.0077203223,-0.007962597,0.001981256,-0.0071869115,0.004357209,0.006879765,0.00060606573,-0.006419711,0.00045602437,-0.0058172164,-0.00038236953,0.008732041,-0.0017653177,0.0011723762,0.006658334,-0.0014587326,0.006589698,-0.0029979465,-0.0010819817,0.0077535147,0.00022935931,0.004389456,-0.0032910132,0.002265671,-0.008775849,-0.0071829534,-0.005938998,-0.0012795073,0.0014352687,-0.004269621,0.0050274828,0.00089173444,0.0022557643,0.002401136,0.0050554196,0.0049652304,0.00038609063,-0.0013917915,-0.0076324465,0.0076380433,-0.0012861326,-0.0014792687,0.00009453502,0.0045104837,0.0014895655,-0.0070112185,-0.0051954393,0.004936282,0.00093421724,-0.003105162,0.0034234303,-0.006716973,-0.0060604443,-0.005592172,0.00075358106,0.0023937994,0.0053418404,-0.0064592897,0.0042523593,0.0061535304,0.0008536111,0.0018917994,-0.0054590567,-0.007122059,0.005468524,-0.0019740486,0.00065712444,-0.001048396,0.0044416147,0.0040141367,-0.0077831573,0.0059987204,-0.0029675777,-0.008695472,0.008045918,-0.0035390237,-0.0068977145,-0.0028560208,0.008768288,-0.00049594167,0.007989758,0.0051572435,-0.0004645946,0.005345446,0.0008157906,-0.0037847243,-0.0010781144,-0.0044385344,-0.0032301664,-0.0069231037,0.0011110549,-0.0062449174,-0.004850896,-0.000013629372,0.006798654,-0.001042686,-0.0054910285,-0.004783112,0.003470674,-0.0023543388,-0.000084503576,0.0025519608,-0.0038200007,-0.004375588,-0.009044428,-0.0027440786,0.0016682363,0.0008770106,0.008176592,0.001846343,-0.007611745,-0.0028106181,-0.0031523092,-0.0045638583,0.005499134,-0.0018534523,-0.00078057114,-0.0025304072,-0.0026042974,-0.00079334184,-0.0020547311,-0.008818996,-0.0062602875,-0.0021184993,0.008082381,-0.008545674,-0.007822581,-0.002313554,0.0036497284,-0.0062273573,0.004946337,0.00093429023,-0.008018796,-0.0031955626,-0.004859926,0.004443785,-0.0016982735,0.007398583,-0.009002016,0.0031402393,0.0038624986,-0.004954774,-0.00443797,0.0043075345,0.0011952098,0.005693368,0.0077094883,-0.0008771286,-0.00033948375,-0.007724139,-0.008168757,0.0015848632,0.0023577127,0.00058583706,0.00047159102,-0.002173069,0.005286588,0.007771546,0.005695296,-0.0014265145,0.008044195,-0.004971099,0.0055674375,0.0031983594,-0.0010899913,0.0040408066,0.0036182317,-0.0013073237,0.004007893,0.00708875,0.008262229,-0.0032359827,0.004855619,0.008361593,-0.00018430885,0.0058591743,0.008002433,0.005588941,-0.0072665974,0.00122018,-0.0054490725,-0.0033075747,0.00039030306,-0.0032647015,0.0015403001,-0.008685316,0.0029419344,-0.006077822,-0.004527228,-0.005648961,0.0017557836,0.008908417,-0.0081302775,-0.001077281,-0.005831714,-0.0039052144,-0.00079315127,-0.0023992534,0.0028434629,-0.0010557054,-0.008224371,-0.0035377184,-0.0058903224,0.006231723,0.008169517,-0.005309694,-0.007018483,0.0041391286,0.0033942815,0.0053033847,0.0025251827,-0.005073691,0.0078990245,0.0024654225,-0.006339481,-0.007860589,-0.0052414415,0.0007828245,0.007605534,0.004535807,0.00028556294,0.008415405,0.0023243686,-0.005627353,0.0051684068,0.004701816,-0.007580904,-0.004502728,-0.0085247485,0.0035637596,-0.0036692673,0.00337249,-0.0033725617,-0.0060147587,-0.0016683707,-0.0025028277,-0.0038198715,0.00831224,0.0029589715,0.008396168,-0.008875036,0.009015929,-0.0075263325,-0.002051052,0.0018408274,-0.007883109,-0.0014612831,-0.004067929,0.008146984,-0.00881172,0.0040790522,-0.00522509,-0.0016015329,-0.006281716,0.0016111984,0.0033702848,-0.006219819,-0.0013882186,-0.0032418296,-0.0028562825,0.005055165,-0.0023236917,0.005974504,-0.0075795962,-0.005007446,-0.008093903,0.00502721,-0.0011728066,-0.006599831,-0.007993935,0.0062265443,0.0035599682,0.0014088944,-0.003668317,-0.0048510744,-0.0013599901,-0.002854437,0.008555099,0.007108828,-0.004671823,-0.0047874064,0.0071236864,0.0013405452,0.0055068103,0.0080490345,0.00037632545,0.0046601724,-0.0053891116,-0.0039141458,0.003117775,-0.00741143,-0.0010309435,-0.006911254,-0.00831975,0.0041002478,-0.00014359533,-0.005722965,-0.0039293976,0.0012930577,-0.008831685,-0.0071634008,-0.0011574328,0.0070027076,0.006711512,0.0064547695,-0.006995064,-0.0058360044,0.0019199335,0.006681107,-0.002991768,0.00056392595,0.0041475617,-0.0027807672,-0.007108218,0.005689179,-0.008518506,-0.0027889567,-0.0014391124,-0.0029989867,-0.0046996917,0.0017794246,-0.0019809573,-0.0036064358,0.0026198286,-0.004509277,-0.008770458,0.006764246,0.0044514746,0.0031467767,0.0016302224,-0.0050579105,0.0045085275,0.0003495767,-0.0048147873,0.0074820975,-0.0032268164,0.008152415,-0.001329215,0.00091669906,0.007583279,0.0038339389,0.0075135548,-0.0062323944,0.00051290286,0.0076663876,0.0028644449,-0.004557755,-0.005368976,0.00025326142,-0.006311843,-0.0060978606,-0.0028046167,-0.0050560646,-0.008555129,0.00690445,-0.0027039966,-0.008051073,-0.004728486,0.0013338258,0.0018454284,0.0034177457,-0.005789287,0.008313001,0.006842936,0.002123068,0.00038665935,-0.008606526,-0.0070966627,-0.005353026,0.005915536,-0.009039915,0.0040930156,0.001065211,0.005851976,0.0059116217,-0.0041395538,-0.006052149,0.005417068,-0.00860571,-0.0011359429,0.0031796868,0.0003888133,-0.0017816495,0.008970087,0.0005818404,0.0051659793,-0.007790721,0.0072532217,0.0010270913,0.0016500552,0.0018237623,-0.008031999,-0.0019526222,0.0029224756,0.00046561612,-0.0010087497,0.0015901227,-0.0042886552,-0.0055256123,0.0019334282,-0.0039642327,-0.005140784,0.0063114283,0.0017953783,0.0029341315,-0.006098936,0.0033089858,-0.0033651788,0.0045957235,0.005761897,0.006693087,0.006420339,0.0030592743,0.0087225605,-0.0006483634,-0.004349777,-0.0019255696,0.005371756,-0.0068878136,-0.0019095016,-0.0015212029,-0.0018511609,0.0072415955,0.00340763,-0.0022012794,-0.0032804003,0.006089368,-0.00088553946,0.0019520529,0.009018662,-0.0037410983,0.001486692,-0.0011015495,-0.006684429,0.0019007373,0.0020725434,-0.008900429,-0.004731652,-0.007362627,0.0059181266,-0.0033286174,-0.0055752075,-0.00084696733,0.0027491269,0.0046061906,0.0014832171,-0.006238471,0.0074608927,-0.0071993265,-0.0025111404,0.0038041305,-0.0068524545,-0.0052584093,-0.0026978403,0.0007939366,0.0021813817,0.0009533294,0.005923621,0.007388027,0.0045526703,0.0011023185,-0.0016342852,-0.006369893,-0.0071560717,-0.0013236265,0.0064198105,-0.0008509658,0.0067636417,-0.005472587,-0.0066853724,-0.005248036,0.008818056,0.0037679845,0.0067801867,0.0040111183,-0.0050023887,0.0057378435,0.006766975,0.0070610866,-0.0038762465,0.0036956845,0.005345253,0.0071727238,-0.0017556328,-0.0029661732,0.0007565172,-0.00906963,-0.0041888338,-0.00006390806,0.001993276,0.00053054735,-0.00047221506,0.0060105645,-0.0069770995,0.0019786183,0.004729853,-0.0029673865,-0.0067317034,-0.007757261,-0.0061470545,0.007292597,-0.0052459086,0.0013552684,0.006302178,0.0003100633,0.0032951278,-0.0027038665,0.00030890925,-0.0014915946,-0.005062312,0.008107792,-0.005093455,0.0025171016,0.0049733003,0.004342126,0.0074808355,0.00039980694,0.0046321023,-0.0079372255,0.00097079837,-0.0031384279,-0.0034442525,-0.0046895402,-0.005078695,0.0035967834,0.0021789246,-0.00919041,0.00043285463,0.006587048,-0.0030056096,-0.003031659,0.005360051,0.0060015167,0.004111522,0.008800925,0.005310177,0.0012551572,-0.0043205777,0.0052712867,-0.0010275955,0.004269336,-0.0005564921,-0.00084316084,0.0010146272,0.003331205,0.007970162,0.0048903096,0.0025706764,0.0088864,0.0010788969,-0.002729073,-0.0028220913,-0.0046327235,0.0048760884,0.0060729366,0.0063577746,0.00048695703,-0.0017365934,0.006419552,-0.00323553,-0.0033202805,0.0021363867,0.0052938904,0.0037650533,-0.0060726586,0.003870838,-0.009016203,-0.00036543375,-0.0017880974,-0.0018174927,0.0074833725,0.0031881835,-0.003247496,0.0011490294,0.0023078122,-0.0041469713,-0.007832609,-0.007801958,0.00029749566,0.00071662583,-0.0034046136,-0.00095919205,-0.008879455,-0.006261898,0.005098428,0.0059321076,-0.0074445135,-0.0035805365,0.008249777,0.0015610997,0.007934397,-0.008048678,-0.008541391,0.0021574472,-0.008635487,-0.005890457,0.007982528,0.0010722524,-0.005857196,0.002437459,0.008070456,0.0007788684,0.00065026816,0.00868246,0.0067345835,-0.0017364635,0.002393541,-0.008928818,-0.0004432139,-0.0033013609,-0.0019166407,0.0010170632,0.006181048,0.0019350424,0.0022554686,-0.00046986836,-0.00329109,-0.003659748,0.0045533367,0.006697892,0.003812658,0.0076631824,0.0040384238,0.007291008,-0.00039054212,0.0052884053,-0.0038077924,0.008183544,-0.002272723,0.007702772,-0.00006626749,-0.0019685521,-0.0069185784,-0.0021206322,-0.0032863028,-0.00025973047,0.008600668,-0.0033217666,-0.0066094017,-0.008945825,-0.008683589,-0.007762033,0.0065814084,0.009095778,-0.000687462,-0.008740982,-0.0025227023,-0.0041261525,-0.0037694266,-0.003678978,-0.000086558386,0.0005076019,0.0033766618,0.00891102,-0.008898424,0.0023200063,0.0060047824,0.0047057844,0.0037796618,0.007100397,0.008665298,-0.0023541024,-0.008099686,0.004139933,0.005979121,0.0024712859,-0.0018167703,0.008445733,-0.0024556434,-0.009127513,-0.0015370015,-0.003225213,0.0038392185,-0.004015735,-0.008124226,-0.0070889243,0.0010270067,0.0027317365,-0.008267565,0.0062034205,-0.0031954558,0.004728284,0.008235523,-0.0077721546,-0.008961504,0.00690283,-0.00062470295,0.002149021,-0.0018635194,0.0035352255,-0.0012286992,0.000025998219,-0.006457786,-0.0014049801,0.0018211043,-0.005116155,0.0016882404,-0.0070448513,0.0021143106,0.008953032,-0.0014198174,0.00023270717,-0.0028676316,0.0047727153,0.0056624096,-0.004939298,0.00025773526,0.006272315,-0.0016248471,0.00402927,0.0011893915,0.00202688,0.0018883959,-0.0033407141,-0.0027949975,0.008755844,-0.0029118503,0.0043111676,0.00191706,0.0021491363,-0.001987521,-0.0027782272,-0.00730306,0.006526863,-0.0052814484,-0.0010351671,-0.00084105565,0.00155122,0.005125933,-0.0006219567,-0.0018219824,0.0053406646,-0.0013860408,-0.004782836,-0.003285391,-0.0018421459,-0.008634115,-0.003929564,0.00038433008,0.008670758,-0.0006526878,-0.002175632,0.0081631085,-0.006401181,-0.006938017,-0.0018519043,0.002307779,0.0047219926,0.008830109,-0.005286228,0.0018419861,0.0010965554,-0.00094010023,0.005375183,0.00393784,0.0052625574,-0.0061042905,-0.008518963,-0.005431406,-0.0051510064,-0.0023274785,-0.0038609474,-0.003747747,0.0027351344,-0.0015113949,-0.0077054533,-0.007487546,-0.0053872233,0.0008075153,0.004399399,-0.008453226,0.0067269714,0.0014553424,0.0011663294,0.0031816086,-0.0016729904,0.0080403825,0.0035865477,-0.0032143404,-0.0025430124,-0.0034589611,0.0063854195,0.00066304684,0.00892733,-0.0052402923,-0.0009739623,-0.005565639,-0.0047030724,0.008549032,0.0012050185,0.006535012,-0.0016676388,0.005837151,0.007996147,0.006793604,0.0017737746,-0.0020088425,0.007574714,0.00607817,-0.0012429336,0.0037551105,0.007706232,0.0048593804,-0.0034878997,-0.003933751,0.0026530814,0.0058484515,-0.005935017,-0.0021999467,-0.005176524,-0.0070446855,-0.0016218245,-0.002239145,0.0075842394,0.0062756604,0.003365777,-0.008480036,0.0024437455,0.0034918606,-0.0030357584,0.004160171,-0.00562922,-0.0011544084,0.00061201013,-0.0042906967,0.0010866773,0.002438736,-0.006814928,-0.004041626,-0.008743555,0.007813881,-0.0008326083,-0.00533511,0.0051908344,0.0022676226,0.005089089,-0.008718466,-0.0052079246,-0.0050484473,-0.0019991032,-0.005090586,-0.0067842095,0.008641304,-0.0008311546,0.0025819459,0.008785907,-0.007456715,-0.0041374415,-0.0024147835,0.004209093,-0.007293264,-0.0015995022,-0.009098264,0.0036825892,0.00460736,0.006711707,-0.005449586,-0.0035681485,-0.0018798052,0.006037069,0.0039223195,0.00094961724,-0.0018754662,-0.007971546,-0.0053112702,-0.004344431,-0.0058007417,0.0050310777,0.00060201297,-0.0022323262,-0.0019286198,0.0052276715,-0.008570553,0.0056223655,-0.0006804532,0.006779971,0.003704534,-0.008519917,-0.00080158934,-0.0043614507,-0.00007700386,-0.00027821807,0.0002591256,-0.0002805551,-0.007497497,0.00016375438,0.008326949,0.0026616752,0.0017796448,0.0077267066,-0.0026530337,0.0057372376,-0.0015648943,0.008527637,0.0075578904,-0.004050951,-0.0081785545,-0.0046770466,-0.0055951583,-0.002550196,0.0027169548,-0.0064168256,0.0058461064,-0.0025194834,0.006754799,-0.0075498302,-0.006857468,0.0066523557,-0.004018109,-0.0058386694,0.0017356343,0.0072068325,-0.0021781253,0.004226611,0.0070180697,-0.001851535,-0.0037457438,0.0024526836,-0.008090734,0.00023286488,-0.005744849,-0.0031146293,0.004143445,-0.003928466,0.0024912632,0.00046518072,-0.0064907703,-0.0080899745,0.0065997075,0.0003323917,-0.007491423,0.0030357197,0.006420408,-0.00386009,0.008274501,-0.0014521852,0.00017018188,0.0058530145,0.00056226074,-0.0009345581,0.0053520007,0.000038893177,-0.0027961484,0.005231729,-0.00018011569,-0.008924376,0.0055903634,-0.00091865915,-0.0014349314,0.004768688,-0.008399939,-0.0023745124,0.0040553994,-0.0062977783,0.0013327113,-0.0074532176,-0.004930938,-0.005654207,-0.0002486137,0.0061323396,-0.0020735005,0.0037362785,-0.0070191934,0.00055241334,-0.007639758,-0.003869668,-0.0054717343,-0.0009944618,0.005873076,0.00229221,0.008132629,0.0026500784,0.0018369464,-0.0034931167,-0.007748696,0.0010837101,-0.0017590063,-0.00857475,-0.0016489164,-0.0054710424,-0.0013004909,0.0044815945,0.004776896,-0.0044864505,0.0047781495,0.0037561378,-0.008444677,0.0016619335,0.0010663521,0.004309156,-0.0052249846,0.007657736,-0.008573509,-0.002067295,-0.00008840617,-0.0076543144,-0.004760498,-0.0058859703,0.006148894,-0.007206489,0.002293512,0.004771712,-0.0032349497,-0.0028922304,-0.00729827,0.006440645,0.0028911717,0.0063898508,-0.00018756342,-0.00767487,0.0003184398,-0.0041015167,-0.0017776489,-0.0035304676,-0.0071008937,-0.00036843185,-0.0024041757,-0.005097575,0.006593737,0.0078155305,-0.008384664,-0.008450058,0.005327402,0.0072095557,-0.000080924154,0.00687404,0.0038621335,0.00047010955,0.0037986964,0.0021594013,0.0074260747,0.0047074086,-0.00017699822,-0.009025462,-0.006656215,-0.0055541047,-0.006266941,0.0027187066,-0.0007912627,0.0056206174,0.0015695897,-0.0016379817,0.002023018,-0.008224812,-0.008930357,0.008964198,-0.0026903192,0.00017174457,0.0052126073,-0.00037243628,-0.0077114785,0.0081121195,-0.00401424,0.00207099,-0.0041598934,-0.0078837555,-0.0059931576,0.007874314,0.0061996,0.0053525274,0.0008347549,0.0040964163,0.0014295971,0.0034736465,0.0021932898,-0.006783072,0.005738726,-0.008886941,-0.007707493,-0.006841144,-0.008883985,-0.0011527662,-0.002934376,0.00043823326,-0.000029802923,0.006259454,0.006403895,-0.006983745,-0.0063527906,0.0026473901,0.008773702,0.008738053,0.0053367224,0.000725785,0.0030340117,-0.008673663,0.005044766,-0.0010166066,-0.0018350345,0.0033185312,-0.005380678,-0.0004504979,0.0056707156,0.00038273766,0.00580966,-0.00175988,0.0061297826,-0.008587063,0.0009444601,0.00090112106,-0.00008512474,0.0024739336,0.004495637,-0.0004944039,-0.004817499,0.007094365,0.008923309,-0.0067120064,-0.007011447,0.002349257,0.005292387,-0.0046629272,-0.008436781,-0.008062486,0.003156516,0.006486854,0.004935978,-0.009089315,0.0022641546,-0.0007009589,-0.00013282982,0.0036560425,-0.00094700075,0.0027134966,-0.006337522,-0.0057898555,0.005287196,0.0038677305,-0.0014375859,-0.0049202307,-0.009035884,0.0034344622,-0.005449515,0.008522066,-0.0050734566,-0.0017878283,0.0036875666,0.0005027022,0.0056439335,0.0012613105,-0.0047152257,-0.008061347,-0.0062492746,-0.0018678933,0.008771275,0.0044318913,-0.004156982,0.0088194,0.004363355,0.007072879,-0.008764995,0.0020133543,-0.0015920689,-0.0048937523,-0.008763429,0.0030554847,0.0007223102,0.008231305,0.004328492,-0.005776974,0.0019056839,0.005689199,-0.000070982314,0.007952607,-0.0048965416,0.0030979216,0.0059616207,0.005816781,-0.00023890569,0.0007098938,0.00036202004,0.002265547,-0.0011622976,-0.0080096265,-0.0020108055,0.007128033,0.0017073769,-0.0053141355,-0.0078001292,-0.008963936,-0.0010295596,-0.0057565267,-0.0042891563,0.0013716818,-0.00008583826,0.0065240553,-0.004843354,-0.0082848985,-0.006684806,0.0065626553,0.0028094181,0.0057644984,0.007976828,-0.0006585553,0.006539585,0.0072226585,0.0034556754,0.00732475,0.006064741,0.0076125446,0.005357713,0.007242235,-0.0021014914,-0.005019989,-0.005478847,-0.0075580496,-0.0019107853,0.003804762,-0.007839915,-0.0055384063,0.008638287,0.007842143,-0.0031144284,0.0038874764,0.008426173,-0.006642809,-0.007304176,0.0029965101,-0.003465719,-0.0023902098,0.0030876664,0.0023548051,-0.0057900357,0.0034829476,0.0017215685,0.008343028,-0.004107556,0.0029933762,0.008517411,0.0064108544,0.004370776,0.0019747876,0.0058331466,0.0006552614,0.0044356845,0.0035344085,-0.0010461174,-0.0048819003,0.0021794538,-0.006757941,-0.0044449214,-0.00023606828,0.0057005626,-0.0009783825,0.0054745637,-0.008144695,0.0008518169,-0.0015588403,0.000026727597,0.0050683417,-0.007622955,0.00048739664,-0.001573807,-0.0018195113,0.0049186745,0.0019208248,-0.0069830124,-0.0069919983,0.000016049977,0.0050348635,0.0005601215,-0.007857932,0.0044101006,0.001437671,0.0027612345,0.00024866,-0.008928811,-0.002837905,-0.00261923,0.008232616,-0.008323722,-0.006647754,-0.0064510875,0.0026860812,-0.007705358,0.008110759,0.00799682,-0.005548709,-0.005731394,0.00256301,-0.0049278843,-0.0022696618,-0.0059816856,0.00439479,0.0038804065,0.0015448312,0.0003606617,0.008563478,-0.0043650237,0.0041007614,0.0029829545,0.0009780326,-0.0003832446,0.0031707156,-0.009024721,0.0067434725,0.0023362434,0.0069046314,0.002175867,0.0010063816,-0.0022070163,0.00681639,0.0012059027,0.0052788807,-0.0072977394,0.006427909,0.0003600419,0.0068118833,0.0023480828,-0.005843459,-0.008470363,0.004615004,0.008906192,0.002283101,0.000114398936,0.0004555443,0.008123708,-0.008186096,-0.00778023,0.002071488,-0.0058099963,-0.0076351534,-0.0025076086,0.008518143,-0.0076516652,0.0077485787,0.0034610631,-0.007199193,-0.004892627,-0.003805592,-0.0026723994,-0.0072819507,-0.0008411316,0.008393963,0.0039539393,-0.0014639909,-0.0062475917,-0.0034369857,0.0046755644,-0.008249057,0.0073820767,0.0045684124,0.0018743866,0.007121009,0.0010115455,0.005911573,0.00058177527,-0.0034430553,0.0015884164,-0.00442767,-0.004407688,-0.004315012,-0.0039206604,0.0010166238,0.0025452296,-0.0083750365,-0.0028201565,-0.008339563,-0.00002310666,-0.004641941,0.0047648167,-0.008383926,0.0031625219,-0.0007657729,-0.00014744916,0.006050033,0.0054769963,0.0011593519,0.004642038,-0.0009684688,-0.0072006523,0.005308024,-0.0072102286,0.0051979283,0.0055266335,-0.004941077,0.008284772,0.0011901066,0.0076701175,0.003158508,-0.0077284863,-0.008708453,-0.008094153,-0.0019616154,0.003652438,-0.008383911,0.0043848297,0.0075918105,-0.0045861173,-0.0085091945,-0.0014746216,-0.0035749937,-0.0074085095,-0.0026784618,-0.001137549,-0.0011755192,0.007513582,-0.004950243,0.003181347,0.0018454839,0.008659743,0.006492195,0.0013100298,-0.0019974092,-0.005143894,0.008142851,-0.002082778,-0.0025643487,-0.0061070533,0.0067010215,-0.006676283,-0.0003392632,0.003205089,-0.0034245288,0.0042470796,-0.0039437567,0.007817384,0.003091684,0.0038575318,-0.00065246754,-0.0053165248,-0.0013355458,0.008652664,0.0069064405,0.0034766025,-0.0018267137,0.0047024605,0.0075302524,0.0015833839,0.0040769544,-0.0036449018,-0.0006844559,0.004004873,0.008093609,-0.0009866646,-0.003871817,0.0026844325,0.001304653,-0.005783279,-0.0077678743,0.006949584,-0.0042263283,0.00086696696,0.008268559,0.0019447096,0.004445932,0.0056976923,0.006102739,0.0026408606,-0.0058227,-0.007533714,-0.0019649696,-0.0012217354,0.0026854428,-0.0005368613,0.00086341,0.0066279275,0.0031007528,-0.00079243333,0.008679,0.0016442181,0.0009810326,0.0002796341,-0.003706265,-0.0062026153,0.0014274674,-0.005132816,-0.0067371977,0.0047198543,0.007928209,-0.0036050922,0.004199407,0.0003900598,-0.004740257,0.007031486,-0.0033143924,-0.004823603,0.00058074546,-0.008971299,-0.005593939,-0.000689759,0.005606301,0.0038547462,0.007811449,0.0055080676,-0.0059827683,-0.00043064172,-0.0054300097,-0.008661929,-0.003527089,0.0060022403,-0.0021110526,0.006607871,-0.0018373528,0.000099593475,-0.0019616487,0.0007301923,0.0068384698,0.007981393,0.005722733,-0.0063551245,-0.002403344,0.008858963,-0.004118906,0.0069037033,-0.0046948134,-0.000111890986,-0.00070464506,-0.009010137,-0.007502703,-0.0038931551,0.0030100981,0.0015418221,0.0040128175,0.003632953,-0.0033947565,0.0059411717,0.008543407,0.003863605,0.0023233204,0.0015445951,-0.008061872,-0.0020109857,0.0009794601,-0.0072738184,0.00469573,0.0032779214,-0.0048524733,-0.0029539187,0.0054088132,-0.008628176,0.0039056086,-0.008274979,-0.008110269,0.008997661,0.006161912,0.005268412,0.005006327,0.0059172404,-0.0007376185,0.0010779011,0.0040465705,0.008538309,-0.0063776146,0.00013093567,-0.00076011516,-0.006460247,0.0056147547,-0.003040565,-0.003958436,0.0056033432,0.007481406,-0.002852485,-0.0034989498,-0.0071196454,-0.003312798,-0.007260287,-0.0024995906,0.0045457734,0.008336539,-0.0025603191,0.0020836287,0.0035160305,0.007712604,0.00013222363,0.006537537,0.0019825823,-0.003990372,-0.0015997769,-0.0014633293,0.0004247597,-0.0033294703,-0.0047476385,0.008300742,0.00538632,-0.0037945898,-0.0053870124,0.0039127874,0.005707435,-0.0043135746,0.007713013,-0.007190921,0.0069170725,-0.0003394908,-0.0005469858,0.0014842504,0.0014784781,0.0018614428,0.0007134678,0.0039831796,0.0060101273,-0.005063372,-0.0035828205,-0.008119622,-0.008140781,0.0009771355,-0.008358318,-0.007787675,-0.00090195343,-0.006145404,-0.0014834144,0.0062637925,-0.00047172434,0.0013309839,0.0025090359,0.007488214,-0.0091073895,-0.0006452373,0.000659888,0.004131066,0.006068523,0.00044720428,-0.0006803584,0.008598214,-0.0019838135,0.00703132,0.004665307,-0.0037540307,-0.003698905,-0.0072504673,0.008247913,0.0076673455,0.0039696633,0.003150013,-0.0029124185,0.0064902017,0.0037690839,-0.008204037,0.004433445,0.0071827625,-0.0069627687,-0.0020764987,-0.0023024445,-0.00532515,-0.0035580602,-0.0025582854,-0.0021256756,-0.0008603301,-0.008443484,-0.008609196,0.008025901,-0.007667334,0.007640807,-0.0026201047,0.0029008402,-0.008337804,-0.008349404,-0.008280743,-0.00847772,-0.0030775417,0.0012411743,-0.006502198,-0.0024385508,0.008846918,0.0065028234,0.0020757786,-0.0082179895,-0.005154364,-0.0065022744,-0.0073918984,-0.0027016925,-0.00011433072,-0.007921823,0.0088641355,-0.005080194,-0.008784514,-0.0008269716,-0.0076683634,-0.0060670227,-0.0077833273,-0.00067531725,-0.00528876,-0.0037416455,0.0026830183,0.0048169834,-0.004689267,-0.004295249,0.0030643316,-0.003524485,0.008074119,0.007379485,-0.007436486,0.0033626934,-0.0064206435,0.0071429955,-0.0020393308,-0.009120485,0.0074677765,0.0008089277,-0.007585727,-0.005539784,0.006596471,-0.0027556587,-0.0016831325,0.008565134,0.00493679,-0.008043324,-0.0003839595,0.003732591,0.0077503333,0.007824896,0.0008358383,0.0065005585,0.0028717793,0.0054539633,0.0018177758,-0.0027995575,0.00672781,-0.008960803,-0.008569805,0.0026202442,-0.00883191,0.005722525,-0.0010095956,0.0036178126,-0.005239822,-0.0009339573,-0.004799599,-0.008599425,0.006082294,-0.001543033,0.00069442653,0.0064086346,0.001796992,-0.0078083077,-0.0040774257,-0.0014808972,0.0051843887,-0.00400204,-0.002968158,-0.0013771973,0.0037580589,-0.002986902,0.004548542,-0.006905947,-0.0078021125,0.0001851527,0.0072462982,-0.003411972,-0.0071670027,-0.0022914314,0.006012233,0.0021772115,-0.0012343158,-0.005193268,-0.0026594778,0.006695022,0.0011681581,0.004353706,0.0057807686,-0.0065631275,0.003947806,-0.008635213,0.008247519,0.0031267041,0.0013056941,-0.0018502343,-0.001208811,-0.0008344507,-0.0005264079,-0.003306731,-0.0069253664,-0.0061589554,-0.0020434984,-0.0005026791,-0.001356727,0.0064584473,-0.002413082,0.0034828258,-0.0014254228,0.0046533607,-0.000983929,0.0048748716,0.0039928504,-0.002500179,-0.00852994,0.0068557165,-0.007458319,-0.0066767684,0.0020722253,-0.0018950782,0.008299633,-0.0069277915,0.0036954589,-0.0070414105,0.001622705,-0.0022039174,-0.0044043623,0.00023323075,-0.008894415,-0.008921094,0.008844439,0.0071887965,0.0008762392,0.0040805954,-0.0036437707,0.008401668,-0.0029129444,-0.004012452,0.0074690175,0.00234169,-0.0036672403,-0.008401928,0.0079107685,-0.0051895753,0.007906685,0.006028841,-0.006828707,-0.0034471278,0.0027616806,-0.0022428276,-0.0026646238,0.0057484163,-0.0004206386,0.002658958,-0.0038921842,-0.0017134781,-0.005475491,0.005119872,-0.0056252643,-0.000029813682,-0.0029168124,0.0086614685,-0.0032117714,0.0038087654,0.0072716884,-0.007904213,-0.007755028,0.006754692,-0.004838221,-0.001480533,0.008885376,-0.0009902882,-0.008114166,-0.007241871,0.0016612248,-0.0009608187,-0.0019879958,-0.0028821523,0.0023446905,0.0041279197,-0.0045705736,0.006913793,-0.004818935,-0.008895971,-0.0046857824,-0.0021441455,0.008062092,-0.0009982246,-0.007178259,0.0019282835,-0.0016565903,0.008426816,0.005011102,0.0014574021,-0.00856231,0.008796294,-0.008480071,0.0015955984,-0.0033456408,0.0050733164,0.0030795743,-0.0018839911,0.008344554,0.0012315421,0.00096516864,-0.008660785,0.00371843,-0.009045023,-0.0037647588,0.0014388479,-0.0010426808,0.0039654416,0.007457205,-0.0065556285,-0.008467455,0.005188441,0.0021886553,0.0059068934,-0.003541138,0.006548832,0.0039311326,-0.0004071098,0.0038995082,-0.006858776,-0.0035951133,0.005483068,-0.008402826,0.005123701,0.004167544,0.0015069286,-0.004477385,-0.0015976412,-0.0076761227,-0.008828164,0.0036022163,-0.006262703,-0.0051390664,0.00015772134,-0.0011144303,-0.00084461406,-0.0060665486,0.008555896,-0.008009342,0.0041434034,-0.00069931394,0.0024260515,0.002161095,-0.0070199464,-0.0074219615,-0.00858707,-0.0033561334,0.008257455,-0.0060782605,0.005007441,-0.007986747,0.006433533,0.00087313156,-0.0031731592,-0.008733586,-0.0065156594,-0.008146553,0.003605924,-0.0022658762,0.005307773,0.0049373507,0.0043997634,0.0051694443,-0.001997132,-0.0012746514,-0.000030736475,-0.007384909,-0.001157309,-0.0041572163,0.0004671194,-0.005149714,0.0032510215,0.008234425,0.00049409113,0.00013874794,0.008677941,-0.0089608645,-0.001708394,-0.006565322,-0.004922141,-0.0059181815,0.007183636,0.007437102,0.007844424,0.006199858,0.0077272784,-0.0013998875,0.006699293,0.0024415983,-0.004314948,-0.00018510147,-0.007512018,0.0033300736,-0.008661087,-0.004242756,0.0075680166,0.008051986,0.0015548427,-0.0066299913,0.0066248863,-0.0086016115,0.002152433,0.000979697,-0.0062016547,0.0030719545,-0.0021425812,-0.00045207076,-0.0073258257,0.008026174,0.0012505044,0.006412342,-0.0008753401,-0.0015901742,-0.0014459804,-0.0021663485,0.003158506,-0.008041511,-0.0007295276,0.00878899,-0.006505065,0.0042051687,0.000076645156,0.002017045,-0.00018959366,-0.006787463,0.0050986977,0.0022365875,0.0074202875,0.00771788,0.005278109,-0.0028711727,-0.0023146581,-0.005435356,0.003437095,0.008769036,0.0016573461,0.006973069,0.008292115,0.007189676,0.0072431797,0.00882013,-0.004612193,0.0070661837,0.009001487,-0.006353668,0.0078579,0.008680433,-0.004034131,-0.0027283106,-0.0035132847,0.0071001747,-0.006350143,0.0047816583,0.0012336471,-0.006319764,0.0037658538,0.008500042,-0.0059853485,-0.0052147266,0.008382906,-0.0040182266,-0.0030874745,-0.00018799123,0.0011370624,0.006096758,-0.00417342,0.008208932,-0.0036546472,0.00538551,0.0034575826,-0.0064484826,-0.0015787106,0.0071660336,0.0007204539,-0.0019621386,0.0024669424,-0.00067458185,0.0018061267,0.0052537736,0.0023830575,-0.0011424834,0.006550182,0.0048261285,-0.0029916915,-0.00036374445,-0.00071486074,0.004731258,-0.0055065444,-0.009187078,-0.0054361853,-0.00079383474,0.0032850471,-0.005729821,-0.006511569,-0.007737947,0.005939054,0.002372587,0.002669572,-0.006367762,-0.008792632,-0.00255044,0.00677639,-0.0027839786,0.0067914575,0.0036069893,0.008639603,0.0006382733,0.0035833772,0.00089867006,0.005229335,0.00043434915,-0.0021202674,-0.0009734969,-0.005451169,0.006191484,-0.0066186446,-0.0008732825,0.0077410606,0.008608577,0.003898196,0.00830303,-0.0010353358,-0.0015699804,0.007570706,-0.0012620044,-0.0009771955,-0.0023187308,0.0029479656,0.0060594226,-0.0071154837,-0.0065573254,-0.0011554393,-0.005809807,0.0045385193,0.0031794528,-0.008652683,-0.004346094,0.003909914,0.001709412,0.0022684054,-0.0071118744,-0.0046804734,-0.001767044,-0.006877649,0.0080248825,-0.0050441422,0.0040980927,0.003499762,0.008778545,0.0006416823,0.003006839,0.0033495906,-0.0058204797,0.0061831726,0.0034547308,0.007918834,-0.00829199,0.006764349,-0.0023792947,0.0046812976,0.0077454187,0.0023480146,-0.00020374879,-0.003560078,0.0021274576,0.00076498167,-0.007165131,0.008215217,0.008996334,0.0033352785,-0.0043129036,-0.008948766,0.004909068,0.0023697473,0.0055910926,0.003056709,-0.007966212,0.004084241,0.0030189976,0.00048094097,0.00718817,0.00016770606,0.0009158738,-0.0018935864,0.0015210775,-0.009062498,0.0051591466,0.008183305,-0.0030974513,0.0017815073,0.0007255704,0.0022889334,0.007161471,-0.008321551,0.0010143941,0.004732212,0.0025278477,-0.0003050466,0.008924492,-0.0036218672,0.0064870343,-0.0032532923,-0.0047089863,0.008773038,0.0025620013,0.0077878283,0.0030088045,-0.004091633,-0.0014215974,-0.008846996,-0.0050302087,-0.0017794846,0.008264025,0.004673913,0.0038686655,-0.007898643,-0.005173386,-0.0021131688,0.00003210816,-0.0050673084,-0.0041535986,-0.0013801674,-0.0023868047,0.0017653594,-0.0025346284,0.0041121147,0.0010735481,0.0027064,-0.002644266,0.008804025,-0.0046790126,-0.009057332,-0.0048913104,-0.006687227,-0.005035516,-0.002627995,0.00537724,0.005113338,-0.0024972586,-0.0048095267,0.00513257,0.0019289791,-0.005264293,-0.0054700947,-0.005506111,0.0017084196,0.004512578,-0.0016260205,-0.004132718,0.007890876,-0.005185468,-0.006293096,-0.0066697476,0.0065341676,-0.0032598062,0.0012720898,0.009060986,-0.0070932503,0.003820451,0.00659779,0.0012706777,0.0014929516,-0.008871521,-0.0010143964,-0.0005825467,0.0030513338,0.0057319785,0.0009945373,-0.008017419,-0.0068371748,-0.004568114,-0.0044204732,-0.008627998,-0.0059063565,-0.003102949,-0.00007981723,0.00057907414,-0.0052904156,0.0038163569,0.0036015545,-0.005908901,-0.004631653,-0.007434434,0.008115167,-0.0036759751,0.0022659746,0.0042177644,-0.0042875963,-0.0017012669,-0.004060358,-0.008248003,0.0019825217,-0.0020452861,0.0013798138,-0.002309041,0.004730328,0.0064492254,-0.0063852337,-0.0023361125,0.004869808,0.000446659,-0.0070941504,0.00071006326,0.0027134214,0.0036392475,0.0009145201,0.0034693459,0.002489181,0.0004786274,0.0071849283,-0.0021397078,-0.0014094078,0.0007830467,0.00754968,-0.00460015,0.004383819,-0.0017984201,-0.0068167592,-0.005310037,-0.0029867333,0.00036915104,-0.0062309536,-0.0058500404,0.00787786,0.001160457,-0.0052733026,-0.0066648875,0.0060754004,0.002286657,-0.0059413495,0.00510413,-0.008489249,-0.0088630635,0.0006578678,0.0037646051,-0.0011637368,-0.000024991441,-0.008980001,0.0003472285,-0.0048743323,0.00825785,-0.0017727725,-0.0037456534,-0.006965184,-0.00828568,-0.009024428,-0.0035352912,0.008443265,0.0023399435,0.0072158724,-0.0040740627,-0.0005284325,-0.00045940108,-0.0052726995,-0.0035802065,0.0019789566,-0.007514786,-0.007307496,-0.0004777915,0.0070371456,-0.008554622,-0.0067889267,-0.0072981487,0.0036569005,0.008764459,-0.0015469596,0.008183694,-0.0076919505,-0.001278222,0.0011707392,-0.0076921554,-0.0036466902,0.0070518833,-0.0023529332,-0.0060301386,-0.002247402,0.0032930814,0.0024537665,0.007842681,0.002451664,0.0023520747,0.0008547058,0.0038914192,-0.00018897884,0.007997581,-0.0039094337,0.0000050937574,-0.009101721,-0.0070305434,-0.0053187883,-0.008917977,-0.0017114719,0.0007913715,-0.003491024,0.0081713395,-0.008358133,0.0061810776,-0.0052607874,0.00052996754,0.00518756,-0.0020616208,-0.0054626106,0.0062633585,-0.0064984416,-0.0035337321,-0.007831255,0.00016601419,-0.0020724742,-0.0074100075,0.00558524,-0.0053122165,-0.0024668449,-0.0056394897,-0.0026409354,0.005125396,-0.000346639,-0.0057554003,0.007818458,-0.0032853934,-0.006809817,0.0045111114,-0.009099273,-0.006215327,0.008662661,0.00432816,-0.0059536695,-0.0021960237,0.004634348,-0.0062379087,-0.008955868,0.0066407686,0.002019329,0.00444461,-0.008827277,0.0003758318,-0.005133007,-0.008517135,0.0062455293,0.0055145,0.0019444759,-0.0042238315,0.008337483,-0.0066232206,0.0018884351,-0.006451454,0.0034364376,0.004239218,-0.002594092,-0.0071089617,0.0050611864,0.0049135736,0.006751226,0.0010982449,-0.0026882037,0.00049253757,0.0063909753,-0.005115395,0.004708847,-0.007777067,-0.006529406,0.0053526214,-0.006752,-0.0031611251,-0.002843735,0.00062812265,-0.001989634,0.006845831,0.002365413,0.0019437508,0.001111146,-0.0046924665,-0.002541402,-0.0010468864,-0.0060924897,0.0031583216,0.008640246,-0.0036919224,0.0037174926,-0.0062395455,0.0014646936,-0.006802338,0.0042353533,-0.002951693,0.000554486,-0.0046941545,-0.00601138,-0.008954899,-0.0061971014,-0.0024571347,-0.004009042,-0.0012231229,-0.0034079535,-0.0057369196,-0.0018936435,-0.005743504,0.003754808,-0.0037463289,0.0035234697,-0.004990259,-0.005626973,0.0071632173,0.008909636,0.008960212,-0.00855209,0.006183252,-0.0021933294,-0.006312052,-0.0037964385,-0.005762786,-0.009095171,0.004703858,0.005403284,-0.0060390015,0.00009668573,0.001614211,-0.0019770686,-0.007069741,0.008445517,0.007904379,-0.0019530633,0.0010635084,-0.0070397556,0.0090267835,-0.005171238,-0.0066858726,0.00733188,0.005268975,-0.0009267738,0.0030380106,-0.000052780302,0.0015212598,-0.0076136664,0.00077599345,-0.0043119923,-0.001991999,-0.0014358247,0.005292843,-0.003572701,0.008828508,-0.008457244,0.0017569192,0.0066896863,-0.0001676322,-0.004518378,0.006728927,-0.0051770452,0.0076913135,-0.0076140226,0.004234641,-0.0047060726,0.005306619,-0.008192451,0.004902113,-0.0010478222,-0.0072547393,-0.0005807787,0.0063723708,-0.0074849445,0.008428841,-0.008772159,0.00037140955,-0.007474579,0.0062201503,0.0037065411,0.0030090143,-0.00052983576,0.005684953,-0.0005757897,-0.00078107964,-0.00896627,0.008920663,-0.007270757,-0.00197024,-0.0066628014,0.007897258,0.0025378608,0.0047070417,0.00004007279,-0.004886673,0.0013535573,-0.0057052844,-0.0071433485,0.0048130094,-0.004187769,-0.005731217,-0.004897142,-0.007873938,0.001876534,0.004819158,0.0033234565,-0.0069273403,-0.0008258705,-0.00021394924,0.00664488,-0.0036346847,0.00430854,-0.008104961,-0.008955207,0.007427919,0.0069522946,0.008682663,-0.0079526175,0.0059472513,-0.007913351,0.006279485,-0.0054995944,0.004472526,0.0003986902,0.00017369831,0.006655852,-0.006569333,0.001252353,0.0009286508,-0.0044839447,0.0036601152,0.0034918722,-0.00637343,0.001512034,0.008301653,0.0056148465,-0.0014348888,0.0075667067,-0.0035747066,0.0051017636,-0.0016756821,-0.0085383365,0.003921873,0.0085134525,0.0025428764,-0.003198704,-0.0036126238,0.0017201287,-0.00048515826,-0.008992884,0.0044757547,-0.008729899,0.0067370157,-0.004795022,-0.0070208125,0.006622414,0.0019391174,-0.0025435078,-0.0042576287,-0.004087049,0.0020107492,-0.008738454,-0.0077717504,-0.006590533,0.00033182983,-0.007216172,-0.008382802,-0.001833212,-0.003280758,-0.007160166,-0.0001704548,0.0059116227,-0.007405651,-0.007075294,-0.003880239,0.008345201,-0.0052006505,0.0003790667,0.005413101,0.0070993993,-0.0021119067,-0.0019373171,0.007923594,0.0006651553,0.007702676,0.0058796383,0.0068437215,0.007479176,0.0035656318,-0.0031299198,-0.0056087235,-0.007416239,0.0038526035,0.0021023804,0.007783145,-0.000039920014,0.00087694277,0.0013005529,0.0003690865,0.008774228,-0.004173771,-0.0055243755,-0.0038496675,0.0009854162,-0.008469748,-0.0066478346,-0.0020916208,0.006824826,-0.0018143912,-0.0053122197,0.0018120458,-0.0008453884,-0.008602636,0.004722068,-0.0006152546,0.0052491417,0.0016641164,0.0012930506,0.005235641,-0.008828087,-0.00041143363,0.006575937,0.0022148013,0.002088244,-0.003127572,0.0008175109,-0.0069798506,-0.004786113,0.007723236,0.00035899677,0.0076642195,0.004810468,-0.0012004481,-0.0010350106,-0.00780089,0.00013044395,-0.0084086,0.003705257,0.001920895,0.0044217943,0.0045109913,-0.00079009926,0.0002619557,-0.0055148588,-0.006615991,0.003648238,0.008512151,0.008677015,-0.0026938906,0.0013626724,0.0013415109,0.005153349,-0.0024543558,0.008430147,-0.00013294876,0.006779746,-0.0022559112,-0.0012823344,-0.0018842723,-0.0009481613,-0.0009665556,-0.001208468,-0.0018237781,0.0039949254,-0.0033893306,0.0006881864,-0.008651403,0.004483134,-0.0057053394,0.008248011,-0.0010028379,-0.0022488683,-0.008538927,-0.004092629,0.0055679977,0.0042934995,-0.0050874725,0.008089733,-0.0043751257,-0.006417239,0.005259967,0.002058153,0.004731256,0.006345836,-0.0029425756,0.0025366892,-0.0062205857,0.0019408324,-0.0047092866,0.001669771,-0.0052616578,-0.0080016265,0.002112404,-0.0070967395,0.00046877796,-0.0048875636,0.00683371,0.0027000785,0.00074102904,-0.006683761,-0.004542682,-0.0035638316,-0.00021193076,0.008963405,-0.0057877293,0.006640311,-0.0074294573,0.0028654137,-0.0031459345,-0.006644701,-0.0043815947,0.006057976,0.0030441622,-0.0007582154,-0.00726201,0.0083102975,0.004513853,0.0013991258,-0.002630531,0.004199801,0.0032028777,0.007118151,-0.008650906,-0.004449143,0.0073975725,-0.008560567,0.00054986123,0.005090476,0.0045125983,0.007983915,-0.0011410824,0.008127351,0.0046257465,-0.0027818915,-0.008190659,-0.008671297,0.0051951134,0.005368284,0.0055092312,0.00576323,-0.0012250936,-0.0004529158,0.0033077514,-0.0065525444,-0.0022912796,0.006196773,0.0010767054,0.0013867768,0.0021910218,0.0012255015,0.0068322713,-0.003789242,-0.0061574997,0.008682663,0.0056844424,0.0015586794,0.004944435,-0.0067481394,0.005569288,0.005910023,-0.0005395632,0.008052431,0.00595557,-0.0044063167,-0.0036886174,0.0025954985,0.0009226458,-0.0026426155,0.0030508186,0.00594047,0.008628554,-0.0049833898,0.0039674887,-0.0066476087,0.007642721,0.004514068,-0.0072646197,-0.0010610708,-0.003485948,-0.0063781952,-0.0051183593,0.008290249,0.0075494894,-0.0066444073,-0.0064116553,0.0017409706,0.0005254547,0.0064270105,0.0046148845,-0.0007881273,-0.0024823053,-0.00064139237,-0.00367486,0.00075719296,0.006464087,0.0050046924,0.008459687,0.007844093,0.0065741194,-0.0022630861,0.0021562432,0.007186953,0.0030227746,-0.002976234,-0.007658709,0.00021764399,-0.0062212795,0.0047562146,-0.007654856,-0.0037286761,-0.0011212133,0.00856126,0.0067026643,0.0031913514,-0.0025037786,0.008941934,0.0013323881,-0.0075601987,0.003680843,-0.0036198916,-0.008744498,0.002560462,-0.0046111615,-0.0048037632,0.008143153,0.00062436366,-0.0090899505,0.0055455766,0.006182774,0.0073731574,0.0014115731,-0.0042720563,0.0019527924,0.0015839264,0.0075033577,-0.003960261,0.00065975625,-0.00826066,0.0048257587,-0.003419946,-0.007700936,-0.0074920594,0.0022687227,0.0039289994,0.007291493,0.007363312,0.00800904,0.0013359138,0.0077288197,-0.0056391237,-0.009043527,-0.005126891,-0.003869741,0.00017205591,0.002965079,0.008186472,0.006191876,-0.0029687516,-0.005068957,0.0031893344,0.0053344495,-0.0022515114,-0.00067645,0.0014247223,0.008296164,-0.0051614917,0.0011844209,0.00485049,-0.008547101,0.0025220732,0.0072726114,0.0030787797,-0.002733953,-0.00022676533,0.003978447,0.0014380239,-0.007352094,-0.008607407,-0.0042050043,-0.008505272,-0.008377102,0.004298465,-0.0029664715,0.00012842586,-0.002445386,-0.0062554097,-0.0067543644,0.00032709455,-0.004513862,-0.0071929335,0.0014910465,-0.00649913,0.0008753039,0.0042622904,-0.0053522587,-0.008678201,-0.00070533424,-0.008532349,0.0077880826,0.0067055495,0.0071551064,0.0043957136,-0.003425162,-0.003808444,-0.005136878,0.008128781,-0.0052760616,0.0066948193,-0.0012920165,-0.008824732,-0.0010833503,-0.004318283,-0.0032476394,0.008005929,0.0004105864,0.008223691,0.008978573,0.0052610184,-0.0069140173,0.0080461465,0.00066472846,0.008631796,0.00026779718,0.00052121334,0.0070087933,0.008485312,0.008254098,0.006920825,-0.0024418372,-0.003977998,-0.002705026,0.00017231394,-0.0038159352,0.0085087,0.0009737988,0.0048192726,0.0047384948,0.00266111,-0.0049966727,-0.0024190876,0.0026202777,0.0004096525,0.0026974704,-0.007395959,0.003318438,0.000082335406,-0.0017319113,0.004140653,-0.004482292,-0.0070598945,0.0040441332,-0.0067916675,-0.008109636,-0.0068185516,-0.0076086195,-0.0010025845,0.0019976,0.0017453722,0.0039122286,0.000052883966,-0.0063953097,-0.0036855736,0.0024601815,-0.005512261,-0.0071602957,-0.0055612326,0.004991966,0.004479642,-0.008684254,-0.0052405754,0.0030921355,0.0057471017,-0.0077506355,-0.003720712,-0.0036619585,0.002623747,0.00057902216,0.0011478007,-0.0076133325,0.004808562,-0.0076347273,0.0022116597,-0.006900238,-0.007858036,-0.0057354337,-0.0088215,0.0031412905,0.0057526818,-0.007363312,-0.0067111957,-0.0040099905,-0.007041054,0.008649731,0.00235081,0.0037819922,-0.0069323373,-0.0035560627,0.0068319184,-0.0077121886,-0.0010133384,0.005549505,0.0026351889,0.0020515355,0.0061574057,0.0067409417,0.0072529446,0.0006762149,-0.0023395922,0.0024199295,-0.0010929666,-0.0038258238,0.0074113514,-0.0018741924,-0.0013540959,0.0073904265,0.005033746,-0.005582266,-0.0039022956,0.008251542,0.0070969597,0.0026500947,-0.0021751397,0.0003809226,-0.005076893,0.008748718,-0.006700055,0.005161511,-0.005467504,-0.003561746,0.0013168093,-0.003038625,0.0066340133,-0.0051091537,0.00015774551,-0.0015025296,-0.000037132704,-0.002451148,0.007899913,0.000538554,0.007068126,-0.0025387828,0.005266261,0.00023896668,0.00662178,-0.003640113,-0.0024569265,-0.003071659,-0.0003810283,0.008836951,0.008366104,0.003915243,0.0073517943,0.00070371875,0.009047086,0.0059441905,0.008619952,-0.0047005992,-0.0037631583,0.008056991,-0.008302385,-0.0016491087,0.0031200214,-0.005888535,0.00041551096,-0.0039095157,-0.00048621517,-0.0050119604,-0.0049705184,-0.000264678,0.0060986243,-0.0043949103,0.005316783,-0.00036956972,-0.00089683547,0.0019190789,-0.0046002083,-0.007817578,0.0085460935,-0.0077088266,-0.0050212187,-0.0037376122,0.0059289094,0.005443451,0.0060588354,-0.002580461,0.0022211375,-0.005405134,-0.008312961,-0.0031246843,0.0010000776,0.0061392114,-0.0032347045,0.0021548907,0.002767138,-0.00550007,-0.006489103,-0.0037392103,-0.0047401176,0.008745012,-0.0016541049,-0.0076550767,0.003395457,0.004081238,0.0061510303,-0.007995778,-0.007940855,0.0050830203,-0.0075564883,-0.0013460274,-0.0047763144,0.002692773,-0.00043366355,-0.0076536112,0.0066490592,0.003959449,0.00043910166,0.0011564315,-0.0074192043,-0.009071928,0.0072181914,0.008010783,-0.0075854054,-0.005539423,-0.002049511,-0.0061933664,0.0038725927,-0.0013290622,0.0027014914,-0.006090269,0.0050013303,-0.0022053444,0.0020943275,-0.0071782977,-0.004137341,0.008808686,-0.0069126524,-0.0076209526,-0.00083356834,-0.005264144,-0.004194915,0.0044662207,-0.002570116,-0.0008215945,0.004666359,-0.0050771325,-0.008661259,0.0036184855,-0.0042556976,0.0013741133,0.007159919,-0.005089384,0.0008308303,0.0010802096,0.0067258244,-0.0025280511,0.002114147,-0.00804092,-0.0055174483,0.004735851,-0.007411513,0.0066707046,-0.0073528974,-0.0038431748,0.008402684,0.0076303333,-0.0017947152,0.0071690637,-0.0029504925,-0.0054356176,-0.008999294,0.0025436254,-0.008439457,-0.0034886883,0.0067358073,-0.008820453,0.0064209565,-0.003031072,-0.008698939,0.0060210135,-0.007401389,0.0061799083,0.00036956838,0.005493046,0.0072053485,0.00026493706,-0.0030292787,-0.00057399174,-0.008934114,-0.0023895635,0.0014364125,0.0047989967,-0.004896944,0.007265003,-0.00026782716,-0.008236436,0.0054111527,-0.0025901136,0.008752511,0.00866177,-0.0071930806,0.000041324824,0.0067740455,-0.00050167,0.008357797,0.0031625673,0.008802765,0.0013933404,0.0056611327,-0.005356674,-0.007110197,-0.0071805185,0.0034220028,0.005713704,0.0049659265,0.007668186,0.0040658484,-0.0055107665,-0.0029227668,0.00488925,-0.0021307147,-0.004806769,-0.006358099,0.0014939548,0.00011514028,-0.0024070088,0.008112497,0.0053765997,0.005592548,0.004654285,0.008399897,-0.0042635356,-0.0006879081,-0.007855275,-0.004612174,-0.0078076893,-0.0033026244,-0.006712944,0.00815401,-0.0048489827,-0.0024205865,-0.0075892704,0.007427237,0.006189539,-0.0009066833,-0.0010704001,0.0023722039,0.005349741,0.0060933847,0.0088913245,0.0041073877,0.00039130118,0.0016993108,0.007867996,-0.004488242,-0.000078656114,0.008355305,-0.004256714,0.0020758354,-0.0021481346,0.007827423,-0.003939975,-0.007363102,0.0046798782,0.0058221086,-0.0038053463,0.007110452,-0.006415637,-0.00015021657,-0.0037725384,0.0043795747,-0.003554633,0.0010611527,0.008595296,-0.0021962828,-0.0072740857,0.0060035405,-0.0016731018,-0.00843129,-0.0051056216,0.0031080665,-0.003766197,0.0038815297,-0.0078023174,0.002590366,0.0033709689,0.0055073984,-0.0003354569,-0.0017633572,0.00091825705,-0.0074530197,-0.0005750241,-0.00020993107,-0.005687397,0.006241032,0.007963042,-0.0066110766,-0.005763171,0.0053889905,-0.00027414944,0.0005845979,0.00463215,-0.0005735212,-0.002336434,0.0060003153,0.0043124543,0.002603306,0.0015977195,0.0064309915,-0.008112984,0.003204402,-0.008443637,0.00096504367,0.0026538812,0.0050718603,-0.0034852617,-0.0053552464,0.002368243,0.0042957314,-0.005417823,0.003172119,-0.005342335,-0.007587751,0.00026927108,0.0075639663,-0.005893555,0.0056528756,-0.0069524995,-0.0034615758,0.0084295925,0.0030717594,0.0037109996,-0.0021259093,-0.0030457946,-0.0013603508,0.004185728,0.0015416804,-0.0070544695,-0.008940612,-0.0069590067,-0.0023624124,0.00433149,0.0068490803,0.0033672377,0.007879678,0.004970167,0.008600255,-0.0057648146,-0.003568025,-0.0066021853,0.0048129484,0.0020368171,0.0055791563,0.0077869752,0.0029358466,-0.0040593673,-0.006725437,0.005346052,0.003602728,0.0031255528,0.0059561403,-0.0056884964,0.0011466342,-0.0085570095,0.0036572819,-0.006693145,-0.00082020595,0.0023874433,-0.0010053801,0.005160267,0.004763411,-0.0029596817,-0.008739079,-0.0037501417,-0.0044106934,-0.0025955378,0.0074865837,0.0028571826,-0.0068120435,0.003048367,-0.007043172,-0.006396984,-0.0055718035,0.005590549,-0.0019509782,-0.0006328946,-0.0058090924,0.0030071216,0.005676348,0.00079557067,-0.008561692,0.008652911,-0.0055513997,-0.003998992,0.00030937852,-0.0066660857,0.00030925343,0.0039220937,0.003341858,-0.0023352061,0.0019521596,0.0055226036,-0.008952987,-0.008150523,0.005393611,0.00872482,0.0040721404,0.0060268664,0.0021201395,0.002001261,0.0038212708,-0.007809605,-0.003951487,0.0024506003,0.0030021663,0.0009905642,-0.0057089683,-0.008484334,-0.0014245606,-0.0024068088,0.006903336,0.008700059,-0.0015041865,-0.008662947,-0.0022716748,-0.0005474404,-0.0021167225,0.003616005,0.0039906227,0.0072607803,0.0020174976,0.0050600097,0.008287797,-0.0037602142,0.0048920535,-0.0007153121,-0.008244899,-0.0008354255,-0.00013667774,-0.007971857,0.0038935086,0.0013147297,0.006267387,0.0070261466,0.003290469,0.0018259858,0.0020402726,0.0028359971,-0.005262805,-0.0021845968,-0.0010527764,0.008587272,0.0053156535,0.002857263,-0.004924809,-0.0063731116,-0.0061054043,-0.007091638,-0.008330804,0.0024203279,0.008088695,-0.0085589895,0.001415671,-0.0068711014,-0.0062070964,0.00735578,-0.00087864586,-0.0022668017,-0.0042831767,0.0061044283,0.0016342193,-0.0030045223,-0.004527152,-0.007062697,0.005140539,0.0022370126,-0.0074043907,-0.004789263,0.008749462,-0.008735479,0.008774408,0.0023510822,-0.0019229065,-0.006383781,-0.0075995396,0.0037459044,0.0082707,0.0037124087,-0.008858063,-0.0073583126,-0.00050006545,0.005398979,-0.004698877,0.007531496,0.0060978094,-0.00019940759,-0.0051695346,-0.0026082613,-0.003361398,0.0009003532,0.003329163,-0.0065796664,0.0044588633,0.0018522032,-0.0010189235,-0.0071061314,-0.00670573,-0.00030395598,-0.0067219804,0.007828227,0.0034580345,0.0026506537,-0.0046196305,0.007574095,0.006613009,0.0012014385,0.005388237,-0.006793506,-0.0011195578,0.006122251,0.0023244484,-0.00051408657,-0.009106938,0.0037023074,0.0012965939,0.0042257095,0.005056526,0.0022407414,-0.0033657097,0.0070150704,-0.008732658,0.0061758505,0.0046427143,0.0050876895,-0.0072414665,-0.0034957482,0.003974739,0.006790726,0.0045270976,-0.0038726488,0.003742424,0.00556358,-0.007557943,-0.0033106303,0.007695869,0.0004128053,-0.00877034,-0.0018262347,-0.00073041604,-0.0067653833,-0.0047069136,0.007239741,0.0040060645,-0.007999008,0.0011086282,-0.00374244,0.0048816972,0.0073868195,0.00047415824,0.005653603,0.005625896,-0.0047472045,-0.0062239934,0.00058902806,-0.006658137,0.0037862926,-0.0067291246,-0.0002806246,0.0054669892,-0.0009035588,0.0032708666,0.0029057441,-0.0010504184,-0.0015689217,-0.005369635,-0.003051451,0.002872344,-0.0012346305,0.008115478,-0.007944455,-0.005539686,-0.000089157744,0.0016344064,-0.0026331719,-0.0059679793,-0.0011620937,-0.0088640535,-0.0040079257,0.0006360632,0.0007204381,0.0057793474,-0.00025926912,-0.009031643,-0.0069591743,0.007752196,0.0083068665,0.005883684,-0.0029128243,-0.0069699907,-0.00447303,0.0029903403,-0.0028115753,0.001987861,-0.004670867,0.0071871397,-0.003921533,-0.008899557,-0.0027547232,-0.0031318837,0.004686375,0.0032890178,-0.008020239,0.00029675517,-0.0032199677,-0.0042088428,-0.0054342547,-0.0009938454,0.0020594501,0.0057189134,-0.005131857,-0.008170494,0.00811434,0.0048503466,-0.004223341,-0.0058176657,0.002456764,-0.0008896567,0.0032799598,0.0012493368,-0.0017518087,0.008958312,-0.0056038513,0.00044166236,-0.008901919,0.004418736,0.003822618,0.0008190083,0.008338974,0.003394052,0.0042017265,-0.0063884947,0.0033774055,0.0014654766,0.0022402857,0.0009635099,-0.0021326593,0.0063102567,0.009063149,0.00020461064,0.00013482726,0.0031348707,0.00016618376,-0.0032092643,-0.0077288095,-0.003933468,0.0025565852,0.0011955027,0.008533675,0.0012162694,0.006294831,0.0042358614,-0.006079581,-0.0063666557,0.004900712,0.0063308678,0.005535795,0.0069570635,0.007955451,-0.007832764,0.00039147664,-0.0045635165,-0.0042289076,0.0008842084,0.002965221,-0.0005198083,-0.00045140693,0.0014110957,-0.0037337597,-0.00760665,0.004713656,0.0026702238,-0.0064399466,-0.008833764,-0.0065455446,0.00657299,0.0022058836,-0.004240009,0.0064790095,-0.008542438,0.0041682078,-0.0071549485,0.0003823398,0.0071291835,-0.006948284,-0.0043342053,0.0062944186,0.003860847,-0.001972052,0.004447533,0.008437732,-0.0055553806,-0.005620587,0.0048828963,-0.002126579,-0.0016968766,0.0030019837,0.004759784,0.000482809,0.004582139,-0.0038250387,0.0016110252,0.0083472505,0.0011023756,0.0045119226,0.0028560949,-0.0013835554,0.0018997459,-0.008387133,-0.0024156529,0.0040052766,0.0070599844,0.0019228664,-0.0010777538,-0.0021529954,-0.00773615,-0.0073314654,-0.005352521,-0.0077878432,-0.002115473,-0.007113277,-0.00857996,-0.0027061892,0.008381797,-0.005717116,-0.0037215638,-0.0059668967,-0.0023036017,-0.000823648,-0.0027315244,-0.004607602,0.007221325,0.0040721768,0.0056676683,0.003762528,-0.00021068545,-0.0021870562,0.0033226328,0.0061834496,0.0030176316,0.005220197,0.007923649,0.004642702,0.0041181515,0.005706132,-0.00045969512,0.006191222,-0.0019336122,-0.0016064862,0.0005929377,-0.0076667005,0.008026808,0.0046809684,0.005685566,-0.006666775,0.0020535348,0.0015040982,-0.0014713677,0.008639032,0.007099783,-0.0057044453,-0.0051075467,-0.0043576905,0.002937208,-0.004293584,0.0053024217,-0.007942001,-0.0023553283,0.008543805,-0.006861263,-0.00250412,0.0065457923,-0.006525787,-0.0069641336,-0.0045282035,0.00513151,0.006075037,-0.004608488,-0.000492962,0.0021498704,0.006172971,-0.0020055634,-0.0070983395,-0.0016588332,-0.0010172928,0.003047631,0.008423304,0.0002736177,-0.00051685475,0.0021623648,-0.0019558095,0.0006971323,-0.0041462895,-0.004223217,-0.0010714184,0.0032289936,0.002723608,-0.008416594,-0.0032497752,-0.0051396997,0.006869052,0.0035792775,-0.0048765,-0.0045132344,0.004292425,-0.0061342227,-0.002723105,0.004699992,0.008004913,-0.0010091872,0.0053708986,-0.0024016257,-0.0014224196,0.0057418915,-0.0035797849,0.0077112056,-0.004704086,0.0005638697,-0.0032685702,-0.000045356293,-0.002308779,0.0012569322,0.0030333619,-0.00796441,0.008423532,0.006592592,0.00665404,0.0062777433,0.005309995,0.0013503602,-0.0017028468,0.0064024515,-0.00059570855,-0.003002952,-0.007959992,0.0007201475,-0.008791052,-0.0072649103,-0.0060104476,0.0070472006,-0.0030484933,-0.007550194,0.007083302,-0.0049401727,0.004843168,0.008294831,0.009051396,-0.0047342144,-0.0038318606,0.007697293,-0.0041156895,0.0019807531,-0.0039535677,-0.00063045684,0.006630416,0.0012833707,0.0005589105,0.0060627447,0.0058749216,-0.00851768,0.005515113,0.0017929823,0.0030010755,0.0045485343,-0.008281643,-0.0063377093,0.00046604458,-0.006180806,0.0060641496,-0.009054896,0.000930571,0.001806593,0.008507569,0.008483573,0.0034805932,-0.00041340443,-0.0024071038,-0.00074235984,-0.0056946785,-0.0071388525,-0.004285473,-0.006474166,-0.005097016,-0.006203802,-0.0067567704,-0.0011713506,0.00070363184,-0.0061951447,-0.0065083737,0.006367842,-0.0005512674,-0.0055937916,-0.006723629,-0.008177712,0.00054790534,-0.007141462,0.008549818,-0.0031905358,-0.006888727,0.0031496612,0.0036644102,0.0089601325,-0.0065755867,0.008326272,0.0017813842,-0.002432922,0.0076164613,0.0012333822,0.003988592,0.00033892712,0.0009460297,0.006947058,-0.0009788747,-0.008456999,0.0036741965,-0.008123678,-0.0020051233,0.0045858705,0.005756075,-0.008714414,0.00061278086,-0.007645133,-0.0053629666,0.004949837,0.0065051625,0.00367017,0.008415926,-0.0025715781,0.0046803514,-0.007325437,0.004187576,-0.0033882319,-0.007994854,0.0044010277,0.0037345765,0.0058240388,-0.008412931,0.0000137895695,-0.0010922268,0.004170607,-0.0013747235,0.005758249,0.0077743484,-0.00022213632,-0.003954228,0.0045948112,-0.0057931268,0.0015314951,0.0037126925,0.0034028357,-0.003132641,-0.00857152,0.0081724245,0.008715432,-0.005012019,0.0023145138,0.0004568492,-0.0053973175,0.002485867,-0.0027827176,0.0064956085,-0.0048768246,0.00049952546,0.008841853,-0.0018861311,-0.0014016497,0.004844144,0.005069972,-0.003722021,0.0043365085,-0.008336001,0.0073800427,-0.0033736331,0.00079581334,0.004667701,-0.002764329,-0.006924207,-0.0026414027,0.0067652375,0.0018060087,-0.0019203852,0.00033638906,-0.0062818667,0.00043637547,-0.002704978,-0.0038992823,0.007169122,0.0072023096,0.007964592,0.0030187424,0.0033310538,-0.0027358579,-0.0042028665,0.0068628876,0.005987336,0.0003160413,0.008325395,-0.0069904285,0.0064699687,-0.008620118,0.0023736763,0.004728445,0.0027001495,-0.00475821,0.005723767,-0.005733315,0.008892747,0.000049114482,0.008079167,-0.00035504423,0.0053018397,0.0035787844,0.006214792,0.0022340298,0.007998274,-0.0076981448,0.005372139,-0.002778863,-0.008215768,-0.007869641,-0.0060925647,0.0025501433,-0.0063713677,-0.0051579024,0.0011908838,-0.00093022565,-0.007836483,-0.006225024,0.0076318234,-0.00024963432,0.0038872857,0.0028107397,-0.007146483,-0.00104637,0.0043179747,-0.0067716064,-0.0013132332,-0.0016106288,-0.007689715,-0.005221066,0.006592297,0.0030431955,-0.00023564861,0.0063412655,-0.0051441328,0.001305675,-0.006693278,0.0048323018,-0.007789842,-0.0018374632,0.0013125133,-0.0036468813,0.0021510997,0.0042744945,-0.0011239116,