{"b3":{"v":1,"dim":[5,1],"data":[0.010027619,0.043407626,-0.056985505,0.046822168,0.035960477]},"b1":{"v":1,"dim":[20,1],"data":[0.0034685468,0.011703105,0.0025193004,-0.003030299,-0.0001253849,-0.00022650359,-0.0026872517,0.018416498,0.0019446068,-0.006413681,0.011495001,-0.002084674,0.013462212,0.0065503605,-0.00019436839,0.01539577,0.008907818,0.0009304976,0.021194855,0.0030905432]},"W2":{"v":1,"dim":[7,20],"data":[0.09659765,0.08393602,-0.021521654,-0.059280936,-0.02402537,-0.11173452,-0.13127959,0.2600409,0.073653854,-0.10207725,-0.10329054,-0.0092798155,0.2292233,-0.021447524,0.015973015,0.31412068,-0.051996835,0.0041038357,0.2479113,0.2775457,-0.20051163,-0.20279762,-0.16565685,0.026960075,0.0581643,-0.1619598,-0.046979435,0.12252553,0.1659638,-0.11891009,-0.227201,0.126143,0.04360665,-0.13539638,0.06537259,-0.21410817,0.21582791,-0.21820058,-0.12951851,0.19388399,0.077618636,-0.16639651,-0.10239815,0.07255658,-0.1736849,0.04714565,-0.14550146,-0.1599486,0.122348204,0.26309773,-0.28205055,0.16269343,0.08956734,0.17206652,-0.20638067,0.076249324,-0.031034533,0.29399133,-0.24069926,-0.22920166,0.24391079,0.12223764,-0.13013358,-0.010722876,-0.056691527,0.072069705,0.03957603,-0.041853663,0.14443083,-0.20822532,-0.1327994,0.049808387,-0.11906551,-0.03164226,-0.11320683,0.1048469,0.04184903,-0.06651385,-0.17513606,-0.096960686,0.12951533,0.23236759,0.27120894,-0.30032787,-0.23068349,-0.21855073,-0.13754992,0.40728647,-0.042155195,-0.30227083,0.4442571,-0.315072,0.27500257,0.31526464,-0.042642724,0.25130913,0.45436355,-0.028596547,0.53712374,0.42248464,-0.21269014,0.02432312,0.14760281,-0.1122467,0.22575223,-0.035810724,-0.1790383,-0.003227362,-0.09150416,0.21717988,-0.17057462,0.09521035,-0.093760885,0.023387784,0.10538505,-0.13089882,0.10383756,-0.21180052,0.1301372,0.056401595,0.18672197,-0.049869884,-0.20821932,0.090024546,0.20174131,0.24508224,0.013166542,0.13553868,-0.04937543,-0.17721649,0.21984862,0.19143666,-0.22329792,-0.12711407,-0.15567714,-0.1609565,0.07615105,-0.15791558,0.2410163,0.14045674]},"W1":{"v":1,"dim":[20,12288],"data":[0.0032913468,0.008284475,-0.0028592995,-0.001530624,0.004288663,0.0015110931,0.0030012322,0.006572844,-0.0075626774,0.0008353379,-0.0011413315,-0.001302506,0.008113008,-0.0061465916,-0.0017977813,-0.0032757935,-0.0051472606,0.0043755565,0.0018679424,0.0017492208,-0.007487434,-0.00769674,0.0028189444,-0.007301725,0.00037917195,0.0057881554,0.0055461945,0.0061452202,0.006686448,-0.0071729794,0.007975752,-0.0038134283,0.00785721,-0.00094854285,-0.001598575,-0.0044297604,0.00542074,0.0014389068,-0.0068874885,0.007578604,-0.003890176,-0.006721908,-0.0021267433,-0.007246889,0.0051666913,0.0031496498,0.00995258,-0.0071877525,0.009064356,-0.0069086957,-0.004059586,0.00007878695,-0.007552224,0.0061286096,-0.004007075,-0.0063644415,0.005419991,0.0073721395,0.0039763185,0.0040948493,0.000024149389,0.007612862,-0.002820302,-0.0029514513,0.0089855045,-0.0063876715,0.008032942,-0.007618472,-0.0036301902,0.006447237,0.0016512311,-0.00087402225,-0.005610248,0.003294345,-0.0046338784,0.0030239897,0.003315997,-0.004068067,0.009629677,-0.0025586567,-0.0017898848,0.0069482503,0.00050836324,-0.003305824,-0.0020684195,0.0015463086,0.0026295534,-0.0006428349,0.009301871,-0.00912735,0.009419291,0.0039601936,0.0015043847,0.0045449696,0.009045493,-0.0067620846,-0.00831872,-0.0004793902,-0.008523045,0.006486693,0.005768626,0.004583574,0.0058773514,0.0015790176,-0.000040646053,-0.0071595814,-0.007662891,-0.0007371941,0.009172882,0.0061798138,-0.004538334,0.006070021,0.0073094196,-0.0039034924,0.0029373877,-0.0029086715,0.0034559704,-0.003161615,-0.007189621,-0.009810153,-0.008320665,0.00073382154,-0.006788462,0.0044495845,-0.0072490373,-0.0038769306,0.0009136684,0.007659338,0.004898738,0.002432821,0.004750235,-0.00909676,-0.0079126265,0.007788889,-0.0002647515,0.00679669,0.008411396,-0.002933728,-0.008362832,-0.005215102,-0.002927554,0.008689297,0.0067748497,-0.0023615486,0.009089777,0.008943136,0.0074866954,0.0023556028,-0.0038303763,0.0036875247,0.004335253,-0.0049368227,0.0022658424,0.0021519475,0.00859605,0.0056011723,0.00492955,0.009306812,-0.0004555765,-0.0040641674,0.007652325,-0.0038315898,-0.0074430024,0.0066839373,-0.0013123034,0.0075805797,0.002633026,0.0027982406,-0.0043165223,0.00085371686,0.0039946996,0.0042394456,-0.0011336057,0.003788715,-0.007070958,-0.0066670454,0.004122544,-0.008131056,0.0040705996,0.0042680907,0.00084347377,-0.005261247,0.006415317,0.004106134,-0.005219195,-0.009845282,0.0064898967,0.0015045857,0.0068940115,-0.00317628,-0.0033870693,-0.009430302,-0.0032135062,0.0078201825,-0.008238655,0.0020229954,0.0028697406,0.002715306,0.0006768524,-0.00051384565,-0.006380578,-0.0041987244,0.005116727,0.0047412827,0.0049815215,-0.0012473103,0.0033716613,-0.0008984561,-0.0054741106,-0.001635187,0.0034285265,-0.005671864,0.006539041,0.007388336,-0.0022149023,0.007582178,-0.005681632,0.00908539,-0.00087440823,0.009088553,0.0025788276,0.007848885,0.007831262,0.0002442895,-0.005060572,0.004029546,0.008449203,-0.00064396893,0.0053454167,0.0031824578,-0.002059994,0.0022917404,0.000995323,-0.0016809842,0.00395671,0.0030218153,0.0007789555,-0.0012864311,0.0039284024,-0.0058188518,0.009775051,0.004006487,0.0055592945,-0.0059498907,-0.0058704596,0.004899858,0.006171275,-0.0009890017,0.005188003,-0.008153451,-0.0041076485,-0.0078936,0.0028956786,-0.007962744,0.00082799146,-0.00010889686,-0.0048340014,0.0077501424,0.0025688706,0.008642283,-0.008852495,0.00740646,0.0013870508,-0.001181455,-0.0045619244,0.0086544575,-0.006403788,0.0011508298,0.0035243714,-0.009974379,0.00877088,0.0013906849,0.0050334795,0.0009020916,0.0073998147,0.005480611,0.003905153,-0.002560313,-0.0097625125,0.006057393,-0.0029187098,-0.00456492,-0.0033470932,0.0037861678,-0.000127411,0.0036382545,-0.006997308,-0.009521477,-0.0034520037,-0.004544829,-0.0014979359,0.0049795313,-0.0050552306,0.0031575721,0.00043606112,0.004445073,0.0024574916,0.00096716505,-0.006292728,-0.00080967194,0.0034638103,-0.0003182554,0.0005923245,0.0031111967,-0.0061562136,-0.0035200426,0.002924081,0.0071420586,0.0024528943,-0.0014545299,0.0019149401,0.004217302,0.009006617,0.0013083981,-0.0037721726,-0.00648289,0.002204953,0.0036835412,0.0038076227,0.0077840835,0.0066614854,0.005131293,0.00020821123,-0.0050406195,-0.0048084473,0.00876294,0.001314034,-0.0005869833,0.008212142,-0.002409809,0.0037918102,-0.00889907,0.0021858164,-0.0022247778,-0.004684553,-0.008333501,0.008598957,-0.0013765566,-0.000059740698,-0.0022534796,-0.0036566143,-0.0064279344,0.009119212,0.008858988,-0.0064396975,0.006575485,0.007017938,0.0011359318,0.008848247,-0.0013053629,0.00078483776,-0.00090758427,0.0051438054,-0.009097914,-0.004679431,-0.0020746766,0.0044717123,-0.004307199,-0.0032917338,0.001133485,0.00049448863,0.0005559938,-0.0026761165,-0.0026238742,-0.0069949166,-0.0062210783,-0.004180055,-0.00056441757,-0.00507341,-0.007448065,0.0042657424,0.0057580043,-0.00055486296,-0.008274237,-0.0052340087,0.0017500253,-0.002784079,0.005928385,-0.008034329,-0.009642435,-0.006707586,0.006425155,0.0072504524,-0.0010885517,0.0067414735,0.00056388817,0.004570244,0.0025635273,0.009940163,0.0041389414,-0.0036874854,0.007297567,-0.0034843443,0.006010122,-0.00012547652,0.004760545,-0.0090536885,-0.0085659325,0.0041985577,0.0049168253,0.0012696432,-0.0025510672,0.0059548086,-0.0075809984,-0.0070322594,-0.0019462144,0.006815905,-0.0027625912,-0.0059194667,-0.002386634,-0.0015152096,0.0036954987,0.006954758,0.004665838,-0.0045338515,-0.0060919137,-0.0077053113,0.00825819,0.005324556,-0.0019758856,-0.0013629512,-0.0016258772,-0.0020017873,-0.0013312037,-0.0030535338,-0.007091214,-0.008267701,0.008077204,-0.0020651855,-0.00085799384,0.0098891845,-0.0045256116,0.0045270305,0.0017356158,-0.0059799342,-0.0039086128,0.0016361058,0.002463182,0.009311662,0.0017862751,0.0060144807,-0.0053694677,-0.001726889,-0.008579321,0.0070166537,-0.004363776,0.0063957283,0.002979852,0.00502858,-0.008557557,-0.0004685915,0.0030025505,0.007116048,0.0058582737,0.006764945,-0.0075667975,-0.009023571,-0.008931471,-0.008313245,-0.0046578087,-0.0010911326,-0.0078260135,-0.0015004931,-0.007071704,-0.009381316,-0.00509533,-0.0048863674,-0.0089761885,0.0014051109,-0.0019288936,0.00151138,-0.0043240995,0.003240723,0.006171931,-0.00748119,-0.0063207885,0.0016308753,0.00075494865,-0.0037436543,0.007720785,-0.0046010884,0.007307839,0.0018033952,0.0043549105,-0.003434013,0.002128508,-0.0014566354,0.0087484615,-0.004642826,-0.0027749815,0.001417711,0.0031021398,0.000092467286,0.008830406,-0.0076695047,0.0014801885,0.009624735,0.0015579944,0.005330544,-0.0017053845,-0.007868872,0.006775615,-0.005289055,-0.002303899,0.0073530274,0.0019297992,0.006995417,-0.0060975766,-0.0071850372,-0.008561333,-0.0028986554,-0.0029133034,-0.0050192242,-0.0033158795,-0.003241246,-0.007328855,-0.0030156565,0.007898842,-0.001302833,0.0019997973,0.0047116466,-0.0010473216,-0.008857841,0.000038438633,0.007486879,-0.0038095224,0.008066715,-0.006188537,0.0031138298,0.009346932,-0.0062486236,0.007548411,0.00515252,-0.002446981,-0.0026593297,0.0028017121,-0.00018465541,-0.0068556466,0.0039934115,-0.0026802972,-0.0052336683,-0.0076745446,-0.0019840102,-0.0047235945,0.0054681343,-0.0091822855,0.0049296236,-0.0013559884,-0.007480602,-0.0073224204,-0.0036652565,0.002184926,0.0031054206,-0.0071838787,0.0028031832,0.0058705606,-0.006563241,-0.0018712293,-0.0020686164,0.0028436892,-0.005950935,0.0053633093,0.00594066,-0.0046962397,0.0047199433,-0.0018611884,-0.0009108812,0.0075636953,-0.0002390306,-0.0041480125,-0.006906451,-0.0066043907,-0.006352233,-0.0027309847,0.0062112575,-0.004956258,-0.004329451,0.006772804,0.0067462036,-0.0026524696,-0.0023320222,0.0051190914,-0.008174018,0.00006096945,0.008933282,0.005581309,-0.001952752,-0.007013343,-0.004038013,0.009390304,0.0043061133,0.0026022908,0.00028308714,0.006901661,-0.00021261188,0.007635254,0.001948216,-0.009109738,-0.0011989102,0.0070131184,0.0030385302,-0.0032455109,-0.006081573,0.0033365088,0.0059075444,0.0071934396,-0.007979813,0.0029878647,0.009717501,0.0026439806,0.008314236,0.008753777,0.0070267348,0.0022548765,0.0062876367,-0.00017753572,-0.0069902814,0.007601968,0.0071925446,-0.0054563954,-0.005529281,-0.007879467,-0.0014258602,-0.0004664335,-0.005514897,0.008724146,0.003013434,0.0040749684,-0.006260715,0.0039539607,0.0048867133,-0.003670501,0.005142335,0.0058185626,-0.0073638284,0.0051920135,-0.0035447117,-0.0046187053,0.004033735,0.0017431846,-0.0030519415,-0.007929748,0.0030947763,0.008629778,-0.007656281,-0.0029861745,-0.0056274873,0.006405728,0.0070840507,-0.004279356,0.0051411735,0.0030942312,-0.0048254896,-0.008154451,-0.0047934754,0.0015415788,-0.0070451456,0.004194437,0.0030581362,-0.0010641684,-0.0010416089,0.0044935476,-0.0028696682,0.0021311964,-0.007775869,0.0051804855,-0.0025130133,-0.007882982,-0.0058849184,-0.0013121901,0.0013705181,0.0020854617,0.0069218054,0.007094796,0.0023539774,0.0034479522,0.0006471069,0.005513411,0.0058014663,-0.0024635314,0.003984503,-0.006687404,-0.0069015883,-0.0041481177,-0.0018616061,-0.0026255455,-0.0008286492,-0.005033172,0.0064619076,-0.002788059,-0.00043006547,-0.0070911646,0.008793554,0.009662811,-0.0035933633,-0.0075636776,0.0007403656,0.0010406544,-0.008281816,0.0010575762,0.0054076873,0.0026827226,0.0048317146,0.004029188,0.0025112762,0.007371104,0.00897175,0.0076326933,-0.0028323699,-0.0003799411,-0.0060873283,0.0038527425,0.008500171,-0.0024237467,-0.0016241517,-0.0005244995,-0.0064809276,0.0067952797,0.0049141673,0.0020649533,-0.0059476234,0.005014906,0.002031778,0.006892097,-0.004518226,-0.0030059232,0.008015006,0.009683981,0.0039885384,0.005740247,0.0021754615,-0.0070954664,0.0035637557,-0.0065733236,-0.0013790166,-0.0026460197,0.0017394477,-0.0070771673,0.0069607673,0.0038636087,-0.0010461553,-0.008337715,0.0038611866,0.0046148947,-0.005825636,-0.006831003,0.0057806238,0.001880206,-0.0073160008,-0.0032981646,0.005930488,0.00817926,0.0032094184,-0.0060476204,0.0067257145,-0.0006571316,0.0041034287,-0.004381596,-0.0032834224,0.0013282258,0.007956759,-0.007336783,0.002265285,0.003838037,-0.0061137527,-0.0011994014,0.0059558055,-0.00573697,-0.0005006234,-0.008030118,-0.008752384,-0.006531838,0.008722671,-0.0027376204,0.0051319203,0.005123561,0.0020197507,0.003196623,0.006246817,0.004431088,0.007938509,-0.0037666701,-0.0063166353,0.00703656,0.0051714447,0.0023170395,-0.008321563,-0.0020716307,-0.0056437557,-0.006229538,-0.0023437494,-0.004193672,-0.0010260917,0.0079496885,0.002642856,-0.0064243055,0.00557632,-0.004760468,0.005599074,0.0027300983,0.0010400454,0.00550624,-0.002677353,0.0016358516,0.00429235,-0.003083289,-0.00045447133,0.0014293537,0.0059206896,0.005039824,0.0066417996,0.008176762,0.00035448608,-0.005273316,0.0039141844,0.0020424372,-0.002641225,0.007058695,0.008438857,0.0043501547,-0.0024948856,0.0066867517,0.00032171697,0.00237332,0.0011710281,0.0036536215,-0.006779855,-0.0076966938,-0.0030056497,-0.0015491823,-0.0025624994,0.0060265535,0.007045373,0.0033879012,-0.003086484,0.0057030194,-0.0011272087,0.0029332147,-0.00810039,-0.007762486,0.0064157923,0.0046831663,0.0004999107,0.004165633,-0.0018389989,0.00033061046,-0.0024841086,0.007896882,-0.0053310385,0.0024575463,0.005937543,0.004437369,-0.004174226,-0.0038722453,0.0064388416,0.0073859664,-0.0036130496,0.0036031192,0.006188916,-0.002254517,-0.0023684457,0.0035818773,0.0008515428,0.003818643,0.0012254508,-0.0008216585,-0.0053412793,-0.0078377025,0.0057097576,0.005573497,0.005116821,-0.006518266,-0.002237561,-0.0023184787,0.0039579314,-0.005007222,-0.0059393803,0.00525524,0.00486301,0.0024706812,-0.002510746,0.0013880437,-0.0002475915,0.0006667736,0.0038627288,-0.0070947036,0.0023629274,0.0049960194,0.0009526816,0.004372135,0.008039222,0.008193101,-0.000055118602,0.00031372719,0.0017880457,-0.0033211915,0.0038542347,0.002802542,0.008009851,-0.005873671,-0.0043462133,0.006832325,0.0028099862,0.0010847922,0.00922186,-0.0006738865,-0.0061307433,0.00024243843,-0.008073559,-0.0017253151,-0.00013335144,0.00072784786,0.0032472024,0.0049829404,0.00043307833,0.009632881,-0.0026388224,-0.0074012037,0.0059823534,-0.007380822,0.0016327574,0.009422926,0.007950758,-0.001938474,-0.0024060747,0.006567383,0.005605489,-0.0056982017,0.006060101,-0.008093378,-0.0019532219,0.004542938,-0.0012290153,-0.0027636497,-0.004074048,-0.0021216213,-0.005457478,-0.008249254,0.006719393,-0.0023930334,-0.0034015558,0.008558473,0.0043796743,-0.0034608366,-0.00072170486,-0.006446719,-0.00458722,0.006412411,-0.0065084477,-0.0076179723,-0.0042431606,0.0051417556,0.001641478,-0.0030760516,-0.0015269745,0.002065105,-0.008748803,-0.0070202746,-0.009180895,-0.0039131767,-0.003832786,-0.00016282382,0.0027435068,-0.006911945,0.0069257286,-0.00253678,-0.0073502045,0.0029768848,0.0016624366,-0.0018377097,0.0055052433,0.0019200649,0.0073861307,-0.0018560374,0.0066271154,-0.008556133,-0.00729997,-0.0025193691,0.0028158028,-0.006512355,-0.009426751,0.006986535,0.0066160033,0.0039658574,0.00804459,-0.004949721,0.006034189,0.0039291456,-0.0037437319,-0.0045409566,0.0012754678,-0.0013124753,-0.0027146642,0.00017099787,0.004975261,-0.0062489393,0.0108511355,0.008160853,-0.006782648,-0.0049922615,-0.005715019,-0.0006983338,0.010266729,-0.006649617,0.006324964,-0.0059746574,0.0063830684,-0.0081303585,-0.0071159643,0.0024099774,0.0072286883,-0.0022050336,0.0035123425,-0.004502489,0.0050372663,0.0028386577,0.003481756,0.0048570503,-0.0014123226,-0.0043805894,0.006495148,0.0020930977,-0.0043634824,0.00416237,0.005987958,0.001274979,-0.00010636581,0.003821762,-0.007244731,0.0077217673,-0.0034253693,0.004095502,0.00084839953,0.00494617,-0.0035168626,-0.007275894,0.0006946549,-0.006406895,-0.0020367787,-0.008891403,-0.005847616,0.001688069,-0.007966745,-0.000823879,-0.006779392,0.007866458,0.0028755118,-0.005126496,0.008875476,0.0041773454,0.0012930139,0.001250682,0.0017255745,-0.0029789857,-0.00056614773,-0.00066085096,-0.0038552165,-0.00016456093,-0.0022325022,0.0063218386,-0.0009717483,0.0043621827,-0.000016552689,-0.0033795151,-0.0032634526,0.008290667,-0.0037746094,-0.009673905,-0.0007361499,0.004034614,-0.008766717,0.0055172346,-0.005620792,0.00496632,-0.0009843089,0.002660637,-0.0037795047,-0.0039749066,0.0011275965,-0.009646207,-0.00470035,0.00012177492,-0.0064517385,0.000032196687,0.002805962,-0.0060397065,0.006562017,-0.0036696857,-0.0072500017,-0.007713363,-0.000702793,0.0012251169,-0.005103274,0.0069161775,-0.00819867,-0.0019033358,-0.0003792176,-0.008471191,-0.0028493307,0.003070693,0.0071794163,0.000012935469,0.008034342,-0.0072300076,-0.00035793602,-0.0040997793,-0.008818942,0.007857108,0.0089328205,0.0078032413,0.0034744057,0.0031792154,-0.0034073335,0.002326797,0.0048270407,-0.0011595043,0.0007209965,0.009401706,-0.008888291,-0.008335523,0.0083171865,-0.0060952124,0.004514082,0.006170482,0.0015558721,0.003943479,0.0009496221,-0.0072089834,-0.007797912,0.0062698275,0.0061107418,0.004992445,-0.0026373828,-0.0023204188,-0.007783332,0.0014168918,0.0050458745,0.001755743,-0.006429728,0.007708756,-0.0028851335,0.0020045282,0.00092433725,0.0007311482,0.0020418423,-0.008620896,-0.009094153,0.0035958802,0.007284848,0.00021609495,0.0010191028,-0.004799861,0.007205605,0.0018163548,-0.0094585065,-0.0027094665,0.0039272304,0.006856432,-0.0029315266,0.00803761,0.0075389477,-0.0073376866,-0.005652346,-0.004803367,-0.0029169281,-0.0060249297,0.0013540075,-0.0051570847,0.00047696708,-0.001853467,-0.002743543,0.003497074,-0.0032581664,-0.0030606254,-0.007975786,-0.007001108,0.00042803623,0.009687468,-0.0040733786,0.008270173,0.001216541,0.0051264027,-0.004625069,0.007532689,0.006749169,0.0040903864,-0.0065911417,-0.00464725,0.009993441,0.010393275,-0.0033439405,0.007886652,0.004813404,0.0011215539,0.0042503276,0.003903579,-0.0035580248,0.007886754,0.0016830894,0.008732072,-0.0023271933,0.0004813126,-0.0043107285,0.0035281635,-0.0039218618,0.0058875643,-0.005780678,-0.007625765,-0.006854717,-0.00634964,-0.0010727684,-0.008901537,0.007744344,-0.0058295224,0.0056374706,0.009424313,0.00096711726,0.0008828949,0.008258075,0.00861645,-0.0043850103,0.005000601,0.0004930765,0.0018890509,0.0024864394,0.007709288,0.0014111954,0.007930341,0.0012078778,0.0031977436,-0.00666681,0.0036931408,-0.00722504,0.0040448336,-0.0071229353,-0.005558607,0.0027976192,0.0039876928,-0.0023236221,0.0025611816,0.0010167116,-0.002721769,-0.0038500368,0.0016133594,0.0047590495,-0.006838016,0.0034801909,-0.005165987,0.006116348,-0.008954895,-0.0081573,0.0073833833,0.0033370885,-0.0046321047,-0.0026972548,-0.0032046442,0.003498049,0.007661635,0.005645745,0.0031766633,0.0016072734,-0.008651221,-0.008807043,-0.0059328824,-0.0024700887,-0.0061154575,0.007882598,-0.008069047,-0.0019050454,-0.004597768,0.00019465001,0.0032247724,-0.0064942194,-0.0021721404,0.0049479445,-0.0024365752,0.007198633,-0.0061566443,0.00012012144,-0.006106993,0.00657449,-0.009070728,0.00391564,-0.0075390446,0.0015220548,0.0072149592,-0.0068737725,-0.0034915598,-0.006046632,-0.0053507513,0.00756463,0.00047727735,-0.00048195355,-0.00009405666,0.008142913,-0.005423042,-0.004942955,-0.0072495025,-0.0015366488,-0.0076213134,0.0056476146,0.0064736893,0.0076053385,0.0063723493,0.0070274854,0.0066295746,0.000030760417,0.002754848,0.0022709148,-0.0051112296,-0.0031283419,0.009174639,-0.00017807409,-0.0068796347,0.0029858567,0.0010859142,-0.0049702884,0.0072414116,0.0055503026,0.0056660986,0.0052707787,0.0015811498,0.0075139217,0.0012629901,-0.0058134664,-0.0047476296,-0.00042410335,0.0058757337,0.0049787606,0.0046948115,0.0039186655,-0.0006189333,-0.0048713787,0.0058308993,-0.0030278426,-0.004546323,0.008064943,0.0075931707,0.008071049,-0.00058989605,-0.0062362878,0.0025700822,0.00444297,0.00056384585,0.00816868,-0.0004012341,0.00085417676,-0.008083284,0.0073705576,-0.007338169,-0.007670987,-0.007959229,-0.007433091,0.0039598104,-0.0017323305,-0.0088636,0.0061543654,-0.009662794,-0.0014115911,-0.0030128509,0.004023843,0.00033547884,0.006228761,0.0032034353,0.004757101,0.0072988328,0.007197043,0.005247418,0.0012968499,0.006852706,0.0028246643,-0.0021171314,0.002992391,0.0024332567,0.0074724783,-0.0056602876,0.0062330016,0.009631966,-0.0029170318,-0.0055094967,0.008175341,-0.00408346,-0.0072838105,0.0020326409,0.004827557,0.0055321027,-0.0018190085,-0.0029791293,-0.0073345816,-0.009337917,0.0039739977,-0.0031067259,-0.0019482474,-0.00028515575,-0.008491867,-0.002046674,0.0053551937,0.0021671625,0.006647457,0.0021322249,0.002350522,-0.007169091,-0.00527732,-0.0064424835,0.0015103032,0.008457895,0.0061856094,0.008128015,-0.002795362,-0.0066213994,-0.006304567,-0.006680757,-0.009254794,0.008281349,-0.008659566,-0.000108204484,0.0028700416,0.0022530467,-0.00916952,0.0039728303,-0.00092457474,-0.009795694,-0.00030311532,0.0013670094,-0.0038348043,-0.0004961045,0.0032389525,0.004680284,0.008247239,-0.005584388,-0.0033781312,0.009722826,-0.0012053625,0.0038645675,-0.0011702853,-0.004979194,-0.00032762988,-0.0035497206,0.008578431,-0.0041747834,0.0033608826,-0.0028057727,0.007295649,0.006694406,-0.0063304636,0.0040015024,-0.0063617574,-0.002464717,0.0038964113,0.008552938,0.008965949,0.0014837664,-0.0021217356,0.008601407,0.0074444334,-0.007028025,0.0010126937,0.00022643048,0.0084412,-0.0045029745,-0.007420438,0.004985937,0.0016344264,0.00040088067,-0.0052480865,0.0073699174,0.0049218056,-0.0011214816,-0.0010004292,0.00040584712,0.0022614328,-0.0010179114,-0.0020025093,0.004097096,0.0019252539,0.005120461,-0.002331512,-0.008319069,-0.009487334,0.0066673425,-0.0056136334,0.0054099285,-0.0076791067,0.005394996,-0.0054333457,0.0027547544,0.0065166606,0.002097118,0.0044634966,0.009454451,-0.00508304,0.007458848,0.0027790538,0.0034229036,-0.0075737806,-0.003641015,0.0067336475,-0.002185937,0.0018910094,-0.0083237,-0.0061812354,0.0016115706,0.0028586441,-0.0012137882,0.003457029,0.00818266,0.0072916704,0.0060347505,-0.0019675202,-0.0018041126,0.0025380158,-0.0011775936,-0.007739325,0.008837493,-0.008206972,0.007570794,0.000496933,0.00062309986,0.00095277344,-0.0022041204,-0.00515394,0.007624445,-0.000077030876,-0.006918727,-0.0011399759,0.00816345,0.006064809,0.0023373095,0.0057868045,-0.0008429187,-0.007816459,-0.0031641878,-0.0027248326,0.0017949262,0.008536899,0.00546581,0.00038389114,0.0026446606,-0.0010610126,0.005278404,-0.004083753,0.0004524974,-0.0074048326,-0.008710511,-0.008969173,-0.0036634412,0.006666726,-0.008239698,-0.0079462975,-0.0050882353,-0.0035907472,-0.0070340056,0.0074574267,0.0067190807,-0.0006164432,0.0089703305,0.0007876406,0.008509974,-0.004028023,0.005551602,0.0026505194,0.0005776958,0.008453792,0.008020037,0.0022524518,-0.006846832,-0.0064020855,-0.003420049,-0.006801453,-0.0008580076,0.0021219936,0.0024805223,0.000073755466,0.001809551,0.0028501584,0.0010962285,-0.0067968434,-0.00897038,0.008003319,0.006792697,-0.00920549,-0.008436734,-0.003427144,-0.0036704442,-0.0062469323,0.0068604974,0.0070709027,-0.004756906,0.005369795,-0.008441192,0.004047929,0.0029059318,-0.0018114811,-0.0069414517,-0.0021163027,-0.010123944,0.0036712855,-0.0012475019,-0.006416154,0.006290125,-0.008535886,-0.0010849922,0.006887432,-0.0073502157,-0.00941981,0.005209381,0.0039605848,0.003674701,-0.00017921414,-0.001773844,-0.005047289,0.0072654802,-0.007806694,0.0065809307,0.0017934947,-0.005831285,-0.0038750528,0.00899289,-0.003408272,-0.0058531407,0.0087958025,-0.0014219889,0.0009925854,-0.0048272135,0.0022253236,-0.0005700224,0.00012896332,0.001789662,0.006157805,0.006081837,-0.0032090812,0.007570793,-0.007150016,0.0033861788,-0.0060167685,0.004174752,0.000038977512,-0.004529773,0.009745191,0.001752152,-0.0040909876,0.00413368,0.005247749,-0.00092356483,-0.0014289919,0.0048742597,-0.005450191,-0.0069579585,-0.0053443075,-0.0039373897,-0.0053750314,0.0050893333,0.002874125,0.008291462,0.0066187778,-0.0003317831,0.004156651,-0.0033570463,0.004030566,-0.0036685315,-0.0009911256,-0.007055456,-0.0030482276,0.0009354901,-0.0071461983,-0.00495612,0.005460735,-0.0041342513,-0.008498731,0.0059732427,-0.005903055,0.008366687,-0.0057659885,0.0079558855,-0.003293428,-0.0066426117,-0.0004038917,0.00532157,0.0034268112,0.004245906,0.0050330777,-0.0006808076,-0.0044829375,0.006352093,-0.003619313,0.00095532445,-0.0071306815,-0.002740289,0.0056835865,-0.001306032,0.0070475303,0.007103757,0.005919603,0.007834546,0.006864964,0.009183355,0.003483069,0.006067522,-0.0003928837,0.008980052,-0.0057944884,0.002283636,0.0062987097,0.000892647,0.0039681657,0.0056552263,0.0038001067,-0.004510041,-0.0019610266,0.0060294713,0.0053002588,0.0004642766,-0.005883228,-0.0008015291,-0.0038053966,-0.007960313,0.00032918248,-0.0029292908,0.0015485112,0.008503284,0.0052402536,0.00036249871,-0.0057415282,0.0047895415,-0.005787281,0.0072865505,0.007302098,-0.004473742,0.0034829574,0.0013090904,-0.006649314,0.0042275256,0.0039607068,-0.0045698388,-0.005560466,-0.0050047645,-0.004214942,-0.0006159784,-0.0008011006,-0.0090139555,0.0065449346,-0.0012627116,-0.007409259,0.008746974,-0.0003684524,-0.0042616255,0.0088178115,0.0032392284,-0.0053370427,0.008488477,-0.0008581505,0.004840865,-0.005894841,0.0037903269,-0.009111269,0.0050878134,-0.0069435984,-0.005911526,0.003343852,0.0064653824,0.008262711,-0.0031777644,-0.008219007,0.0074828463,-0.0012215144,0.0048085446,-0.005990673,0.0044404767,0.0026975865,-0.0024711546,-0.009167347,0.0054469923,0.001266504,-0.008424698,-0.008445244,0.0066026477,-0.010017437,0.0009835992,-0.007223684,-0.003166588,0.007081557,0.0059896517,-0.0055072946,0.00060158386,0.0043956223,-0.009859668,-0.0047227805,-0.008221849,0.00583773,0.008448688,0.0003706332,-0.0066434722,-0.0022030042,-0.0024618604,0.0006741452,0.0046272236,-0.006958366,0.0072525837,0.007297112,-0.003109795,-0.0048675146,-0.0077713598,-0.0048473934,-0.0040560546,-0.0033930854,0.00022367328,0.0049224556,-0.0046721525,0.0056000175,-0.0038951072,0.004897327,-0.0066104913,-0.0045482996,0.0010320588,0.0017225025,0.00572085,0.0036461132,0.0068910727,0.007243125,0.008926021,-0.00981898,0.0058574537,-0.006469675,0.00067810155,0.0038015957,-0.0016433478,0.003374256,-0.007602469,-0.008003814,-0.0038066416,-0.004139977,-0.0072307084,-0.007842826,0.0006798164,0.007114857,0.0007255877,0.0007395125,0.0014598032,0.0025240493,-0.000071172646,-0.001568816,0.0050466363,-0.0012945142,0.008771614,-0.008680487,0.009630246,0.008630635,-0.009498532,0.002441475,0.008314298,-0.008902763,-0.0036607652,0.0055246158,-0.0051799733,-0.000008122456,0.0015993227,-0.0062567554,0.003000974,-0.0073918444,-0.009885999,-0.003543834,0.0022167885,-0.008821398,0.001534498,0.005290014,-0.0094628045,0.0010855534,-0.0062197256,-0.0031598262,-0.0012593326,-0.007137753,-0.00725386,0.0028587824,-0.0014543451,-0.00753949,-0.0015451198,0.0060557355,-0.005604822,-0.005676486,0.00035824094,0.004510917,0.0006290298,-0.005454682,0.005657079,0.009098726,0.004371956,0.00025879833,-0.004609652,-0.0066688955,-0.0027033652,-0.00079837453,0.008632301,0.005889576,0.0020618248,-0.0011614729,0.0023923002,0.0072944835,-0.0056255898,0.004581689,-0.0085052755,0.0064201294,-0.00033367355,0.00014822738,0.003334577,0.00006846642,-0.002805498,-0.0019657842,0.006937605,0.008195739,-0.0069433716,0.008488465,0.0035447828,0.003850771,0.004053604,0.002900604,0.0013122273,-0.0018398947,0.0061463052,-0.0056891204,-0.00030948842,0.005556578,-0.0061175404,0.0073802625,0.008974974,-0.006643715,-0.008105711,0.009616708,0.004361161,-0.0005181577,-0.0072505013,0.007980105,0.004302141,0.009003061,0.0013559652,-0.0011944342,0.00024448722,-0.00386267,-0.0012850423,-0.0070309676,-0.005685902,0.0041314107,-0.00399178,0.0023389973,0.0029445298,0.0003069678,0.008856989,-0.004313472,0.0047486634,0.0010914579,0.0076586017,0.008031682,0.008434261,0.000108301545,0.009260573,0.008582422,-0.0076539093,-0.0007846217,0.0039960817,-0.00039235567,0.0010493506,-0.0056385063,0.0019303508,-0.0057523414,-0.0030292068,-0.0092447335,0.0057294765,0.0069912514,0.0050530564,-0.004429045,-0.0015912101,0.0052783946,-0.003528125,0.0022586859,-0.003451366,0.003973862,-0.0020110547,-0.0025135733,-0.0010012087,-0.00481685,0.0021876732,0.0016445186,0.007420622,-0.0008430448,-0.0033713728,-0.005928291,-0.010034384,0.001970178,0.00066448725,0.0027399429,-0.007088336,0.00063416245,0.0053992225,-0.0033404431,0.0068504126,-0.00029213075,-0.0033461875,0.0032595694,-0.0039028917,-0.0044782083,-0.0051778806,0.005215056,0.002857083,-0.00066565344,0.0025976717,0.0031885821,-0.006652764,0.005162948,-0.005596192,0.008021283,0.0064726444,0.010994646,0.0044018063,-0.0057017254,0.0023799667,-0.0061624525,0.0064604175,-0.005886097,-0.00039712907,0.001349175,0.0063440166,0.0075209234,0.0030837092,0.006457226,0.009147897,0.0002454438,0.0012561606,-0.0067881336,0.0034629966,-0.0053306273,-0.004386351,0.0010530138,0.009593158,-0.0029322854,-0.0072267815,0.0009337639,0.0047092657,-0.007130278,-0.007327104,0.006148708,0.0047857137,0.009601414,0.005774226,-0.001065279,0.0067488616,-0.0048931055,-0.0050602364,-0.005752978,-0.0046055117,-0.008524049,-0.007548317,-0.005422908,-0.0063326587,-0.0059728213,0.0065153735,0.006628472,-0.0026540582,-0.007604808,0.004475937,-0.0023441913,-0.005701146,0.0010127777,0.009363582,0.007489799,-0.0027979135,-0.0037208104,-0.006995161,0.008644574,0.00012075355,0.0024827714,-0.004353016,-0.002761142,-0.005269147,-0.0050474717,0.009867286,-0.007261655,-0.00430612,-0.00077473064,0.0035199006,-0.00824728,-0.0051046596,0.008988669,0.003030363,-0.0054310705,0.00807278,0.0068853498,0.007821899,0.004453107,0.0050070235,-0.0032841514,0.008779766,0.007532469,0.0028838213,-0.0016950488,-0.0063095507,-0.0024849684,0.008487162,0.0008925454,-0.0036110901,-0.005159872,0.0072286106,0.003438503,0.007196667,0.008289765,0.0053019365,0.0071142106,0.005986455,-0.002060075,-0.00021605866,0.0018234774,-0.005125734,-0.0027750158,0.0056918547,0.00478162,0.0066648154,0.0029817286,-0.008318031,-0.004728565,0.000939362,0.0035587107,0.0052993535,-0.003568149,-0.004468748,0.009347685,-0.0039123725,0.0019444019,-0.002069707,0.008319382,0.0024170063,-0.0071855094,-0.0060951067,0.007726459,0.0054202606,-0.003708165,0.0040450604,0.0041463724,-0.005973107,0.0021720913,0.0019762723,-0.004515719,0.010036204,0.010375048,-0.0015235806,0.010220388,0.009919146,-0.0011445376,-0.0052096145,-0.004622802,-0.003214428,-0.0073965546,0.0017132803,0.008856558,-0.007130012,0.008409875,-0.0069643003,0.004048581,0.0023756595,-0.0026166406,-0.0014963832,0.0003656254,0.006600428,-0.0020373927,-0.005544697,-0.0062960302,0.0019648757,-0.002304988,-0.0057232548,0.0067030755,0.004737902,0.0040905876,0.0060592433,-0.0033024952,0.00076323544,0.007881771,-0.0035532587,0.003494612,-0.0011139304,-0.0062612193,-0.009328012,-0.0030690955,0.0053504454,-0.0020571775,-0.003074284,0.009015926,0.0047354246,-0.002491539,0.004440039,0.002316092,-0.006776341,-0.0037925774,0.002362328,0.010398704,-0.0024438472,-0.0063457624,0.0026421607,0.0020642257,0.0025764075,0.0056399265,-0.00090514193,0.008415425,-0.0063946624,0.0033969758,-0.0044616684,0.0055305907,-0.001940976,-0.0077205715,0.004789987,-0.0046960753,0.0011451204,0.0031375224,-0.00081983214,-0.008722523,0.009216675,-0.0021688212,-0.0034410823,-0.004604871,-0.0028281137,0.007733089,-0.0055042133,-0.0067539834,0.0062470553,-0.0052607483,-0.0076474943,0.0061937426,0.009170905,0.007023418,-0.007202788,-0.001657672,-0.00006175261,0.006984575,-0.0021296246,-0.0041516228,0.004195767,0.0072643454,-0.0032807456,0.0007082264,-0.0018834337,0.008103869,-0.0075936713,0.0030661228,-0.0068928194,-0.0076433658,-0.005800912,0.0062024845,-0.0082455445,0.0019711072,0.0021412303,0.006761567,0.0029514066,0.004194407,-0.008115891,-0.004248103,-0.0060876785,-0.0044175987,0.0023446674,0.0037851168,-0.0021669609,0.006164668,-0.00082734786,0.009001951,-0.0047699935,0.008547869,-0.0016306218,0.008253168,0.007922484,0.008236514,0.0011949579,-0.0015075647,-0.007609738,0.008775899,0.0005883931,-0.008013496,-0.00014055653,0.0066802935,-0.0081715295,0.000053110776,0.002636752,-0.0044806614,0.0032152096,-0.0050805933,0.0070223296,-0.0019549732,0.0040473747,-0.007359267,-0.0065085115,-0.0065563777,0.009178214,-0.004446257,-0.0012760552,0.0016595046,0.008219425,0.0013091805,0.0018352671,0.0062948293,-0.0036661252,-0.006918432,0.0038498098,-0.0075284773,-0.0062662256,0.000106328975,-0.004007809,-0.0063525303,-0.0007493857,0.005159025,-0.005839055,0.0024672034,0.0019637463,-0.007608304,-0.0014482277,0.006169134,0.0007839222,0.000060448285,-0.000021566071,0.0016099041,-0.0012462344,-0.0055578565,-0.008903243,0.0076310406,-0.002112093,0.0009474239,-0.005621855,-0.00031515598,-0.0018670211,0.0033125102,0.0026894442,0.0057691787,-0.0033434702,-0.0054955,-0.007896757,0.00070475205,-0.0030863506,0.008242447,0.010309802,0.0013278646,-0.007892153,-0.0061800545,-0.0033680215,0.0005502863,0.002205067,0.0062149544,-0.0019615698,0.0035115124,-0.0015259885,-0.00007900331,0.008687599,-0.0016174929,0.0037885928,0.007853123,0.0019005791,-0.0043416205,0.00095186726,-0.0063399747,0.0022217755,-0.006836996,0.009637379,0.004681058,0.008399451,-0.0018116417,0.00910391,0.008958613,-0.0012037375,0.0033279532,0.007140715,0.004664958,-0.009117197,-0.0026454579,0.0055946796,0.004892256,-0.007912386,0.0072310823,0.00084621005,-0.0070289485,-0.003946667,-0.0024988565,0.0002339323,-0.0045575714,0.0056734937,-0.0013577546,0.0031989457,-0.0012714248,0.001038414,0.007717122,-0.004148148,-0.007028458,-0.0047948514,0.005482204,0.0038496163,-0.006393494,-0.007566537,0.0051720394,0.0025255485,-0.0036935513,0.006720754,0.0015596653,-0.007297558,0.0083447695,0.008761073,-0.0044774073,0.00081734394,0.0054572006,0.007982656,0.009887239,0.006084341,-0.004796469,-0.004585327,0.00074889435,-0.0042962497,-0.004809788,0.00884737,0.0073989085,0.0014124534,0.000997328,0.0010522441,-0.006154387,-0.0043313266,-0.0077123223,0.0010268542,-0.0028413683,0.0028279463,-0.0034238265,0.005798306,-0.00651107,-0.0038083154,-0.0033107654,0.009133563,-0.0024922136,-0.0006167707,-0.007855497,0.0071302066,0.004747528,-0.00550422,-0.00050757,0.001384655,-0.001142108,0.0012558249,-0.0054043173,-0.00892741,0.0017910227,0.0011012902,-0.0072789006,0.004993173,0.0068129147,-0.009312427,0.010369936,-0.0033021749,-0.0069643008,-0.0042536855,0.0049765324,0.0016172498,0.009746955,-0.0011689335,-0.008269487,0.009731719,0.00071706687,0.0060799294,0.0044037686,-0.005455702,-0.0046724933,0.002293602,0.00019871809,0.0016984991,-0.0071998765,-0.0039458233,0.005822064,-0.008064733,0.003755185,-0.005103347,-0.0018611697,0.004566691,-0.007530753,-0.0017509111,0.0006573126,0.004845158,-0.007188685,0.0012577149,-0.00500652,-0.00757683,-0.007052843,0.0074524553,-0.0014493342,-0.0067937667,-0.0004089867,0.00091223855,0.001571315,0.002016259,0.0039577335,0.00038956912,-0.0041899537,-0.00020409534,-0.0036207866,0.008260846,-0.0045564165,0.0057788766,-0.0047616865,0.0073979096,-0.004118016,0.007427365,0.005019825,-0.0039395886,-0.000104125356,0.0058324058,-0.0043608076,-0.000085429754,-0.003503966,0.007632492,0.0036440853,0.010023923,-0.0018235766,0.00028417795,0.010006727,0.006789385,0.0071025095,-0.002338793,-0.0037706313,-0.0043636304,-0.0037860938,-0.0064952737,0.0062719644,0.0052694087,0.0028267927,-0.0015466072,-0.0071522845,0.005244541,0.0017013296,0.006458399,-0.00043257166,-0.000321953,-0.0049722516,0.0036856807,-0.005798053,0.0049851886,0.009969127,0.0065771975,-0.0061838455,0.010085626,0.00015600339,0.00789207,0.0048962547,0.00816364,-0.0060386444,-0.00044650395,0.0008427669,0.007881135,0.004190174,-0.00048175416,0.010569832,-0.0070424434,0.0016812964,-0.004204477,-0.006779423,0.0010253293,0.0061278595,-0.0045814626,0.0077812504,0.00045032016,0.005428206,0.00067813334,0.0062438226,0.006929653,0.0012897559,0.005817854,0.0018558613,0.0004530798,0.0034995286,0.00880874,-0.001745663,0.009529193,0.009305409,-0.004328037,0.004607571,0.0042980467,-0.004922837,-0.00590539,0.008714392,-0.008245009,0.0068152975,0.009642603,-0.007977016,-0.003839069,0.0074913357,0.008190427,0.002864614,-0.00034053889,0.003517087,-0.003905088,0.009391625,0.0044142324,0.0070494777,-0.0052004056,0.0049198056,0.009892328,-0.002819249,-0.0047349874,-0.005820867,-0.0034750074,0.0008433926,0.0018195432,-0.008295523,0.0018294911,0.0080658365,-0.004254041,-0.00833797,0.0053835614,0.007731674,0.0015517693,-0.0017587822,0.0011500781,0.007911797,0.00039632033,0.0010905032,-0.0028379953,0.0046624755,-0.001151889,0.001468248,0.009543027,0.0015781067,0.007922629,0.005715148,-0.004998173,0.005119929,0.006167931,-0.0066028056,-0.0006596093,0.005469181,0.0005214465,0.00081451074,0.0052708415,0.009518637,0.0018321421,0.009460196,0.006242394,-0.0064108577,0.006914164,0.0056338487,-0.0053739,0.0005324137,-0.007682689,0.0042538624,0.0040246034,0.0107962135,-0.0036093271,0.0013631833,0.009640326,0.0006517421,0.008823858,-0.0056914533,-0.0048761126,-0.0040899715,-0.006513257,-0.0031001,0.00029500434,-0.0061725155,-0.0034165005,-0.0052961875,0.0032594271,0.0009248286,-0.0079310825,0.0042799963,0.005112547,0.0085166525,-0.0071757357,-0.0027659978,0.004887143,-0.004675773,0.005476622,-0.00019726995,0.0055066664,-0.004326666,-0.007920364,0.00630527,-0.0036543582,-0.0063322606,0.0023560575,0.0024468135,-0.00012062065,0.008740523,0.0029702138,0.0019667677,0.002444432,0.004347061,-0.003260995,0.00064033805,0.0058008665,0.0060722968,-0.007768111,0.008808742,0.0038080006,0.002000266,0.000097758355,0.005399463,-0.0061923927,-0.0028363976,-0.0035216322,-0.0063005667,-0.0061053606,0.001143791,0.0064785318,0.009023891,-0.0012165054,0.00096422364,-0.0023687212,0.0013608019,0.004759576,0.0015906737,-0.0077189347,0.008204236,0.007968278,-0.003339223,-0.0035886918,0.0017578611,0.0025924104,0.00028340175,-0.0038509495,-0.00620007,-0.0039329766,0.0007578471,-0.003883776,-0.004090458,0.0055074594,0.009306867,0.00092861283,-0.0054771886,0.003678624,-0.0062366077,0.005278241,-0.0047610756,0.006747395,-0.0098493695,0.0064181266,0.0072958814,-0.0068349834,-0.003381343,0.009698518,0.0033006351,-0.0043681804,-0.007761736,0.0019499806,0.002075637,0.0054062326,0.0006797782,-0.008194549,-0.0014578679,0.006807661,-0.008115073,0.000649569,-0.00034106628,0.009190617,0.0008588032,0.0006256868,0.008389283,0.0017167913,0.0073395576,-0.005639333,0.005300606,0.0046873144,0.004400317,-0.0014586858,0.0025215652,0.0011870712,-0.0066537615,-0.0023897733,-0.005935176,0.0065484494,-0.005960077,0.0042786906,0.0020674763,0.007309527,0.009214935,-0.008208391,0.0019505827,0.00049240055,0.0063329116,0.0031114635,0.0003108984,-0.0038389603,0.0035043096,0.0021481079,0.0033105167,0.01005542,0.00081369554,-0.0047383197,0.0016265743,-0.0044500083,0.004886648,0.0027764388,-0.0016262376,-0.00685276,-0.00911772,0.008704949,0.009172762,-0.0044488874,-0.0016933917,-0.007103661,0.0095448755,-0.004371261,0.0006131937,0.005578828,0.00061321503,0.0024217542,-0.005980849,-0.0029641266,0.005358142,-0.0069263265,0.0063603674,0.0039303214,0.0018049545,-0.0011563022,0.0003630744,-0.008076592,0.0036930954,0.0005012197,0.004024239,0.002049575,-0.007328895,0.002224407,0.008722318,0.0072493893,0.008728352,-0.007327747,-0.0073170885,-0.0038492044,-0.0071447943,-0.004383906,0.008353961,0.0068832813,-0.006086313,0.005212104,0.006697429,-0.0015058875,0.007818821,0.0015992832,0.0016266323,0.0025433984,0.008832156,0.0063982173,0.004979778,0.0035991333,-0.0071157254,-0.0010575714,0.0051278085,-0.007426896,-0.002348981,-0.005399559,0.005614029,0.008483654,-0.0069255936,0.006314465,-0.0074878065,0.005568804,0.00017596228,0.0016059504,0.00032970324,-0.004710778,0.005310798,-0.0031209108,0.0033418173,0.0068211257,-0.0056673405,0.0019717289,0.008731574,0.00048839895,0.010477753,-0.0011285782,0.0052392017,-0.00033757056,-0.007746106,-0.0032859244,0.004230684,-0.0020069876,0.0071905414,0.00045275092,-0.002691282,-0.0017530519,0.0035667403,-0.007308593,-0.007325313,-0.0024207123,-0.005860763,0.00682415,0.0051363017,0.00831662,-0.008024171,0.0069285408,-0.0056054485,0.0046913717,0.0016840391,-0.0008426368,0.007990254,-0.004646488,-0.0069679064,0.0066199945,0.0022468558,-0.002311971,0.0006546894,0.0073774443,-0.003619474,0.00030638624,-0.008486422,-0.0088981055,-0.0070106103,0.005387671,0.00012932163,0.004411063,-0.0031469548,-0.0032693497,-0.0011601986,0.0048996788,0.00393258,0.0053499825,-0.0052505224,-0.0060382755,-0.004132377,0.003965058,0.0012037003,0.0012529948,-0.0047866874,-0.0029400003,-0.004368744,0.001103456,-0.00810854,-0.0073414603,-0.0022516542,-0.0032075478,-0.007688264,0.007977978,0.007807796,-0.006690882,-0.0062850523,0.0025061509,0.0022423912,0.0022815794,0.006390573,-0.0074822903,-0.0074140537,0.0017287466,0.0010093538,0.006383676,0.0038721412,-0.008572916,-0.0013380509,-0.0076938854,-0.0013170671,0.0047358912,-0.0012101115,0.00063104474,0.0058301957,0.003770513,-0.002117647,-0.00040682085,0.0019961388,0.0064951032,0.0053366115,0.004310888,0.009482446,-0.0038856177,0.0049949284,-0.0012427414,-0.008076114,-0.00041068954,0.0008311791,-0.0025106214,0.0045678443,-0.0020408062,-0.006311663,-0.008560353,0.0042245723,0.0044447803,-0.003768364,0.006825649,0.002077179,-0.0044348747,0.004715815,0.01024805,-0.001375633,0.0006861802,-0.0066066496,0.008013541,0.0005661866,0.0017032659,-0.00037997105,0.0069381865,0.0029716264,-0.0025897399,0.001519856,0.008988329,0.004689304,0.0067434027,-0.0013431483,-0.005580631,0.0060086874,-0.006335888,-0.0029326377,0.000081409395,0.005506339,-0.0064954786,-0.00003997998,0.0022051798,0.0035532506,0.0046042213,0.008807717,-0.006183354,0.0050414107,0.007116565,0.008224172,0.007827871,-0.0029842255,0.0035968574,-0.0005551761,-0.0013733878,0.002329964,-0.0066337874,-0.0061853873,0.0055046277,0.0032819128,0.00005428547,-0.007075895,0.005936505,-0.0013314633,-0.002341637,0.0074459175,-0.004221703,-0.0050187116,0.0034082884,-0.005361288,0.0030651125,0.009383625,-0.001964795,-0.00402396,-0.0055103237,-0.0018573501,0.0066125863,-0.005785684,-0.0009144634,0.00080558273,-0.0013348787,-0.006574277,-0.0006604057,0.006826129,0.0010495065,-0.0021988447,-0.0007465048,-0.002941656,-0.0054755835,0.0077996254,0.00822928,-0.004926738,0.0011808219,0.00674735,-0.007940251,-0.0026663693,-0.0052600866,-0.0071411347,-0.007569988,0.0057376656,-0.0049248417,0.009576218,-0.004811084,-0.002125482,0.0038530764,0.0018624272,-0.005408443,-0.004361745,-0.0050303773,0.00714651,-0.005482538,-0.008439985,0.0025413632,-0.0070596277,0.004328973,-0.007788805,-0.003742979,-0.0023743205,0.004311593,0.0032037129,-0.0048123808,0.0036788601,0.007053956,0.0012489612,-0.009376263,-0.004288216,0.007206308,0.0053679985,-0.0026765058,-0.0064153853,-0.009369446,0.00070315757,0.0032923047,-0.00838891,0.0054965476,-0.001950466,0.005987943,-0.000841543,0.007633224,-0.004247636,-0.008095776,0.0034498505,0.0035856755,0.007979257,-0.005247205,-0.008202708,-0.0047890097,-0.0027156065,0.0031336895,-0.008939248,-0.008606983,-0.0036533512,0.0059330924,0.002338638,-0.007862593,-0.00084852386,0.008292641,-0.008280923,0.007454707,-0.0012194625,-0.0075762374,-0.0076855286,0.0070939627,-0.0066599627,-0.003002538,0.0020998926,0.0011346644,-0.0058573387,0.0068289195,0.0053890734,-0.0014967282,-0.000715859,-0.005274447,0.0023212873,-0.0094704535,-0.008837276,-0.008121579,-0.0020248827,-0.000820063,0.0037167168,-0.0019440582,0.003008449,-0.0008409944,-0.0076450286,-0.008699132,-0.0029705942,-0.005092367,0.0026910915,0.004196695,0.0007716322,-0.0047310484,0.00080732483,0.0051481808,-0.0048707156,0.0009694803,-0.0019749615,0.0058675767,0.0066058394,0.0046398677,0.0042895805,0.010433166,-0.0040642773,-0.0016412511,-0.005500369,-0.0070366943,-0.007371659,0.00802997,-0.003048566,-0.006974693,0.0005542585,0.005696119,-0.004257022,0.0004852388,0.0054832953,0.005590957,0.008069308,0.00055272074,0.006126158,0.005186328,-0.0010781917,0.004410941,-0.003118403,-0.004269969,-0.0073613487,-0.0002852727,0.0018825325,0.0009066733,0.007652998,-0.007902605,0.0040724096,0.007552052,-0.007911087,-0.0069889873,0.0063165613,-0.0015528254,0.0045294943,0.006693134,-0.003318171,-0.0082514305,-0.0039798417,0.008920568,0.0037281627,0.0070648673,-0.0028275275,0.0032165053,0.000976218,0.0041945255,-0.009185164,-0.0035490529,-0.0031601212,0.0021865384,-0.0019000167,0.0077951546,0.005761726,-0.0017651996,-0.0013577626,-0.0014372052,0.0074130087,0.00089692645,-0.0016445285,0.0003881832,-0.00718993,-0.0017964528,-0.00021462991,-0.00562737,0.005685922,0.0017526264,-0.004987935,0.0026891741,0.006148308,0.0088708745,0.0066829217,0.004658505,0.006969591,-0.0030701861,0.00037692505,-0.004313754,-0.0010303402,-0.005456181,0.0064615766,0.005168353,0.008225943,0.0033807622,-0.003800907,0.0007944751,-0.0013853274,-0.0048771175,-0.004683783,-0.0026201,-0.00050878234,-0.0075030797,-0.003928953,-0.0041337586,0.0021274006,0.00044349968,0.008579459,0.00619845,-0.0020088076,0.0019818018,0.002996407,0.0018660863,0.0024651473,-0.00020238709,0.000080940874,0.008105888,0.003325725,0.006857493,0.0082841,0.0069696247,0.007791898,0.0065842494,0.0071855276,-0.006974428,-0.0028262658,0.0007889844,0.004386781,-0.0069499793,0.0056171934,-0.0009262307,-0.0026902123,-0.0066966778,0.000084200095,0.0010402858,0.00027960606,0.0016557255,0.004103596,0.008157148,0.008447317,0.0036575054,-0.008330434,0.0032598842,0.0029913557,0.005487065,-0.001373019,0.0000033963884,-0.0071833413,-0.0049828268,-0.0013185273,-0.00594162,-0.0056904876,-0.0078773545,-0.007980837,-0.006524794,0.004975515,0.008752016,0.0026956396,0.0018900225,-0.0073794974,0.002932411,-0.00063372985,-0.00021969908,0.0020515963,-0.0012677971,0.0059659383,0.005074741,0.0023842468,0.005286724,-0.0025303883,-0.0021294334,0.0020431955,0.0076880977,0.0034851865,-0.0035229216,-0.008066013,-0.0022104613,-0.0038454335,0.007756224,0.00039533144,0.0054597724,0.007592423,-0.00990836,0.0045795147,-0.0014264239,0.0034609234,0.0026987724,0.0007458707,-0.007518486,-0.002857081,0.002435111,-0.002404297,0.0028821896,-0.004619542,-0.010021214,-0.0043408186,0.0052840984,-0.009480581,0.0031585142,-0.006895419,0.006017639,0.0034231741,0.0029804206,0.0040687453,0.0053644427,0.0023920184,0.0059354706,0.0107494565,0.00025545672,0.0049153506,-0.0030880624,0.00970456,0.0029651807,-0.0049780156,0.0029997132,0.0037927222,0.007282962,0.00964504,0.0013446521,0.005632995,0.008341381,-0.0061312434,0.0027092237,0.0037697928,-0.006920639,0.00034312322,0.00045036012,-0.00045109866,0.00457832,-0.0038998218,-0.00258704,-0.004965711,0.009567313,0.0018055734,0.010872493,-0.0024344986,-0.008100619,0.0053977543,0.0060041477,-0.0020182638,-0.0060558785,0.0067458358,0.008266705,0.009071355,0.0032501179,0.0073818527,-0.0022533564,-0.0021766967,-0.00088269176,-0.00484145,-0.006535545,0.0066295546,-0.0066886325,0.0050974214,0.000089277884,0.0057860054,-0.0006092524,-0.0017342704,0.0004377818,-0.0039676772,-0.0059182043,0.00744003,0.0005956838,-0.0023569916,-0.007579443,-0.003701818,0.007138713,-0.0031845535,-0.0028428603,0.0039052786,-0.0045640366,-0.003358517,-0.008571598,0.008713554,-0.006415446,-0.0012844584,-0.0013810141,0.0030980017,-0.0018661428,0.005517267,-0.007789553,0.009682717,-0.004978123,-0.0031088104,0.0022958275,-0.0021585203,-0.0050634784,-0.00034872312,0.009292573,-0.0062270104,0.00012443338,0.0047359583,0.0035442803,-0.0036161952,-0.0044976156,-0.0028684814,0.0053478014,0.0055183102,0.00840822,0.008488675,0.0025779456,0.006549716,-0.0072299847,-0.00721087,-0.0011981683,0.00030094475,-0.0032783775,0.0072051953,0.0088945655,-0.0033468222,-0.00182594,-0.00028113468,0.006700503,-0.0054296334,0.0022651907,0.004739254,0.0028502415,0.0020132074,-0.0014302273,0.0021484287,-0.00056823774,0.0046827416,-0.0059916773,0.0059417,0.008820253,-0.00500361,-0.0054010693,-0.007507015,0.0035398905,-0.005297783,-0.004282829,-0.002802563,0.008596216,0.000018841858,0.009202789,-0.0013694093,-0.0060784766,-0.007057844,0.003920957,-0.0006287549,0.009112483,0.0005798672,-0.008057317,0.0037698906,-0.0028199896,-0.0023668392,-0.005098446,-0.00030408468,0.008494631,-0.00205961,0.0010954612,-0.00812072,-0.0015720002,-0.007779485,0.0080858385,0.0051130927,0.0012023178,0.006097884,0.0020336972,-0.0014625319,0.00489978,0.00089681667,0.00064865605,0.0058252183,0.00833138,0.0011398712,-0.002535034,0.000016972215,-0.0037778923,0.0026251741,-0.010452025,-0.010240252,-0.010526753,0.006278418,0.0062969006,0.005903825,-0.0045000124,-0.008859511,0.007401279,0.0027835106,0.005403072,0.0020850035,-0.0008578075,-0.0017477191,0.0020336749,-0.00165783,-0.00010790435,-0.005928331,-0.0020831793,0.007411627,-0.0039694724,0.0042060353,-0.0005611912,0.00574263,0.0027267844,0.0014174662,-0.0061501255,0.004543499,-0.0031744994,0.0089381905,0.0063809385,-0.0005967617,0.010062207,0.00037409944,0.0038456656,-0.00008269465,-0.00021279846,0.0019449462,0.009154639,0.001660966,0.004324331,0.0010128187,-0.001210305,-0.00049785123,-0.0012075242,-0.0034357144,-0.001862452,-0.005644168,-0.005743287,0.00056727795,0.0053075515,-0.0009366637,-0.0042706383,0.008540251,-0.0057872613,-0.000062710234,0.0046123993,0.0007518375,-0.002599094,0.009789089,0.005661529,-0.0074736304,-0.0039582998,0.0036226227,0.0028062817,-0.005807067,-0.0027768745,-0.0073510883,-0.007385417,-0.0033132199,-0.009868554,-0.0051136897,0.0009898519,-0.008499657,-0.004552134,0.0074225604,-0.0045729657,-0.002341548,0.0067363544,0.0065668537,0.0061900537,-0.00083674095,0.0015159261,-0.006627978,0.00046375292,-0.0048774336,0.00066428323,0.0025598702,0.007703137,-0.0018874861,-0.008137123,-0.0049077445,0.009203772,0.006997426,-0.0072008986,0.0026056871,0.0044059344,-0.0020557577,0.008016295,-0.0018963813,0.00021907604,-0.005713982,0.0031193604,0.005864602,-0.0007739091,0.004544403,-0.0016530615,-0.0013483632,-0.006803094,0.00864697,0.009078608,0.007823586,-0.002649675,0.0006599992,0.010817774,-0.0016751932,-0.00073176617,0.0014923743,-0.0012656626,0.008425928,0.004510549,0.0017445072,0.005720809,-0.00035023302,0.0021335322,0.008116472,-0.004143168,0.0047545703,-0.008434799,-0.0025635185,0.003997134,-0.004408698,-0.002823939,0.009214217,0.0075987014,-0.008245306,0.0051749405,0.006576647,0.0027960807,-0.0066298773,-0.002232309,0.0071503255,-0.0045159413,0.002166477,0.00825359,-0.0058845943,0.007376647,0.0048736525,0.0056562442,-0.005096964,0.0028609775,0.0060258214,0.0032909522,-0.0069639524,0.0054738866,-0.0010635484,0.007306503,0.0011483774,-0.0066336025,0.004854593,-0.0033841403,0.0054422244,-0.0040759332,0.0035233253,0.0062910737,-0.007653634,-0.0008722583,-0.006778801,-0.0067375773,-0.004338127,0.009128126,0.005568138,-0.008843969,0.0021210036,0.0048793266,-0.004178475,-0.006613691,0.006642675,-0.009088773,-0.008312302,0.005332167,-0.0065145777,0.0017209353,-0.00088060915,0.0061326786,-0.003624056,0.0067787813,0.00029572376,0.008073544,0.008077837,-0.0075116516,-0.009291017,0.0020786596,0.005994828,-0.009550361,0.006706207,0.0046440708,-0.003997523,0.0052634105,-0.0028791907,-0.004883526,0.0035223747,0.0063792756,0.0058148047,-0.0047059627,-0.0061832545,-0.007760543,0.005630166,0.00045865538,-0.0021774948,-0.0057038604,0.0054279612,-0.0064612348,0.004554933,0.0071023945,-0.002555436,0.008432639,0.007433971,0.010381991,0.0007293702,-0.0036536308,-0.0027310571,-0.0024954425,0.005821781,-0.0059374725,0.0000665925,0.0053228633,-0.0021234786,-0.0019950208,-0.0038792673,-0.0029502066,-0.00010340717,-0.0038231541,0.009817819,-0.0058036153,0.007979191,0.002260521,0.0064277453,-0.0026213897,0.00805215,0.00417283,0.0034017162,0.011023106,0.0068573263,0.006742021,-0.00032448527,0.0059510833,0.009338874,-0.0024619044,0.009118738,-0.00020221244,0.006523373,-0.0060676397,0.003069011,0.0038305821,0.00829846,0.004237211,-0.0015291809,-0.005987738,-0.00060658564,-0.0010991484,0.008513239,0.0048200237,-0.0027133275,0.0034497282,-0.0022674552,0.0077845147,-0.008634642,-0.0022423747,-0.0066452953,-0.0025926984,-0.002123409,0.0034598098,-0.00082077755,0.0053989585,-0.007899011,-0.002460373,0.0077398075,0.006479378,-0.007967401,-0.0070767794,-0.007735198,-0.0041031996,0.00055014505,-0.008948832,0.006231456,-0.001391977,-0.0058717197,-0.008593964,0.0048589986,0.0020733327,-0.0034620145,-0.0047089364,0.0052720737,-0.0039764415,0.0014400552,-0.0024277777,0.007864693,0.0015714018,0.0018397657,0.010655134,0.005966067,0.009847692,0.0029197794,-0.0075363675,0.00032568147,0.007723586,-0.0031182235,-0.0019236061,0.008661286,0.0017142157,0.0032875543,-0.0033427814,0.007945057,-0.006941602,0.005994725,0.0012485511,0.005274811,0.008247289,-0.0013797188,-0.006043409,-0.003908177,-0.0053801476,-0.0010998833,0.003544963,0.008173898,0.0070816875,-0.0061646295,0.0056893453,-0.001710265,0.0063009094,-0.0016640789,-0.008864975,-0.00683655,-0.0063682687,0.0017450856,0.0071696634,-0.0022584342,-0.00423144,0.008915515,0.008424042,0.00631423,-0.001633739,0.0029062321,0.0015610419,0.005437465,0.0051446026,0.004145109,-0.006554937,-0.00038883032,0.004115143,-0.0020757713,-0.006254221,-0.0015734008,-0.001385263,0.007325316,0.00024923016,-0.0077816034,-0.004976836,0.0017378018,0.0009524126,0.0039029135,0.0044150804,-0.0068963603,-0.009485471,-0.007154317,0.0039684563,0.003602308,0.0031393976,0.006733921,-0.008835079,0.008738228,0.0072088335,0.0009777244,-0.0066212984,-0.006243967,-0.0016328172,0.0077690743,0.005887253,0.0058458936,-0.005663833,-0.005918986,-0.00067161646,-0.009466382,-0.007435504,-0.004667878,0.0074936934,0.0034378604,0.0074215694,-0.00022601316,-0.006781958,-0.003095007,0.009036808,0.003073919,-0.002036923,-0.00082474994,0.0054685194,-0.008777935,0.0065339105,-0.0075577665,0.0039161188,0.0014089487,-0.0086190915,0.0069324365,0.0019398759,-0.0039909896,0.0026991477,-0.0062352843,-0.009590845,-0.009040098,-0.002870867,-0.002415619,-0.0030820179,0.0072217486,-0.0053919214,0.0045852885,-0.00559796,-0.0054885834,0.0018401407,-0.0000048902584,0.002800013,0.0059251096,-0.0019564505,0.005931576,-0.0045018056,0.0020028327,0.0007577621,-0.0033798136,0.004839182,-0.0019646138,0.007659556,0.008595909,0.0031124684,0.004629742,-0.0036642475,-0.0024957107,0.0057294862,0.007008318,-0.0019402856,-0.0019215506,0.00556457,0.0057839053,0.0060797483,-0.002860635,-0.0041372823,0.009048822,0.0020804468,0.00934955,0.0068697995,0.002456298,0.0028082314,-0.003608655,-0.002622431,0.006872321,-0.0006840184,0.009199407,0.009059339,-0.0049547427,-0.0058880793,-0.00047906156,-0.008847603,-0.00820863,0.0034885923,0.0076481937,-0.005908961,0.006356336,0.0016723117,0.0044016256,0.009073492,-0.0043931226,0.0014202232,-0.0038124875,-0.006388547,-0.0012309997,-0.004417755,0.0093600005,-0.0024538178,-0.0030012615,-0.005977706,-0.008939809,0.008423227,-0.007699936,-0.0089730155,0.0025912893,0.004409826,0.0021788192,0.0011912521,-0.008786157,-0.0005232345,0.0014921031,-0.001438225,0.0004799309,-0.0029671642,-0.0030683938,0.00066092826,0.008758091,0.0014444173,0.00638812,0.009777579,0.003535224,0.0059799324,-0.0067237113,-0.0065225856,0.0066387276,0.007999856,-0.009007381,0.0045412257,0.00694742,0.0075945584,0.005236729,-0.0060386606,-0.00014889555,0.0058421846,-0.003415264,0.004329611,-0.0051551154,0.0016039038,0.0017907014,0.005709597,0.008611546,0.0027887973,0.008144506,-0.008062854,0.0034591586,-0.0011865793,0.002933087,0.006845418,-0.0016030722,-0.003814443,0.004112548,0.0031118873,-0.0059389183,0.0040347795,-0.00036956032,0.006565211,0.0069258404,-0.001083975,-0.0007310506,0.0019851974,-0.0028194154,0.009894458,0.0048606168,0.0027165706,-0.0067241103,-0.005479347,-0.0042581116,0.0027157995,-0.00090164755,-0.007842515,0.0032962502,0.0077928966,0.006210562,0.00084779254,0.0018054291,-0.0071612406,-0.0033833336,-0.0065101483,-0.006774308,0.0052133845,0.006604095,0.0051525673,-0.0026143861,-0.0066012307,-0.0073262355,0.0071192277,-0.004729512,-0.0064665475,0.0067958366,0.002484718,0.0022340838,-0.0011219485,-0.004689699,0.00074139895,0.0076759714,-0.009296918,0.0023288273,0.0058293114,-0.00084086537,-0.007705328,0.0003069985,-0.005819111,0.0062116846,0.0055874903,0.0024464815,0.0026001523,-0.0011976246,-0.00043820875,0.0017378636,-0.0020346334,-0.008922181,0.006547421,0.0032774566,-0.0076380507,0.0068384823,-0.009084133,-0.0017627026,-0.004259076,-0.007997219,0.0033727034,0.0020533619,-0.008655676,0.0017231226,0.0019040076,0.0045952145,-0.006021083,-0.0014103204,0.0066108042,-0.0065088733,0.0075120605,-0.00086570194,0.0058725965,0.007404451,0.004577343,-0.0012108766,0.0062746885,0.0037894761,0.0048786136,0.009039231,-0.005754286,0.009180982,-0.0029328146,0.00039360955,0.003797431,0.003011285,0.006266731,-0.0021776548,-0.003279497,0.0038107098,0.004214737,0.0014594762,0.006607076,-0.0032567908,0.010460804,-0.0003500805,0.000976658,0.0017134956,0.0085029965,-0.0046760873,0.009916719,0.00030337326,-0.0018664941,0.0020187714,0.006442149,-0.0057435343,-0.006056689,0.005981259,0.0032377192,-0.0072978395,0.0041254237,0.0007878179,0.0016970497,-0.006071709,0.0021522027,-0.003258375,-0.008311057,0.0051997523,0.0053613964,-0.008497427,-0.0040596933,-0.007978098,0.0022835233,0.00033359637,0.009470857,-0.0012122692,-0.0036225014,0.004670504,0.0033679223,-0.0071598236,0.007190068,-0.006837269,0.003807827,0.0028251635,-0.0023671724,0.00766896,-0.0049639987,0.00033463037,-0.009069568,-0.0071446914,0.0069718277,-0.0010957689,0.0028331745,-0.00057270215,-0.0005173853,-0.0045850007,0.008673392,0.0074346326,0.00008044589,-0.0063764285,-0.00018863082,-0.005984761,0.00015281976,-0.0069431574,-0.0019933362,-0.0031621545,-0.008863657,0.006406916,-0.0066030063,-0.00725608,0.0016378493,-0.0038934276,-0.008384549,0.004374552,0.007456532,-0.004432957,0.0056264196,-0.0054734456,-0.0063886717,-0.0050487174,-0.004459599,0.0015788267,-0.007056713,0.0010540609,0.0025476234,0.0070415586,-0.0040544155,0.007872466,0.0014379796,0.0003412771,-0.0007470482,0.0027028592,0.007481138,-0.0050020632,-0.000874052,-0.0055723707,-0.005920394,-0.0009594618,0.0019056185,0.007823833,0.0059163435,-0.0025869696,0.0030131692,-0.0063474183,-0.0070550996,-0.006097841,-0.005959566,0.0039627096,-0.0041546933,-0.0055183475,-0.004208607,-0.002411375,0.00056156574,0.008498937,0.0053801867,-0.0050119916,0.006054332,-0.0009612951,0.0081930235,0.0012758585,-0.0009962465,0.0039033524,-0.0010356992,0.005578222,0.008254343,-0.0020047526,0.0024028798,-0.0076011387,-0.000397067,-0.006244046,0.0026604577,0.0093112225,-0.002825053,-0.0035902483,0.005758314,-0.0026443012,-0.0025428704,-0.0032647755,-0.004430824,0.0011059667,-0.008383375,0.0063768444,0.0060435357,-0.0040688813,-0.0036756934,0.00042790096,0.0006430019,-0.0020139546,-0.006367202,-0.003651358,0.010536723,-0.0010827287,-0.007085821,-0.003327872,0.003009539,-0.0066575157,-0.0057569826,0.007414103,0.0012304052,-0.006810284,-0.004179783,0.00081957935,0.0038682844,0.0029548048,0.0015020076,-0.0019320503,0.0055338982,0.0060898955,-0.010254701,-0.0066293473,-0.00958085,-0.00096614583,0.009239739,-0.00073483016,0.004504894,0.0078305425,0.002409833,-0.004738083,-0.007245024,-0.00072404614,-0.008425547,-0.00016415781,0.0032960991,0.0022545333,0.004597307,-0.0062117293,0.00073179853,0.0051433323,0.0041885884,-0.006329726,0.0070485566,0.0044092424,-0.009233836,0.0059717437,0.008334942,0.0014680206,0.009938236,0.0037513855,0.0016772512,0.005907956,-0.007901104,0.006182952,-0.004065951,-0.0025522704,-0.0013942472,0.00582678,-0.0057638725,0.00071557524,-0.004668609,0.0065705804,0.0037745545,-0.004123398,0.005810692,-0.008237531,0.0069618234,0.0009901293,-0.010206119,0.005668795,0.0057939296,-0.006496831,-0.0033998808,0.0065112696,-0.00746292,0.0023217774,0.00895662,-0.004503605,-0.0018210617,-0.004177866,-0.0027232454,0.006088013,-0.0052907015,0.008245591,-0.0041777752,-0.0012178047,0.0046677715,-0.001133196,-0.0013790545,-0.0021430738,0.00079803035,0.006178537,-0.00008260582,0.0050563994,0.00042570257,0.0014635249,0.0051386203,-0.007144477,0.0021143248,0.00897573,-0.0035413476,0.002298238,-0.004735728,0.0044383137,-0.0014513708,-0.0048522837,0.006445678,0.0046277666,-0.006933172,-0.006089508,0.007067307,-0.008651889,-0.003253598,0.004582845,-0.009115582,-0.0014413843,0.00485838,-0.0011711359,0.009007492,0.0016400747,0.0021005226,0.005472564,-0.0045972755,0.0058438173,-0.003930345,0.002875953,-0.0058490215,-0.00051360653,-0.0014505393,0.005970125,0.001207673,-0.005281816,0.0015635673,-0.0081054475,-0.004482276,-0.0025482283,-0.0062141903,0.0075522093,-0.0025082785,-0.005325292,-0.0068953596,0.008876192,-0.0017063201,-0.00018616683,-0.0077660107,0.006961739,0.00436446,-0.0036481402,-0.0036117607,-0.008633285,0.0077566365,0.0054379245,0.0027600904,0.00047443167,-0.0024891277,-0.0039212243,-0.005131241,0.0070501585,0.0009079672,0.006354361,0.003847088,-0.0063195922,0.0012981273,-0.0043060244,-0.0020047443,0.007479268,0.006645958,-0.0019160878,-0.007171934,-0.00051351776,-0.00316023,-0.007342366,-0.005246283,0.0049921754,-0.00707462,0.004112744,-0.007915891,0.004689011,-0.005623697,0.006184995,-0.00029135245,-0.008078029,-0.00029834828,0.0072840485,-0.008743214,0.004249232,0.002814556,0.0015616737,-0.006764024,-0.0069426377,-0.007744011,-0.0067152837,-0.004444657,0.009888132,0.008087115,-0.0017257195,-0.0043882215,0.0016495194,-0.008109474,0.0006998818,-0.0016779433,-0.007522218,0.0017591234,0.0046856203,0.008195049,-0.008891372,-0.008296794,0.0017065555,0.0009816715,0.0022745004,0.0018007447,0.0010740613,-0.009425896,-0.004546084,-0.005601182,-0.0013053319,-0.00037877724,-0.001361679,0.006700632,0.003372415,-0.00700666,-0.003636341,0.0010775579,-0.0012734695,0.0006680391,0.0012407043,0.0057482566,-0.0043966244,0.0014485808,-0.0069853417,-0.010103738,0.008404894,-0.0019287324,0.002827142,-0.007244025,-0.0063640364,-0.0074725514,0.0097906245,-0.0013145213,-0.006959052,0.0014928697,-0.0024812445,-0.0011974402,0.0050597233,0.0068804068,0.0030862258,0.0033485002,0.0039775395,0.0028319848,0.0068051224,0.0012400077,0.0050948723,-0.004118181,0.0066940426,-0.0008420462,0.0041811056,-0.005712409,-0.008447591,-0.0055903364,-0.007048777,0.0059718606,-0.006189838,0.00688721,-0.007205797,-0.0051800692,-0.0074703544,-0.009989183,-0.000339877,-0.0036712822,-0.003687427,-0.0026372224,-0.0072553274,0.0030608557,-0.0025379737,-0.0016571593,0.007144502,-0.0040865242,-0.0046802005,0.004480521,0.0020826492,-0.005539715,-0.009932354,-0.0003319235,-0.0057804105,0.0019204073,-0.00621534,-0.0024099734,-0.009872148,-0.0037160239,-0.0023511127,0.0035167888,0.006747606,0.007954995,-0.0026636855,0.0019489556,-0.0031538436,0.0026569786,-0.0068756407,-0.0034847443,0.0044129305,0.0038502566,0.004675345,-0.0059604044,-0.00078135176,-0.007907767,-0.001361944,-0.00583867,-0.00020265687,-0.008204586,0.00065992214,-0.0031332073,0.00021353299,-0.0026392895,0.0010590217,-0.007108,0.0068041314,0.009083296,0.0048027295,-0.007933421,-0.000027003773,-0.005113196,-0.0029324624,0.008503997,-0.0030214805,0.00829694,-0.0032232958,-0.006524318,0.004789268,0.0077629453,-0.0044945925,0.0004397658,0.0018808348,-0.008589585,-0.0012086254,-0.00868384,-0.0068788915,0.0031084067,-0.00049006066,0.005698038,0.00063828327,-0.006617621,-0.0012879863,0.0042112684,0.005355117,-0.0050311587,0.0066052172,-0.0043268665,0.00460414,0.0045321872,0.004972403,0.000046764715,0.0005560422,0.0041433293,-0.004813803,0.0001316144,0.0011060911,-0.008067275,-0.0074394136,-0.00097167725,0.00409697,0.002580522,-0.00034134788,-0.003214337,-0.005086304,0.005236713,-0.007559863,-0.002177981,0.0008998772,-0.008931899,0.0068121273,0.0022115656,0.00029228337,-0.0021728799,-0.0006626746,-0.006417524,0.0074884626,-0.0043054274,-0.007923696,-0.0030590654,-0.00096938305,-0.009509875,0.0073990757,0.0037926272,0.00016511638,-0.0041194,-0.0012198075,0.0032432445,0.0022656259,-0.0023375738,0.0025432643,-0.0054701692,0.0046059415,-0.001396374,-0.007582776,-0.0010589795,-0.0017744349,-0.0035938816,-0.0022392713,0.004262572,-0.0018983327,-0.0090505965,0.0042019575,0.0058833407,0.0011521868,0.005776045,0.006418321,0.0038848883,0.00036285998,-0.0048134504,0.0081914915,-0.003220741,-0.0065712496,-0.009375051,0.006237621,-0.0053515597,0.0023773592,-0.0032586749,-0.0029414538,0.0015585663,-0.006197341,-0.004999737,-0.0058616004,0.0033643402,0.010034889,-0.008908304,-0.0052149016,-0.0073016626,-0.0024788936,-0.0060099135,-0.0059457733,-0.003347494,-0.0051794006,0.00782274,0.0068066665,-0.0052776807,-0.0044795102,-0.007405816,-0.004016965,0.008946881,0.0032225784,0.00086928357,0.0049196924,-0.00097071327,0.0028834336,-0.0020507898,0.00602598,0.007222669,0.0010804101,0.0019530257,-0.010168218,-0.00059864396,-0.008155031,-0.0010024084,0.007628986,0.0017889005,-0.0031061724,0.009782636,-0.006344064,-0.0015180061,0.003844779,0.006683871,-0.005905468,-0.0028952947,-0.0026368839,0.0059555653,-0.0047956808,-0.0071211215,-0.005035342,0.006830232,0.0022731991,-0.002523883,-0.0005531291,-0.0034253367,0.00045389726,0.0067990893,0.00086096587,0.004939523,0.008082195,-0.0078749815,-0.0037146856,-0.009046425,-0.0027923947,-0.008018603,-0.0025110776,0.008873911,0.0023268566,-0.0071615377,-0.006976065,0.0072363066,-0.004033398,0.0014155363,0.00084405293,0.0015401917,-0.0012149996,-0.008232102,-0.003978236,0.007855243,0.000003272206,0.007974744,0.008594351,0.006558287,-0.007888319,-0.0053997794,0.005435189,-0.0016273896,0.006731973,0.0072566275,-0.005905456,0.0038347708,-0.0035863856,0.0037830549,-0.001380129,-0.002381553,0.0027041503,-0.005458219,-0.0006293652,0.0030210037,0.0080861,-0.001972993,0.0042254785,-0.007300061,0.00270076,-0.0070038154,0.006689955,0.008115914,-0.007826793,-0.0039968416,0.0075790295,-0.0040002,-0.0009821219,0.008125262,-0.0017573428,-0.0029793284,0.009240135,0.0010327442,-0.00316856,-0.0011806769,0.007283838,-0.003722057,-0.008074894,0.0041976967,-0.0075033805,-0.0017876837,0.003434951,-0.0032970237,-0.008682373,0.0029479163,-0.0020213083,0.0026880766,0.0049794456,-0.0052343616,-0.008855251,0.0019220486,-0.007923621,0.002089865,-0.00693382,-0.0068304436,-0.0071638413,0.0032190024,0.0069043622,0.0038098567,0.0011538785,-0.0020246697,-0.0055901175,0.006573404,-0.00093927316,-0.0049750805,-0.0061016097,0.002249859,0.0047727576,-0.006238272,-0.004109676,-0.002093344,0.004913826,-0.008410658,0.00967603,-0.0066984654,-0.0065030153,0.004711611,0.0070515466,-0.0060459506,-0.007650307,0.0035384442,-0.0060547567,-0.004074522,0.004567219,0.007843127,-0.0070556477,0.009146549,0.0055135856,-0.0027271956,-0.007820112,-0.00014041492,-0.009068838,0.00998564,-0.007630993,-0.006394374,0.00077458157,0.008408108,-0.0011641559,-0.0028295654,0.005868782,-0.0024370176,-0.0027459953,-0.005788381,-0.009325095,-0.0021122994,0.008378795,0.008774866,-0.0069039077,0.0075378716,-0.0019359384,-0.0022499424,-0.0016468961,0.007268839,-0.0054932623,-0.0048508844,0.0070426255,0.00081500574,0.0017744619,0.004650888,0.0061310385,0.003012853,0.00027650263,-0.0054549794,-0.009556478,-0.002193726,-0.0049202037,-0.0009481381,-0.0024095778,-0.0060013817,-0.008316623,0.006783554,0.004310761,-0.0017089306,-0.010037963,0.0057913093,0.0034694816,-0.0073207812,0.009233037,-0.0042046467,-0.0080223,0.00008127466,0.007273219,-0.0045417096,0.009551679,-0.0002030875,-0.008852326,0.0036111104,-0.004535266,-0.0005898805,0.005075129,0.0094526755,0.003954689,0.0071089263,0.003011849,-0.0077066254,0.001865692,-0.0081239,-0.008268223,-0.0063159117,0.0037315409,-0.0014600862,-0.0035597524,-0.002145992,-0.009659917,-0.00051512045,-0.00015334226,-0.003186547,-0.00005977363,-0.005794086,-0.004658183,0.008108824,-0.0042217197,0.0007098735,0.002326104,0.007852498,0.0024615289,-0.007976909,-0.0013230987,0.003046013,-0.0036693872,-0.0075331484,0.0029100897,-0.0040901974,0.003684088,0.002208124,0.00560985,-0.00065930624,-0.0073538492,-0.008168489,0.0005370488,0.00091644673,0.0042316043,-0.002637501,0.0043001184,0.006047426,-0.0077029467,0.00089837605,0.004518161,-0.00511652,-0.009204342,0.005214587,0.006427165,-0.0003889951,0.0021871424,-0.001417877,-0.0019796533,-0.008626135,-0.006018422,-0.0056090388,-0.008767726,-0.008573303,0.0032661585,-0.0008579956,-0.00012433351,-0.0055221007,-0.001511107,-0.007607963,0.0013546258,-0.00607606,0.0015175157,-0.0013743786,0.0074759964,-0.0025212385,0.008115026,-0.007317079,-0.004084412,0.0015380152,-0.006866968,0.00040508894,0.005175452,0.002047728,0.003684809,0.0041684895,0.005381834,0.008049727,-0.0033656629,-0.000055418015,0.0011882521,-0.005530756,0.0068972283,0.0046550725,0.0065547964,-0.0053775506,0.0060396832,0.0038441843,-0.0007879425,-0.008028667,-0.0022545308,-0.004000038,0.0075184065,0.00035082572,0.0016533609,0.0072521907,0.004881578,0.009174435,0.0043983595,-0.0062117493,0.008971845,-0.006030462,0.007488375,0.004642438,-0.0009850386,0.0023627242,0.005453723,0.0019589968,-0.0009614726,0.0029069863,0.0052166674,0.00849386,-0.0020309037,0.004186223,0.0059629004,0.006095671,-0.0053400923,-0.005177331,0.0058793784,-0.007693276,-0.0016615521,-0.005790747,-0.004118602,0.0006304588,0.008280373,-0.0044570966,0.003178973,-0.0050375946,0.00032289693,0.0047684563,0.0008891301,0.006319974,-0.0016814176,0.003990402,-0.0027512147,0.003605336,0.0072140754,0.0051756916,0.0060689347,0.0073416946,-0.00005237392,-0.0048798947,0.009423316,0.0075637447,0.0044179186,-0.0028105017,-0.005607621,-0.0066824337,-0.002312304,-0.0038095803,-0.0021707907,-0.0030994613,-0.0055455407,0.0037767943,0.002059265,-0.0017459397,-0.010244448,0.0040374817,-0.005158492,-0.0067198314,0.006041434,-0.005224584,0.004554048,-0.0044215787,0.005701835,0.0021630344,0.008713154,0.0066798744,-0.0035364605,-0.006356495,0.0090034865,0.0037208966,0.002457503,0.0011515624,0.008246855,-0.0026861012,-0.004524962,-0.004767153,0.005931994,-0.0067561003,0.0046796245,0.0011667039,0.0041149263,0.0026684229,0.008286182,-0.00046396986,-0.0017700265,-0.0031719706,0.0015803088,-0.0050777877,-0.0026799778,-0.005815343,0.000088951194,0.0050682784,-0.007331185,-0.009596393,-0.00021897945,-0.0044577466,0.00073789904,-0.008649469,-0.002410626,-0.0064499592,-0.0023163008,0.005296928,-0.009146385,-0.004718001,-0.005246922,-0.0060183723,0.007999942,-0.0005926951,0.003344432,0.007088144,-0.007041017,0.0075750044,-0.0036541733,-0.0022094357,0.00013536871,0.005642526,-0.0033657392,0.0004314147,-0.0005709172,0.007984653,0.0034848247,0.003941617,-0.0034185161,-0.009058543,-0.00084855873,-0.0058257035,0.0012721864,-0.0031121871,-0.0038200764,-0.008710536,0.0044061216,-0.0007685834,-0.002547273,-0.00092800165,0.0040679113,0.0025092806,-0.0053852913,0.007961397,-0.0071976436,-0.009311786,0.0072628898,0.0041782623,0.0008866947,-0.0037380315,-0.0022901264,-0.006563443,-0.008227757,-0.0070208637,-0.0074406615,0.001733075,0.0069435476,0.0075628497,0.0022381204,-0.006892155,-0.0060829553,0.004430734,0.0062434743,0.00580684,-0.0024834936,0.007899511,0.0065603056,-0.0058473176,0.0024882501,0.0036952796,0.007913264,-0.0065620653,0.0008438117,-0.0040303185,-0.0066948826,-0.0092231305,0.0035581752,0.0069229337,-0.0024227172,-0.00789452,-0.008152516,-0.0079646,-0.005720071,0.0074949805,0.009610195,0.0048806453,0.00073169393,-0.003820598,0.0065905573,0.007196382,0.004234904,0.0012955971,-0.0027487944,0.00534155,0.008113444,-0.0032529165,0.0048459284,-0.008570552,0.00033301974,-0.0041963384,0.0060976986,-0.0012697845,-0.004300564,0.008746577,-0.007966075,-0.0069713797,-0.00837178,-0.0016882266,-0.0018660483,-0.0052584996,0.0019560512,-0.007805269,-0.000029384317,-0.0013610269,-0.0076107224,0.004562581,0.0038261835,-0.0055950973,0.004783225,-0.007856042,-0.008377386,0.0029589103,-0.007415808,0.0028017007,0.0003669539,0.0027147823,0.0055175633,-0.0062775267,0.0035075527,0.010704304,-0.0010355271,0.0016671637,0.004290035,-0.005557887,-0.0011167343,-0.0034421943,-0.0030912596,-0.0025739365,-0.004184944,0.0051654857,-0.0024267428,-0.0032830974,0.0033638142,-0.0005857971,0.005653472,0.00645343,0.0017112815,-0.0040693204,0.0093021905,-0.005676286,0.0008354226,0.0079915635,0.0020054816,0.009753343,0.004217306,0.0029977795,-0.0016877081,-0.0017233078,0.0030745298,0.005702053,-0.0037225992,-0.0010287034,-0.00262526,-0.00071213226,-0.008806858,0.004385616,0.0023604159,0.0060914597,0.0040220744,0.009006675,0.004468702,0.009102453,-0.0072809197,0.0078796875,0.003016574,-0.004914866,0.00066042313,0.002739706,0.006922986,-0.004225872,-0.006029196,0.007242462,0.006673656,0.008100272,-0.0015335744,-0.0041447487,0.007989567,0.0017821686,0.0024505595,0.0076986663,0.0019268914,-0.0071492945,0.004827856,-0.00899474,-0.0066343085,-0.003376839,-0.00020428895,0.0054270113,-0.004726314,0.0047880723,-0.0043307985,0.006946278,0.0046006665,-0.0031254464,0.0068694702,-0.0011954326,-0.0026019383,-0.008941456,0.006028362,-0.009703467,-0.008839655,-0.0058618514,0.004858825,-0.0034173687,-0.0066129025,0.0060649314,0.0056970194,0.0007471523,0.003441811,0.0035069385,-0.006243596,-0.00071619346,0.0050220382,-0.005988627,-0.0016985821,0.0014904741,-0.0032759763,-0.0034978653,0.000012690241,0.008417158,0.00078033324,-0.008659483,0.008067093,-0.005547351,-0.0064600664,-0.0010276639,0.006865605,0.007404696,0.003324127,-0.0038459452,0.0055443705,0.0042566243,-0.0056713596,-0.0091712065,-0.006809571,0.0026396287,0.0012173211,-0.0053335107,-0.0003798733,-0.0048090047,0.0032356249,-0.002041905,-0.0036544933,0.008816849,-0.0017635452,-0.0007659042,0.003284926,0.0008588947,-0.004916486,0.0060327877,0.006740277,0.0032166725,-0.004132338,0.004548746,0.0065895272,-0.0046713813,-0.009873807,0.0069730827,0.002408568,0.0014429898,-0.005303354,0.0031586853,-0.0052699973,0.00015591262,-0.004747089,-0.0065955636,-0.0031541646,0.009026266,-0.00343126,-0.0022109833,0.0071625574,-0.0057150037,-0.0023792938,-0.0021306665,0.0076957764,0.007819241,-0.00026639042,-0.0025420573,-0.0036937317,-0.008916148,-0.005072477,0.0050294735,0.003186288,-0.0007793855,0.00006434581,-0.0059895683,-0.0050456347,0.0036361008,-0.007760805,-0.002556024,-0.0036375318,0.0052047223,0.0038029684,-0.008832206,0.00496073,0.004795477,-0.003938849,0.001913983,-0.008003491,-0.0028671457,0.0046556946,-0.00068684947,-0.005157171,0.0002551881,-0.007669569,-0.0063371,-0.009540096,0.0016988171,-0.0013344323,-0.009570313,-0.001268534,-0.0048299427,-0.0010634818,-0.00013013296,0.0067033544,-0.006652683,-0.0046484433,0.006905708,-0.008678858,-0.0033022696,0.0025547065,0.0023253344,-0.009517105,-0.0064595994,0.00014726823,-0.0037302666,0.0024315452,0.0004008177,0.0045049544,0.0012753669,-0.0077649816,0.006188604,0.011061194,-0.0055088717,-0.008055665,0.001970444,0.0039287293,0.004866423,-0.0047626873,-0.0014299093,-0.002535681,-0.0011359737,-0.0051267617,-0.0034198195,0.008807586,-0.00095993734,-0.005898243,0.0074679153,0.0061832857,-0.005029794,-0.0031006716,-0.0012934312,-0.009959616,-0.004593519,-0.00618643,0.0053851255,-0.0026480637,0.0086047705,0.0073501877,0.0027243183,-0.006513418,0.0016877591,-0.0072821146,-0.00012296798,-0.005040386,0.003611042,0.0012350741,-0.0062315296,-0.008927872,-0.0035001473,-0.0020163646,0.006090127,-0.0069839526,-0.0034416798,-0.0062941927,-0.0041594966,-0.0072399485,0.0018860059,0.0044903485,-0.0040587895,-0.0007492806,-0.0013239022,-0.0021884027,-0.0025686433,-0.0007690648,-0.009402699,-0.0043287147,0.0020904504,0.006040769,0.0009005553,0.007696022,0.0029821207,-0.0035824447,-0.0013255698,0.0033887164,-0.0045086863,0.0056834384,0.0033029679,0.0067871325,-0.0009984259,0.000510515,0.0069853524,0.002103785,-0.0002035261,0.007859831,0.0072206617,0.0009045676,2.5528743e-7,-0.006625186,-0.0101055745,-0.0017746425,-0.004827188,-0.008994842,-0.004667774,-0.0025022773,0.005155948,0.006629008,-0.005674204,-0.0012190568,0.0073314193,0.004968779,0.0047526415,0.0047486867,0.0005668467,0.004775369,-0.0054886113,-0.003227083,-0.002552075,0.0024399762,0.0037788711,0.002927358,0.00450089,-0.006819557,0.008392123,-0.0029205156,0.0002604122,-0.0013765107,-0.0009972889,0.0031604846,-0.0070565823,0.009088721,-0.0017799985,0.0004751901,0.006580462,0.0033403472,0.004689921,0.0033971875,-0.00792038,-0.004797936,0.0058434457,-0.002874984,0.0014041959,0.008492046,-0.0010334338,-0.0033810595,-0.002311434,0.001658143,0.0021653355,-0.005805269,-0.0059043625,0.004324286,0.00463499,0.008599257,-0.0029683704,-0.003566205,0.0028548124,0.0038027205,0.007172551,-0.007853021,-0.009024483,0.003251088,0.0018007893,-0.0077498974,0.006487833,0.0014424758,-0.0022077004,-0.008072681,0.0076004206,-0.008407386,0.00869105,0.0018549592,-0.0048957975,0.0049790167,-0.0023582606,-0.0027566755,0.0021145595,0.006125968,-0.005533197,-0.0032369005,-0.0043512187,-0.008908106,0.0019039876,0.004569083,-0.00833072,0.0019707244,-0.0029412769,-0.0048915693,-0.002044449,0.0026358292,0.0068564625,0.0063675283,-0.0028050484,-0.006650158,0.0034336487,-0.0020531719,-0.0027781362,0.0053292774,0.0076841405,0.004610689,-0.0058809496,0.0009259516,-0.005049433,-0.005159081,-0.0023091042,0.0029691118,0.00006301628,0.0016138874,0.004438648,-0.004057168,-0.0075651733,0.0072151544,0.0010316083,0.0052422048,-0.001187212,0.0027774263,0.007087645,-0.007611008,0.0023049153,-0.004972095,-0.010264727,-0.0017249661,-0.0012766862,-0.0073989304,0.0024817954,0.0034194512,-0.0064874287,-0.00014048097,-0.007837632,-0.0033046762,-0.0051087695,-0.006433111,-0.0028988547,-0.0027265383,-0.0052146437,0.0014431692,-0.00068187836,0.0069155777,0.0016330756,-0.0023805026,-0.0034961484,0.005177476,0.007567819,-0.0054531614,0.0014403089,-0.0011158825,-0.0015613483,-0.0018014823,0.0028248294,0.0070084077,0.004071042,-0.008123691,0.0012917545,0.0056779548,-0.008447866,0.008112673,-0.0077012284,-0.008479689,-0.0048762616,-0.006201615,-0.00464817,-0.0069133528,-0.008342695,-0.00051404536,0.0017851974,0.00827904,0.0011965019,-0.0007780398,0.0012461575,-0.005671785,0.0010886497,0.001633503,-0.00019059787,-0.007238262,-0.0013384303,0.000061934465,0.00944105,-0.00083184335,0.0047754105,-0.0016312868,-0.000017397155,0.001684029,0.006321015,0.0013866684,-0.0074413544,-0.005152672,-0.009085178,-0.009296098,-0.008247397,-0.006764544,-0.008846693,-0.0039619585,-0.00056495256,-0.006965933,-0.0040140646,-0.004700992,0.008209052,0.0029597785,-0.002920833,0.00007928559,0.008819055,-0.0032916784,-0.0074675786,0.0044752453,-0.0018640785,-0.0018611625,-0.0072124545,0.0071866573,-0.0055622067,-0.006296199,-0.004883634,-0.0013622642,-0.0017780839,0.0039757574,-0.001993509,0.0007614729,-0.0032229659,0.0069475626,-0.0057539884,0.008159513,0.006747633,-0.0062510306,-0.0040523466,-0.00010008764,0.0066324174,-0.0009818269,-0.0006411265,0.0072963075,0.009449552,-0.0077623916,-0.0016189107,-0.0059799138,0.004475978,0.006393679,-0.0064166556,-0.0009293134,0.0024444952,0.007633413,-0.0042626373,0.0058460026,-0.008004237,-0.0051463232,0.007850563,0.004289466,-0.0049749888,0.005731445,0.00883182,-0.006573271,-0.0017857956,-0.004702175,0.008242525,0.000018115421,-0.009960392,-0.0017154317,-0.0074592847,-0.0010677454,0.0066035865,-0.006900271,0.006027951,0.0026190314,-0.0063313935,-0.0024829297,-0.00710605,-0.005191661,0.005724448,-0.0040981886,0.0047142636,0.0034766798,-0.002891973,0.0052732313,-0.0054848255,0.0028946276,0.006288724,0.0072505935,-0.0044645765,0.0011568649,-0.0062793116,0.000014821699,-0.0017279487,0.006781682,0.00040717958,0.0073526325,0.0044242493,-0.0017482607,-0.0022980708,0.0041284137,0.005770761,0.00087345426,0.0003972256,0.0004318867,-0.0042254855,0.0033662831,-0.00069820747,-0.0070174662,0.0028593922,0.010022852,-0.006377718,0.0005109697,-0.002430458,0.002439539,0.0068641435,0.00056736136,0.0027445462,-0.0015951126,-0.002376247,0.0026373235,-0.009608647,-0.007541711,-0.0050621224,0.0015297784,0.008655072,-0.011040432,-0.0101848,-0.008689902,0.0049566096,0.001690037,-0.0022890803,0.00091048394,-0.00033659846,-0.004146566,-0.0063601667,0.007723677,0.0075747613,-0.0060243197,-0.005491309,-0.007651396,0.008824652,0.0028164766,0.01074256,-0.0055646803,0.0021369872,-0.0024580532,-0.0064085345,0.008907784,0.00019398199,-0.003785157,0.004023678,-0.0032906204,-0.004057834,-0.0077017625,0.0014534125,-0.008814589,0.0043042293,-0.0038528158,-0.0019669721,0.002812593,-0.008693196,0.008217122,0.0058391485,0.00014573579,0.0035157816,-0.0061333403,0.0025460147,0.0037784674,-0.002167183,-0.0008625829,0.0050120805,-0.008657433,0.006627254,0.0068449834,-0.000101333615,0.008856531,-0.0022178951,-0.005040854,0.0075428784,-0.0011476622,0.0066442606,-0.0043867966,-0.00657076,-0.0057349945,-0.0072643887,0.005982963,-0.006977523,0.0021609047,-0.0039561633,0.0038480763,-0.007667425,0.0075863553,-0.0057291477,0.0048233503,-0.0051754704,0.0005069787,0.0008424178,-0.004253816,-0.0013761367,-0.0011364067,0.0015646041,0.004698705,-0.0019794768,0.006608145,-0.0004984941,-0.0034731443,0.0011412653,-0.003449681,0.0050675366,0.0062871804,0.0034200791,-0.0052140513,0.007075904,-0.0038760803,-0.004343342,0.0044092583,-0.008293114,0.0070258616,-0.005349441,0.0005241101,-0.0071180062,-0.006109645,0.0020298625,-0.0018209228,-0.0026248523,0.00850972,-0.0071539967,0.009228355,-0.0039318535,-0.0068807798,-0.007268496,0.00043860805,-0.0001294844,-0.004754872,-0.005944494,0.0032180469,-0.0057785604,0.0046654628,0.009010499,0.008137106,-0.0048860847,-0.0037765198,0.002544836,0.0043783635,-0.0028225707,-0.0011870653,-0.008068012,-0.004308801,0.005878275,-0.0058744783,-0.0036631578,0.005234907,0.008614352,-0.005870109,-0.00706108,-0.0065764715,0.009764016,-0.00813182,-0.0049887784,0.004458314,0.006519274,0.0059322887,-0.001491189,0.0075072395,0.002842613,0.0033311746,-0.004401366,0.007378069,-0.0010973243,-0.005205651,-0.002917573,-0.007878662,-0.008928022,0.0007020739,0.0068440847,-0.007618925,0.0015543127,-0.0045332788,-0.007568064,0.0011458592,-0.0053878296,-0.007886703,0.001223134,-0.0006904624,-0.0029253263,-0.0069993846,-0.0034310748,-0.0075151413,0.0048721954,-0.0077186245,-0.0020951424,0.0022831003,0.0005233629,-0.00043906967,-0.008151921,-0.0066270265,-0.009234875,0.008064494,0.002475885,0.007477964,-0.006808613,0.005829247,-0.008053839,-0.009990886,0.0045132055,0.006048801,-0.001647599,0.0049015586,-0.006829614,0.007946548,0.0009785604,-0.006025655,-0.009936802,-0.0016893437,-0.008974776,0.006134031,-0.0017148592,-0.00094753184,0.0034254205,0.008542054,-0.008932028,-0.0061948467,0.0075402404,0.0000677824,-0.0055315173,0.005759451,0.008544437,-0.004968347,0.008482994,0.0005367083,-0.0039564203,-0.0050514825,-0.0006467306,0.00019524124,0.0036937804,0.008340496,0.00073608995,0.0065969857,-0.0051152534,0.003925892,-0.005836101,0.0073847063,0.0022080252,0.0058883065,-0.0010030739,0.007937908,-0.005230965,0.008307746,0.005485009,-0.0010075497,-0.009263799,0.0024912264,-0.0050901826,0.004988734,-0.00932286,-0.009272142,-0.008957655,-0.005328975,-0.008067665,0.0036654677,0.005388865,0.002473555,-0.0035952784,-0.0046552457,-0.0024466736,-0.0015221812,0.0054723467,0.0044258954,0.0015675924,0.004158963,0.007832275,0.000591661,-0.009094074,0.002417625,0.006062176,0.0029596554,-0.0052064527,-0.0039188974,0.0066985264,0.0029355024,-0.0025860104,-0.00054888165,0.004816868,-0.0018101949,0.0055411384,0.0071533117,-0.0068355664,-0.0064120106,-0.0072409785,-0.008818406,-0.0007427504,-0.00057555735,0.0005856799,-0.007566834,-0.0019674578,-0.0025240602,-0.009619249,0.008693665,0.0048179235,0.0015064372,0.003164388,-0.0055739144,-0.007499814,0.0050528757,-0.0026149026,-0.0073686764,-0.002226914,0.0015723867,-0.008649893,-0.00030986872,-0.003202453,-0.009239805,0.007836748,-0.006656278,0.004113268,-0.0062423414,-0.0016493631,0.0066826013,-0.0003812513,0.00611539,0.009501836,0.00813255,-0.0045010885,0.0010341497,0.009095573,0.0016493564,0.009161976,0.0075031538,0.0055827107,-0.0015720072,0.0050568683,-0.007405735,0.0027066388,-0.0007487292,0.006713807,-0.001347512,0.009638966,-0.002480683,0.0013336912,0.0020945524,0.0020886296,-0.004601218,0.005926797,-0.002809054,0.005251814,-0.0010078313,0.0024752333,-0.0049152146,-0.004995811,0.0039405287,-0.006649443,0.007559731,0.004799692,0.0044219126,0.007554606,0.0045249322,-0.00229207,0.001344197,-0.0071231895,-0.002397763,-0.0026958832,-0.0071709324,-0.006085996,0.0062797857,-0.002003514,0.0034116718,-0.0012663902,-0.008593854,0.0012946579,0.0080905035,-0.0071134446,0.00034804482,-0.00045420224,-0.005179574,0.0014596467,0.008615802,0.007139568,0.00081861374,-0.0017908063,0.0043638917,0.0008465352,0.0038212165,-0.008711805,-0.004820666,0.009255067,-0.0042861593,0.0004153468,0.0015966106,0.0044042356,-0.0027717778,0.0071887705,-0.001596225,-0.004228348,0.007507554,-0.010231632,-0.0044876337,0.00063622586,-0.004388124,-0.0026552922,-0.0017195243,-0.00013876801,-0.0093325395,0.0058396044,0.0019977717,-0.0058989944,0.007083143,-0.0073984587,0.00251891,-0.00516851,-0.003438467,0.0034260156,0.0029968866,-0.0050751576,-0.009543045,-0.0021482478,-0.002114942,-0.008187875,-0.004590136,-0.009067872,0.0013194033,0.0013171207,-0.0027268473,0.0024244634,0.007570528,-0.003919149,-0.00853364,-0.0032285447,-0.0005568286,-0.0043564374,0.004184162,0.0028936318,-0.00763601,-0.0022061437,0.0043758587,0.0016963612,-0.0004016672,0.0039417855,0.006491309,0.0071012317,0.00765746,-0.00342578,0.008023551,0.0042944397,-0.009514023,-0.00078942144,0.0031276618,0.006466136,-0.007955286,-0.0029772061,-0.0044724937,0.0046365205,-0.008500433,0.0072652525,0.0023313425,-0.0065014777,0.0074459575,-0.004602196,-0.008493657,0.0070512374,-0.004156541,0.005308695,-0.0050198203,0.0034863919,-0.002953902,0.0018765562,0.0016320194,-0.0008488634,-0.0013577227,-0.006526849,-0.0035228475,0.0076506957,-0.00556095,-0.005347074,-0.0048735025,-0.007344286,0.0035592394,0.002349207,0.005809817,0.007874868,0.0048995027,-0.0062056915,0.0025318076,0.0025272325,-0.0060275695,0.0037676343,0.0011104641,-0.004488,-0.006157273,0.005991504,0.0025565994,0.00047174867,0.0001675169,-0.006424506,0.0029198034,-0.005806047,0.008043911,0.0009307046,-0.009387533,0.001993815,-0.007461601,-0.006028937,0.0019188272,0.004756738,-0.0037053116,0.0012631704,0.0016026759,0.005437369,0.0014039965,0.0082102725,-0.0030877932,-0.0040787603,0.0038284827,0.006161096,0.008044829,0.0061894823,0.0014885743,-0.0031822727,0.0047984915,-0.0035790582,0.0050314474,-0.00006099334,0.001837819,-0.008451346,0.0078011104,-0.004342052,-0.0001888907,0.0057464316,0.0035718316,0.0028449825,0.0074672876,0.0033929867,0.007551598,0.0071179485,-0.004188698,-0.004243754,-0.0071214926,-0.007438299,-0.0058851563,0.007550426,0.0038931353,0.005127306,-0.008856549,-0.004666399,0.009268354,0.0006307637,0.0074117864,-0.004241701,-0.0033143456,-0.00048720307,0.0070738946,-0.0023112327,0.0038368534,0.0076734284,0.007357127,-0.00295746,0.0049673477,-0.009172972,0.0066211107,-0.00032743483,0.002670203,-0.0016729669,0.0052170083,0.006435603,0.0025472082,-0.005221065,-0.00063076563,0.010158522,-0.0028830604,-0.0029191936,-0.0026942883,0.0065988475,0.0044886577,-0.0028542576,0.0095506925,0.0012915612,0.0074863452,0.007495612,0.004681235,0.008739459,-0.0046923556,-0.009841569,0.0013474401,0.0004840172,0.00011268864,0.0062208576,-0.00758175,-0.009169388,-0.009110075,-0.008688981,-0.003976762,-0.008521458,0.0018563017,-0.0035350479,-0.0024468184,0.0033339246,-0.00785774,0.0028504936,-0.0055371374,-0.0051150615,-0.007819899,-0.005134388,0.0055399872,-0.0115051055,-0.009437904,-0.00859715,0.005021412,0.0045302273,-0.00508533,-0.0052007944,-0.0063136593,-0.0050960886,-0.007196918,0.0061761257,-0.0084655695,-0.0009534805,0.0050118016,0.0073265843,0.0044511883,0.00053817395,0.005177005,-0.0042676856,0.0010844504,-0.008949944,0.0028045198,0.002993496,0.008129634,-0.0045667435,-0.0060657877,0.003751812,0.0051863305,-0.008563078,-0.000495071,0.0061148084,-0.005305951,-0.009005815,-0.007769875,0.0006615815,0.0038414362,-0.007968759,-0.0100051,0.0042905426,0.003363701,-0.001888047,-0.00041575363,-0.00073183764,-0.005648691,-0.002908123,-0.0016272039,-0.004229028,-0.0023268904,0.004910372,-0.0003092115,0.0074297134,0.001720855,-0.0067100087,-0.0061725234,0.001219347,-0.006263234,-0.009627689,0.00683885,-0.0014730849,-0.0030360068,-0.01031615,-0.003078107,-0.0031246042,0.00266057,-0.005809252,0.008394326,0.001727825,0.006514429,0.008439556,0.0020466421,0.0021860607,0.0010790704,0.0018020747,0.0057144123,-0.0077805514,-0.01049802,-0.011170737,0.0069955285,-0.0016349507,-0.004313394,0.0014740947,0.006465326,0.007444616,0.0035230136,0.00071385555,0.006814674,0.00043755918,-0.007739454,0.007293389,0.006469607,-0.0065208995,-0.0033547492,-0.00688034,0.0006920471,-0.002557243,0.0031261104,0.0009573045,-0.007858469,0.00645458,0.009568023,0.0040411395,0.0063413507,0.0019073975,-0.008283436,0.004956615,0.0018937521,-0.007785233,0.0049140337,0.0023567523,-0.0071445354,-0.0016011767,-0.0008517317,-0.0039414386,-0.0043360507,-0.0051634936,0.0035763325,0.0012573916,-0.008838276,-0.0060864054,0.003745414,-0.0018063337,-0.0024534024,-0.005411074,0.007369878,0.00742986,-0.008225849,-0.0050690286,0.0013506832,0.00029595118,0.005697706,0.009040858,-0.008192919,0.006314911,0.005941219,0.0052595846,-0.00059143174,-0.003938562,-0.0033596188,-0.001659894,0.008004199,-0.0033183214,-0.0008702585,-0.008927951,0.0052577495,0.0042145285,-0.008543201,-0.008264336,-0.0020485302,0.007511053,-0.0023583858,0.0049501504,0.00024210036,-0.0053072795,-0.0041112187,-0.00012029565,0.0052488646,0.0022748874,0.0035080675,-0.007187555,0.0029843445,0.0046104817,-0.0032641136,0.00095316576,-0.0033925106,0.0015052392,0.0036505035,-0.0065275976,-0.008122017,0.0019685018,-0.0036138745,-0.0018265479,-0.0011720707,0.0011066823,0.001381053,0.00014819644,0.006917121,0.002845601,0.0062638354,0.0063732406,-0.0057359426,-0.005832647,0.007910925,-0.0012962793,-0.0060496083,-0.006437478,-0.007293987,-0.007179884,-0.00402701,-0.005304383,-0.0056417095,-0.00865605,0.0045022927,-0.005194267,0.0053087315,-0.0078057833,0.0007895373,0.0038790281,-0.0014481263,0.00031280922,0.0037700008,-0.0034329493,-0.0017349174,-0.0060819197,0.006805642,-0.0025248043,-0.0050232178,0.000730476,0.005737232,-0.0013649171,-0.008260893,-0.0076705297,0.00823369,0.00009633111,-0.005254103,-0.0036570497,0.0051227394,0.005219844,-0.00066094287,0.005671958,0.005333078,-0.004434091,-0.0013685601,0.0066662054,0.00412796,-0.0065425388,-0.0018627231,0.004859432,-0.0008001847,-0.0005774646,-0.001478056,-0.0044341926,0.00075185293,0.00005372274,-0.00985982,-0.0043570804,-0.005583277,-0.00008161429,0.007587872,-0.0062778224,-0.0068676085,0.0009105129,-0.004430933,0.0013690937,-0.006606343,-0.0011451703,-0.009869528,-0.0034596205,-0.0013322298,-0.0007223846,0.0057427282,-0.0022718646,0.003356489,0.00065804017,-0.010478815,-0.0028432414,0.002785521,-0.0016154998,0.005857398,-0.0065130843,0.00368868,0.0015388667,-0.0013758021,-0.0028901142,-0.0066569047,-0.004648487,-0.009886801,-0.0020725871,0.0053663272,-0.00088272546,0.0017331935,-0.00781316,0.005531349,0.005529461,-0.009501481,-0.0063569597,-0.008015214,-0.007986325,0.0064616953,-0.0035154186,-0.0074247494,-0.0032321569,0.0072150286,-0.0013905584,0.008160591,-0.007204204,-0.0026614708,-0.00036293696,-0.007119586,0.0095862625,-0.0050454815,0.0061856336,0.0012014006,-0.0031353931,-0.004006045,-0.004122311,0.001880186,-0.002738824,0.006484003,0.0051435297,0.002271391,0.0023994928,-0.0024370844,-0.000116957744,-0.0033435295,-0.008009632,-0.00004929176,-0.008316789,0.006184313,0.0072008865,-0.005900973,0.0013881233,0.0054814783,0.005199614,0.0060549504,-0.00008216098,-0.0032985003,0.005395087,0.004522942,0.0060463347,-0.008453899,0.003986306,0.0035284606,0.0012817244,0.003076186,0.0073416186,0.0063161184,-0.0004946521,-0.00456722,0.000053385138,-0.0008969596,-0.0055916286,-0.008845134,0.00064884324,-0.009202639,0.0016422707,-0.009608338,-0.008611504,-0.0085084895,0.0073807472,-0.00763612,0.0062550204,0.005224732,0.0035001535,-0.00062463817,-0.0015654672,-0.00330482,0.0022677914,-0.0026312107,0.000844703,-0.0034937381,0.003756683,-0.0038574263,-0.0047384812,-0.008325568,0.0065112235,0.0017463327,-0.007664912,0.002321817,-0.00058076193,-0.0026356706,0.0049673636,0.007327165,-0.0046153646,0.004676469,0.001705654,-0.0037805382,-0.010503688,0.00574841,-0.007371557,-0.005252692,0.0025894667,-0.010173058,-0.006708528,0.00026626993,-0.006868279,-0.011653353,0.0057060267,-0.0025340742,-0.003329783,0.006398629,-0.0048554894,-0.0052857813,-0.009591038,0.0066528446,-0.0036228842,-0.0057914,0.005859312,0.0033383109,0.002489991,-0.004742561,-0.010619064,0.0051018666,-0.0021300812,-0.008928313,-0.00024821877,-0.0026040368,-0.0004606268,-0.0031937894,-0.009316908,0.0067726844,0.007961268,-0.004549404,-0.0011831382,0.000753274,0.006747578,0.0018350309,-0.0014869997,-0.009192889,-0.0053928057,-0.0025583867,-0.0026700639,0.004191888,-0.007161266,-0.005913084,0.006094893,-0.0069286805,0.0060009286,0.00069504534,0.00024443783,-0.0026347148,0.0017143415,-0.0049683386,0.0014526224,0.00019548448,-0.010563493,0.00086375367,0.00030260175,-0.0045944517,0.0072522233,-0.005133421,-0.0005220226,-0.007082692,0.0024663182,0.0029021406,-0.008359083,-0.0028805975,-0.006613669,0.0018967754,0.0044943653,-0.0053049275,0.0072958386,0.0034306652,-0.008851081,0.00006454412,-0.004042964,0.005936436,0.0047917445,-0.005682347,0.0017961664,-0.00239134,-0.0016974483,0.00010892349,0.0019919684,-0.0016939496,-0.0050756596,-0.009271708,-0.0105872955,-0.00040330758,-0.0010773462,-0.0005085937,-0.006590237,0.005793441,-0.007961572,0.0014573251,0.00423559,-0.003069247,-0.00840941,0.00806358,0.00046100022,-0.007959614,-0.00048597358,-0.0019359348,0.0030830982,-0.0054627624,-0.0010325835,-0.0021951403,0.0072468673,-0.0019036969,0.00487442,-0.0062682386,-0.0030879823,-0.005768997,0.002594275,-0.0030290124,-0.009038195,0.0036044437,-0.0065335394,-0.0005556788,0.004688524,-0.0065432964,0.0007526234,0.0063503925,0.0010585932,0.007800722,-0.0016704957,-0.0011810912,0.0023720015,-0.001143406,0.0025380794,-0.0048439507,-0.00431905,0.0044897,0.004833605,0.0016197549,0.0069790147,-0.0070513873,-0.0067855353,0.0019167125,-0.00055111584,-0.0068966,-0.00437891,0.003949395,-0.0043262127,0.003950369,-0.002114963,0.0015001859,0.004368149,-0.0039089164,-0.009418048,0.0012306755,-0.002310542,0.0036360512,-0.0064162,-0.0020774272,-0.0010457565,0.0032445479,0.0046267607,-0.00314586,-0.0031632502,0.0034366427,-0.005860254,-0.0058581466,-0.0030785056,-0.0076013873,-0.009644616,-0.005953241,-0.009783659,0.0034523744,0.0013126979,0.0012889191,0.005282214,0.007401328,-0.00022095974,0.004514943,0.0033172958,-0.008301132,0.0058167716,-0.0032068274,-0.009150161,0.002976431,0.0069020144,-0.008979138,0.007027671,0.000018508392,0.0034778987,0.0027105655,0.009698379,-0.0069772727,-0.006743237,0.00838001,-0.0012555701,-0.008395062,-0.0015291901,0.006760045,-0.00689388,0.0055694636,-0.0049128444,-0.001985575,0.0024190068,0.0041209306,-0.0064711687,0.0064522047,-0.0056248675,-0.008464053,-0.0023423585,-0.00083562464,-0.006118352,-0.008153709,0.0018610293,-0.008762331,-0.0073989048,-0.003853267,0.0015213715,-0.0039977473,0.0005523236,0.006584172,-0.008171031,-0.006275549,0.0031164119,-0.0050145597,0.0065598185,-0.0023521713,0.0032684533,-0.000015513888,-0.0020819579,0.009483256,0.002719936,0.0026672916,0.009338979,-0.002119855,-0.00426511,-0.0026164025,0.0053281025,0.0008288331,-0.0018742123,0.0031774356,0.0061998656,-0.0052619986,0.005143252,-0.007924604,-0.007958867,0.0012346806,0.0007724277,0.0010472634,-0.0054953136,0.00046271156,-0.00349575,-0.0054957606,0.004373854,0.0009462572,0.0076084635,-0.0046123806,-0.0069286143,-0.007936472,-0.006976423,0.0075869216,-0.0038199765,-0.008958381,-0.0054322276,0.0034465038,-0.006423436,0.007458693,-0.00018227076,-0.009582927,0.007452195,0.0071097515,0.0061579705,-0.002311802,0.0074743074,0.007470936,-0.004725693,-0.007449159,-0.006819216,0.0003168393,-0.006127468,-0.005191529,-0.0069678156,-0.007613554,-0.0032986063,0.0014405476,-0.009668623,0.0004969737,-0.01049234,0.0017964287,0.0012529329,-0.0014524931,0.0050348276,-0.0034692527,-0.0014352872,0.0036652146,-0.003973652,0.008881929,0.0016307206,0.001052978,0.0039810846,-0.0039013894,-0.006577202,-0.0011102092,-0.0079225805,0.0030847916,-0.007983344,0.0045170323,-0.0019726837,0.008179966,-0.0010809426,0.0048468118,-0.0037424031,0.0023093522,0.00048176176,-0.0052821706,0.0070724697,0.0072213234,0.0085677635,0.008257108,0.00918585,-0.0038965195,0.009637658,-0.006279592,0.0028638896,-0.00042652324,0.0027342723,0.005028413,0.009932841,0.0016629813,0.00024055046,0.00444311,0.009000266,-0.0076964134,-0.0074007856,0.0065171644,0.006798159,-0.008156086,0.0057333848,-0.0062327688,-0.008758408,0.0083423825,-0.009280751,-0.003389164,-0.009713134,-0.008179578,-0.002490291,-0.004935199,-0.0059851813,-0.005746356,-0.0001706323,0.002115327,-0.0010867214,-0.0020760018,0.0007944104,-0.008736045,-0.0020119003,0.005750657,-0.0071649593,-0.0017339808,0.0076605463,-0.009697184,-0.0072770724,-0.0039619547,0.0018534007,-0.0055219,-0.008174996,-0.007322917,0.002999911,0.007271092,0.0014811397,-0.004244146,-0.0042091073,-0.007920396,-0.0052858945,0.0019378512,0.004022472,-0.010120979,-0.0045539676,-0.009070135,0.0009324944,-0.00233642,-0.008811887,0.006941738,0.000012733047,-0.0009876582,0.0041232915,-0.000027754519,0.0013508889,0.0031168887,0.004720271,0.0036356405,-0.0026105624,0.00014033311,0.000054290736,0.004844627,-0.0021918006,-0.00997673,-0.0065594763,-0.0050612693,-0.009410144,-0.0067203785,0.0042467183,-0.009499811,0.000030787403,-0.0071935114,0.0066253836,-0.0056285523,0.000030200516,0.0069466415,0.006100393,0.0062669367,-0.005744621,-0.00045155306,-0.0003447622,-0.0032445285,-0.0054366766,0.0037713537,-0.0025658663,0.0035223446,-0.0029271743,0.0020726637,-0.0015073436,0.0027500796,-0.002169234,-0.0033407605,0.008049466,0.0032835281,0.0058807638,0.00015167761,-0.007228581,-0.0008486803,-0.0026672392,-0.008791635,0.006976085,0.0021832935,0.0016798254,-0.0077867513,0.0005163127,0.00046111707,0.0024551358,-0.008446883,0.0024431217,-0.004510332,-0.0092288405,0.002736212,-0.0075060674,0.00075623085,-0.00064736797,0.0022439677,0.001303276,0.0008403405,0.0006090906,0.000794047,-0.0025253445,-0.00056592165,-0.0068213562,0.00036839448,0.006053269,0.0040634456,-0.0041718846,-0.008011254,-0.00015953292,-0.007110843,-0.0021109981,-0.0097000785,0.005867237,-0.00791997,-0.0027883046,0.0053431736,-0.0054536196,-0.0018018815,-0.006307328,-0.008263249,0.0037882382,0.0011080734,0.0032347746,0.004146639,0.0033348848,0.0040775067,-0.0061530485,-0.0025561051,0.002524659,0.008177317,-0.008822581,-0.006910314,0.0028576734,-0.0072496366,-0.0010816095,-0.008991138,0.0019705906,-0.0035299743,-0.0027743282,-0.0045924312,-0.006272633,0.0074555352,-0.005785501,-0.00510723,-0.0012674521,-0.0064396984,0.003202296,-0.0058820993,0.005698069,-0.0011961734,-0.0071650185,0.0065468303,-0.0044525317,-0.005508202,-0.0008083302,0.0061460123,0.001009488,0.0035516347,0.0031505558,0.0022567988,0.0030107992,-0.0026946259,0.0055151316,-0.007961627,0.00512192,0.008598483,0.0048535205,-0.0075969156,-0.005945059,-0.00076821784,0.006740055,-0.0066053704,-0.0053870217,-0.0005154276,-0.0068183374,-0.008612491,0.0029584866,-0.0025912223,-0.0028461183,0.001475544,-0.0041605583,-0.006078421,-0.00039229039,0.0035567067,-0.0013634973,0.004626973,-0.0034279244,-0.0012155696,0.0011411026,-0.0055386815,-0.0072043473,-0.0014167869,0.0058162827,0.007996754,0.0029976761,0.0059865913,0.0055948594,-0.0054399585,0.0018791764,0.00083167857,-0.0057772263,-0.005323621,-0.0027733364,-0.00087611016,-0.0080804,0.0037592056,-0.009317477,-0.001980207,-0.00078362215,-0.009554642,0.0070311544,0.0067060622,0.0017808249,0.0007142072,0.0075834123,-0.0012199779,0.007956103,-0.008047045,0.0072463276,0.0036701,0.0065993886,0.008421911,-0.00069874123,0.008093003,-0.009687564,-0.003874722,-0.0058527007,0.00561059,0.0058813635,-0.00622673,-0.0082461815,0.007879657,0.0008554749,-0.0029072305,-0.0022494346,0.0059557864,-0.005341447,-0.006821331,0.006383856,0.0026045996,0.006254271,0.0017307322,0.0001759279,-0.005902419,0.0021854567,0.00688354,0.0019602624,0.002696135,-0.008642374,0.0022986946,0.005718336,-0.003204045,0.005328367,0.0028572395,0.007427525,-0.008082678,-0.0088513335,0.0020678616,-0.0076084775,-0.00706878,-0.005162593,-0.0023487688,0.008039672,-0.0015910208,0.0067133787,0.003648834,-0.0019353867,-0.005773057,-0.0013652542,0.008401092,0.00015352324,0.0057776975,-0.006081718,-0.005349217,0.007564941,0.0028882748,0.005091996,-0.0037494625,-0.0063981176,0.0063450495,-0.0063892445,-0.0044348664,0.0018005226,0.0021762406,0.0057472223,-0.0041729216,0.0097216675,0.002482275,0.006264353,0.0061139166,-0.0073817987,0.0011177313,-0.007522071,0.0047548865,-0.0061582737,