{"W2":{"v":1,"dim":[7,20],"data":[-0.18208432,0.13042139,0.16861607,-0.20994917,0.011657396,-0.28483093,-0.020400917,-0.062406745,0.23932469,-0.04966697,0.022827582,0.31452623,0.14937668,0.036097955,-0.13702822,-0.0711699,0.22529097,0.049120862,-0.10628152,-0.16122586,-0.15792613,0.13209431,0.123541765,-0.21147084,0.13067105,-0.116611116,-0.14449537,-0.12572594,0.033442784,-0.17446472,0.14552599,0.039500147,0.095593974,0.08826099,-0.18812694,-0.064705744,0.0014015858,0.18235329,0.02981028,0.045654267,-0.29682693,0.106385924,0.35995603,-0.14202133,-0.29698378,-0.25577927,-0.006359909,-0.275744,-0.07513303,0.15806805,-0.1876736,0.08097938,0.1745554,0.20452285,0.15070483,0.15192164,0.23823126,0.03212283,0.23516877,-0.19607034,0.032848127,-0.22093043,-0.03976569,0.19213608,-0.12946692,0.29034847,-0.1319206,-0.15547743,-0.10887482,-0.23052396,0.20539522,-0.3563791,0.115560606,-0.084532544,-0.04986479,0.24721566,-0.21453437,0.24401616,-0.17641075,0.10268035,0.18180509,0.16809057,-0.18268922,0.15061967,0.23677534,-0.17083114,0.11058033,0.14888048,0.22425787,-0.05534863,-0.053675197,-0.37202325,-0.22350723,0.048376437,0.31596375,-0.04628178,0.0128031885,0.29644838,-0.095070146,-0.23202139,-0.059566926,0.00012520346,0.3276709,-0.15046522,-0.19960172,-0.26770842,-0.13716806,-0.0475714,0.0571842,0.18048303,0.0769112,0.27392948,0.056203976,0.2853824,-0.016216619,0.14586648,-0.20887376,0.11084858,-0.043668736,-0.24755445,0.045480996,-0.32925558,-0.20968536,0.26035732,0.007869877,0.082811035,-0.2295455,-0.06885123,0.21884269,-0.13149436,0.18735844,-0.18107359,-0.33138043,-0.27510822,0.21910276,0.30995607,-0.05025423,0.35536346,-0.034928225,-0.17400184]},"b2":{"v":1,"dim":[7,1],"data":[0.007707181,0.0031143331,-0.0009128434,0.014125231,0.014436141,0.011957834,0.033386294]},"W3":{"v":1,"dim":[5,7],"data":[-0.0045156563,-0.023008412,-0.16635916,0.42196932,0.15043245,0.14196792,0.7970378,0.1124844,0.38996267,0.50459355,-0.4544977,-0.4881534,-0.4887756,-0.2022921,-0.38406864,0.030311769,-0.3532242,-0.0030722846,0.30882698,-0.21572463,-0.30283904,0.56821555,0.334257,0.618126,-0.34656778,-0.6258431,0.71331835,-0.22244935,-0.0017507612,-0.27836192,-0.28084767,-0.30036974,-0.08736554,-0.22293252,-0.3898472]},"b4":{"v":1,"dim":[1,1],"data":[-0.11013073]},"b3":{"v":1,"dim":[5,1],"data":[0.06147962,0.0043111835,0.0038618306,-0.0004881793,0.0]},"W4":{"v":1,"dim":[1,5],"data":[-0.909304,0.46161503,0.41478887,1.1434236,0.22404414]},"W1":{"v":1,"dim":[20,12288],"data":[-0.0051515917,-0.0020702183,0.0027624313,-0.00071851135,0.011922505,0.0046478473,-0.005069223,0.014064731,0.004753412,-0.0023072823,-0.00096776633,-0.0050793434,0.004367021,-0.004067666,0.0075726933,-0.0017274085,0.0035712253,0.005148946,0.0043824217,0.011323022,-0.0004402983,0.003328514,0.003369171,-0.0050082193,0.0033267594,0.011112729,0.006259943,0.00340709,0.0064587216,0.004405741,-0.006349248,-0.002238077,0.0051051937,0.0017092006,0.0104374,0.010829611,0.0046115,0.00091261603,0.0010911238,0.009885517,0.00282475,-0.0018693515,-0.003940676,0.01482933,0.010873235,-0.0053244852,0.011462332,-0.0073596947,-0.0071961298,0.004357881,-0.0040076273,-0.0040872814,0.010173517,-0.002160479,-0.0016254102,0.012227764,0.00011816079,0.0022440006,-0.0016296828,-0.0055589415,-0.00046491128,-0.0036641276,-0.004651087,-0.014124723,0.0046358323,-0.0117289405,-0.011518708,-0.0032121893,0.0037179682,-0.0056351237,0.0047864798,-0.006647576,-0.013271595,0.008510056,0.0053082854,0.000994499,0.009694321,-0.003600433,0.0015221549,0.006717026,-0.0032441902,0.006813521,0.01166982,0.0008878233,-0.0026044603,0.012806883,-0.004712013,-0.004635392,0.0023612673,-0.008415177,-0.0016717969,0.005681989,-0.0012880218,0.009505993,0.0055495026,0.0074416143,0.0012488717,0.0022346836,-0.002627124,0.0010647903,0.0017583987,-0.005969266,0.003357832,0.016090648,-0.0030326059,0.0027063335,0.0017177742,-0.0059851836,-0.0034219713,0.012089491,0.0031696286,-0.005515274,0.0073578004,0.0012622734,0.00201445,0.0040573995,-0.012023394,0.0014325905,0.007988525,-0.009709043,-0.004537642,-0.000797628,-0.0046008625,-0.0014253575,-0.005911459,-0.0033576672,-0.008920811,0.00058879296,-0.007610248,-0.0011686966,0.005767101,-0.011671531,-0.012849238,0.001667712,-0.014699499,-0.0022236826,-0.006220553,-0.011254227,-0.0106077595,-0.011760917,-0.008376842,0.0031392947,0.0039612935,-0.014234998,0.0005373179,0.006425972,-0.011855482,-0.0077096527,0.0029905122,-0.00853606,-0.012817072,-0.007154494,-0.00054846297,0.0029597569,0.008221427,-0.0037971016,-0.007636916,-0.002998662,-0.00016108715,-0.013818218,-0.0019731561,-0.008032924,-0.00066598627,-0.0032322158,0.0046591903,-0.015548659,-0.00034397157,-0.0042013177,-0.00684318,-0.003682824,-0.008653009,-0.0021815512,0.0027512757,-0.001667654,-0.0043570735,0.0046588173,0.005454276,-0.007959535,-0.0070797605,-0.011686091,0.00006439115,-0.008466464,-0.013645742,-0.0033593883,-0.00034832692,-0.0025998733,-0.016667753,-0.008715737,-0.013297539,-0.007392407,-0.0026995374,-0.013521575,-0.004112615,0.0062282844,-0.0060887323,-0.0031652558,0.00912687,-0.008569537,-0.0008766364,0.014151731,0.0065700123,0.0056106416,-0.0020164836,0.005914585,-0.0070892237,-0.0046310513,0.007780411,-0.007722945,-0.0014029844,0.0082735345,-0.010918383,-0.0024485954,0.0009529209,-0.00701767,0.003964142,-0.009360292,-0.0017681225,-0.0036872223,-0.0063895322,0.006855842,0.012728874,0.0035137618,-0.0077637867,0.012747233,0.008754576,0.0071421023,0.011780013,-0.0012538311,-0.00059916626,0.0060558636,0.009398509,-0.006787281,0.009782342,0.00061866734,-0.005855148,-0.0008965238,-0.0059445063,0.0034619768,-0.00070044736,0.00062167976,0.007762446,0.013413516,-0.0021185642,0.0034426001,0.009087616,0.009014805,0.0058833524,0.014174289,0.0029238376,-0.008278684,0.00085753377,0.0022714795,-0.009277211,0.0109344665,-0.0062903254,0.0033656762,-0.003733529,0.0029816106,0.0012394362,0.007134238,0.00013858986,-0.0036320714,0.009763996,-0.0020103666,-0.006087262,0.0046604397,0.0006710618,-0.006762717,0.011991391,0.0047311676,0.0024679163,0.0067433347,-0.008578492,0.007612026,0.01080074,0.00117714,0.00487737,0.0021718976,0.0029725824,-0.004915435,-0.00035748453,-0.006583687,0.0026414562,0.0065016705,-0.0057185986,0.007824421,0.0063375114,-0.0003962549,-0.002490583,0.0015172013,0.003400691,-0.0047233687,-0.0005281639,-0.007515098,0.006716482,0.011302042,0.010359969,-0.008445266,0.003833114,-0.0013028077,-0.00006117549,0.005460681,-0.0023045498,-0.0041071544,0.01328396,0.009590812,-0.004869507,0.011277937,0.0034377596,-0.0046841754,0.011720267,-0.009850422,-0.00024534503,-0.0018309262,-0.009678421,-0.004413876,0.008876979,0.0030975528,-0.00086592266,0.0019351181,-0.0021914702,-0.006975822,0.0078517115,-0.011553907,-0.0060664746,-0.010348991,-0.009699473,-0.003920081,-0.0074390327,-0.015522087,0.00028209112,0.0036427174,-0.0047195787,-0.0067570917,0.0070999856,0.00012328163,-0.003335714,-0.0023814864,0.002347401,0.0005295294,0.011611974,-0.0027850668,-0.00074674777,0.009855603,-0.0031620872,0.0034827564,-0.0018306244,0.0039034623,-0.002023208,0.0018461706,-0.0048868614,-0.0049435,-0.0067018676,-0.0068017915,-0.0073178257,-0.0022942624,0.003505069,-0.010427424,-0.0058013625,0.004331213,-0.0060191257,0.0023101452,-0.0008398879,-0.010008353,-0.003132068,-0.0038679026,0.0028595314,0.00029367759,0.0040131235,-0.0018079362,0.0014159533,-0.0095142,-0.008302621,-0.004575568,-0.008669749,-0.009472816,-0.010383207,-0.0028857356,-0.010621531,-0.0010248751,-0.013582243,-0.011772784,0.00048212486,-0.006741722,-0.00012899596,0.004213889,-0.003652881,0.004835021,-0.0007467164,0.0035636565,-0.0017830224,-0.00177404,0.006227765,-0.010262179,0.007043227,-0.0043821847,-0.009810993,0.005376108,-0.0030823783,0.006723909,0.0035203751,-0.0021913636,-0.009789395,-0.005857797,0.004763462,0.0005433363,-0.0015367258,-0.0061422354,-0.006875807,0.007278216,-0.008802096,-0.006293014,-0.0013794806,0.0030141696,0.0068295277,0.0068343584,0.00024557704,0.0051235897,0.0076912413,0.010414213,-0.004788108,0.00057744794,0.01084806,0.0033139049,0.008295321,0.009678236,-0.0075260666,0.008195631,0.0048224805,-0.0038426649,0.000014600755,0.0027850873,-0.0052865306,0.008139276,0.00206409,0.004284148,0.0022028545,0.0038090458,-0.0030547967,0.004978638,-0.006718437,-0.006219396,0.0071089026,0.0071546966,-0.00068274053,0.011473505,0.004743592,-0.0022047674,-0.0009879372,0.000049491617,0.00407482,0.009804227,-0.00086683256,0.0016817601,-0.0018982129,-0.0095836315,-0.0036048917,-0.0027157234,-0.0064318064,0.005223164,0.0034364255,-0.0015017203,0.008251294,0.005530063,0.0012005301,0.0005754854,0.0028600227,0.0036896581,0.0038732537,0.013871611,-0.00039238625,0.00020592325,0.0044241804,-0.0039987653,-0.0001284091,0.0077810492,-0.0035416323,-0.0011425153,-0.0010813895,-0.007576221,-0.00025388048,-0.0002315842,0.0047646244,-0.001732101,0.0013982547,-0.0016965516,0.00902939,0.012285309,0.009126688,-0.0013018431,0.011061288,0.0066914377,-0.0035441502,0.0021628414,0.0069711073,-0.0077585247,0.008967826,0.004068233,0.0033738052,0.0033717414,-0.0018734699,-0.0019524795,0.0048974697,-0.0010739352,-0.0023864603,0.006009242,-0.0022693078,0.0006538569,0.00012787015,-0.0043667904,-0.005304981,-0.0062484737,-0.002229174,-0.010183608,0.0018211012,0.0025476215,-0.004979366,0.006462262,-0.00766514,-0.001224968,-0.00056982954,-0.004971461,-0.008980835,-0.0074995365,-0.0023565013,0.0035015051,0.006382106,-0.007075522,0.0045299167,0.0092231445,-0.0002540206,0.00093377614,0.010960848,-0.008479241,-0.0030120097,0.00038179962,0.0018615356,0.0018183014,0.006742178,-0.003344967,0.0010616576,-0.002422317,0.005021026,-0.006476441,-0.0050672586,-0.0031356704,0.0014997689,0.0040599857,-0.009936086,-0.008032878,-0.004193446,-0.0025562744,0.0063546556,0.0032681315,-0.0068860874,0.0018337886,-0.00070121384,-0.004143322,-0.009463977,-0.002966433,0.0046057603,-0.010004801,0.0027832368,-0.0102596395,-0.009882992,0.005421368,-0.007179922,-0.01360202,-0.0060048257,-0.011693575,0.0005110216,-0.002812773,-0.006461506,-0.011682462,0.005318338,-0.0042393333,-0.008082297,0.0034412385,0.0057456787,-0.0062248614,0.0014611662,0.003091604,0.005188665,0.0025434438,-0.002322374,0.0062452145,0.0066228528,0.0043697827,0.004468688,0.0033497638,0.0073948386,0.00015873944,0.006036323,-0.010452151,-0.0061862203,0.0021487523,-0.0036959334,0.003694952,0.0037374396,-0.006598536,-0.012100991,-0.00018288264,-0.005209833,-0.0035240771,0.0064873644,-0.0033551173,-0.0044060373,-0.0024127695,-0.0015384606,-0.0032065313,0.006148733,0.010894902,0.0071343407,0.008519727,0.0067386325,0.002470282,0.006516865,0.008770413,0.008606876,0.010362327,0.010828651,0.0019249398,0.013983176,0.0062570255,0.008842935,0.014979653,0.0063131927,0.0002458221,0.0046939873,0.0057353633,0.006258257,0.004474248,-0.00560476,0.0012779409,0.0070213927,-0.0040430827,-0.002623552,0.009681601,-0.0070099337,-0.0072684144,-0.0012510887,-0.009287194,-0.0011284385,-0.00488822,-0.00016599672,-0.0041987835,-0.0028980298,-0.005974182,-0.015482324,-0.0058584847,-0.0046441862,0.0007504563,-0.0058876737,-0.0008640564,-0.007976274,0.008185514,-0.0009285648,-0.0076889973,0.011333281,-0.004548778,0.0060597346,0.008468419,0.006023805,0.0012993707,-0.0034283886,0.00300966,-0.004185294,0.0009700643,-0.0003212756,-0.0034843888,0.0060888277,0.002172149,-0.0025558372,0.010659927,0.004157734,0.000749756,0.008658572,0.005903904,-0.003834931,0.011189546,0.0018585193,-0.0070951153,-0.0015668157,0.0054554977,-0.0021931687,0.0020139327,0.004726837,-0.002876322,0.014318714,-0.008612902,-0.0068559046,0.006967045,-0.0022480527,0.0021553147,0.0031386286,-0.0023926846,-0.0016425271,0.0060683195,-0.0058811796,0.0013826155,0.003804913,-0.005700659,0.0061371173,0.005905097,0.0025224315,-0.0021921415,0.007807205,0.0020279533,-0.005208132,-0.00042725215,-0.006226841,-0.009919777,0.0022948955,-0.010906854,-0.0104389135,0.007311446,-0.006924636,-0.011981193,0.0063912636,-0.008815541,0.004789506,0.0006655604,-0.0045549227,0.008070813,0.0056742663,0.0018051777,0.006706271,0.015165145,0.008572137,-0.0038663575,0.0035523586,0.0046417164,0.0031392907,0.0021984114,0.011256142,-0.0042715063,-0.0020201418,0.0068396013,-0.002813817,-0.0027375142,0.0027093422,-0.0033332729,0.003523984,-0.005770684,0.0005591733,0.0048427107,0.0017702465,0.0054914425,0.0054097897,-0.0029326864,0.0013240337,0.008233241,0.003397108,-0.0060964916,-0.001994455,-0.0068764505,-0.00659855,-0.0056761135,-0.006470982,-0.008942295,0.00003053058,-0.00818065,0.0020887277,-0.002013789,0.0018131135,-0.0046270234,0.007897614,-0.009812283,-0.009836293,0.009624927,0.0037111924,-0.0061162547,0.0052283807,0.00058539247,0.008183581,0.013753947,0.0033263944,0.0014687863,0.0018260805,0.0040936223,0.008355128,0.011247708,0.008909116,0.0036827973,0.003584302,-0.008124532,-0.0031009507,0.0051642563,-0.007164564,0.000631591,0.0033743999,0.0011345892,0.003031656,0.0013888286,-0.012155455,-0.0077531403,0.0009280657,0.0043186806,-0.007843871,0.008888892,-0.00028386182,-0.0053006583,0.004491526,0.00023721321,0.0106465425,0.0068696416,0.0001556701,-0.0025977048,0.013356892,0.0011509411,-0.0055924663,0.008464928,-0.003323187,-0.00677026,0.0017808742,-0.0063270186,0.0026347607,0.002227222,0.01077797,0.005762745,0.008153857,0.0062801847,-0.0049299765,-0.0045293444,-0.009754031,0.004431165,-0.0039222883,0.008299263,0.0022001513,0.00085661997,0.003950682,0.0017752458,-0.0059011416,0.00081500964,-0.0020471509,0.008575263,-0.010545302,-0.0044857753,-0.0027093983,-0.002966425,-0.015239757,-0.010806921,-0.0017821094,0.0022372133,-0.008440074,-0.013424203,-0.008466206,-0.009111806,-0.0013789006,-0.012303981,-0.004752661,-0.007876612,-0.010469584,-0.002975216,0.006669958,-0.0001832988,-0.0008642044,0.0030683167,-0.0013894411,0.009571077,0.004787877,0.00749555,-0.004394645,0.0037091926,0.0059639676,0.011589369,0.0058149397,-0.005123295,0.004079547,0.00024730622,-0.00649395,0.012030798,-0.0026814207,0.005143468,0.0048652086,-0.0032246881,-0.0004701123,0.015766473,0.0098063005,-0.0018287349,0.00002799694,-0.003877518,0.005256348,0.00746637,0.0044388175,-0.0090310825,0.012181129,-0.008214235,-0.005343941,0.002334702,-0.010856568,-0.00992274,0.0047820266,-0.0008562642,-0.0108062625,0.0018714176,-0.0023206177,-0.0047850665,-0.00022025399,-0.0048841555,0.0034881183,0.0056689484,-0.005542779,0.002060221,0.0063540186,-0.008883685,-0.0016989883,-0.0033819256,0.003242432,-0.00647368,-0.00051219016,-0.003150199,-0.0012413993,0.0011758638,-0.0069377837,-0.0016679306,0.008912237,-0.005524019,0.00093150116,0.012835927,0.0075131403,-0.009104584,0.013096629,0.0085702585,-0.0056417617,0.010911021,0.0044330675,-0.0005795352,0.008836737,0.0017215338,-0.0012156331,0.003716332,0.008467735,0.0067859297,0.00007972618,-0.0044879657,0.0063415556,0.010106893,0.0076739644,0.0069145346,0.008821272,0.011851389,-0.0009323691,0.010713118,-0.004781316,0.001767358,0.0015061141,0.0030188053,0.0026892265,0.003445331,-0.01155741,-0.0088057425,-0.00571822,-0.004195487,-0.0035860296,-0.0034325968,-0.0038081468,0.005936229,0.00564358,-0.014329216,-0.0026578323,0.0010473267,0.0066190874,0.0077514825,0.0087626185,-0.0046617296,0.004042922,0.010042905,0.01110669,-0.0067119445,0.010963549,6.704172e-7,-0.00461759,0.014707328,0.00017327153,-0.0012564266,0.005396573,-0.0025198155,-0.008898735,-0.00046124664,-0.004352676,-0.004495053,-0.0048740385,-0.0038656732,0.0023119238,0.0064483276,0.0017010593,0.0011191616,-0.0028149576,-0.0073232367,0.006906411,0.016556453,0.011292375,-0.0010471371,0.015207097,0.012622821,0.0066955527,0.01269269,0.0012398323,0.005547264,0.006667143,0.0025895985,-0.0021728275,0.0049948622,-0.0030825844,-0.002561325,0.002047244,-0.001319828,-0.0070315315,0.0049705235,0.0037282233,-0.0032182138,0.00080993434,-0.00038105916,-0.009241259,0.006481254,0.0017879185,-0.0011220683,-0.0035208897,-0.0061710207,-0.0019065136,0.00088831387,0.0034652972,-0.0006675515,-0.002411904,-0.009016091,-0.010835886,0.0044139638,-0.0046422468,0.0013719767,-0.005964255,-0.0044661416,-0.010220627,-0.008255208,-0.0025831254,-0.00065617455,-0.006974836,0.0022936948,-0.012819047,0.0035450873,-0.0003725288,-0.006977101,-0.0021505598,-0.0056591574,-0.0067684674,-0.002625138,-0.007907916,0.006757183,-0.000053240517,0.00017420053,-0.00551315,0.013778861,-0.0015163737,-0.0018760279,-0.0026440148,0.0043173977,0.0057720845,-0.0022104962,-0.005197913,0.002296584,-0.0027174924,-0.0030731026,-0.0036075253,0.0018448993,0.007488286,-0.0042782594,0.0060888757,0.0019997114,-0.0006732503,0.011843779,0.007021442,-0.0025198595,0.005600134,0.0032934337,-0.005587424,0.009474232,-0.0038169855,-0.005013241,0.000087658285,-0.0069475747,-0.0027118558,0.010498922,-0.0026407035,-0.003644851,-0.0055213547,-0.007927493,-0.010256907,-0.0015273561,-0.007670578,-0.008473788,0.008167792,-0.0069604674,0.0035585486,-0.0051608887,-0.007570098,-0.0020664474,0.005521123,-0.0018011257,-0.0005258908,-0.0042476193,0.000046695022,-0.008761293,0.002445529,-0.0043216995,-0.0034459962,-0.00083161687,-0.0050669727,0.0041484297,-0.0014571623,-0.0016842561,0.0034987878,-0.0027437687,0.0052272994,0.0012444737,0.009354939,0.0041765976,0.0010271638,-0.003821339,-0.0063630575,-0.0050412533,0.000113725684,0.0086108865,0.0061982353,0.0037538235,-0.0011734392,-0.0077775856,0.009508027,-0.00050471834,-0.004619018,-0.0028421555,0.010461316,0.0037415647,0.013206086,0.00452598,-0.000073970856,0.0049413755,0.0062721297,0.00039027576,0.0071228705,-0.0024436244,0.001562693,-0.0073632156,0.0020311153,-0.004247145,-0.009327704,0.00082743814,-0.009377845,0.0054253284,0.0005761562,0.0039063306,-0.00883504,-0.0058262413,0.0013902737,0.0059432676,-0.0054600183,0.0029101884,0.0023293344,-0.0064899237,0.0044496013,0.008603395,0.0015508693,-0.005861485,0.0023970283,0.002663529,0.000040727413,0.0009475406,0.000842468,-0.0032568285,0.00070468104,0.0062844125,0.0019034655,0.003849375,0.00055478426,-0.008888076,-0.0029215221,0.0056064995,0.0022035516,0.010685545,-0.0106752105,0.0071968376,0.0062794397,-0.0003113002,0.0017400839,0.0046350523,-0.0064502824,0.010809071,0.0044284626,0.0036932183,0.01145013,0.010773968,0.009997439,0.008415559,0.008832348,-0.0029153945,-0.001488279,0.0013989588,0.000036188896,0.0028784454,0.007884602,0.002040673,0.004721254,0.0005314016,-0.004971762,0.005769796,0.0043296916,-0.0004614531,-0.0060159764,0.0014910724,0.007748963,-0.0050166417,0.012669016,0.009203691,-0.010976043,0.0139147695,0.0019494552,-0.010432976,0.0012086924,-0.0049327314,-0.0006257646,0.0025043732,-0.00049120636,-0.0018316616,-0.0082793515,0.000571944,-0.013530381,-0.004721877,-0.014024229,-0.0038186759,-0.0075014886,0.00045510035,0.00015718622,0.007822123,0.00053003745,-0.002907684,0.006930132,-0.0068814377,-0.011207418,-0.0068393634,0.0013564004,0.0040325904,0.004142273,0.0079317335,0.008806538,0.01549621,0.0012976697,-0.009816713,0.003214525,0.005875691,-0.009880613,-0.008033714,-0.003577446,0.003270039,-0.0032096785,0.0005142657,-0.006256313,-0.0017143609,-0.0009320844,-0.002164311,0.010504992,-0.006721023,-0.0055754595,0.0093186805,-0.005688983,-0.002410303,0.009274251,-0.005626902,-0.00244676,-0.0062874155,-0.00077650853,0.0052272314,0.004042002,-0.004671742,0.0010201455,0.0065879053,-0.009453129,-0.0053572296,0.00013972809,-0.007420777,0.0024781986,0.010434534,0.0029501668,-0.009990916,-0.002424428,-0.004694883,0.0023111703,0.010184857,-0.0045291423,-0.011611312,0.011081939,0.0017200309,0.0034683433,-0.003530605,0.0011570011,-0.006684177,-0.0008747731,-0.004788599,0.006013127,0.0015923722,0.0020104917,-0.007712787,0.011393929,0.0060396823,-0.0006384712,-0.0015320588,-0.0005283319,0.0014701162,0.0020399047,0.0052963374,0.006923252,0.011544247,-0.0071858675,0.0010277146,0.0116855,0.0033852202,-0.0041613937,0.011837334,0.0001896398,0.0050119967,-0.005291311,0.008693697,-0.003423474,0.01067739,-0.0022595767,0.0018667625,0.005774468,0.0034384613,-0.009141897,-0.0041538305,-0.0049931956,-0.003204758,-0.0005657722,-0.0024366523,-0.008544396,-0.0066082035,0.0006877399,-0.00082006137,-0.0014968793,-0.012210464,-0.0025685555,-0.008446244,-0.0029303243,-0.00092089426,-0.0086670285,-0.009415088,0.0016164344,0.006518125,0.00822615,-0.003026441,0.014493375,0.001725988,-0.007325289,0.0019459436,-0.007358974,-0.002065948,0.0024050395,0.0051549636,0.0028220844,0.0064688874,0.006158801,0.0030597162,0.009172041,-0.0036007892,0.0038795497,0.014709711,-0.008271377,-0.0032659024,0.00894844,-0.00009441966,0.0053095613,0.011058091,0.00014783985,-0.010528457,-0.002460653,-0.0061425474,-0.0017916923,0.0014719042,-0.0018799781,-0.004898427,-0.0014016752,-0.0003073618,-0.0048292414,0.0033611478,0.0066680666,0.005729472,0.011942672,0.004304623,-0.009261171,-0.0032140645,0.006115966,-0.013465205,0.0028152855,-0.00028948524,-0.0003471298,0.009427499,-0.0008685439,-0.0023476456,0.0031910976,-0.0004526121,-0.004864874,0.01345504,0.0036273873,-0.0052372185,-0.00047321964,0.0054239486,-0.0029262672,0.0028283389,0.0021058943,-0.0009783895,0.0030317728,-0.0006296075,0.0026823848,-0.0008398654,-0.00042954975,-0.008593997,-0.0073541887,-0.001609148,-0.00013137086,-0.00692203,-0.0047462727,-0.003816416,0.0003397387,-0.006427448,-0.011802659,0.0065035014,0.0036076459,0.0008217194,0.005913455,0.0063151945,-0.009086649,-0.004452844,0.008692264,0.0013650309,0.0019218032,-0.0021396573,0.00060504454,0.005170407,0.010798148,0.003818042,0.0020212037,0.0015868845,-0.012480568,-0.002308236,-0.008714217,-0.0031947491,0.0024977042,-0.0075297337,-0.00005865002,0.002517994,-0.0053681075,-0.00076988566,-0.0012035863,-0.0006136126,-0.0076478873,0.00971585,0.006479011,0.0026957304,0.008950637,-0.004323576,0.002746333,0.006992354,0.005197557,-0.0030958129,0.0005993972,-0.0042132246,0.004749232,0.0036404443,-0.0042663184,-0.0020046358,0.0025418191,-0.010949162,-0.00692487,0.0026554975,-0.011060193,-0.011803553,-0.004281301,0.005944234,-0.007370968,0.010235904,-0.006849572,0.00069033727,0.001230091,-0.0025603415,-0.0033524425,0.0062403097,0.006129309,-0.00508053,-0.00024128032,0.0084397495,0.0076144203,-0.0023321225,0.006599953,-0.006560413,0.006730405,-0.0067329863,-0.0015789792,-0.0023427466,0.0022298684,-0.00761767,0.00453297,0.004149115,0.0041462076,-0.0057211053,0.0073945443,-0.0032671615,0.0011423791,-0.0027248461,-0.009711772,0.011367377,0.0049959817,0.0005386424,0.011121467,-0.0012901702,0.0026813522,-0.0039929883,0.004022614,-0.00012921919,0.009218459,-0.0018317201,0.003654999,-0.0037508332,0.008972509,0.009202865,0.007166414,0.0016900436,-0.005957055,-0.0017023524,-0.0034227266,0.0031343666,-0.0033572004,-0.008595755,0.0040814793,0.0030096173,-0.010265827,0.002794768,0.0071527343,-0.0021215067,-0.000803308,0.0011384124,0.0001359574,-0.0043947175,-0.0015420801,-0.004084675,-0.0022852318,0.012050406,0.0041517247,0.0051876963,0.007990338,0.0016417409,0.001693589,0.010621634,-0.006389811,0.0009027426,-0.0031474794,-0.00869067,0.0041495613,0.002825183,0.003357279,0.0020043505,-0.0024801223,-0.008193013,0.0021562208,0.009057869,0.003320215,-0.013331884,0.0041947137,-0.0051647956,0.0000071052327,0.005108291,-0.006508651,-0.0033229261,0.008456284,-0.005920105,0.002997811,0.0048786993,-0.0010765274,0.0018733857,0.010403768,0.003813824,-0.0069989525,0.009732025,-0.011456976,-0.0014714363,-0.0011763196,-0.0027875882,-0.008957296,0.006724197,-0.009676646,-0.0028414526,0.0089035705,-0.0015023386,-0.0021412084,0.0019530524,-0.008541895,-0.010941641,-0.0033254575,0.0044608656,-0.0100474395,0.012200805,-0.006114802,-0.0074726148,0.006872524,-0.002985942,-0.010259046,0.0009573948,0.008702404,0.000943972,0.0008182613,-0.004833281,-0.006721166,-0.00148714,-0.004724173,-0.011792737,-0.0032975764,0.003990317,-0.0067291036,-0.005883097,-0.0018933185,0.005376879,-0.0022654126,0.008228641,-0.0016796347,0.001173556,0.0067050615,-0.0030081265,-0.0004647494,-0.0026146632,-0.009032766,0.0020091105,-0.0003726876,-0.011519821,-0.0041621784,-0.008515071,-0.0078123217,-0.007069675,-0.007922842,-0.014019582,0.000907361,0.004632926,-0.007632854,0.008553714,-0.004017299,-0.0009966014,-0.0001643807,0.0070364475,0.0029454336,0.007359052,0.0056748,0.0010035842,0.00889323,-0.0038782856,0.007583642,0.0010186662,-0.0045363843,-0.008252181,0.006904012,0.0023483844,-0.0006719333,-0.0048657833,-0.0012011515,-0.0035997943,-0.009527203,-0.0019131453,-0.008522675,-0.009137347,-0.009983917,-0.00478397,0.0027408293,-0.007219273,-0.011335287,0.004659376,-0.0027477874,-0.006521255,0.0047167107,0.0034736865,0.00025179685,0.00057336927,0.0069780378,0.004581081,-0.004025194,0.005100351,-0.0056696106,0.0068540634,0.0028956581,0.0008282883,0.011208915,0.005258691,0.0061628195,-0.0031540766,-0.0028057215,0.001236476,0.0026009625,-0.009007511,0.0029880942,0.0008958895,0.005645336,-0.0055809887,-0.0026432823,-0.0015196473,0.0048982836,0.011876492,0.0038366434,0.0032238462,0.010149158,-0.0012939535,-0.0038175473,0.0062237824,0.01159673,-0.0037197564,0.0045234766,-0.002599168,-0.009138763,0.011824393,0.0019438264,0.009059423,0.012608457,0.0055250004,-0.003852955,0.009279331,0.0059117284,0.008826366,-0.00043722457,-0.011390218,-0.0016714868,0.006401861,-0.005994183,-0.0052034613,0.007179263,0.00081593904,-0.004154514,-0.0012186876,-0.0037962007,0.0007587362,0.01059907,0.0025533645,0.000109402274,0.008658239,0.0016197952,0.0058125113,0.010836548,0.0066892602,-0.0037813422,0.00040001568,0.0036828541,0.0064026653,0.0057755806,-0.0055841124,0.0078663565,-0.0026392024,-0.0060769985,0.0061308485,-0.0015623479,0.0011434986,-0.0016148255,0.0011781014,-0.0032696389,-0.008007892,-0.0038855644,-0.004756384,-0.0015808255,0.00395799,0.0034709082,-0.006476407,-0.002923136,0.0034518735,0.002442049,0.0003991066,-0.0091907745,-0.0008138837,0.003996592,0.006721311,0.0004946345,0.005788531,0.0020952227,-0.013188471,-0.005568945,-0.009520916,-0.0006113009,0.007909896,-0.008165061,0.0037166993,-0.0055221184,-0.0032718824,-0.0045571057,-0.0014457522,0.002864975,0.0033624205,-0.0050867046,-0.0056923535,-0.0040310114,-0.00065725466,0.00079182896,0.0049586482,0.0032313373,-0.0077207037,-0.008677145,0.010287584,0.0035482757,-0.0064861253,0.0014015371,-0.0037445272,0.005489268,0.00089416455,0.0043718563,0.0025912612,0.01099857,0.0040956205,0.00022942631,0.011478259,-0.0052174414,-0.0019735273,0.00041482763,0.0017362738,-0.0076801917,-0.0028174648,0.008175455,0.0061651925,0.002432807,-0.00044362756,-0.005801599,0.0043690503,-0.00067084574,0.00071072596,-0.0073444843,-0.001533907,-0.014407175,-0.007286768,0.003669179,0.0042710374,0.006040128,-0.012658352,-0.0049885153,0.009356091,0.006310768,0.00049367454,0.008727891,-0.008473983,0.005231803,0.013171845,-0.008383446,0.0028067944,-0.0031932234,0.00039444075,-0.009213522,-0.0039686244,-0.0030895628,-0.006477972,-0.0053048306,-0.01147318,-0.005829684,-0.009823039,-0.0068583796,-0.011220117,-0.0062997616,-0.00015638284,0.0030733591,-0.0021172878,-0.008279526,-0.00035304227,-0.003152156,-0.002305663,-0.011591112,0.0004982574,-0.003153734,-0.0118669905,-0.008104207,-0.0016274281,-0.006949047,-0.005870501,-0.0025490932,-0.010356425,0.005264965,-0.0018888591,0.00078738434,0.0022945574,-0.0061282306,-0.003954063,0.0043683164,-0.0004381375,0.005362799,-0.0014258863,-0.001995233,0.0059692874,0.008274273,0.0013624615,0.000510863,0.0069751986,0.011097167,0.008992446,-0.002890001,0.0052753687,-0.005711716,-0.0009917071,0.0053642318,-0.0017510029,0.003282829,0.0096857175,-0.0020069622,0.010450835,0.005953646,-0.0043579713,-0.0043292446,0.0084700845,0.008186888,-0.003669765,0.010147025,0.006752432,0.00014498741,-0.0039856615,-0.0046317303,-0.0011353729,-0.004929832,-0.0050736926,-0.00023733401,0.006278535,-0.0010617055,-0.0048473133,0.0020091077,0.0058798906,-0.0033847801,-0.004336938,-0.010566679,0.0018187143,-0.005549396,-0.0017728382,0.015916433,0.008553555,-0.0031319254,0.0021311066,0.0007006311,-0.002974699,0.00027905367,-0.0029170841,0.0032591226,0.0011161346,-0.003547605,-0.0005084382,0.0019633023,0.000036429123,0.0032515076,0.0038317365,0.004032778,0.010298306,0.0028640623,0.0013323745,-0.0010340881,0.0075216093,-0.0010146933,-0.0066940286,0.0057516894,-0.0031207234,-0.011254273,0.007021052,0.010850337,-0.008076819,0.000027229258,0.00018707235,-0.011334892,0.013387147,-0.0034158698,-0.005737254,0.0055244374,0.009524719,-0.0001502294,0.013635818,-0.003975949,-0.0010644721,0.0029051192,-0.006097408,-0.0027250196,0.0024098742,-0.008787575,-0.011683127,0.00970809,0.002656053,-0.0030463801,0.0042615086,-0.012897482,-0.010660445,-0.002653785,0.0050681154,-0.007877294,0.008398992,-0.003794959,-0.0028531428,0.0063705477,0.008169943,-0.006296378,0.002600646,0.010814135,0.0016595225,0.0071109105,0.0048462655,0.00006433372,0.012802729,0.0024735767,-0.0006475498,-0.0026782057,0.012280911,0.005966718,0.00013202216,0.0052027316,-0.0034096115,0.007629546,0.011299449,-0.0055755405,0.0016666483,0.004802821,0.0038306906,0.005372728,0.009362708,0.006016611,-0.003573085,0.00889389,-0.0080933375,-0.0053545204,0.0007295083,-0.0075665163,-0.00060265616,-0.010807183,-0.0017466022,0.002428042,0.0012515208,-0.00042677423,0.006496216,-0.0017963031,-0.002042396,0.007877675,0.00096615765,0.0098575335,-0.005454488,0.0013238831,-0.0055011986,-0.0012814846,0.005692676,0.005663532,0.007064158,-0.011798226,0.0046263137,-0.000865361,-0.009940811,-0.007798049,-0.00548698,-0.008302859,-0.0031434232,-0.0028827672,-0.012097396,0.009077939,0.010716155,-0.0058890185,-0.0011531654,0.007690283,-0.006722879,-0.0117089255,0.0018803217,-0.007896088,-0.00082397845,-0.008511263,-0.012177747,-0.006771051,-0.0017672463,0.0009541116,-0.0032756976,-0.0016625226,-0.009087871,0.0060503916,-0.00017974152,-0.0057460065,0.004141016,-0.003467414,0.0067856004,-0.007697567,0.007221919,0.008739027,0.0045345565,0.011962965,0.0049357736,-0.009989784,0.0007038488,0.00844653,0.0002384818,-0.00018973263,0.0019139228,-0.0027333002,0.012087482,0.013444267,0.0009840477,0.00807707,0.007335098,0.003314114,0.005908583,-0.0012496231,0.0018494884,0.009161919,0.0069926465,0.006767723,0.0058837943,0.008935654,0.004698669,0.01341231,-0.00472936,0.0016577127,0.009619045,0.0037413402,-0.001686026,0.008038354,-0.0005470859,-0.010549218,0.009733024,-0.005788173,0.006455188,0.0054637734,-0.0064103943,0.00468453,-0.004950515,-0.0027623235,0.005590945,-0.0007999173,-0.007401813,0.007975697,0.0010662946,0.0016592528,0.010112096,-0.0002119976,0.0033398708,0.009272809,-0.000556241,0.0068876436,0.0027050425,-0.00008518475,-0.005816783,0.0069524767,0.015584912,0.0032631382,0.0017781695,0.0148609,-0.00067554583,0.007442808,0.012297013,0.009475103,0.0015822292,0.008583072,-0.0039445623,-0.006188496,0.0123353945,0.008169381,-0.008610381,0.007677867,0.0083668865,-0.0102263475,-0.0025596495,-0.0032979578,-0.0073634777,0.014268541,0.007174486,0.0014076132,0.007133898,0.007101108,-0.0034683617,0.010620506,-0.0037135682,0.0015539298,0.010991338,0.009076725,-0.0019380484,0.009123224,0.0067744916,0.0030061775,0.005884176,-0.009622046,0.005127856,-0.0016197362,0.004393768,0.0028211172,0.008092572,-0.006546672,0.0077487226,0.011362276,0.0028557302,0.0033538693,0.0010097577,0.0015331414,0.0055809235,0.007076124,0.009604819,-0.0039247777,0.013838192,0.0038632748,0.0065811835,-0.0028600364,0.0047616796,-0.0028628383,0.0016633805,0.0019630454,-0.006456021,0.008066454,-0.0035470156,-0.00031645654,-0.0016384803,0.0034836207,0.0032596895,0.0008362477,-0.0012661357,0.005753328,0.005778949,0.006330274,-0.0027123408,0.0017739494,-0.0053572045,-0.000586573,0.00011119347,0.004574311,-0.009719314,0.002381014,-0.0031735508,-0.0046088127,0.0041532456,0.006095452,-0.0021438429,0.009460808,-0.0074115675,0.0059331264,0.005381936,-0.005911395,-0.0010606757,-0.00492608,-0.006293271,-0.003893537,0.003164249,-0.008241656,0.0003920761,0.0023442928,0.005027803,0.0014670475,0.0042324564,-0.0053061335,0.005981696,0.000048780163,0.009896126,0.0043826033,0.006107923,0.0007636273,-0.0052545005,0.0072264406,0.0037179634,0.001777104,0.0079734,-0.0073163933,-0.010351338,0.005079241,-0.0015385614,-0.007317402,0.009669957,-0.006682443,0.004715927,-0.00089497963,0.008293086,-0.00033669337,0.011667348,0.0070313807,-0.007243883,0.0059110965,-0.0038275276,-0.007059156,0.004393491,-0.0005122773,-0.0034361687,0.00046179752,-0.004770814,0.0040768376,0.006942559,0.01249913,0.00023387274,-0.0012157757,-0.0016110732,-0.0011231825,0.0013799329,0.010357061,-0.00052906934,0.0115961,0.0007466251,0.0036871315,0.0073297643,0.009127162,0.0012911422,0.004766537,-0.0071923933,-0.0084039755,0.007300062,-0.003494453,-0.00782454,0.008314718,-0.006218647,-0.0053696074,0.0042668916,-0.0065360502,0.0027412772,-0.0046699597,-0.0075810975,-0.004593067,0.010210751,-0.0033118676,-0.006508221,-0.0013515687,0.0046955603,-0.000013547193,-0.007872078,-0.004101516,-0.0020131017,0.004739675,0.002195459,0.006327428,0.011318012,-0.005076885,-0.0050356695,0.0031544461,0.0034160763,-0.006785496,0.009767748,0.004165219,-0.002609353,0.013117011,0.007088379,0.003738533,0.0077239084,-0.007095454,-0.0024395515,0.0029630798,-0.0015569549,-0.010734696,0.000266281,-0.0012770162,-0.0013316828,0.0005921411,0.0049509886,-0.0014029737,0.004829775,0.008539114,-0.00366581,0.0025592546,0.0051370934,-0.006729152,0.005782482,-0.004022878,-0.0017343082,0.0092273615,0.002984915,0.004899553,0.014064516,0.007967576,-0.012154271,0.009965495,-0.008410104,0.0047801705,0.013079645,0.0048031486,-0.0038393575,0.0037246104,0.011343693,0.0003702941,0.0069399797,-0.0024131665,0.0018487686,-0.001514374,-0.0036936589,-0.011443866,0.0077627273,0.0012275001,-0.008580581,0.0018091743,-0.0046169213,0.0079265535,0.0020710025,0.003557346,-0.009450998,0.0131210685,0.009634093,-0.0014395837,-0.00080749753,0.0023852377,0.009347596,0.010930859,0.008356244,0.0011772979,0.0013382618,0.0022469615,-0.007195511,0.0025227875,0.005295584,-0.0025196436,-0.0026678147,0.0009057066,0.0059531275,0.010973763,0.009069778,0.006705153,-0.0014135634,0.0020194629,-0.006862759,-0.0009829747,0.004252654,0.0018282168,-0.0015285813,0.0002703738,-0.0059311297,-0.004269596,-0.010340123,0.006554597,0.006737192,-0.002196401,0.0054415134,-0.0030151214,-0.0062273266,-0.007971103,-0.0027587006,-0.004878901,0.00046310705,-0.0022903548,0.0016584678,0.00056860346,-0.0029132334,0.0052437857,-0.004976996,-0.000938664,-0.007891131,0.0038953854,0.0014053938,0.003964341,0.008487489,-0.0012505052,0.009644375,-0.0039481255,0.0047392645,0.004108291,0.00022363408,0.008410398,-0.0019432172,0.0038785646,0.0031592816,-0.0062014605,0.004604949,0.0012079603,0.0046063866,0.0025515638,0.000024918374,0.0013301218,-0.008056775,0.010964864,0.0038433147,0.003707831,-0.0009696482,-0.0036895666,-0.0047349543,0.011575579,-0.0036210164,0.0037296205,-0.004281103,0.010078499,-0.002676939,0.0067518195,-0.002146121,0.002385631,0.0022511573,-0.00040152608,0.0025844865,0.0010632129,0.0054142494,-0.0008234554,0.003689463,0.007982792,0.0069908206,0.012185269,0.009904056,-0.0012842449,0.0048346748,0.004293295,-0.00043739824,0.006486474,-0.005439578,-0.0029684855,0.007698935,-0.012307995,-0.009174861,0.0069477805,-0.0029479023,-0.00056985795,-0.0033844316,-0.0076384125,-0.004419251,0.0069107045,0.004969008,-0.006174247,-0.0026696748,0.001714263,-0.0016102855,-0.0011054679,0.0022949097,-0.004442995,-0.005251768,0.0060942033,-0.006193387,0.010532677,-0.006679848,0.008830914,-0.0007593361,-0.0058460664,0.0057573128,0.0063936636,-0.008367957,0.00046744698,0.007270074,-0.0074214675,-0.005893655,0.015948584,-0.0008905011,-0.0066395653,0.012634152,0.009293178,-0.0073447316,-0.00007059231,0.0021609913,-0.013903037,0.0016555719,-0.0053588375,-0.009353386,0.007207315,-0.0009233377,0.0012739274,-0.0039584627,0.0026770148,-0.008091377,0.0064064674,-0.0067448267,-0.011054522,-0.0022697295,-0.0005532656,0.0032000632,-0.00018951648,-0.004708829,0.0048785354,0.0048970575,-0.0047031087,-0.007934963,0.007699053,0.006449219,0.004317262,0.016177319,0.001966559,-0.0029172485,0.011320466,0.009433602,-0.0029872889,0.005440775,-0.0010992122,-0.0076149176,0.013401586,-0.0027229036,0.0055617425,0.013600453,0.008864778,0.0010217536,0.010083411,0.007510624,-0.0064117294,0.004061397,0.00007439669,-0.0072641815,0.0056197266,0.008398858,0.0030971642,-0.0019396759,0.00079773786,0.0073023974,0.008001676,-0.001971204,0.006136307,0.0028161013,0.005890347,-0.0014804576,0.009249857,0.010207838,-0.005467813,-0.00052334456,0.0060256743,-0.0035181167,0.01242256,0.0032132836,-0.0051603224,0.013916045,0.012414915,0.0036186504,0.011256165,0.010769608,-0.0059419316,0.00773217,-0.009435196,-0.009620961,-0.00017372181,0.003291296,0.007601373,-0.0017069929,-0.0009286797,-0.0028077394,0.0127266515,-0.003765961,0.0058399886,0.0015567851,-0.006104598,0.002592851,-0.0039233435,-0.0025229254,0.002758722,0.0015704093,0.0059571546,0.001047635,0.0012618388,-0.007958716,0.010030893,0.006614424,0.0037214174,0.00974766,0.012684185,0.009476141,0.009824557,0.008841414,0.010901884,0.003037973,0.011773648,0.012038754,-0.0031545497,0.0009121598,0.011364821,-0.0012503878,0.011062332,0.007434958,-0.001407774,0.009870776,-0.0006643629,0.0051836306,0.01373636,0.0054269424,-0.007153274,0.014249271,0.00042438833,-0.006397238,0.005610102,0.0056525813,-0.00040756565,0.0016531267,0.00478712,-0.011501159,0.0009599004,0.0036119733,0.0024495055,-0.0039288327,0.0048664175,-0.0062048985,-0.002466853,0.009024344,-0.009180579,-0.00079279486,0.014352826,0.0037763596,0.012153742,0.012721288,-0.009242891,-0.0017856067,-0.00503798,-0.014727276,0.00898278,-0.0033508958,-0.013620891,-0.0036050791,0.00013547954,-0.0020085748,0.007686312,-0.005226936,-0.008356562,0.008389667,-0.005380198,-0.005811208,-0.0010958243,-0.0014528445,0.0026095712,-0.006312552,-0.0053334613,0.008044875,-0.005267734,0.0018435216,-0.010708446,0.009859401,-0.0093000345,-0.0081676915,0.004257704,0.0030396688,0.004145165,0.009884775,-0.0028107166,-0.0030928932,0.0070661823,0.0071349745,0.004558952,0.0045331945,0.001872492,-0.005591699,-0.0023458789,0.0030353446,0.0017091208,0.010568755,-0.00046814792,-0.010760444,0.0015528483,-0.0029333243,-0.002856339,-0.0036251296,-0.0030096844,0.0039861808,0.0036943802,-0.0028005587,-0.0058420375,0.0011683173,0.00619228,-0.0037720127,0.0052686958,-0.0024316,-0.0033478278,0.0077839326,-0.0055759605,-0.0061688363,0.0022251455,-0.007775789,0.0050286315,0.012614563,0.0029348123,-0.009689778,0.0059858165,-0.004302917,-0.010358269,0.00817381,-0.0050214403,-0.007778825,0.0019102277,0.01097856,-0.005926291,0.012324093,0.007058757,0.0055467556,0.008165136,0.004045044,-0.0066406853,0.014946801,-0.005230962,-0.008345765,-0.0041376306,-0.0045292443,0.0058538136,-0.0033641863,-0.0030333707,0.007287132,0.008329482,0.0056056706,-0.003320276,0.0051501873,-0.003975125,0.0027311386,0.00020355762,0.0076147243,-0.0027724332,0.010684158,0.0030634527,-0.004669038,0.0073597464,0.0009081591,0.01036123,-0.004246495,0.004718879,-0.0022589834,0.0017368392,0.009396981,0.006103085,0.016854841,0.013733709,-0.0075472756,0.00652685,0.005120083,0.0038382597,-0.0032909564,-0.0074645374,0.00033447842,0.0032190748,0.0011216376,0.009314683,0.011841919,-0.0040421053,-0.0012570404,0.0099720685,0.00800955,0.0110873375,0.0054271445,-0.0003685505,-0.0058956076,0.009029203,0.0015813392,-0.004350993,0.0016792961,-0.00527188,-0.0027006983,0.011266305,-0.0005203462,-0.0021898318,0.0019701435,0.0035356814,0.005201595,0.0036636225,-0.0028872944,-0.0047432478,-0.0032153546,0.007884941,-0.008239457,0.008700412,0.0072137914,-0.00805134,0.01291835,0.008322037,-0.00312476,0.011783677,0.0072379103,-0.012464256,0.0006114527,-0.0037371507,-0.005015138,0.007295464,-0.0028615699,0.0031023738,0.012773927,0.0057010646,-0.0076202005,0.010185779,-0.00033269977,0.0033444206,-0.0036666933,0.0047128564,-0.0148061905,0.003401715,0.009243664,-0.0010487667,0.0102657955,0.0031069084,-0.0037121829,0.011586181,0.005685758,-0.0022645942,0.0006962026,0.010516082,-0.010497656,-0.0010962124,0.006487105,-0.00022956557,0.0075689293,-0.008605078,-0.00836691,-0.005454357,-0.00841364,-0.0060018827,0.007270659,-0.009688735,-0.002532252,0.0057532853,0.00356807,-0.0031118607,0.0026459722,-0.006929483,0.0050681303,0.005598251,-0.0032619562,-0.00790611,0.000038520247,-0.00977587,-0.007471235,-0.002588602,0.0008389616,0.004319087,-0.0007641544,-0.00060724263,-0.009279424,-0.0025340333,-0.010595881,-0.004274716,-0.0026164402,0.0009206167,0.004575287,0.006411262,-0.009863663,-0.0068708775,0.001671592,-0.0006084837,-0.010145517,0.0029142243,-0.0107480725,-0.0036132347,0.011782796,0.0024848478,-0.0029572109,-0.003261997,-0.007953657,-0.0033282137,-0.004718822,-0.008493586,-0.0037410252,0.0036746096,-0.006556793,-0.004027753,-0.0015310198,0.0009395908,-0.010698433,0.003108889,-0.0026967379,-0.004475098,0.008703288,-0.009712613,-0.006959522,0.010526039,-0.00921182,-0.0009501353,0.00094119075,-0.010317878,-0.008141411,0.0131872315,-0.00066152855,0.0056374203,0.007972399,-0.0014939207,-0.0036256278,0.007542672,-0.003835919,-0.0046663904,-0.0052780444,-0.0065248674,0.005242797,0.012824681,0.005060788,0.008115088,0.0013267823,0.0021174,-0.008927061,-0.0032980668,0.0010450429,-0.009336199,0.0037876647,0.0061820014,-0.0029137689,-0.0010577149,-0.004992538,0.0045423377,-0.0059360163,0.0008290463,-0.0018742861,0.004373453,-0.0052506644,-0.000081958526,0.005100027,-0.00018102684,0.008511044,-0.002274805,-0.003038174,0.0027569453,0.0053597772,0.0052495915,0.004092701,0.0046570012,0.009037425,-0.002467971,0.0097039435,0.013454204,0.010578257,-0.000609437,0.0077271685,-0.002689224,0.00027641904,0.005087725,0.0017460925,0.0036179684,0.0018564552,0.012333588,0.015733536,0.009047307,0.0035671336,0.011423418,-0.003699626,0.00515469,0.010566037,0.008440957,0.009847718,0.00091733,0.00047632135,0.0029708904,-0.008214634,-0.0066402396,-0.0019051958,-0.0008682527,-0.011655044,-0.0077865366,0.0022919057,-0.007665625,0.00218467,-0.0063272677,0.0024634204,-0.0036553924,0.0072963294,-0.0052747973,-0.0050938213,0.0012858681,0.0058367313,-0.0033474702,-0.0053011477,0.0023935086,-0.0056413864,0.011635443,0.00020979608,0.0044541657,-0.0007654926,-0.0046032546,-0.0031032371,0.0067370445,-0.002425555,-0.004984773,0.008149472,-0.006212499,0.0012822022,0.003909661,0.008957087,-0.011391072,0.0037441624,0.0019551478,-0.00043352434,-0.0010705664,0.0042858957,-0.011856706,-0.00062055496,0.007622912,7.9014626e-7,0.0057786913,0.0013023837,-0.0054406836,-0.0041065756,0.0074931197,-0.008848515,0.011510105,-0.0029587124,-0.009618579,-0.0039471933,0.0030438814,-0.007980959,0.0070857247,0.00018589309,-0.0062534614,0.008174149,-0.0016137924,0.0063858945,0.012916792,-0.007082648,-0.00764309,0.003536596,-0.0084167095,0.0038649272,0.004251655,0.005298874,-0.010948931,0.0040851124,0.004668836,-0.0015658432,-0.0015850258,0.0006193413,-0.008100389,-0.0068248347,-0.00080502155,-0.0009765703,0.00010145549,0.0021341695,-0.0097847115,-0.0030778497,0.001382295,-0.0055000535,0.0014677229,-0.00087668723,-0.0066321697,0.004472932,0.0012683582,-0.0033772308,0.003874278,-0.0086370185,-0.0013047584,0.010052414,0.0055462853,-0.008814637,-0.0018285452,0.006512973,-0.004167558,0.006357415,0.0049111936,-0.0039497474,0.0068597663,-0.006853184,-0.0055540814,0.0063490635,0.006087736,-0.0034390865,0.0005325009,0.005361237,-0.00262228,-0.00027777173,-0.0037011392,0.00897742,0.01497699,-0.004229916,0.007950283,0.0028268143,-0.0047757695,0.006378503,0.009379697,0.004862868,-0.0061227167,0.013282995,0.0011917672,-0.0050229155,-0.0006192048,0.008751056,0.004526173,0.0015401744,-0.0030535292,0.0055973153,0.0015778663,0.0036782396,0.0049404264,0.004201287,-0.0007909262,0.002881697,0.007521157,0.001922131,0.003944255,0.0058715567,-0.008087778,0.0015712086,0.010795584,-0.006200689,0.009394108,-0.0012189971,-0.005591009,-0.005253882,0.008241117,-0.0064446097,-0.0027943298,-0.001263605,0.004963201,-0.0024670477,0.0058451244,0.007872967,0.0036486438,0.013526213,0.0056370874,0.013923078,0.008207828,0.005851317,0.0035467185,0.010431934,0.008965072,0.00041668827,0.010903437,-0.005333699,0.012097325,0.008732134,0.00858263,0.0011206712,0.004698259,0.0051784874,0.007190269,0.0059653316,0.0020926404,-0.0010689587,0.014129199,-0.007228906,0.011297701,0.008834403,0.002251681,0.011926022,-0.0010362015,-0.00580386,-0.0041887425,0.0054763183,0.0023769983,0.0024111613,0.0030560123,0.002925415,-0.0031996982,-0.0054677064,-0.0036719996,0.0017129808,0.004830652,-0.009432998,-0.008814009,0.010000442,0.0017309994,0.002833195,0.0028340258,-0.010284692,-0.009091907,-0.00792047,-0.010619052,-0.009489696,0.006767188,-0.0052631428,-0.0060997754,0.0040231766,0.0057807453,-0.0021327545,0.0004919038,0.004833427,-0.009275475,0.009509513,0.00763067,0.003759656,0.0015050833,0.010223113,-0.00091292453,0.007551923,-0.0024030698,-0.002154778,0.009040417,0.007346578,0.0023058257,-0.001142094,-0.003019127,-0.0026371113,-0.005392578,0.0070750406,-0.014157829,0.0071681174,-0.0061811036,-0.011274031,0.0019904145,0.0009503585,0.0018334446,0.00228368,0.0035282287,-0.0025865845,-0.0053755785,-0.0030813518,0.004147409,0.006861657,0.00088442717,-0.008613047,0.012041175,0.0064157587,-0.009094644,-0.0034658397,0.00020731121,-0.00014620574,0.0055522923,-0.010101162,-0.0070170145,-0.0010311463,0.0050545437,0.0049748546,-0.0054590427,0.000234332,-0.00033171987,-0.009771127,-0.011999328,-0.0089573,0.0037488164,-0.0057610665,0.0002652551,0.008457445,-0.008058143,-0.011816338,-0.0011756865,-0.007817391,0.0007921304,-0.0049448167,0.0017315906,0.0034405992,0.0024469676,0.00022317437,0.0009550077,-0.00064886134,-0.00041073945,-0.0067333775,0.009760904,0.010779286,0.0013896688,0.0064476323,0.0049155164,0.00927173,0.0050961217,-0.0075532114,0.005709897,0.0030907046,0.0068013743,0.0024819996,0.014703939,-0.0009044906,0.0042422283,0.011132454,-0.0008876482,0.00962807,0.008078353,-0.0056103542,0.011508847,0.015962329,0.012504685,0.0107887555,0.005732089,0.0011401691,0.0048101735,0.007690974,0.007013878,0.0038694234,0.010637807,-0.0038728006,0.0033223596,0.007574675,0.0024354742,-0.003117389,0.0053604334,-0.007692824,-0.009376214,0.0021416754,0.010897395,-0.0019845567,-0.0008018895,0.0011049962,-0.012248145,0.009055595,-0.0067864363,0.0064083277,-0.0039373916,0.004597518,-0.0013477373,0.010220908,-0.0050718174,-0.0007638184,0.006452632,0.005828725,0.012620874,0.006005067,-0.0005343206,0.014150219,0.0017508693,0.00701959,0.016876496,0.010325098,-0.0023743152,0.01400123,0.0021880886,0.003151834,0.004667086,0.0027942802,0.008883416,0.011677445,0.007248493,-0.00036383088,0.0058387257,0.0014650936,0.0075927842,0.015576859,0.00742081,0.011623051,0.000561254,0.0033149822,0.0005098577,0.013519474,0.005305709,-0.003843389,-0.0010267241,-0.0007847677,0.0027699668,0.005098631,-0.0044088024,0.0072432836,-0.0055140546,0.006614733,-0.00037921726,-0.0067568687,-0.0064665945,-0.0047070566,-0.006036232,0.0080523705,0.00757836,-0.003929884,-0.00032710974,0.0043366463,-0.013717924,-0.0023782752,-0.0073801195,-0.011946939,-0.0059393956,-0.012727181,-0.008772294,-0.0036845156,-0.0029190234,-0.009639735,-0.005825935,0.0052871415,-0.005709381,0.009991559,-0.008100913,-0.005880874,0.0040352265,0.0070681097,0.009027022,0.013599016,0.011034038,0.005616305,0.0073580537,0.0097222645,-0.00095988327,-0.003921316,0.009414113,-0.0032863303,0.0062684226,0.009212299,-0.00071088836,0.009865036,0.012392639,-0.015033778,0.006087774,0.008564449,-0.0017220573,0.000017863678,-0.0029256025,0.0014662751,0.012821025,0.00935533,-0.00937839,0.0047571226,0.00441533,-0.0014260283,0.011122311,-0.0060262913,-0.006738198,0.0013866245,-0.00077475724,-0.0009731739,0.006951522,-0.0053502596,-0.005505408,0.0043786545,0.0030932655,-0.00482076,-0.004909784,0.00031878182,-0.007122794,-0.0068414225,0.0034095268,-0.0073837056,0.00530863,0.005981098,-0.013242622,0.0012499674,-0.002138669,-0.012737511,-0.007954232,-0.011891389,-0.0014825366,0.0015610816,-0.010269708,-0.010898889,0.009592214,-0.010911782,0.0018098315,-0.0035992872,0.0075759087,-0.0048776767,0.0010624706,0.0038398034,-0.0014868876,0.0008123982,0.0022653572,0.0068786824,0.01509726,0.012254066,0.005394495,0.0146120675,0.012342648,0.009293734,-0.0014530859,0.005009297,0.0051216558,0.012973235,0.005916433,-0.0017595965,0.0017467812,0.0046289894,0.0107846325,0.006412078,0.0028280166,-0.0003954763,0.002002522,-0.0061001866,0.0014882066,0.013144083,-0.006273974,0.00074595975,0.007832464,0.01049137,-0.0041029784,0.010313957,-0.00039435658,0.005963833,0.014653172,-0.0061700786,0.006024866,0.008102352,0.0025893894,-0.0074423463,0.010973829,0.0023955854,-0.0045459345,0.0054645953,0.009673986,0.000114719944,0.0092731975,0.0019876629,-0.004460805,0.00091592467,0.004661895,0.0038515888,0.0064257393,0.013645449,0.0027611852,0.004465536,-0.0016359759,0.009056809,0.009555949,-0.006319464,0.012501625,-0.0014364232,0.0068303593,0.00540366,-0.0021325783,0.009121467,0.0014840084,0.00081457663,0.009704935,0.0038968143,0.007411408,0.010859652,0.0032354277,0.0040156967,-0.0044903527,0.0012807782,0.0005516962,-0.000031283926,0.014342381,0.013310732,0.0068660923,0.0047929958,0.019590186,0.0024622362,0.012913254,0.0075333375,0.00798882,-0.0019836838,0.0137701845,-0.00463744,0.008089379,-0.0019471082,0.0035353047,0.0028998684,0.009826825,0.00038091288,0.008778243,0.00048298962,0.008165318,0.0012297366,-0.002230079,0.0012803132,0.00421311,0.005291116,-0.0026866815,-0.0063600847,0.005585731,-0.0012638696,-0.014336303,-0.008414349,-0.0001386694,-0.017527604,-0.014411467,-0.0116607,-0.012182542,-0.009832193,-0.0031869758,-0.016243989,-0.008015963,0.0033914137,0.0030500062,0.0054242336,0.0009243684,0.001167528,0.00221798,0.00019180177,-0.00800365,0.004917579,0.0024733457,0.008380328,0.0028235707,0.0017297625,-0.003938893,0.0027865537,0.010262137,0.004376727,0.0015614034,0.008609943,-0.012401243,0.004101215,0.0005356929,-0.0051179947,0.0053651873,-0.003514896,-0.007045809,-0.006996488,0.003093768,0.0010264846,0.011628277,0.00009073863,0.0037730928,0.004349019,-0.0045121866,-0.004747492,0.00859107,0.008968382,0.0061601703,-0.000959743,0.007399867,0.005821733,-0.0005627061,0.002916518,0.002067873,-0.00058661116,-0.0065491544,0.0011472647,0.0074489433,0.007450416,-0.008060731,0.009649642,0.004459295,-0.005316144,0.0004413745,0.0098775355,-0.015079548,0.0038625929,-0.0024771043,-0.008627947,0.0048417547,-0.0085398685,-0.01061221,-0.0022207198,-0.010262536,-0.010334931,-0.0036711984,-0.009904326,-0.0017107433,-0.00038064172,-0.00028386927,0.0021031443,0.0076109124,0.0020611973,-0.006010629,0.014295171,0.011862859,0.007735168,0.015362728,0.0039170478,-0.008584183,0.001279898,0.011173917,0.0028012411,0.009694782,0.006848881,0.009053339,0.007639679,-0.0016353353,0.010313505,-0.00031725713,0.0009127282,-0.0025573787,0.008927246,0.008156936,0.004604906,0.00066242745,-0.005378633,-0.00027304533,0.014823601,-0.0048766905,-0.0029659024,0.013435682,-0.004055673,0.0003382844,0.0019768754,-0.003469937,-0.0037881518,0.0057826,0.006751443,-0.008153327,-0.001119076,-0.00095078064,0.0068692337,-0.0042458554,-0.0028473334,0.0007687943,0.0053449585,0.002597589,-0.0021645175,0.01517969,-0.0001387061,-0.0045288797,0.0076037194,-0.002063431,0.000553841,0.010168588,0.004826194,0.000120302124,0.009884972,0.008659898,0.0058914055,-0.0020725073,0.0016190425,0.0010123164,0.007020898,0.0114359325,0.0030272107,0.013532316,0.0046142084,0.0039672637,0.005757628,-0.001838325,0.014050757,0.0140894735,-0.0018983394,0.00065391226,0.008559141,-0.0041726152,-0.00570175,0.0050261193,-0.0056121564,0.0088631045,0.0020753539,0.011240304,0.008889262,0.010530096,0.002338553,-0.004814936,0.007452399,0.0018042559,0.0032901852,0.0036860062,-0.007384763,0.0009263398,0.0014763239,-0.0063046077,0.008291168,-0.002413838,0.0007648553,-0.0019778127,0.008822949,0.0048017874,-0.0025027231,0.006444189,-0.009349808,-0.0019550198,-0.002698866,0.005447765,-0.0094426805,-0.009592375,-0.012523426,-0.009133458,-0.0012726269,-0.0002510274,-0.010113696,-0.008480594,0.0012466437,-0.0033647842,0.0004471713,-0.0129513405,-0.015398787,-0.007916229,-0.0043441514,-0.0029363083,0.0011782699,0.0031975037,-0.0019574706,-0.0019033691,0.011278313,-0.0019300051,0.0006342835,0.013529692,-0.0022521398,0.00087208615,-0.0018210177,0.006101042,-0.0026936445,-0.003794189,0.00006615067,0.010013801,-0.0058125253,0.00037424438,0.0007463939,0.008521192,-0.0014567564,0.00986318,-0.0018446489,-0.005178367,-0.00027025945,-0.0020904378,-0.0029575618,0.011308423,0.0013573774,-0.0023164803,0.00045670054,0.004168665,-0.007220125,-0.004198403,-0.008692504,0.0023605712,0.0075030043,-0.0093946075,-0.0064714397,-0.0008056258,-0.0032238585,0.003433385,0.010201739,-0.007294137,-0.008637523,0.0030068615,0.0013194046,-0.0016153407,-0.003803364,0.0034902107,-0.0062907403,0.009658754,0.0058892053,-0.013933409,-0.0023606182,-0.0115215145,-0.0062503293,0.0050894814,0.0033037397,-0.00076294865,0.010013887,-0.0015045168,-0.008545564,0.0066901892,0.0009796114,-0.007473588,0.005230484,0.0055983816,0.0052530183,-0.0011110087,-0.0057583638,-0.0013375551,-0.00006050254,0.009123501,-0.00380027,0.0012997251,-0.0062070317,0.0011193403,0.004083943,0.0021413243,-0.008405132,0.0058307624,-0.002011999,0.004552957,0.0026827992,-0.0026884298,-0.004751174,0.007094137,0.0030526295,0.0048618233,0.006399191,0.0013035674,0.0013774595,0.015068295,-0.00041518314,-0.0055286204,0.0057482277,0.0112658935,0.0061670896,0.0018608264,0.00661224,0.00082789105,0.0022009027,-0.0055822153,-0.004902446,-0.0019783666,-0.003365993,0.001725874,-0.0015199524,0.0063625765,-0.004860682,0.0031843607,0.006945801,0.0013533576,0.016027238,0.00042675537,0.01597418,0.003574148,0.004574442,0.0037254253,0.015600984,-0.00012703463,0.00086075225,0.00084474665,0.013208878,0.012589072,0.011788194,-0.0008557291,-0.0007981699,0.014980523,0.013210685,0.004243577,0.005658538,0.010524659,0.0024795022,0.001561036,0.0035095655,0.0010586386,0.009173196,0.00038676345,0.00006442294,0.006603478,-0.0022480928,0.0012620585,0.0092969155,0.0022077083,0.0028184555,0.008693525,-0.0052470188,0.006089465,0.0070606195,0.009806683,0.006227372,0.007213192,0.0071125734,-0.004991492,-0.0018693337,-0.0050780047,0.0019242675,0.0033869147,-0.0040917285,0.012068217,-0.0014300157,0.011599993,-0.0023067659,0.0061200615,0.007232505,-0.0046012946,0.005010812,0.009602418,-0.008223532,0.002545115,-0.009011732,0.0015546365,-0.0014500062,-0.01014571,-0.010108166,-0.0046873065,-0.0034537353,-0.001059301,-0.0059817326,-0.007589109,-0.002553374,0.0067915204,-0.010344372,-0.013166626,-0.0077580856,-0.011942945,-0.0023712036,0.0054785577,0.0058077346,-0.002271954,0.008306823,0.0055724555,-0.002689358,0.006724843,0.0041010994,0.010557159,0.006217471,0.000021040709,0.0064666374,-0.00509005,0.004104319,-0.0037574116,0.005874663,-0.0026748606,0.0024785956,0.008109933,-0.0006529061,-0.00462703,-0.0002187959,-0.0053578066,0.0070642196,-0.0008377981,-0.003533112,-0.0031834547,0.005267171,0.002955826,0.0067180847,0.0027216035,0.000069126734,0.00017932251,0.0048828307,-0.005821138,-0.00093117077,-0.0022598458,0.0027646874,0.0039884066,0.0067019328,0.0007945511,0.004033353,0.010925758,-0.004084913,-0.008257536,0.011956571,-0.0013300591,-0.009272058,0.0033667944,0.008688308,-0.0073133535,0.0030608377,0.0030394823,0.0046302597,0.0012877638,-0.008089548,-0.00014385757,0.0012061282,0.004260591,-0.008260258,-0.0022622321,-0.008302771,0.005558328,0.0019649565,-0.0064537106,-0.0099340165,0.0055052238,-0.0017044207,-0.005240565,0.0031797932,0.005353675,-0.008281955,0.01046022,0.008561099,-0.0014492741,0.012946859,-0.004135077,0.0053568734,-0.0016977824,-0.000007661207,-0.0037075577,0.009623662,0.0015073791,0.006640243,0.011648311,0.0029961492,0.0068556834,0.003756232,-0.0065999515,-0.0015634419,0.0007778376,-0.0046755536,0.0064229807,0.002346385,0.00753985,-0.0060012126,0.009706276,0.010367385,-0.0060925316,0.013751421,0.010163442,-0.0023346704,0.012421916,-0.004604611,0.0043793516,0.014448155,0.0052367686,0.0024392859,0.012679066,-0.0034488929,-0.001395808,0.0030385696,0.008316054,0.0026327432,0.0008853686,-0.0029795414,0.00338556,0.008273493,0.013571522,0.009628563,0.0052743643,0.014311643,-0.0056450153,0.009959084,0.002198006,0.0070252367,0.0022929672,0.006529799,-0.001995475,0.010905793,0.0077981167,0.005118864,0.015500903,0.00014054327,0.014017324,0.011386141,0.004505943,-0.0059286053,0.0032835528,0.006749809,0.008409065,0.012475424,-0.0033615278,0.009387904,0.011995731,-0.00039863013,-0.00010110485,0.0061197304,-0.01028989,0.007277528,-0.00071985624,-0.0028239544,-0.006552455,0.008388772,0.007709255,-0.0074494616,0.00015380411,0.005003475,-0.002756279,-0.0101658655,-0.0027722474,0.005624678,-0.00009988236,-0.00028844085,-0.005686954,-0.0034290357,0.0006082733,-0.0036516732,0.008779417,0.0049451543,0.008063666,0.0011876299,0.0040666615,0.008734455,-0.001008096,0.0040894733,-0.0029561243,0.0023399936,-0.0056514456,0.0029427556,-0.0019883513,0.0025472858,0.004269589,0.0051732995,0.003788676,-0.002260649,-0.0013333503,-0.0076882304,-0.006749115,0.0026658357,-0.0030050564,-0.013026554,0.004882265,-0.0006367899,0.0029626335,0.003930392,0.007764058,-0.0077760555,0.012038354,0.00043824993,0.002495123,0.010349385,0.016022762,-0.0063237464,0.0074996874,0.0047438084,-0.00063174847,0.0015731759,0.0014970537,-0.008684952,0.011214853,-0.0013890733,-0.0055469414,0.0055974065,-0.00047864654,-0.0005371605,0.0045867045,-0.0036887338,0.010093527,0.0017172804,0.002450116,0.008573402,0.008728728,-0.004675328,0.0020147085,0.00029372843,-0.008339155,0.0014960708,0.005371041,-0.004259218,0.0019805946,-0.0009558512,0.00038834667,-0.004350686,0.0045854026,0.0038333253,0.002828271,0.0067091784,-0.0050285417,0.008925745,-0.0040840223,-0.0076247337,0.005208992,0.0011514784,0.003664437,-0.000097760916,0.0012901473,-0.00780661,-0.0013133097,0.0029146108,-0.00087515544,0.00086197164,-0.00488479,-0.005631221,0.0038009454,-0.0030077274,0.0020062947,-0.00265928,0.0050011724,-0.008099709,-0.0024020553,0.010566945,-0.0112303905,0.0011922994,0.0033577774,-0.006363207,0.009556998,0.009679936,0.005914292,-0.0042257514,0.004954449,-0.0062307054,-0.0056201024,-0.0025168227,0.0010878027,-0.0004435907,0.005807258,-0.012032046,0.00423297,0.010733506,-0.006882811,0.0066047907,0.013258904,-0.0029156688,0.0026298396,0.00072356395,0.002859098,-0.0065152906,0.0013886183,0.0017702982,-0.0027096637,0.0033820153,-0.0031590194,0.010912391,0.010551839,0.00995565,-0.003024056,0.003020287,0.011684552,-0.0017722277,0.017708628,0.000758854,0.006221178,0.016141169,0.0150499325,0.00012350868,0.016323708,-0.0009837049,-0.0009176657,0.0061771665,0.0020984507,-0.0049834875,0.0025319178,0.013840044,0.0040206546,0.009334228,0.0047079814,0.0026961772,0.0031480473,0.0028527824,0.005950587,-0.0015057635,0.0076556206,0.0016885446,0.011551491,-0.0010399277,0.009663358,0.0032114543,-0.00009093467,-0.0024054872,-0.0045367503,-0.0063460637,0.011918688,0.0066381395,0.007302077,-0.0017152152,0.008302722,-0.008163547,0.00075258396,-0.0062554353,-0.0057401117,-0.0019067008,-0.0029158609,-0.0058113025,-0.0065115187,-0.004466401,0.0050894925,-0.008666489,-0.0029678207,-0.008799201,-0.0011863204,-0.0077090883,0.0029987218,0.00260125,0.0018217389,-0.004029539,-0.00035941822,-0.0007037765,0.0035712894,0.004812969,0.0034218559,-0.0027924373,-0.0018578717,-0.005584358,-0.0046511404,-0.0005713092,0.006035645,0.0060974834,-0.005599907,0.009662616,0.008196188,-0.0071183075,0.00035107398,-0.008213462,-0.01525488,0.00033716916,0.0022408937,-0.00523869,0.004791831,0.0031410088,0.0029231312,-0.004312382,-0.0039825127,0.002950767,0.0009029219,0.001801091,-0.007539099,0.005487946,0.0076483143,-0.012047903,0.0026225036,0.0064519676,0.005341051,0.0105502205,0.00430913,-0.00597556,-0.0049860235,0.0022993428,-0.0073348484,-0.0034361852,0.0049814577,-0.0091025615,0.0041463696,0.00022704857,0.0037255294,0.008918339,0.0010741974,0.0027011565,-0.0018246478,0.0065169833,-0.0058665727,-0.0009791234,-0.00064052927,-0.006148054,-0.0035828215,0.0073012505,0.0032770922,0.0065787216,-0.008208491,-0.0014106688,0.005648516,0.005925393,0.00008082295,0.0052615763,0.002624681,-0.008619246,0.009196265,-0.008275956,-0.002670072,0.005613238,-0.009847842,-0.0010767301,-0.0052518933,-0.010232993,-0.00737671,0.011368061,-0.0041243993,0.0021556085,-0.0066905404,-0.007820976,0.0002362411,0.004508582,-0.00863278,-0.010598436,-0.0007507537,-0.012724011,0.0010649355,0.0028457986,-0.0017570999,-0.0041655013,0.0051650135,0.0033105689,0.0032469667,0.00675333,-0.009977694,0.00008141707,0.0075545944,0.0011463066,-0.006468882,0.007744558,0.0058138333,-0.009504838,0.0016193058,-0.0040388308,0.0013967089,0.011165087,0.0025901932,0.0045125308,0.00428555,-0.004136198,-0.011208243,0.001255658,-0.007547052,-0.007600334,0.0072694323,-0.00093526667,-0.0016874785,0.0023659163,-0.0036176369,-0.010812889,-0.002987426,-0.00086991274,-0.0063987244,0.00091501436,0.011782596,0.0040122173,0.010611287,-0.002359394,-0.0051197773,0.012663031,-0.0016709345,0.0022045919,0.015105935,-0.001987042,-0.0025139293,-0.00064705586,0.0040897382,0.0029844546,-0.0017534664,0.006830088,0.00227357,0.008164857,0.017320607,0.007504951,0.011748166,0.009955063,0.0013291575,0.007523543,0.008837572,-0.001649794,0.010106832,-0.0014654887,0.008836303,0.014411992,0.011336725,0.014297553,0.0032715672,0.006983742,-0.002692636,0.01039585,-0.0009366728,0.0022996322,-0.005149811,-0.0056024506,0.009281039,-0.0029142322,-0.003626776,-0.0048410143,0.009010751,0.0020145918,0.0005709527,0.008478736,-0.009179026,0.007780161,-0.004723539,-0.0033257792,-0.006785703,0.00410228,-0.0021633315,-0.010978752,-0.0027929535,-0.0070340415,-0.008121882,-0.0062105344,-0.002963105,-0.0020336534,0.0048199464,-0.008120393,-0.006697433,0.00043105043,0.009638083,-0.0055495584,0.009211295,0.0059616826,0.008404907,-0.0052945754,0.003673414,0.0073854933,0.0013805644,-0.008273125,0.0063779983,0.001521958,0.0040639206,-0.007967839,0.006327534,-0.0038419743,-0.0084649185,-0.004201032,-0.010329513,-0.011590484,-0.0023401193,0.0036994165,-0.0040825307,0.00771897,0.0044461885,-0.011268505,0.003955155,-0.009840394,-0.00021104825,-0.0038941412,0.006338498,-0.009775586,0.0019202485,-0.007384702,-0.00027984852,0.008640023,0.00298295,-0.0033701763,0.0010026767,0.0027879227,-0.00394741,0.0038488475,0.00032995557,0.00884399,0.005928129,0.007304838,-0.009284865,0.005985956,0.008325714,0.0045363633,0.010849539,-0.006182513,-0.0059353434,-0.0037011772,0.004114221,0.0060550096,0.00028010044,-0.0039843624,-0.0099292435,-0.004800575,0.003171357,-0.008333193,0.0045639775,0.0034980811,-0.01050122,0.005626908,0.00060143543,-0.0077647003,-0.005167929,0.004379292,-0.004771973,0.006339475,0.00077640713,0.006172395,0.0060348897,0.005094568,0.006024772,0.009531865,0.006684361,-0.0010172541,0.0017404773,0.0036695625,0.00112619,-0.000021481388,-0.011506515,-0.009168116,0.005978674,0.0007094906,0.00006213632,0.0060556065,-0.00697572,0.0016643291,0.0006184193,-0.010091541,-0.00274998,0.0012008972,-0.0056204493,-0.0033992107,0.0053877775,-0.007494609,0.0051368335,-0.0023007558,0.004088077,0.0005259548,-0.0061577014,-0.00028497307,-0.007909797,-0.0009647268,0.0037632575,-0.007796617,0.0072874893,-0.001636087,-0.0050487244,-0.00414985,0.00410891,0.0028208282,0.01258805,-0.003650319,-0.0053589153,-0.0048379027,-0.0010897715,-0.003464788,0.002149191,0.0027695228,-0.008502901,-0.0022709875,0.011690617,0.008975172,0.0004894563,0.009179576,0.0019671917,0.013828935,-0.003306459,0.0015974236,0.0047589904,-0.0011361295,-0.008721502,0.009401239,0.012254518,-0.0003873319,0.0103866225,0.009073464,0.006076304,-0.0015582849,0.0070926463,0.000093233495,0.011044165,0.015816601,-0.0034594848,0.002291993,0.010295079,0.013052463,-0.0011042712,0.003852105,-0.0008917281,-0.004015003,0.005041537,0.0117094,-0.0026553676,0.012283069,-0.0007613141,0.010488775,0.0031882336,-0.0046115145,-0.0059915,-0.0031028872,-0.003130066,-0.001293413,-0.0039378726,0.0030307102,0.0006063986,-0.00019096187,0.0017014046,0.006283713,0.0052456204,0.002505184,-0.0041596326,-0.009141317,-0.0011643749,0.00972756,-0.0032917657,0.003945541,-0.002141165,-0.005927488,-0.005352076,0.01213633,-0.0020890879,0.012814724,0.0031104637,-0.0043236124,0.0023991717,0.008887173,0.002691464,0.0063527254,0.001966884,0.0020713871,0.0009805512,-0.0004927327,0.0006353336,0.007941797,0.0050646556,0.009145648,-0.001819212,-0.0013530126,-0.0017615278,-0.010105534,-0.009461166,0.0037562095,-0.008289509,-0.00006547218,0.0037746096,-0.00029984437,0.0038169022,0.0061619417,0.007186115,0.0052341036,0.012785666,0.00013572781,-0.0014794852,-0.0002310184,-0.0054309363,0.006051525,0.0004342297,-0.009585562,0.0035474782,-0.0060971254,0.0013664458,0.004329219,0.0034093196,-0.0073894477,0.008489012,-0.0037011916,0.002263523,0.0041467003,-0.0055260668,-0.007906514,-0.0034212652,0.00023601,0.007965282,0.0011080874,-0.0026159983,-0.008241219,0.0064955503,0.0080811465,0.00042184233,0.011461226,0.0006968139,-0.0058642407,-0.00042340768,0.0025459668,0.0047789933,0.009709018,-0.0019922277,-0.0047243848,0.000039437346,-0.004840482,-0.001515251,0.008569261,-0.005618584,0.0027346911,0.0048962734,-0.006977384,0.00023096541,0.0055638296,0.007989988,0.0007521225,0.010878023,-0.007848929,-0.005403922,0.008935961,-0.0075932024,-0.0035510617,-0.0045779473,0.0037075896,-0.00029996916,0.0023992884,-0.0012763494,0.0031261793,0.002955941,0.004868602,-0.004301491,-0.005123999,-0.011587552,-0.0071428223,0.0035932863,-0.0064590657,0.00061792805,0.0042945514,0.0057809707,-0.0061046206,0.010450281,0.004838036,0.004573143,0.0031031133,0.0044787936,-0.009960585,-0.0030023593,-0.00988178,-0.013028639,-0.0063506616,-0.008154896,-0.006535755,0.0061141243,-0.009771676,-0.0055530765,0.012120015,0.004222215,0.0015288037,0.009350986,0.004430199,0.005136659,0.00012644917,0.008314553,0.0046205986,-0.006123862,0.0021427274,0.0050235908,0.011741447,-0.0045327856,-0.002941631,0.008597582,-0.00418659,0.0031000725,0.010745907,0.003748594,0.0049662343,0.005922916,0.00042531165,0.003621754,0.00031976352,0.0040284717,-0.0001412593,-0.0035499716,0.003615684,0.0044314996,-0.0023647791,0.005461719,0.005692511,0.00986882,0.00006199024,0.0001310614,0.003916138,-0.0022613478,-0.005562999,-0.0040378906,0.008447418,-0.007166787,-0.0017501942,0.0049925097,0.000889734,0.001999628,-0.006450806,0.010632999,0.0033968773,0.0005909845,0.011710782,0.0093794735,0.002363381,0.008804683,-0.005547305,0.0024890406,-0.002128403,0.008021416,-0.0031876091,0.01109393,-0.0053109895,0.0038729936,-0.002607055,-0.0056645707,0.0038186864,0.009536824,0.0067995507,0.002692561,0.009271297,0.0038950343,-0.0005677209,0.00742625,0.0042371443,-0.003186952,0.002412747,0.008455462,-0.0052634343,0.002504775,0.006983024,0.0028089758,-0.004991641,0.004119101,-0.006437152,0.008642457,0.007957413,0.0048126895,-0.0037682687,0.009720644,-0.0014487109,0.008809709,-0.0022576672,0.008271806,-0.0019048215,0.0052057537,-0.007526037,0.0047045336,0.0027820074,0.003425563,0.0071385964,0.0052127508,0.013750925,0.0033931544,0.010528312,0.0079970965,0.010738647,0.008386874,0.0056965263,0.0034858333,0.017575396,0.012853438,-0.001229098,0.009384358,0.0035667666,0.0016185908,-0.004227335,-0.0067964345,-0.008131597,-0.0045081014,0.0014590453,-0.0028773993,0.0061654975,-0.0015387953,0.010428449,0.005161029,0.012349283,0.0063701007,0.0016986445,-0.000117783544,0.0010062284,0.010810956,0.007822592,0.004140448,0.0032934323,-0.009444499,-0.012890563,0.00073020766,-0.0063716993,-0.006347677,0.0020487816,-0.0021339788,-0.0045136088,0.009207318,-0.00065879914,0.00460213,0.0035983075,0.0015417251,0.0009006371,0.009938894,-0.007604953,-0.0061835814,0.011078267,-0.0074298866,-0.0032403325,0.013158152,0.0009702621,0.0015223632,0.0068657272,0.0027688881,-0.0073564444,0.010350397,-0.007949836,0.0063742707,0.0031589246,-0.00007518211,0.0005541826,0.008453214,-0.012150036,-0.00101784,0.005687979,-0.0010044146,-0.0060128276,0.008199055,-0.0044013173,-0.0011317247,0.008368777,-0.005554688,-0.0023127832,0.0012736113,-0.008577345,-0.0029759705,-0.0063109277,-0.0065889778,-0.00668866,0.00039554018,-0.0006512079,-0.0012237966,-0.002979313,-0.004714684,-0.010382685,0.0055173626,-0.0075595556,0.0030548493,-0.0014204768,-0.0034783308,0.0046610027,0.0028957513,-0.009616549,0.0039284048,0.006002737,-0.0034116814,0.0052449387,-0.0013467134,-0.00530811,0.0030400034,0.007438677,0.004778719,0.004316087,0.012436694,-0.00333994,0.007851964,0.0016745558,0.0026323542,0.00042277822,0.0062476136,0.009344981,0.002926474,0.0060746125,0.0024045294,0.0030799704,0.0011646864,0.0053070565,-0.0039969813,-0.0021523114,0.007071728,0.00725216,0.0070312726,0.005595249,-0.002079383,-0.0052194996,-0.0039680554,0.00028841136,0.009728907,0.0069769244,0.002450351,-0.000040395986,-0.0020364318,-0.0008239854,0.0020745432,0.009270173,0.00932869,0.004860906,0.0073534283,-0.002771307,0.00901365,-0.007380342,0.008525786,0.0051005464,-0.0033261974,0.01236866,0.0046452885,-0.00048306468,-0.0033487882,0.008084329,-0.008468475,-0.00050698634,0.0040636337,0.0016056518,0.011816481,0.0034576277,0.003642577,0.00439875,0.0010150692,-0.00832826,-0.0019925854,-0.0074166805,-0.010922078,0.012042459,0.00514276,-0.007866539,-0.0020623477,0.010115331,0.0010136042,0.007640491,0.0039095953,-0.011221252,0.0011495193,-0.003099556,0.00056063314,0.009127272,0.00960213,0.0060213036,0.0062465547,-0.0041765627,-0.00054624956,-0.0017302568,0.0057703243,0.0068197255,0.005470057,0.006570962,0.0031729164,0.0038101214,0.01979291,0.008000116,0.002943246,0.0078111524,0.012823113,0.010981434,0.004895965,0.010623025,0.002015397,0.012059394,0.0055085616,0.007877209,0.0038556785,0.008869416,-0.0009463953,0.01467535,0.0050804135,-0.011563226,-0.0034251031,-0.0037946824,0.0026072224,0.008417149,0.005818255,0.008925744,0.012329192,0.008564745,-0.0045609786,0.007588751,-0.0031283346,-0.0058638826,0.0043692584,0.0053751986,-0.0023539944,0.011334794,-0.0007547556,-0.0065777837,0.0036046319,-0.008532189,0.0027474866,0.011343585,-0.0057353824,-0.000120696815,0.010821457,-0.0073308717,0.001759683,0.008622998,-0.007350864,0.0003707411,0.0030124618,-0.009550315,0.0051923934,0.00671622,0.002567006,0.007295384,0.015020191,0.0004789102,-0.008027883,0.0135446545,-0.00835642,0.0044978755,-0.00018569222,-0.003914423,0.00070687657,0.005930831,0.00052813627,-0.01006748,0.010330778,-0.0069957483,-0.009476801,0.0020465741,-0.00059075956,-0.00712017,-0.0031363838,0.002269269,0.00070961757,-0.0057151383,-0.00498281,0.0005172043,-0.005863321,-0.0047925035,0.003302612,-0.0038215097,-0.0063262233,0.0037615285,0.0019424144,0.0052370266,0.0027016883,0.010328484,-0.00037507218,-0.0018406679,0.0064841947,-0.0008323443,-0.012196571,-0.005658948,-0.0056398017,-0.0072748614,-0.001580718,-0.0065715825,0.00090458,-0.009720207,-0.01555267,-0.007973459,-0.008290828,-0.003850779,-0.0026503927,0.0066161184,0.00512224,0.003877067,-0.0037388592,-0.006597265,0.007031532,0.005816491,0.009008289,-0.009189774,0.0029780336,0.004826307,0.008909024,0.012646326,0.009225841,0.0060190833,0.0023316685,0.010723156,-0.0071176286,0.0036219524,-0.0028825642,0.00590811,-0.00068345334,-0.0011330309,0.005456387,0.006189864,0.0018606827,-0.0031962385,-0.0031085005,-0.0031769313,-0.0035102593,0.00072466966,-0.004220492,-0.0015150133,0.0025876174,0.008301873,-0.009130293,-0.0011508527,-0.00192647,-0.0011801586,0.0052347286,-0.00067129225,-0.0025201142,-0.0065291016,0.005691473,0.00795593,-0.0070554027,-0.0063060513,0.0071184314,-0.009339606,-0.007977899,-0.0039025687,-0.0048184874,-0.0124041205,0.00013272712,0.004676445,-0.012761111,-0.0023789725,0.0049970765,-0.004334258,-0.0022123836,-0.0036875186,-0.009673306,0.013831434,0.005861435,0.0029195652,-0.002693123,0.009060088,-0.002337884,0.008384861,-0.0039330763,-0.0070130317,-0.0064198896,0.002657957,-0.005258403,-0.008409518,-0.008222033,0.0003584175,-0.008858668,0.0006681137,-0.0013646169,-0.0051461095,0.0077457614,0.006694958,-0.005975646,0.0034437734,-0.004056085,-0.0037684222,0.013683771,-0.00305615,0.0068549947,0.010023844,-0.0016007886,-0.0032431034,0.009724455,0.0034800551,-0.0055341045,0.011568847,-0.0013329881,-0.008724072,0.0068393685,0.0018276802,-0.0033931385,0.010089318,0.005554534,-0.008922097,0.008617556,0.004373097,0.0046237437,0.007855956,-0.0042042257,-0.0038344956,0.0068312115,0.0083815865,-0.007405609,0.0020744132,0.0135615375,0.0023320436,0.009542422,-0.0015555758,-0.008631905,0.006220484,0.0005460886,-0.0023897644,0.007203419,-0.009719279,0.007822624,0.011138349,-0.008848669,0.0058916253,0.007874733,0.0047307885,0.0024623997,-0.0032507821,0.0026483606,-0.007851134,-0.0030206225,-0.004139645,0.0008880213,0.005683098,-0.002680272,0.0054506534,0.0079134805,-0.0010045684,-0.0015651588,0.0021740787,-0.0018974391,0.010160095,0.011240739,-0.008656822,-0.004260152,-0.0067618187,-0.0018527788,-0.0031195413,-0.0022682296,0.0009884585,-0.008502,0.0050585456,-0.0013836687,0.0020187872,-0.0018855011,0.0031529702,-0.012101942,0.0044034226,-0.0049376893,-0.0016374527,0.011783358,0.009123663,0.00083251053,0.0046120174,0.0013977321,-0.009726909,-0.0037880284,-0.0051857694,-0.006346542,0.007768418,-0.007229152,-0.0074567217,-0.006535256,-0.01169769,0.0016097167,0.0091026565,-0.014123952,-0.009735616,0.007191553,-0.00956159,-0.00149041,0.005304085,-0.015115662,-0.008526985,-0.007681132,0.0050080647,-0.007444871,0.008160911,-0.0016037656,-0.008654,0.004280134,-0.0022972878,0.0016028035,0.006971506,0.0024850932,-0.01069681,-0.004119394,-0.005118872,-0.0004700778,0.01208693,0.0070882277,0.0029676412,0.001338071,0.0062627806,0.0071941083,0.007258109,-0.00029869148,0.00073602056,0.0018814534,-0.00021595827,-0.007300241,0.006300202,0.0054828287,-0.0056859637,0.011500558,0.008823723,-0.0091166375,-0.0025118708,0.010342372,0.0031819146,0.009032177,0.007882786,-0.0013829706,0.0047504837,-0.00210777,0.0055531603,-0.005571271,-0.0027484084,-0.0031363617,0.0082994895,0.002277985,0.010551496,0.0061137094,-0.0059306663,-0.0025150334,0.009577374,-0.00709391,-0.0047764084,0.0027629668,-0.00067325623,-0.0046592574,-0.004121099,-0.0154566085,-0.0017787081,0.0023636064,-0.011034151,-0.004320952,-0.0014889651,0.0013514436,-0.0018376851,0.00090617256,0.003074792,0.0042860494,0.00891595,0.010512453,0.008181917,0.0038192892,0.008082438,-0.0055329264,0.0033386154,-0.0028175125,-0.0014610913,0.00014607541,-0.0064880336,-0.0040243226,0.013597211,-0.0023788055,-0.0041840244,0.005990535,-0.0018096359,-0.0038727305,0.0023015696,0.004525852,0.0091038225,0.002291997,0.0005497458,0.009765172,0.011164092,0.005964692,0.0041801715,0.008590636,0.007824675,-0.007318043,0.009541118,0.005379747,-0.0014372912,-0.0004149448,0.0039837034,0.0044770357,0.0077198176,-0.002268173,-0.006038136,-0.0018871994,0.001673916,-0.011778492,-0.006136961,-0.0034696106,-0.0030492693,0.0013015904,0.007864998,-0.006534875,0.012401189,0.0051847086,0.0044554533,0.0005977186,-0.0012955861,-0.0063069044,0.00889341,0.0006815329,0.00940928,-0.0017221922,0.008339692,0.00029140737,0.0018380589,0.0044258838,-0.006971872,0.014989785,-0.0014311579,0.000051996438,0.005355698,-0.0072695063,-0.00007905333,0.00085460546,-0.0008998825,0.0069957664,0.001977647,-0.007860668,-0.005699196,0.012288922,-0.0024982658,0.005601017,0.010359273,0.00682524,0.006111165,0.010488079,-0.009166262,-0.011383814,-0.003271687,-0.0071381223,0.0010304162,0.007008216,-0.009254404,-0.009536906,-0.00062237994,0.0014817487,-0.013968855,0.007033288,-0.005083863,-0.00089169934,-0.0006536457,0.0025361585,0.0017255595,0.00011522901,0.0052358788,0.0029775503,-0.0026200884,0.009962403,-0.0037055232,0.00435543,0.004627817,-0.0023510957,0.011829955,-0.007567643,-0.0036762732,0.0026725188,0.00038515177,-0.00053420936,0.003884556,0.00090586016,-0.0030963873,0.0068121473,-0.012301677,0.005075873,0.0029296726,-0.0058173244,0.0031394507,0.008079529,-0.0054633436,0.0051939306,0.013772298,0.0075914115,0.0059979754,-0.00083011144,0.0030490372,0.009224034,0.005334368,0.010879446,-0.0055359686,-0.0014169494,-0.0010704381,-0.003274399,0.009805495,0.010491956,0.0008487768,0.00087650114,0.0024354844,0.0014886785,0.0013211936,-0.00037420416,-0.007288284,-0.0046907444,-0.001014602,-0.0049744886,0.0072643426,0.0014551849,0.0011260225,-0.0011682579,-0.004273685,-0.010432243,-0.0050600166,0.005003612,0.004025086,0.00968043,0.0076434184,-0.010389253,-0.0034469436,0.0024754598,0.0036034568,0.0012432167,-0.005270872,0.008072618,-0.00048341005,0.004376016,-0.00070469617,0.000545061,-0.005954627,0.0050478284,0.008343539,-0.0066637425,0.010242097,0.0002627195,-0.0058122263,-0.002824094,-0.008132083,-0.00049290084,-0.00013872453,0.0026890552,-0.013666773,-0.0039627715,-0.0067079007,-0.0070918943,-0.0056190775,-0.0047610714,0.0010001241,0.0095491065,-0.0006856134,0.0045036227,0.0071791927,-0.002975794,-0.00067967566,0.0008665078,-0.004397522,-0.0013638517,0.0073538264,-0.00048521344,0.0017251589,0.0051083686,0.0038550952,0.0033073248,0.006732133,0.012125835,-0.0009700326,-0.0013665064,0.001150458,0.0046459846,-0.0062567787,0.0077435263,-0.0015074336,0.011418458,0.016421512,0.011042947,-0.0021407763,0.011408718,0.000643949,-0.0018285683,0.01228521,0.0069391937,-0.008597048,0.004743795,0.011170316,-0.0030066129,0.0036128329,-0.0033311758,-0.009080811,0.010457793,0.0024968204,-0.008678643,0.009399691,-0.0072006015,-0.010007176,0.0059250784,-0.0044160364,0.004627967,0.008781774,-0.0064779576,0.0015966332,0.006736292,-0.0055453647,0.00890068,0.000025074796,-0.0027457932,-0.0051781437,0.014128807,-0.007847724,0.0036904276,0.007359341,-0.0024983562,0.007813356,-0.0011476866,0.0032175158,0.0110251475,0.01312001,-0.0039096605,0.009946325,0.008008071,0.0039143837,0.003995515,0.008990841,-0.0011143031,-0.000127265,0.010000023,-0.008755584,0.008258724,-0.0018573013,-0.0009096182,0.009746824,0.00033182863,0.0017201271,-0.00938551,0.0050821374,-0.007636762,-0.0024806447,0.0036085644,0.0042951386,-0.009694737,0.0013798357,-0.0072386377,-0.00049861503,-0.007435328,0.0022849743,-0.014646168,-0.004104824,0.004534886,0.0019314849,0.000009824834,0.0061126626,-0.0008986862,-0.0016600285,-0.0013684713,0.00458634,0.01064664,-0.0022676215,0.010956898,0.008623817,0.005328175,-0.004616885,0.000659201,-0.004045336,0.0016973804,0.0010568674,-0.0056704856,0.007829587,0.008787243,-0.004383685,-0.01083593,0.0060853413,-0.0021210748,-0.006542619,0.01195636,0.005886032,0.0053503118,0.011051272,0.012778716,0.006990502,0.011651596,0.015078327,0.0027001342,0.0014672892,0.0061075334,-0.008633001,0.008409887,0.011391456,-0.0058723697,0.004505893,0.012622925,0.0023646897,0.01586205,0.012948829,0.00945226,-0.0016283809,-0.0007271613,-0.0046435203,0.000444474,0.0018492027,0.0031427483,0.00080403226,-0.0068099927,-0.009067957,-0.008123061,0.008131254,-0.0056067165,0.0074108425,-0.006663675,-0.0066131507,0.003026674,0.010212534,-0.0096277315,-0.0005014167,-0.0076991585,-0.0011765031,-0.0024737222,-0.000051769664,0.0045443582,0.0026394376,0.00255909,0.0035685413,0.0021827356,-0.009917331,0.014586324,-0.003945574,-0.0110529885,0.008059213,0.006490725,-0.014781267,-0.00024495946,-0.0037073991,-0.010095479,0.002366237,0.010210081,0.0011585404,0.0061381347,0.0049022054,-0.0031570906,-0.0055958703,0.0077323457,-0.0011055298,0.0013689509,0.0043685427,0.0054681944,0.008304694,0.00776308,-0.0077291015,0.002343988,0.0028001033,-0.0145453485,0.009457351,-0.0027102386,-0.004358673,0.0083300555,0.009659033,0.010697672,0.0036190746,0.0048185373,0.0074858116,-0.0014578819,-0.00762087,0.0062578595,0.0064188833,0.0049685407,0.007627708,0.009450267,0.008567423,0.000028535414,0.0037642543,0.01429684,0.015887743,0.008304825,0.010267424,0.0104978895,0.0014608165,-0.0021912667,0.0066071823,-0.00009964326,-0.0020438882,0.009192344,-0.0048374822,-0.003062886,-0.0023447121,0.005412153,0.0074344715,0.0035227654,-0.0052098227,0.0024757257,0.0016045542,0.006980167,-0.0027297,-0.00206849,0.006541989,0.00089481805,0.007150675,-0.000930588,0.011094701,0.007871984,0.006327887,0.0024818704,0.0078039025,-0.008805376,0.009824236,-0.003249573,-0.0051796217,-0.00086231827,0.0072034216,-0.0022928992,0.01173596,-0.00035705676,0.005726768,-0.0024293044,0.008996997,-0.001145057,0.007914077,-0.009307426,-0.008594786,-0.000023092853,-0.0028942688,-0.0019990404,0.003523216,-0.002347224,0.00049091096,-0.001133791,-0.0036176706,-0.006092438,0.0108103,0.007764883,0.0042479252,0.008472868,0.0035541719,-0.010984749,0.0061004465,-0.006042172,-0.00088236196,-0.0066847755,-0.009988823,-0.0035646786,0.0049405536,-0.007991906,0.0018195736,-0.0015873237,0.0046270494,-0.0040688138,0.0050098244,0.0021585736,-0.004451443,0.001774817,0.008740561,-0.005808696,0.0013206843,-0.00042879625,0.005140523,0.001320476,-0.0061201495,0.004027914,0.0012548709,0.0038610254,-0.008519682,0.010920172,-0.0054171328,-0.0005776429,0.011675912,-0.00347004,0.0017911602,-0.0014412979,0.007836669,0.009141149,0.006118528,0.0010566392,0.0020273102,0.008780187,0.010762722,0.0035740864,-0.0007495269,0.011107953,-0.00097121997,0.0056408984,0.0017221925,-0.0016419906,-0.0036971658,0.008841937,0.0032087597,-0.0021426838,0.012491772,-0.005841587,0.0010105137,0.013917021,-0.005721784,0.0036454017,-0.004808274,-0.012761068,0.008412789,0.0054594264,-0.0018173059,-0.002068295,0.004465232,-0.00028518905,0.010994238,0.0075285523,-0.0105040865,-0.0028636735,0.012106125,-0.0010773911,0.0030051407,-0.00036672986,-0.0034451322,-0.004464015,0.009185657,0.0038186845,0.0004817209,-0.0029774958,-0.00056825485,0.0040104548,0.0033875785,0.009809427,0.002267921,-0.00052477577,-0.0057172435,-0.0018572843,-0.007450459,0.0061196783,-0.004664273,-0.014610961,0.00999565,-0.0039877067,0.002755202,0.009779331,0.010628568,0.004264356,-0.0032685453,0.0052132737,-0.0018275362,0.002404389,0.0023497508,-0.010944179,0.0043258606,0.0014977934,0.0030463336,-0.006288394,-0.0026541427,0.0011099228,-0.003465172,0.0022051078,-0.0006314225,0.002042173,0.013740794,-0.0036150445,-0.0044273017,-0.002876273,-0.00008599367,-0.0052805324,-0.0091688605,-0.0040609827,-0.0033509512,0.0063986336,0.0052638357,0.0030299078,-0.0059461407,-0.002711924,0.006403138,0.003612755,0.008554202,0.0040779095,0.0038418607,0.0034804242,0.001952698,0.007351728,0.010815053,-0.011530504,0.00092918606,0.0025673357,0.0046821046,0.0041879774,0.0021135136,0.0068218284,0.0103382245,-0.008837585,-0.0039448002,0.0047440003,-0.0027892834,-0.006032615,-0.0016553964,0.0067990967,0.0043221884,0.013191577,-0.001193933,0.0037219217,0.0044890437,0.0011838746,-0.0012513035,0.010515516,-0.006069765,-0.0021953117,0.015335762,0.007015226,0.0037561883,0.0031230035,0.0022801533,0.001614905,0.0026132888,0.001169866,0.003640477,0.0082464395,-0.0032492233,0.00003066223,0.012164088,-0.009499019,-0.0050135693,-0.0063288077,0.00087615673,-0.009866326,-0.0012760625,0.004706098,0.006085698,-0.0039332663,0.0046429085,0.0030929951,-0.0054961783,-0.007825135,-0.0029215931,-0.0073615657,0.007054364,0.003341915,0.007231811,0.007212155,-0.009271094,0.0020749834,-0.0007399898,-0.009819072,0.0040182136,-0.0020064237,-0.007512601,0.008845527,-0.0017051706,0.005388957,0.013709088,0.011012148,-0.0028697548,0.006666388,0.0038115557,0.005206494,0.005156167,0.0004031077,-0.010580149,-0.0012824466,0.0034608329,-0.010056063,0.01231318,0.002127852,-0.009389843,0.0024386197,-0.0022636524,-0.010924909,-0.0028513384,0.00039066275,0.0035827004,-0.0039511276,-0.0049885428,-0.0056989132,-0.003401762,-0.00016791424,0.007506889,0.016726116,-0.0009866568,0.006976013,-0.0008965942,0.008610088,-0.0043646996,0.009613086,0.0073725674,-0.00339041,-0.0013686455,0.006915239,-0.009113148,0.0068961265,0.0037839594,-0.0052678706,0.009329866,-0.0017506653,-0.011218454,-0.005994459,0.002242775,-0.0045349747,-0.0036918963,-0.001260573,-0.006919831,0.0010099403,0.0076755183,-0.0061456985,0.014858444,0.0026879872,0.007430302,-0.002097955,-0.00028023403,-0.0041952003,0.0008256206,0.0001359622,0.0002848646,0.0097279195,0.004107737,0.0053936536,0.010675473,0.0011572981,-0.004997279,-0.006861015,-0.010066453,0.009160027,0.0029865727,-0.00971288,0.008140551,-0.0053812717,-0.011547217,-0.0040920414,0.00037772546,-0.014084826,0.011661814,0.0007520424,0.0016559944,0.010214319,0.010173722,0.0059983325,-0.0046746265,0.010476903,-0.00019597136,-0.006915802,-0.0006431292,0.001081136,0.0030714609,0.0036733337,0.000041643536,0.008449135,0.0053051496,0.00094200595,0.0024459905,0.009103128,-0.0039789146,-0.007890864,-0.00028491294,0.007202068,0.00016830297,-0.0043610227,-0.001547322,-0.007392169,-0.0030636268,0.0041210353,-0.007437414,-0.008101761,-0.0033090909,-0.004111225,-0.0066825883,-0.0021486657,0.0006494382,0.0023638527,0.00910654,-0.009558429,0.0062938095,0.010964681,-0.004319195,0.0019239692,-0.0017265116,-0.012036959,0.0025555682,0.006021597,-0.0035433979,0.0048497627,-0.0065463735,-0.001132808,0.0014313501,0.002668713,0.0025769277,0.006469348,0.0069854963,0.010731546,0.015541908,0.0009032374,0.0013203957,0.0009594034,0.011941702,0.0075334157,0.0049847127,-0.004813613,-0.008037366,0.010546852,0.00637813,0.01021605,0.011889022,0.0061314534,0.005967834,0.006965393,-0.0064683156,-0.008128901,-0.0031644073,0.0017004388,-0.0015100858,0.006169208,0.00028292128,0.0074672555,0.0023082222,-0.0061862883,-0.0038996649,0.004403946,0.004441959,0.004443934,0.009552721,-0.00035870017,-0.0027362376,0.008770138,-0.007815981,-0.00026652258,0.0035502268,0.0013688472,-0.010448965,0.0029203177,0.006557336,-0.0026739065,-0.006356918,-0.00343951,-0.011826336,-0.00054931,0.0054134117,-0.0045606643,0.003645438,0.0071086143,-0.005264634,0.0031947396,0.013827574,0.0014829035,0.009538939,-0.0023757983,-0.004278292,-0.0021146603,0.0041841096,0.00030126557,0.0015307267,-0.0075603933,0.0006501135,-0.0007638137,0.0015198942,-0.008690322,0.012727574,0.004560788,-0.0006916769,-0.0009202307,0.010439682,-0.007364221,0.0037599134,0.0059369057,-0.005725654,0.0052374257,-0.0041342746,-0.0025700596,-0.001527202,0.0011088795,-0.0008901342,0.0027748777,-0.0007111492,-0.0008884761,0.005793661,0.011110413,0.0062312232,0.006864662,-0.001721096,-0.003997388,0.010626134,-0.0025242693,-0.0038957528,0.0005061642,0.002947464,0.005629089,0.013052663,-0.0013980895,0.001203897,-0.0016415578,0.006818549,-0.010648612,-0.0040071975,-0.0033899,-0.008338304,-0.006097738,-0.0042532156,-0.00415587,0.00369191,0.009766022,-0.0047595208,0.0029355953,0.009304756,0.0039629615,0.010743744,0.0019631647,-0.0023457268,0.011225544,0.013537496,0.0052080667,0.008653128,0.009424884,0.0066297655,0.007767942,-0.008882738,-0.0015023003,0.0040624696,0.003663494,-0.0017940057,0.0055296556,-0.015368728,0.0023734716,0.004373756,-0.0037219035,0.0072193374,0.0077142655,0.0064023444,-0.0034437198,0.008443758,-0.0021904518,0.007343879,-0.0013384324,-0.004443669,-0.0057514464,-0.008190793,-0.0034961337,0.001553729,0.0067776553,-0.011061237,0.0013699294,-0.000736068,-0.014637457,-0.007921016,0.009403016,0.0024118477,-0.0051838295,0.0024088984,0.0048902826,-0.011010208,-0.0018021911,-0.012219647,-0.0028135602,-0.010047555,-0.008739747,-0.0021963583,0.008897334,-0.0024396302,-0.0046561826,-0.006706206,-0.0010321335,-0.006811831,-0.008277016,0.009359882,-0.0052600116,0.0075310646,-0.00039050996,-0.013435165,0.0044964016,0.00415565,-0.012554704,0.006635045,0.004886556,0.0064740637,0.004566581,-0.005987889,0.0012630617,0.0068381573,-0.0055832826,-0.000019597472,0.0080877645,0.0023267225,0.009471187,0.0071448185,-0.0038430344,0.0040249294,0.009874989,-0.008431213,-0.0029931208,0.00003688373,-0.009003842,-0.010417437,-0.00014174718,-0.0023837476,-0.00030934517,0.008865676,-0.0004301297,0.0056958655,-0.0033111284,-0.007373797,0.0067374404,0.0069125695,-0.000013111944,-0.007628198,-0.0030585828,-0.0014206883,-0.000087089094,0.0030026524,0.0034547413,-0.013948513,0.005672008,0.0019513179,-0.000039636772,0.002023845,-0.012135639,-0.0023600073,0.0042351135,-0.006281949,-0.0049920585,0.008852265,0.0027525497,-0.009028952,-0.005709418,-0.0016185283,-0.01007367,-0.0042363494,-0.0014784198,-0.008620759,0.010127902,-0.0032999045,0.0046408856,0.010600032,0.006084653,-0.00016070869,0.0071229073,0.0078058,-0.007912569,0.002810739,0.0013239136,0.005958269,0.00038700842,0.009658642,0.0033837159,-0.0056912694,0.008233321,0.0032036714,-0.0062200064,0.004217066,-0.003831479,-0.0022748807,0.0026754225,-0.0055340976,0.0007180114,0.010494594,-0.002700341,0.006428418,0.012172515,-0.0087616015,0.0072195954,0.0016833525,-0.0027319593,0.0049854033,-0.0065866453,0.0026437335,-0.005256913,-0.0069949515,-0.00390983,-0.00060488563,-0.0040952275,-0.0114802085,0.004502061,0.010497261,0.00054711325,0.005468077,0.010150041,0.0055128825,0.008945459,0.0022687188,0.0064176046,0.0021973106,0.0025006537,0.0064347046,0.002534203,0.0061048237,0.00090587017,-0.00544987,-0.005217632,-0.008484115,-0.008643371,-0.00034465926,0.0013741315,-0.007089427,-0.003736442,-0.0027385368,-0.00095623534,0.0093160765,0.010027296,0.00038628117,0.0009195045,0.0045411144,0.010811042,0.012009224,0.009534222,-0.0043990295,0.0014067665,0.0017324708,-0.0023503865,0.0029881971,-0.0051452867,-0.0048851157,-0.0035440712,-0.0050771656,-0.004176444,0.0030155675,0.002050232,0.0044653243,-0.009027578,0.0041550286,0.006019203,0.006417887,0.0091713695,0.004473199,0.0020761702,0.004905289,0.0068688844,-0.0073312614,-0.007875149,-0.006302924,0.0020215714,-0.005559728,0.0063505755,-0.0023590308,-0.014021744,-0.006311093,-0.008256648,-0.0060825762,-0.006016237,0.005016858,0.000276201,-0.0074365726,-0.012300928,-0.016764557,0.0048596263,0.0014601487,-0.013192591,-0.009137608,-0.0036198138,-0.012992302,-0.008515843,-0.008584609,-0.005724885,0.002137818,0.0037849962,-0.006029892,0.006441304,0.0037438278,-0.0019855602,0.001977634,-0.008150967,-0.0108442055,-0.008492316,-0.0055590295,-0.012823427,0.0068008783,0.0010372666,-0.00034835725,0.0072410163,0.0021622074,-0.0063108876,0.010298714,0.0072588734,-0.00791316,0.0068432502,-0.0055465787,-0.0048173442,0.009435935,0.0040199743,0.002250206,-0.003121939,0.006975721,-0.0049850754,0.0040699933,-0.002035035,-0.008442652,-0.0065540397,-0.0058518886,-0.0037656242,-0.0024375906,0.0028795216,0.0014252717,0.0066608544,0.00030840895,0.0060960776,0.011926127,-0.009173806,-0.0010164236,0.006492242,0.0012484003,-0.008980885,0.0071226214,-0.012566814,-0.00058220146,0.0014994823,-0.008860407,0.00030172287,0.0018972124,-0.0035670006,-0.009515509,0.0026629053,-0.0033999968,-0.001022779,0.006558883,0.007653815,0.0029190576,0.0063014673,-0.0064951424,0.0036851298,0.0002880964,-0.002256377,-0.007200895,-0.0025718987,-0.0022352089,-0.000630496,0.00787163,-0.0049695065,0.004553041,0.001400665,0.00538494,0.007427183,0.0010957541,0.008345829,-0.0057884688,0.012801184,0.007507035,0.0059017236,0.0061525987,-0.0022597737,-0.006505489,0.01207091,0.0071573034,-0.0046370565,0.00499477,-0.0029768392,-0.0060985894,0.0016740836,0.0035728852,0.0024853125,0.010039974,0.01030226,0.008469185,0.012381679,0.0074470104,0.0000625986,0.0027008106,0.001182433,-0.00085669506,0.0072944807,0.006268484,-0.0063525042,0.0019722937,0.007138227,-0.011275923,0.0056456737,0.0056166183,0.0076374845,-0.0016453239,-0.0033481654,-0.008336946,-0.0035873738,0.0073734093,-0.007208312,0.009708093,0.006654351,-0.0029074517,-0.00080952933,0.0042811316,-0.0075505273,-0.003478989,0.0023307747,-0.0015552795,-0.002420772,0.0022813291,-0.0020506221,-0.006458145,0.00356517,-0.004687966,-0.0035370886,0.0076935836,0.005569033,0.0029423356,0.011121214,-0.0014007475,-0.0043393644,-0.002080638,0.0024233065,-0.004242295,0.010178695,-0.0013202104,0.0011515359,0.0023774158,0.0070022023,0.01177182,-0.006111083,0.0029486907,-0.006527821,-0.008580398,-0.01082289,0.0037384348,-0.010341966,0.00091132696,-0.004971214,-0.0061708456,0.002244781,0.006185777,-0.012816987,0.0043883934,-0.010537783,0.0018522579,-0.0071278755,0.0008646478,-0.0074473,0.0038314313,-0.007378981,0.0009595697,-0.0042028707,-0.0032434738,-0.011012071,-0.008407872,-0.0076777786,-0.0050581843,-0.0037294093,0.0022135403,0.0023334415,-0.0015501698,0.0031083724,-0.008134067,-0.016032768,-0.008300439,-0.0062268404,-0.0064135045,-0.00012224964,0.0011323497,-0.014245334,-0.010086174,0.0026222588,-0.0064924215,0.0032115066,0.008613158,-0.0031744333,0.0064550033,0.011038462,-0.00036614074,-0.0053143944,-0.005131351,-0.0064639426,-0.0017099768,0.007476182,0.005530162,0.008998786,0.0035678681,0.00097146624,0.004169236,0.0033725803,-0.008439725,0.008570516,0.0063277287,0.006701552,0.0029333038,0.0068356474,0.0024183483,0.012841955,0.005196681,0.008270993,0.008562855,0.00055993575,0.0005913066,0.004316183,0.00007539723,0.012278035,0.006771634,-0.0013332394,-0.0042261565,0.010097478,-0.0041776337,-0.0022420771,0.013175084,-0.002216453,0.0006385536,0.006317098,-0.0072908024,-0.007667835,0.011150995,0.0006157036,-0.0040914956,-0.0045584654,-0.014909623,-0.007402067,0.0008596463,-0.003826902,0.00033995774,-0.003144297,-0.009817502,-0.011965632,-0.0009657853,0.0042787185,-0.00840963,-0.0051960954,-0.0034192444,0.0057150275,-0.0021383,-0.0026364157,0.007059862,-0.0008606803,0.002400221,-0.0023578545,0.01219556,-0.005398538,0.0035657014,-0.0004445951,0.013250914,0.0018941535,0.005399433,0.00020595224,0.0058760466,0.0011835911,-0.0029969052,0.0030989272,0.007082839,-0.007021473,0.007738009,0.008377007,0.0023731904,0.005287306,0.012012703,0.0069592297,-0.00048770578,-0.001635942,0.00035113763,-0.0013123532,0.010231386,0.01528605,0.0066186194,0.0013111142,0.010737353,-0.0018056167,0.006921123,0.00740404,0.007910731,0.010757757,0.011494774,0.004737694,0.0071402816,0.00348749,-0.010570827,-0.0009279175,0.0022136958,-0.008063024,0.0068903556,0.0037426788,0.0046575777,0.0056800395,0.006550148,-0.005328096,0.009231324,0.0019888333,0.0025280868,-0.005906956,0.009438567,0.006095016,-0.0038622185,0.0007003012,0.001447005,-0.008524018,0.004179098,-0.0022355104,-0.004568356,-0.005822729,-0.0030614033,0.004081946,0.0014841534,-0.0042561423,0.0040708752,-0.006203276,-0.0031965198,0.0120906625,-0.00025499891,0.0002133034,0.012819804,-0.005780064,-0.0023542093,0.013025942,-0.0013603925,-0.001502298,0.015113541,0.0050882353,0.0015108732,0.008522571,0.002281345,-0.0069378326,-0.00674922,-0.014067751,0.0007336334,0.0043284507,-0.009512559,-0.003278181,0.0036637287,0.0047327015,0.0013559363,0.0070580076,0.005318578,0.0088993665,0.00072607695,0.00007546251,0.0063827825,0.009274691,-0.011197766,-0.0014183779,-0.0025364705,-0.0062533696,-0.00042376402,-0.0039187702,0.0020828994,-0.0069138464,-0.0025711397,-0.0035672071,-0.015901824,0.0014073671,-0.0028046302,-0.0059065735,-0.012344224,0.0037739102,-0.016424796,-0.003046315,0.0017561225,-0.015395646,-0.0057866643,-0.004133896,-0.012745394,-0.0063107926,-0.0068803746,0.0043020537,0.0034964366,0.0025791922,-0.0026626217,0.008117092,0.005508322,0.0009720598,0.0017447075,-0.002516492,-0.0070385924,0.0057048327,-0.0005512999,-0.0016002211,0.0072084405,0.00934371,0.008045279,-0.0029282605,0.003773615,0.0058278465,0.00847222,-0.0028610001,0.0063760625,0.014739019,-0.00081719446,0.0028283228,-0.002334572,-0.0030281486,-0.0015520825,0.005567808,0.005559332,0.002654696,0.004985718,0.0015779835,0.007162714,-0.0013202174,-0.008229326,-0.00475665,0.014413368,-0.0018270597,-0.002184127,0.0022170248,-0.00035630589,0.0074689714,0.012584468,-0.0056168335,-0.003356477,0.0048439014,-0.011785211,-0.0055360985,0.010718463,-0.001410484,0.0044756616,0.012943747,0.002657996,-0.0064269174,-0.0065442673,0.006276615,0.008738317,-0.003463233,0.0050551724,-0.0059652054,0.0068000993,-0.008679334,0.004315394,0.010380743,0.003329736,-0.00551806,0.005176755,-0.003951889,-0.0042088693,0.008914602,0.0105563365,0.0071915085,-0.00041505916,0.006351143,-0.00630041,0.010053644,-0.0020546054,-0.0066842837,0.0040580267,-0.009547914,-0.0018275507,-0.0019121355,0.008566832,-0.005093989,-0.0021760834,0.007848007,0.00049066276,0.01365729,0.0037389065,-0.0019693999,0.0020532787,0.012458474,0.012159194,0.010134181,0.014377131,-0.0071925777,0.007815654,0.012135182,0.0003140252,0.008388676,0.0069506136,0.0023757159,0.00955587,0.0062791794,-0.006735599,0.0012529588,-0.0073803808,-0.011085911,0.0004138664,0.0016116808,0.0020237402,-0.0014581084,-0.0039328034,0.0042351843,0.0038294136,0.0073165544,-0.008063704,-0.0020257288,0.005337532,-0.0016277845,0.0033596118,0.00021889787,-0.007936648,-0.002459378,-0.0035155506,-0.0104174735,-0.0032423015,-0.0042188177,0.000723573,-0.002184447,-0.010145736,0.0017329738,-0.0021256262,0.000068238965,-0.00033111262,-0.009498755,0.0024123322,0.0055061113,0.003172621,0.0064665163,0.01219564,0.004979959,0.010129398,-0.000628827,0.015439806,0.01109984,0.004726603,-0.002094069,0.00568602,0.0040873727,0.0041987607,0.0023968732,0.0034205634,0.0077279913,-0.0026587562,-0.0030386196,0.0067738392,-0.0034660022,0.0032918577,0.011163227,-0.0060943067,-0.0063981046,0.0012852508,-0.0020148398,0.0036619788,-0.0012587252,0.006408243,0.0032574353,-0.00082026393,0.00011869827,0.0033345888,-0.0005988182,0.0073461053,-0.0068288804,0.004918225,-0.0016800745,0.00024273578,-0.0046367208,0.0015763744,-0.01041779,-0.001243559,0.0005661094,-0.0059864246,0.005799073,0.00034932033,-0.001847306,-0.0046868147,-0.007911771,-0.010249585,0.0018158928,0.0035842578,-0.006897558,-0.0011958482,0.00055014883,0.003607139,0.0068311607,0.00367292,0.0046732523,0.013383337,0.010117616,0.008928194,-0.0021370389,0.008462929,0.0047256625,0.00049788755,0.009769794,0.0013421508,0.0071541225,0.0005165924,-0.002134705,0.015335748,0.0054007685,-0.0055808662,0.0023477725,0.0062458506,0.006164136,0.0046619033,0.002028866,-0.0017029926,0.0061323354,-0.0050655063,0.0126337325,0.005694767,-0.0031246815,0.0013321594,0.010491386,-0.0008005135,-0.00079923973,0.0061619077,0.003538445,-0.0025805996,0.0052860947,-0.0016524051,-0.0008579667,0.008829087,0.0065851104,0.009651176,0.012240831,0.006212644,-0.001129836,0.0024423813,0.0026594754,-0.0023968713,0.009084037,-0.00076616905,-0.0027511688,-0.0025525314,-0.0046813777,0.0050761024,-0.005504365,-0.011441005,-0.011789517,0.0008112131,0.0012858605,-0.007873753,0.0013264843,0.0031514529,-0.008229765,-0.0018627668,-0.004522646,-0.012127461,0.0036988964,-0.003474581,0.001219178,0.0097982185,-0.007079032,-0.0041761063,0.001065927,-0.0074177715,-0.0070757475,0.0024033466,-0.006975633,-0.004269297,0.007932991,-0.007772323,-0.0030163396,-0.0012179532,-0.0046651806,-0.006208743,-0.0028509544,-0.0047069127,-0.00089812966,0.009954838,-0.0012082915,0.0031861232,0.012266526,-0.0006027463,-0.0060390327,0.001396005,-0.0031723685,0.006921059,0.0116663175,0.0057643973,-0.005477509,-0.0010633878,0.001084864,-0.0107586505,0.004889439,-0.005888135,-0.013942304,-0.004926411,0.0024445967,-0.0006364491,0.004960322,-0.010046164,-0.0060666427,0.005702453,-0.0026959446,-0.0030030392,0.010303836,0.002595256,-0.007237101,0.003190311,-0.0075696935,-0.012406861,0.0049138367,0.0024001317,-0.0023440314,0.005626197,-0.0064941505,-0.01089284,0.0013154006,0.003688922,-0.012924655,0.0011339389,0.002234068,-0.0036985294,-0.0035070577,-0.0012149223,-0.00051212264,-0.0047329115,0.0018075474,-0.0014481308,0.0071332697,-0.008439,-0.0011660638,0.01199134,-0.006358324,0.006867985,-0.0038043326,0.0036925087,0.00021308287,-0.009416683,-0.008168861,-0.0033877788,0.011039821,0.0013892334,0.0044866563,0.0050854785,0.004456222,0.007242281,0.008441575,-0.008347724,0.0041029784,-0.0011058743,-0.006408123,0.0015132552,0.010270781,0.0004803294,-0.0043793162,0.013776613,0.0018249318,-0.0012809372,0.010472027,0.0064839395,-0.0028806415,-0.006687438,-0.0029037592,-0.00078104687,-0.0014023186,0.0036431858,0.0018232064,-0.004295378,-0.0035452389,-0.0137522295,-0.007689784,-0.0018507541,-0.01302973,0.0032620246,0.0023013277,-0.010099931,0.00394231,0.0034836587,-0.0076501737,0.007540415,0.0012142658,-0.0015803179,0.0031591295,0.0036975797,-0.0017806769,-0.0032733032,0.012371297,-0.0011975521,0.0074921097,-0.00042762962,-0.007937573,0.013048844,0.0053719454,0.010706265,0.0118189985,-0.0023342266,-0.0025828695,0.0041025775,-0.0034866065,0.0048634787,0.0022895806,-0.0006237087,0.0013489989,-0.00045850733,0.00038053087,-0.0010095474,0.0018517599,0.0003732757,-0.008164127,0.014398391,0.0020645163,0.0077695684,0.006426243,-0.011728577,0.0062691746,0.0008068265,-0.005333236,-0.007988258,0.0008883987,-0.010079209,-0.007237953,0.00436506,-0.0021467686,-0.0035365673,0.01206654,-0.0065590516,-0.0012914061,0.0040220423,-0.012817961,-0.0030303774,-0.0005544834,0.0011510346,-0.000087005785,-0.00090172316,