{"b2":{"v":1,"dim":[7,1],"data":[0.040911157,0.0046743033,0.005367826,-0.00012472995,-0.008084028,0.0384301,-0.003877656]},"W3":{"v":1,"dim":[5,7],"data":[0.370627,0.30256897,-0.44370317,0.36242387,-0.07595563,-0.033561725,0.1761584,0.74288493,0.29102919,0.2088941,0.43145287,-0.21489732,-0.6041446,0.2171684,-0.27146307,-0.47094864,0.33189124,-0.4034465,0.36684233,-0.2906336,0.11700826,0.03916637,-0.5619693,-0.46157053,0.18347019,-0.16181654,1.0917052,-0.39151898,0.055217676,-0.07793787,-0.32396972,-0.3799341,-0.09264329,-0.26159057,-0.33144414]},"b3":{"v":1,"dim":[5,1],"data":[-0.008620132,0.07795913,-0.0018922618,0.09213951,0.0016980751]},"b4":{"v":1,"dim":[1,1],"data":[0.059458956]},"b1":{"v":1,"dim":[20,1],"data":[0.010737159,-0.001453308,0.0020028846,0.009297323,0.009518075,-0.0005111223,0.017911216,0.0015234634,0.003906874,0.0051047243,0.0012338775,0.002521444,0.0010291265,0.000015828826,-0.00079074193,0.0031841202,0.0001455661,0.0027566797,0.004026475,0.006552832]},"W1":{"v":1,"dim":[20,12288],"data":[-0.0016602322,0.0063339635,0.004450406,0.0033138222,0.021766359,0.01895898,-0.0021596074,0.02654391,0.0028761309,-0.00848083,0.013765505,-0.0049758065,-0.0009530584,0.0088858,0.0020137653,-0.005711583,0.009052146,0.0068548783,-0.006432198,0.016639149,0.013765869,-0.0028288432,0.0013770676,0.0020791881,-0.00471232,0.006661547,0.013067799,-0.010419588,0.005257351,0.00807612,-0.0097492,0.017219352,0.003694625,-0.0107141305,0.00515832,0.013905967,-0.0035198969,0.008089323,0.006420799,0.0017328258,0.02523011,0.0109633915,0.00017714921,0.004791882,0.0013678629,0.0067857923,0.011171332,0.0095734075,0.0059423908,0.019342365,0.0028263966,0.0031168559,0.008050469,0.0169788,0.00020296719,0.007640432,0.008936438,0.0052001984,0.0153732775,0.019531878,-0.0064847996,0.019979313,-0.0002350936,-0.0070249,-0.002408391,0.007561346,-0.010945976,-0.0035094602,0.0040440066,-0.0071573453,-0.00028591265,0.0008999826,-0.01326673,0.0064312047,-0.0056615295,0.0075292,0.0154220285,0.0036610872,0.008349812,0.010937417,0.007990939,-0.0011952224,0.022963043,0.015619617,0.010181209,0.01219207,0.0124053,-0.004435111,0.017123012,-0.0050249468,0.01032622,0.021855565,0.020292575,0.013349246,0.014492399,0.019423544,0.01247777,0.018441884,0.010365737,0.003226659,0.008818658,0.0044661453,0.002177918,0.012319218,0.0066965385,0.0042328807,0.01735231,0.005772144,0.0076754224,0.019731516,0.010197359,0.017898038,0.0152075,0.017764613,0.016932867,0.013853998,0.006648308,-0.0032031725,0.009168866,-0.0019985915,0.006709147,0.016391428,0.0015788327,-0.012118278,-0.0063586435,-0.0141583765,-0.014557945,-0.009374892,-0.021103969,-0.015705545,-0.0000712757,-0.009040984,-0.017193964,-0.013464101,-0.019363081,-0.009543938,-0.008798764,-0.009321371,-0.0115036685,0.000027505064,-0.013401742,-0.015033087,-0.010922244,-0.009994587,-0.0033466837,-0.005134348,-0.012806742,-0.0018433904,0.005250974,0.001899439,-0.0042664916,0.0037857415,-0.0012814018,-0.003928649,0.019754296,0.00011719852,-0.008239617,-0.001775575,0.004921053,-0.0068124016,-0.0006921537,0.0064682732,-0.011594314,-0.0043225973,-0.008442642,-0.021790072,-0.003219095,-0.005961422,-0.00069333776,0.0025944025,0.0059699137,-0.010366978,-0.00002885038,-0.008493961,-0.010241854,-0.00265202,0.003879744,-0.008271421,-0.005030935,-0.017248709,-0.017004075,-0.015613692,-0.018787168,-0.017133642,-0.014789413,-0.02249619,-0.019999236,-0.007960094,-0.011409289,-0.008305984,-0.008630011,-0.006295061,0.0001990622,0.010497407,0.014172478,0.0019645058,0.0129765235,0.009628864,-0.0113273235,0.012966873,-0.0065815216,-0.01470024,0.007977807,-0.0071333325,-0.012849948,0.0029576235,0.0044694105,-0.0032973625,0.0029238018,0.0057236743,-0.005844973,-0.00004586498,0.0034345316,-0.019511662,0.000017183762,-0.010425782,-0.007235764,0.0066671004,-0.0009598992,0.00007470816,0.01741761,0.008910916,-0.00915922,0.016236797,0.015372592,0.0007674854,0.010868672,0.015845431,-0.0054277075,0.020787008,0.0065448233,-0.0031443594,-0.00064355973,0.003524654,-0.00049750874,0.0051540523,-0.002366018,0.00057971757,0.01613563,-0.0028079583,-0.0042671585,0.014719742,0.0020086989,0.008738067,0.017784832,0.010489443,0.009810449,0.0128818825,0.01027148,0.0008205896,0.0006298446,0.008720586,-0.0035052972,0.0066701574,0.0142045,0.0067035477,0.011135211,-0.004489581,-0.0010414469,0.002939313,0.005751144,-0.012619234,-0.0036918095,-0.0048914882,-0.013935839,0.0073744636,0.0006304558,-0.0030439247,0.0066872016,-0.0017881074,0.0015674229,0.01659684,-0.0070670852,0.0060297023,0.019355511,-0.0037433428,-0.0043184096,0.007304816,0.0037614182,-0.0045891707,0.007957012,-0.0010907586,-0.0074571543,0.01347891,0.010085221,0.0052265017,0.01205653,0.0026415817,0.011327006,0.0033306298,0.0009584631,0.011742055,0.005986023,-0.0005632925,0.0006882768,0.0072130444,-0.0062814713,0.0069145015,0.013589686,-0.004452999,0.011594768,0.011187482,-0.0031705394,0.007500794,0.025330476,0.01641006,0.009712878,0.01775973,0.009801678,0.0055432133,0.003859809,-0.0072968914,0.010341258,-0.0013233376,-0.0063790437,-0.0036536937,-0.005343633,-0.0063645537,-0.0016815284,0.009699692,-0.012892164,-0.012070332,-0.008759565,-0.012741791,-0.013678149,-0.0071325647,-0.021919865,-0.008429426,-0.0060838046,-0.0062799663,-0.01466687,-0.00045734245,-0.0040856036,-0.008035139,-0.0081208935,-0.0032216706,-0.010192297,0.0030468863,-0.0091418605,-0.008847895,0.012934257,-0.0043612467,-0.010035706,0.0031118426,-0.000054017786,0.0010988433,0.009709534,0.015217645,-0.010791651,0.00012937482,0.0069867414,-0.016378528,-0.006962884,0.0039088884,-0.017502572,-0.007116124,-0.002622348,-0.012465319,0.0046084095,-0.010150605,-0.0007339799,0.008137908,0.00712876,-0.0109788645,0.008439953,-0.0051381565,-0.020616047,-0.008334924,-0.007316457,-0.014638749,0.0097792335,0.0021096442,-0.0069063427,-0.0007796652,-0.017435713,-0.014801357,-0.012055195,-0.022785824,-0.008526723,-0.005434005,-0.008045983,-0.008538014,-0.0037028028,-0.005714355,-0.0034211944,0.012694406,0.011880678,-0.004124484,0.008687274,0.0024128202,0.00075964484,-0.0022473813,-0.0061496045,-0.004533147,-0.0049616867,-0.013025116,-0.017638527,-0.004859261,-0.017591216,-0.0040279427,0.009368446,-0.014250663,-0.0069158915,0.0012243163,-0.007028978,-0.009600345,-0.009073937,-0.013330836,-0.015036347,0.0034260177,-0.012746357,-0.011047721,0.0043711932,0.004951319,-0.008517414,0.007995959,0.0056593386,0.0033536516,0.0041714828,0.0024682467,-0.003340539,0.010011157,0.003733571,-0.008053678,0.012522725,-0.0010141364,-0.0147738755,0.013244392,0.0028842562,-0.00015431977,0.0065783765,0.010339076,-0.011069936,0.007368126,0.011492095,-0.011639415,0.018690236,0.014780941,-0.012810372,0.012274744,-0.0005706655,-0.013263603,0.009228422,-0.00076543965,-0.0025624584,0.0060931128,0.00012935649,-0.001943181,0.00062464195,0.0038126118,-0.0035568937,0.0028592565,-0.0067109545,-0.014002756,0.0001984094,-0.0009517569,-0.018443175,0.0057827565,-0.011735052,-0.00068609643,0.004768556,-0.0013970557,0.0039686738,0.01244843,-0.004607507,-0.0026808777,0.004957594,-0.0017343615,0.0017320917,0.017575761,0.007196114,-0.009615879,0.010879191,0.00605033,0.0044795107,-0.001287513,0.0023075265,-0.007289529,-0.000054393506,0.0044143614,-0.010861735,0.0041589024,0.009342897,0.0038052937,0.01428725,0.014110039,-0.002177696,0.010507155,0.0024451958,0.0081859,0.007364142,-0.005931007,0.012292779,0.009637989,-0.005086711,-0.0032405898,0.0051544853,0.0019273569,0.00078759296,0.010099692,0.0030998639,0.013072019,0.01665543,0.0023007626,-0.0016266557,0.011040489,-0.00075500086,-0.0033433875,0.0048537366,-0.010612019,0.008457326,0.00016436464,-0.0036249706,-0.01023303,-0.0042993305,-0.008264707,-0.0099890465,-0.009501248,-0.0032660773,-0.012051943,-0.0011692732,-0.017778713,-0.022354713,-0.012234015,-0.0062250206,-0.006603497,-0.0075086444,-0.007684603,-0.005428722,0.009119364,0.0062899417,-0.0010101356,0.0080514075,0.01128134,-0.0017250719,0.014427502,0.007152739,0.0031977333,0.013014744,0.021174178,0.004087879,-0.0006778744,0.003327986,-0.017241156,0.0022101246,0.007121109,-0.0120005645,0.000052799485,-0.007109529,-0.0007701485,-0.00434502,0.0019604426,-0.01241184,0.012226347,0.0006684594,-0.0049943323,0.005708982,0.008173016,-0.015252549,0.0006201238,0.008996405,-0.0048254873,0.0053144554,-0.00988456,-0.011807773,-0.0054259463,-0.008464589,-0.013350683,0.0067453906,-0.0077551412,-0.020798182,-0.0008859666,-0.0125799915,-0.01524278,0.004151634,-0.0076981946,-0.01704303,0.0065928777,0.005439471,0.0069742557,0.006997376,0.007871763,-0.0012660599,0.018520128,0.013242449,-0.0059774886,0.013717068,0.0011426797,-0.002759592,0.011939258,0.0042447783,-0.008765251,-0.004501555,-0.0032243524,-0.00917217,-0.0037328743,-0.014978825,-0.014252581,-0.0009892752,-0.004091147,-0.012905983,-0.002005489,-0.0059811114,-0.01077614,-0.005223273,0.0018293173,-0.007466364,0.012726325,0.011782185,0.009982922,0.012883845,0.019582588,0.0067328745,0.022886815,0.0069432943,-0.0053555607,0.017325658,0.015503639,-0.01172886,0.0019540777,0.007739182,-0.0040919525,0.013123255,0.012612428,0.0029116035,0.009063687,0.013368739,-0.011555301,0.0039939983,0.015959553,-0.0061136857,0.0049062297,0.005301529,0.0030461422,-0.0012144356,-0.0060022413,0.00013517999,0.020417133,0.004429134,-0.0007225497,0.0050485907,0.0044889953,-0.010727041,0.004770997,0.002361012,-0.011283854,-0.0064890906,-0.011870572,-0.01836063,-0.017033033,-0.023553297,-0.007335758,-0.0006170759,-0.01639264,-0.0010112546,0.0067964327,-0.009338394,-0.0043627797,0.007260778,-0.0056657395,-0.0017193696,0.00093794905,-0.0008505252,-0.0014716419,-0.0004572823,0.0042808778,-0.0032691834,0.0060163504,0.001154455,0.0026467883,-0.00054276333,0.0017639243,-0.001469588,0.0011581321,0.012125741,0.011467691,0.014449577,0.010095832,0.0013836796,0.0096955085,0.018564641,-0.0009306681,0.014554499,0.000745507,0.00856146,0.004318291,0.00587939,0.0132454755,0.0053865016,0.0051401444,0.00911931,-0.0018270491,0.0006362466,0.0044780257,0.011244078,-0.0015112482,-0.0053865127,0.009536055,0.0016162406,0.0024857118,0.003350894,-0.009850868,0.0028512569,0.0043447013,-0.007877808,0.009026184,0.0027347002,0.007026766,0.001690533,0.013914623,0.0077373437,-0.0011414624,-0.005294196,-0.007979046,-0.00039144672,0.0005503642,0.00023598975,-0.007631184,0.010050907,0.0027387808,-0.004649,0.0097730225,0.008457114,-0.0034100455,0.018953938,0.0028270418,0.003908944,0.020676257,0.020337373,0.016550077,0.020590559,0.0159417,0.00035065773,0.010317357,0.010910245,-0.011961313,-0.0033640144,0.0065811556,-0.011744664,0.0059636747,-0.0027083769,-0.00468457,0.008225449,0.007844533,-0.013773465,0.0023417396,0.002942257,0.0003539302,0.004160134,0.014678842,-0.008746928,0.0017144791,0.0006958479,-0.009248066,0.013131156,-0.0014247689,-0.0071538393,0.0046619168,-0.0016443016,-0.010737755,-0.00071235414,-0.020851454,-0.002075477,-0.0017746565,-0.0011389708,0.00066780177,0.007547643,-0.013818753,-0.012464735,0.016130561,0.0051175333,0.0051699188,0.025539799,0.007870592,0.0042526717,0.022184595,0.00902074,0.0026229722,0.007136536,0.005107707,-0.008006095,0.006261653,0.009965078,-0.0029679048,0.0049245884,0.008665504,-0.007827119,-0.00291471,-0.006333904,-0.00893496,0.00056303263,-0.011699442,-0.012534088,-0.010913324,-0.010194403,-0.009243104,-0.0014213056,0.007906939,-0.0077795996,0.012903721,0.0035754805,0.012430606,0.019500272,0.009415978,0.012858178,0.027642643,0.0072865835,-0.0065884558,0.011668453,0.0025579282,0.0029301096,0.012123111,0.01013462,0.00013103473,0.006453787,0.012544899,-0.0036882237,0.01142358,0.0040658535,-0.007976538,0.0038248221,-0.006869464,-0.017936943,-0.00079571205,-0.004291942,-0.0012129545,-0.0020030912,0.0017805117,0.0023285858,0.007346741,0.012235117,0.0010757138,0.00206136,0.011109081,-0.017974842,0.005955791,-0.016861277,-0.015612231,-0.016581127,-0.011088153,-0.011073195,-0.0022659502,-0.019274406,-0.011702098,0.00030126702,-0.0014476732,-0.004017547,-0.010911698,-0.0034431515,-0.010277443,-0.008933542,0.00037064392,-0.0043179286,0.0015702472,-0.000556692,0.0025245037,0.013161273,-0.0050197323,0.0033404948,0.009392684,0.012616436,-0.0034518957,0.012180196,-0.0000611697,-0.006733688,0.01371657,0.010132515,-0.0042065415,0.013153031,0.0053438717,0.003120877,0.014070657,0.014776975,0.00262524,0.008545352,0.0028744885,0.0043125073,0.014352178,0.0050932397,0.00013945297,0.003673623,0.002690392,0.012746186,-0.0005672509,0.0039640996,-0.00083515956,0.013166856,0.0056890924,0.005781061,-0.0026826565,0.0028027773,-0.010702039,0.0068570958,-0.0099255275,0.0061802086,-0.0022108776,0.0046823416,-0.004342727,0.013394288,0.0027528754,0.008495557,0.0099510765,0.0020439208,-0.008373615,-0.0032911536,-0.0009694043,0.0011612591,0.010839905,0.005151277,-0.014011816,0.011154859,-0.009715503,0.0026574917,0.019320516,0.007051859,0.0018049139,0.010191225,0.012355772,0.0060468013,0.020351442,0.018584881,0.0026520956,0.012447431,0.021662956,0.005956527,0.024055358,0.02010676,0.0017377486,0.007191647,0.0006242121,-0.0108777005,0.0034141697,0.014124111,0.00022907883,-0.0036207405,0.008348458,-0.010445928,0.0043724263,0.006745854,-0.014481302,0.009472829,0.0054412135,-0.0058530783,0.010097779,0.000013991582,-0.013959308,0.0034672925,-0.0055326037,-0.016633056,0.00031823834,-0.008783493,-0.013545381,-0.0019412796,-0.01009161,-0.0117696775,-0.003384826,-0.0012648061,-0.002383804,0.009486552,-0.015881673,0.00045590068,0.0075287446,-0.0008820248,0.0072172172,0.0136322975,0.01609517,-0.009411631,0.01663391,0.00010429369,-0.0053274003,0.019359574,0.0076278867,-0.00763763,0.0050957836,0.012053673,-0.010475838,0.00547355,-0.004447449,-0.004771242,0.013971462,-0.008000782,-0.014637326,0.003857275,-0.00061770994,-0.006499486,0.001626968,0.0015566875,0.005519833,0.0036880954,0.013520024,-0.0046933005,0.0075966204,0.006485086,-0.0023517818,0.024700724,0.012355624,-0.0025329269,0.025740001,0.010781219,-0.0037581525,0.021953011,0.011253444,-0.0045790267,0.011069378,0.008010877,0.0006154627,0.014664421,0.007738888,-0.010939028,0.008198198,0.00074857177,-0.01961514,0.00969098,-0.010031665,-0.0214138,-0.0013160052,-0.00460538,-0.020762946,-0.000049617025,0.0095308,-0.012857229,0.0101661645,-0.0012100156,-0.0028622514,0.010593365,0.008266122,-0.018843807,-0.00410236,-0.004651902,-0.0125862,-0.008780671,-0.025329666,-0.020959139,-0.0054196254,-0.011289959,-0.011369209,0.0060511255,-0.0020347955,0.00025415246,-0.0038561083,-0.0005800611,-0.007804047,-0.0020623014,0.0024210308,-0.0051903664,0.00028472836,-0.008651771,0.0038005097,-0.00044867565,0.007345377,-0.0023320615,0.008866302,0.010205616,-0.009773885,0.0015628,0.008935868,-0.010864123,-0.0012780117,0.006200341,-0.008080293,0.008993312,0.007895835,-0.0061072563,0.0011885497,-0.0000052047476,-0.003309899,-0.005941479,-0.0042038923,0.0087083,0.008303109,-0.00672659,-0.0015372571,0.0077439905,0.0025395618,0.005189698,-0.0021625827,-0.00294393,-0.0007636306,0.014025338,0.003358711,-0.0042354227,0.00884355,0.0007464517,-0.0002948244,0.0028373327,0.000016963653,0.00072349736,0.00694859,0.0071932483,-0.00095512526,0.012907726,0.006507164,0.0064023472,0.018734373,0.010924231,-0.0039602234,0.0038683827,0.0011126016,-0.012739816,0.014028004,0.00044968096,-0.0066720927,0.01281312,0.007463938,0.005346428,0.020870239,0.0061451476,-0.0032955492,0.019224085,0.01082611,0.010057489,0.016727,0.014596936,0.0026300428,0.0039326283,0.005023586,-0.00392537,0.0052222004,0.0061848625,-0.0052151284,0.016625565,0.013423012,-0.010046142,0.0063058767,0.007349025,-0.014214491,0.005921084,0.0034848487,-0.0064399033,0.012672987,0.005793459,-0.006113524,0.0034878307,0.00064298575,-0.015412604,-0.0027890075,-0.005787918,-0.013158123,0.00072202657,0.0004793755,-0.009140695,0.0034747089,-0.005506738,-0.021569531,-0.00097475504,-0.021941556,-0.010748458,0.0027512761,-0.008632942,-0.014398752,-0.006299637,-0.009566612,-0.013803304,0.0013161078,0.002259565,-0.0053748903,0.004012062,0.014848792,-0.0043114973,0.019079834,0.00054125726,-0.0053676483,0.002957405,0.005368682,-0.005450109,0.008589217,-0.005256661,-0.0073841107,0.014631994,-0.006010594,0.0010582884,0.004526333,-0.0051421113,-0.015683716,-0.007213282,-0.0012126929,-0.012603548,-0.0064146183,-0.0077515803,0.004336446,0.010999979,-0.0028815528,-0.00052559434,0.0043427306,0.009419434,0.011298035,0.024920495,0.0097266575,0.010241492,0.019964816,0.020012038,-0.004374485,0.022097541,0.0139580695,0.009873875,0.012051743,0.012179344,-0.0065408,0.013062341,0.015732044,-0.0075200982,0.011034389,0.0033362883,-0.008250492,0.0017391973,0.006906612,-0.014236037,0.0080020325,-0.0022069863,-0.0067795725,0.0008462581,0.01181321,-0.013220381,0.0125596,0.0030873185,-0.000934313,0.010958117,0.00075281644,-0.014205592,0.0063454164,-0.006965149,-0.0008123054,-0.011981155,-0.0051433393,-0.006511185,-0.0010140651,-0.015084345,-0.00049274135,-0.007119982,-0.008437165,-0.0020760994,-0.008365088,-0.008088162,0.00649406,-0.0012395125,0.0048778835,0.0034959896,-0.00063185557,0.010185834,0.0045078956,0.009259817,0.01940759,0.003098626,0.0094225835,0.016454613,0.0038674665,0.0020573388,0.009723399,-0.0086932555,-0.00024365634,-0.005024888,-0.012315326,0.005237542,0.0055899634,-0.012550673,0.0026011728,-0.010511693,-0.005184513,0.002226141,-0.0100205345,0.0045175557,0.0034370131,-0.00841816,-0.0033788453,-0.0019172446,-0.005931155,-0.013563147,-0.00083611417,-0.021275949,-0.005652605,0.0016008328,-0.009912313,-0.0033043958,-0.0065161237,-0.015680186,0.008785954,0.0052144616,-0.010716024,0.0018604742,0.0073971148,-0.0080192825,-0.0070799775,0.011892014,-0.00026918444,-0.00925192,0.012651908,-0.0012159112,0.0032531936,0.0026421736,0.006423718,-0.011590204,-0.0001024007,0.015860936,0.00094100763,0.013134042,0.02172013,0.0118564125,0.009428512,0.0037207264,-0.0013211195,0.006626482,0.0070503033,0.005228915,0.021976316,0.018114038,0.00096401403,-0.0006911866,0.0009422304,0.008221833,0.009216455,0.008410862,-0.005988073,0.0035463623,0.015035519,-0.0038012993,0.0029480848,0.003495871,-0.0014455977,0.0068378164,-0.0009033033,-0.012186725,0.0076107965,0.0007712381,-0.0056334995,-0.004839535,0.008509494,-0.0057930383,-0.0059559722,-0.0051312894,-0.010039906,0.005145526,-0.00275845,-0.0015568172,0.00032586226,0.0020520587,-0.007160053,-0.004789733,-0.0050282734,-0.007447474,0.0030118735,-0.0013961805,-0.007992782,0.000032343007,-0.012462842,-0.006824118,0.011029003,-0.0060404567,-0.002308099,0.017725484,0.011660791,0.0024307596,0.0102018565,0.01261008,-0.007866549,-0.00081623474,0.0064806915,-0.02144262,-0.0073579536,-0.010539962,-0.005542634,0.008318774,-0.007921485,-0.007485486,0.0031665924,0.003211827,-0.0117683485,-0.0021527733,0.0010616549,-0.013023946,0.0043719653,0.005032478,-0.009679786,0.006495663,0.007003636,-0.0048881527,-0.0014200272,-0.0015489087,0.0015315576,0.015369644,-0.0014439329,-0.0016274531,0.019615745,-0.00090434164,-0.0076966034,0.006606109,0.006159899,-0.0091234045,0.007980611,0.0051616533,-0.011336101,-0.007167585,-0.0046759695,-0.0063578524,0.0039187223,0.007896047,-0.007956332,0.011660522,0.010173172,-0.018932868,-0.00040083178,-0.000547576,-0.0074133724,0.005849183,0.004557563,-0.0068094884,0.002361173,0.0033612978,-0.004497906,0.00010512423,0.0033236083,-0.004619914,0.0044328,-0.002940995,-0.007376392,0.007960935,-0.0016582048,-0.008841727,-0.00913194,0.0027309414,-0.009407936,0.0017167758,-0.0016403648,0.0042418386,-0.000007976696,0.00012529478,0.0020062937,0.007434681,0.0022157833,0.008670737,0.016179467,0.019244174,0.009726668,0.0017753085,0.007093398,0.00703178,0.003487628,0.010937951,-0.0018533157,0.0027525448,0.0030670906,-0.015264851,0.0011896932,-0.0016960807,-0.00731378,-0.0017285227,-0.0053652716,-0.015856637,0.010949741,0.004929723,-0.0014238891,-0.00367098,-0.014451622,-0.0030353644,0.003244161,-0.009431079,-0.0035762743,0.0052650427,-0.0016602576,-0.004752342,-0.009422393,-0.008661378,-0.0033940158,-0.011465925,-0.019948335,-0.013668931,0.0004740101,-0.009546535,-0.00061287073,-0.010278859,-0.009189236,0.0029771256,-0.0069371844,-0.013247602,-0.0014626915,0.0019572622,-0.0033924857,-0.013359849,0.00579341,0.0032676824,-0.00004726519,0.010455515,-0.0053928057,-0.004556512,0.011470385,0.01179129,0.0021700107,0.011281903,0.011104822,0.009711403,0.019841814,0.009590331,0.004277943,0.008632796,0.014464495,0.0117935585,0.0151684815,0.015204838,0.0029320165,0.0073329047,0.006506249,0.0065166615,0.009129855,0.003707208,0.0047984184,0.014115664,0.020977553,0.00016806042,0.0010555512,0.0127286,-0.0071934313,0.0059210844,-0.001504382,-0.015802402,0.004799254,0.0071791317,-0.0034469697,-0.005191931,0.008609687,-0.0008543196,0.011403089,0.007844021,-0.0051543457,0.006256945,0.011036674,-0.0013928299,0.007496336,0.006424082,0.0013646389,-0.0006896701,-0.012824602,-0.007831865,-0.00013609859,-0.0048904433,-0.00202801,0.009396668,-0.0070545627,-0.007219796,-0.0013902195,-0.0068621035,0.008044034,0.015079403,0.012333164,-0.006978793,0.006743866,-0.0035069739,0.00030563146,0.012633453,-0.014878555,-0.016580882,0.009025884,-0.015165715,-0.0043702507,0.0072283973,-0.0025060961,-0.018049827,0.0057149,-0.00019234656,-0.009251129,-0.0021337445,-0.006187258,-0.019412894,0.00048467895,0.008379436,-0.021271784,0.0029510064,-0.0075451946,-0.020400705,-0.0017723273,0.003705219,-0.008760395,-0.0004324998,-0.008668285,-0.01294467,-0.0021493488,-0.0032522143,-0.024216978,-0.007365449,-0.015867531,-0.023010334,-0.005776267,-0.01771675,-0.028683824,-0.0025579887,-0.0143489195,-0.026296353,0.005944492,-0.0053722914,-0.022011388,0.009077609,0.0003521556,-0.0063305977,-0.008417538,-0.006249465,-0.014767316,0.0060109003,0.0015132455,-0.016886309,0.0030962992,-0.0006199079,0.0007096035,-0.0023344182,0.009401891,0.007373378,0.01236921,0.010876977,-0.0003043386,0.0051082415,-0.003797448,-0.0071947007,-0.003630921,-0.003189144,-0.007855589,0.009733515,0.008107025,0.0031327582,0.014916207,-0.0006136174,0.003391853,0.010411614,0.01798557,0.0037000168,0.0070202174,0.013656533,-0.0011953969,0.006446902,0.02070796,-0.009796916,0.0043249256,0.006354959,-0.0010447699,-0.009181507,0.009781035,-0.013820685,-0.014119097,-0.008445202,-0.0052296864,-0.00075246504,0.0016065144,-0.0021209198,0.010540372,0.005362568,0.004017578,0.011849166,0.005121603,0.007286525,0.002579317,0.00459219,0.01173133,0.0017326453,0.0011943659,0.00429418,-0.008697752,0.0022759596,-0.0037499897,0.000016263177,-0.014344007,-0.0062061115,-0.0064243977,-0.014639645,0.0040253694,-0.003688191,-0.014231864,-0.001638577,-0.0038030092,-0.0006578345,0.0029366694,0.0060088527,-0.0010877927,-0.008582835,-0.002500481,-0.011153049,-0.0086050695,-0.007942388,-0.0037904514,-0.0056762174,0.0059361462,0.0068851304,0.0034532796,0.0057439557,0.007502657,0.007647585,0.0048132804,0.014458633,-0.0013275703,0.009417583,0.018489627,-0.0056608645,0.0094646355,0.01830598,-0.005394777,-0.0018402797,0.004547039,-0.008251881,0.014985868,-0.0054908856,0.01221936,0.009184601,0.0086499555,0.003801566,0.007906523,0.01869819,-0.0008650551,0.014757403,0.0054080845,-0.0042354763,0.014323486,0.011240427,-0.014178642,-0.007899466,0.0077029276,-0.014113504,-0.0039321193,0.00081694283,0.0007165174,0.00835705,-0.004754087,0.006128642,0.003164658,0.0017211029,-0.004381177,0.010079466,0.00301143,-0.008677997,0.007137671,-0.014359131,0.0023397005,0.003353286,-0.0029663674,-0.003904833,0.011139713,-0.012772316,-0.0073207,0.007884387,-0.007790609,-0.0070498087,0.005354858,0.0019205884,0.00629738,0.0028177788,-0.0054487702,-0.008008638,0.015675226,-0.008903742,-0.008305201,0.012003886,-0.009084146,-0.0087218685,0.005138349,0.0043397825,-0.0064329403,0.017337287,0.0044854195,-0.010962385,0.012185249,-0.0012886975,-0.007990495,-0.0066754846,0.007977643,-0.02497982,0.0069540837,-0.0047082333,-0.018524494,-0.002086386,-0.011348084,-0.0040396093,-0.0040063607,-0.0048444504,-0.015234913,0.0059593357,-0.012285654,-0.016063986,-0.008312724,-0.013728591,-0.017304026,-0.006302199,-0.011121437,-0.014495393,0.0034113794,-0.0030668192,-0.018095367,-0.0025186718,-0.0027183502,-0.020693915,-0.00642784,-0.007604059,-0.010554587,-0.00017850056,-0.009006194,-0.013097398,-0.0024942425,-0.0091182925,0.003300775,-0.0037007558,-0.0030105412,0.0029967783,0.010577005,-0.00300241,-0.002003999,-0.0047178757,-0.006470348,0.0031204328,0.0044652633,-0.0039150775,0.0063644317,-0.0045836233,-0.001032368,-0.007984408,-0.0024546655,-0.005796439,-0.014181782,0.005510961,0.000012792797,-0.0058361194,0.0036393907,0.0036735083,-0.006270524,0.004667083,0.006794211,-0.0075041316,-0.009870502,0.0031788312,-0.005649168,-0.011483593,0.0015142102,-0.020273065,-0.0035253922,-0.014127785,-0.011997613,-0.014588451,-0.011593763,0.0065938653,0.0072408104,-0.012475918,-0.0017722066,-0.000255317,-0.0039044628,0.008120053,0.0014461441,0.0050009596,0.0110332705,0.0048207063,-0.006909605,-0.0068813707,-0.010987851,-0.019773232,0.00041169114,-0.012853559,-0.018859932,0.0014122425,0.000040717747,-0.016435126,-0.009863623,-0.0045589004,-0.011340733,0.010522071,0.007909654,0.00007719877,-0.002627212,0.0030139508,-0.008832576,-0.013157565,-0.009190062,-0.0077673444,-0.015469939,-0.008229478,-0.013461907,-0.001400644,-0.00047641445,-0.0036438778,0.008608217,0.006223766,-0.0071318108,0.00024688212,0.014656724,0.014338962,-0.00029911377,0.018084045,0.019219624,0.0023302555,0.017642666,0.0045829355,-0.009540478,0.007556856,0.005551305,-0.0026554787,-0.00034759144,0.0010333733,-0.0010030657,0.015336563,0.014687632,0.0020427315,0.013197739,0.023167169,0.002459301,0.015452016,0.014648395,0.00039074826,0.0028912565,0.017575677,-0.0006050988,0.004787721,0.0048139766,-0.011256996,0.0047150375,0.010690332,-0.00010875071,0.015572931,0.007327109,0.000116428586,0.0078719165,0.008864504,0.006436854,0.0021661038,-0.0037439838,-0.010032003,0.012016035,-0.0038739508,-0.008201703,0.00040586723,0.0029903061,-0.001825208,0.009190717,-0.003336755,0.0019333982,0.012799564,-0.0037712222,0.008978984,0.008246409,-0.0042117275,0.0060963817,0.0062713306,-0.0035834692,0.0018863948,0.00010377821,-0.007126026,-0.0061923144,0.015656555,-0.006437757,0.012885308,0.008813105,0.0020399082,-0.0025383967,0.014912151,0.015671324,-0.012026361,0.007904836,0.013845367,-0.009031746,0.008805875,-0.0022943076,-0.009177775,0.010082316,0.0050620767,-0.015057017,0.0046506817,-0.00094745384,-0.0052194367,0.008003366,0.004092356,0.0014121751,0.011752908,0.010894802,-0.011108494,0.015794089,0.009633403,-0.010365944,0.0075338013,-0.0051812027,0.0026538807,-0.0029934917,0.000022206465,-0.0117516555,-0.004583536,-0.0042092353,0.0004134761,0.005084604,-0.011815983,-0.002225903,0.0035843102,-0.002298746,-0.012423729,-0.01208713,-0.0008660214,-0.009379204,-0.0067890645,-0.009961347,0.0134323295,0.007917467,-0.0009107438,-0.000050976654,-0.001008376,0.013751128,0.008970643,0.00722385,0.01788295,0.009449818,0.007936106,0.014010297,-0.008269906,-0.008983305,0.000106947125,-0.0027220286,-0.00585649,0.001655998,-0.002523955,-0.006533975,-0.0030930773,-0.0068816617,0.005389206,0.014314469,-0.002926786,0.00041146763,0.013945725,-0.003487266,-0.0026763093,-0.0014799827,-0.00475089,0.0006731332,-0.012493287,-0.003694988,-0.0069408915,-0.010451292,-0.00061021093,0.008776242,-0.008079293,-0.0037076399,0.0056900033,-0.017318573,0.008700633,0.00536504,-0.003312436,0.012756649,0.0028893566,-0.010522887,-0.0048649833,0.0022679658,-0.0063400837,-0.0023466235,0.0014230832,-0.011016131,0.011933657,0.0036185465,-0.01642555,0.0018368796,0.008811193,-0.0049774186,0.0011361142,0.0034943724,0.005185582,0.010325126,-0.003077471,-0.004534988,-0.0045653023,-0.004548682,-0.012152975,-0.0042542326,-0.013597368,-0.006048022,-0.0099526625,0.0025967243,0.00014978257,0.00028972616,0.009001502,0.0015799864,0.004592784,-0.0002678271,0.007574124,0.008998429,0.015577614,0.022253795,0.008351242,0.024170823,0.027769852,0.0036342673,0.009122894,0.020487024,-0.008085081,0.0010636996,0.013106431,-0.0034024836,0.011380343,0.012293807,-0.0040669385,0.011832531,0.01817811,-0.0005552407,0.011175298,0.01637108,0.0041410704,0.01576024,0.0040972736,0.0065250294,0.0071855853,0.015593908,-0.0027936122,0.01951548,0.015201069,0.009475471,0.014240275,0.000927245,-0.0022718755,0.0130042285,0.012923507,0.0014012239,0.020534273,-0.007804884,-0.0014975416,0.004865377,-0.0025753647,-0.0071249926,0.003322874,0.003874695,-0.013414597,0.008826809,-0.0032082452,0.003948321,0.013911054,-0.00014843354,-0.0075117075,0.0027199325,-0.0041600503,-0.004053027,0.01660863,-0.0040228423,-0.0052642818,0.015282039,0.0045156367,-0.006544203,0.016391544,0.0034659647,0.002593385,0.011298843,0.017334845,0.0009776485,0.01842075,0.01454779,-0.0069676214,0.004089581,0.007155696,-0.00965724,0.018674167,0.0061081825,-0.011282522,0.014269025,0.010215133,-0.013598692,0.0018427998,0.002335971,-0.006553206,-0.0005122635,0.002109192,-0.0026837736,0.003686966,0.00021923908,0.00062436913,-0.0020109152,-0.010228554,0.00024053804,0.009393301,0.0024568692,-0.0041436623,0.012590141,0.0015248973,-0.009104655,0.008155824,0.016070506,-0.0011177217,-0.0032849398,0.0019698353,-0.0070420746,-0.007882652,0.00089008134,-0.014689412,-0.004735906,0.00043805587,0.0006413277,0.0015882937,-0.0019835252,0.013952069,0.005803049,0.011782742,0.0055028438,0.008499959,0.002703176,0.0068825665,-0.0040045483,-0.0005157945,-0.00020817832,-0.0032405162,0.0032837202,0.00049608166,-0.005148253,0.00130567,-0.018611588,-0.0077768364,-0.010889116,-0.012971468,-0.012268627,-0.005302901,-0.0070557594,0.011543377,0.014277961,0.0040068314,0.0095618535,0.016342651,-0.00081933045,0.0071377875,0.007184561,-0.011023321,-0.011686336,-0.008897495,-0.0035602879,0.0015936001,0.0008682248,-0.008459201,-0.014031963,-0.0005335249,0.0016777151,-0.014108487,-0.016887303,0.003020315,-0.0075714397,-0.008991179,0.010472994,0.0052081184,0.001416549,0.0031246454,0.0046677496,-0.0085358815,-0.0006703039,0.00074358826,-0.01585948,0.006148075,0.015998803,0.006395773,0.013947566,0.011865808,0.005188945,0.017131172,0.0071737664,0.004271479,0.00857198,0.011667197,0.01287173,0.0038687321,0.0031708952,-0.00023606523,0.0027366008,0.0036849247,-0.013382081,-0.002169987,0.0053252075,0.0014460738,0.00056743826,0.015363801,0.00018852373,0.0077143367,0.0025529838,0.022333842,0.011354923,0.016425554,0.024703413,0.0039083534,0.004099937,0.022021927,-0.0077865236,0.008306586,0.0062634554,0.002040315,0.0032156676,0.0043029953,0.0042493697,-0.004199414,0.016010592,-0.000244385,0.011998583,0.017746173,0.0038993978,0.003267875,0.009665024,-0.017046832,-0.0014135335,0.0076712975,-0.008222602,0.0030712108,0.017280197,-0.00012616967,0.0078826295,0.0017020666,0.0083049275,0.027326174,0.01235905,0.0074538416,0.02015636,0.0030881308,-0.0070925537,0.02057153,-0.0015382562,-0.0075881393,0.013578453,0.0039015354,-0.0051567955,0.0047320877,0.0035057876,-0.016495666,0.005024504,-0.013594701,0.002895531,-0.0035465218,0.005075751,-0.0059675314,0.009855161,0.0011608911,0.0011117221,0.00862459,-0.008734761,-0.0042784736,0.012410841,0.006600169,0.001142999,0.013696444,0.010322086,-0.0010519656,0.0043658665,0.0123721855,0.004534199,0.006581566,0.0050490065,-0.014424643,0.0144260535,-0.0029266712,0.0034292154,0.004675325,0.0092737265,0.0028872008,0.016282208,0.013779821,-0.015621307,0.0074470593,-0.0019608315,-0.014890562,0.0045973277,-0.008300445,-0.013540927,-0.0043051057,0.0018050995,-0.0017947794,0.00045195792,0.0021777528,-0.003948945,0.0070380936,-0.0032942863,0.012246427,0.011012102,0.012837665,0.008550525,0.02023579,0.01477537,-0.0033745698,0.0039504054,0.0013656823,-0.0137572335,0.0015087074,-0.010895588,-0.0042067505,-0.000029016897,-0.0057057384,0.0017888518,0.0045865285,0.0037841853,0.0011214992,-0.003562983,0.0066277822,-0.0020095524,0.0021712543,0.009274108,0.0011369109,0.00001843028,0.0065062456,-0.0056065693,-0.012902569,0.006485269,-0.020707378,-0.018488105,-0.008180564,-0.015141182,-0.018219035,-0.013783329,-0.014142324,-0.002783178,-0.00025840805,0.003415531,0.0015324432,0.0025590502,0.0027918962,0.002342222,-0.0038509255,-0.0071890648,0.0022371295,-0.013086792,-0.0006437672,-0.0061116926,-0.022090469,-0.015634825,-0.013853414,-0.01849337,-0.004847362,-0.020984588,-0.025741896,0.0035989392,-0.021613397,-0.023965912,0.001063797,-0.013981166,-0.008069477,0.014145521,-0.0029131146,-0.016409362,0.00016260234,0.0035059773,-0.0030000038,0.006980941,0.0056975116,-0.009888704,0.0158344,0.016923735,-0.007070427,0.0058973087,0.008410881,-0.0025180122,0.012694791,0.009876096,0.011528389,0.01555597,0.018722974,0.01341939,0.015274528,0.006466368,0.011964032,0.0113434205,0.01003308,0.0025065928,0.010818951,0.011898965,0.010964699,0.0132003,0.021674842,0.01237337,0.01368002,0.01327839,0.020076055,0.0045759953,0.010167245,0.0123427035,-0.010173768,0.003341168,0.02908498,-0.0026931793,0.0026408168,0.015214138,-0.0034217008,0.00960595,0.009384893,-0.0015019798,0.00053831097,0.011318082,-0.0080487775,0.015258617,0.026416158,0.0032788212,0.008006338,0.015512016,-0.012601555,0.020233974,0.0032762294,-0.009609662,0.014102046,0.00019679272,-0.018191367,0.0011691919,0.0036132927,-0.002968867,0.0052920603,0.007989567,0.014360322,0.014611968,0.007955142,0.0058438666,0.023514954,0.0075392234,-0.011087539,0.015552026,0.006062781,0.008204175,0.006866188,0.008769346,-0.010067282,0.006731343,-0.009464608,-0.011208062,0.00847153,-0.0035277517,0.002102088,0.008338047,-0.00007513442,0.009273005,0.01623082,-0.00024089002,-0.0001713706,0.011590743,0.00052907364,0.011055982,0.015581544,0.010131971,0.007338894,0.006504264,0.0070457314,-0.009436352,0.015768759,0.009980972,-0.005497361,0.0074581457,-0.0016295244,-0.0068190293,0.017828343,0.008796354,0.00063537335,0.0075663286,0.0077966223,-0.0124110775,-0.009078629,-0.006555869,-0.020595066,-0.013211278,-0.019800035,-0.00020386228,-0.0075882133,-0.01240279,-0.0033878386,-0.001757468,0.011532596,-0.008355582,0.011846936,0.002802537,0.019296661,0.0062419074,0.023616001,0.00091223035,0.015282384,0.007502548,0.007830247,0.008421287,0.007415729,0.009533583,-0.002559359,-0.0024371985,-0.0014055192,-0.0024670723,0.0033468588,-0.012230233,0.00077538943,-0.009359413,-0.0033625911,-0.016350139,-0.014246423,-0.012453497,-0.006741908,-0.0018559876,-0.000612426,-0.008340277,-0.005474871,-0.0016531649,0.002990833,0.0006733602,-0.00023250983,-0.0009258527,0.0022543604,-0.008909538,-0.009107307,-0.014134107,0.0061591887,-0.014746033,-0.0077669392,0.008866044,0.004355621,-0.0036900148,0.007907983,0.0069797393,-0.0070511713,-0.0010145835,-0.0077797337,-0.0006282234,-0.011807224,-0.019980665,-0.0056865215,-0.014598922,-0.013717382,-0.021148246,0.0074291527,-0.012894804,-0.009180059,0.007966742,0.0021258674,-0.0108835315,0.012297876,0.004141826,-0.010335695,-0.004382491,-0.002147312,-0.0030958771,0.0037783142,0.0035098898,-0.0035867312,0.011751252,0.0006828641,0.0015548655,0.00399404,0.0035450296,-0.00064126734,0.013513618,-0.00019632984,0.0021882926,0.017202863,0.0030312412,0.0024239044,0.013452418,0.005016697,0.008784841,0.021902127,0.008848997,0.0020740149,0.0069838124,0.010936134,0.0028105534,0.00038414838,0.0058048293,0.017416298,0.007911599,0.024187079,0.011297353,0.017117122,0.019169495,0.013457045,-0.001638136,0.008434677,0.021319348,0.0039548404,-0.0042500775,0.020748816,-0.0060050306,0.0048188493,0.008421201,-0.007916072,0.001201666,0.008632592,-0.011696402,0.0017973896,0.006749611,0.004502099,0.007525622,0.01941988,-0.011586577,0.010004392,0.014529943,0.0066633597,0.02328886,0.020244483,-0.0034982818,0.010852236,0.0028129914,-0.0033610428,-0.0024527654,0.0021292868,0.0013961846,0.021140791,0.0038797872,0.0018586187,0.017661352,-0.00021484523,-0.0020555046,0.020101635,0.0006768294,-0.007695265,0.013785802,-0.008521697,0.0063296915,0.01602683,0.0003945907,-0.012354518,0.0008499174,-0.0019720441,-0.0056021684,0.012612106,-0.0032466473,0.0031426041,0.003965478,-0.0012231023,-0.011397297,0.0021248057,0.00081037835,-0.0048333327,0.0023420472,-0.006217342,-0.006066104,0.010238288,0.0055348384,-0.007729075,0.013034562,0.016252847,-0.010968012,0.008816205,-0.00022543246,-0.0298366,-0.008610835,-0.005654139,-0.01898357,0.00013302261,0.0020104337,-0.013609169,0.0013803534,-0.008512527,-0.019014891,-0.0037114245,-0.018064916,-0.024211723,-0.011958242,-0.020089637,-0.019666862,-0.012828454,-0.01993835,-0.013193821,0.0034520987,-0.0016818148,-0.01036187,0.010295834,0.003087282,0.005441917,0.0030811636,-0.0007651132,-0.0024010544,0.0027710726,0.0049810284,-0.0028713609,-0.0076157185,0.0065665874,0.0016586377,0.0003641384,0.007470928,-0.008428176,0.004237893,-0.0027512717,-0.007140373,-0.007690948,-0.010289268,-0.02164112,-0.017814796,-0.011912917,-0.013624825,-0.01152886,0.0028732687,0.0038754472,0.004463899,0.00005994199,0.0075740605,-0.0059418455,0.0015339347,0.00011429227,-0.010607701,-0.011835324,-0.001696111,-0.019102413,-0.012228817,-0.0071543106,0.0022944473,-0.01302325,0.008492844,0.006072489,0.015656937,0.010774946,0.010441026,0.007908823,0.0024265773,0.0126226,0.009991662,-0.0015522379,-0.009327378,-0.0052343574,0.007839185,0.0046846527,0.002353833,0.0050391774,-0.006721442,0.0018366028,0.00028195168,-0.00034985863,-0.009219505,0.011067226,-0.006051139,-0.0038316026,0.0071974657,-0.0023262221,0.00021574757,0.009305229,-0.007067012,-0.004397544,0.007841315,0.008693682,-0.009723674,0.016110804,-0.0038639489,0.0004888282,0.015327045,0.0063873366,0.004819312,0.0133816125,0.0029486115,0.0076120645,0.0020783446,-0.0010870752,0.0035918972,0.0017984587,0.003412772,0.0045568347,0.005930309,0.013119708,0.010895746,0.012524031,0.004825748,0.0090523455,0.007426862,0.013704301,0.017030979,0.017523436,0.010828638,0.007703412,0.009331453,0.0023643405,0.025047243,0.00016207091,-0.0062556234,0.0013667254,-0.021885453,-0.0021871135,-0.0016138316,-0.0056435745,-0.008270258,0.0045469874,0.000070255934,-0.003906934,0.009346098,-0.012724417,0.016686503,0.01912177,-0.0074022957,0.02033057,0.014037802,0.006048236,0.0138723515,0.006250741,-0.0015524802,0.009510824,0.0053735734,-0.004217386,0.017657923,-0.0029695597,0.008062519,0.017837709,0.012884089,0.009082811,0.008381256,-0.0021321701,-0.007623731,0.00854298,0.0009309746,-0.01278553,-0.0021905506,-0.008758157,-0.0017366614,0.006070072,-0.0038335195,-0.011359176,0.008028374,-0.003978013,-0.002019626,0.0056989104,-0.010818038,0.0034857716,0.015553885,-0.00535759,-0.011528823,0.012126092,0.0030406541,-0.0030379943,-0.0037534118,-0.018150812,-0.00569482,-0.0043163565,-0.00869701,-0.01305689,0.012125233,-0.0012208222,-0.00826686,0.017352037,0.00011738308,-0.0064991196,-0.0042212056,-0.011180437,-0.0033863187,0.00078748807,-0.011835309,-0.012520941,0.009453746,-0.0013821905,-0.0078393305,-0.0020152596,-0.018928548,-0.009743144,-0.0141408695,-0.010269706,-0.013610085,-0.0033765964,-0.010052192,0.0013109512,-0.010247344,-0.013157987,-0.0016247957,0.0035223726,-0.0020733655,0.0056443703,-0.0063167755,0.00830693,-0.0012253871,-0.01039811,-0.0047466243,-0.0073847724,-0.010547601,-0.00021836675,-0.0022024047,0.0046584695,-0.005438432,0.0015927291,-0.008011828,-0.008056782,-0.007881537,-0.0026240156,-0.010954912,-0.022652693,-0.013927774,-0.01362578,-0.0044827564,-0.01656448,0.0017382265,-0.00800481,-0.0038107366,0.006791383,-0.005169118,-0.012178608,-0.00030618894,0.005790588,-0.0040882174,0.0012953362,-0.00088833366,-0.012256108,-0.0005854447,0.01027786,0.0006124361,0.0007539645,0.013099468,0.0128593715,0.0045983065,0.005026424,0.0060869185,0.009424839,-0.0042747445,0.013083627,0.0131366225,0.0017838039,0.011345749,0.0009926783,0.01282984,0.0018795929,0.0016336188,0.022662405,0.008583848,0.0018376043,0.014366742,0.0019473037,0.0061780047,0.005496363,0.010267562,-0.004655768,0.0048895366,-0.00032883786,-0.014444097,-0.0011922948,-0.010087766,-0.0046589253,0.0035683117,0.0050884862,-0.004857673,0.001783329,-0.0025360237,-0.0011078855,-0.0053237043,0.0039232946,0.007187822,0.012902875,0.01245545,-0.004195757,0.0016303817,-0.001977413,0.0027952767,0.007664578,0.0066996585,0.00013529572,0.011884866,0.003284773,-0.0021774117,0.008897217,0.0042131576,0.008812918,0.010849199,0.011468622,0.0034166267,-0.00668893,0.004082134,-0.0023324683,-0.001992485,0.010125984,0.0061203446,-0.0116986325,0.004905035,0.0105544785,-0.005743763,-0.0073168213,0.0010108157,-0.016056316,-0.014029626,0.008036934,-0.0042337636,-0.005860827,-0.0031651736,-0.014502465,0.012192544,0.0058989557,-0.0108761,0.013719929,0.007762479,0.0054365546,0.01212613,0.011818884,0.0047723204,0.0026947663,0.0115296785,-0.006807559,0.008399222,0.0005639394,0.011933144,0.02551768,0.008987716,0.0059847394,0.018191395,-0.0022490227,-0.00096514047,0.011046519,-0.011395827,-0.017579382,0.0034285528,-0.009773186,-0.013452352,0.014236886,0.0074377717,-0.013603374,0.0053950706,-0.014235272,-0.0021922777,0.005964137,-0.00772059,-0.0137918955,0.011071217,-0.004161756,-0.0167257,-0.006280781,-0.010086502,-0.008716517,0.0022908545,-0.018904742,-0.011749298,0.0065256227,-0.012755594,-0.0024447048,0.014347362,0.006138567,-0.00027547,0.008190484,-0.00084865274,-0.0007388603,0.0023278212,-0.008252785,-0.004753666,0.0045326883,0.00014163676,0.000030982363,0.0067625577,-0.006729528,0.00084707746,-0.0008303519,-0.016768973,-0.010917749,0.004994226,-0.0014348188,-0.0035128123,0.004191996,-0.004984355,-0.0027280988,-0.0014561589,0.0031306697,0.0042426726,0.008272451,-0.004124457,-0.0006247816,0.0074922633,0.0063578077,-0.0010140295,-0.0150470035,0.0012171036,-0.016933832,-0.013072301,-0.016318098,0.0014009256,-0.0037324503,0.0005899511,0.0035610236,-0.0069133365,-0.008599239,-0.014417708,-0.015160922,-0.015895298,-0.011113981,-0.010032176,-0.019314468,0.004552627,-0.004998604,-0.01721176,0.0034070548,-0.0064855996,-0.008287181,-0.007024656,-0.021056313,-0.01581095,0.01237968,-0.008000505,0.0060589043,0.0068157436,-0.010859597,-0.0014752594,0.016408201,-0.0051818625,0.005315862,0.022532389,0.023480538,0.015040678,-0.002953581,-0.00031629534,0.010712038,0.008849704,0.0014562645,0.013623199,-0.0027802533,0.011008461,0.003251702,0.008841231,0.00987654,0.0073292134,0.028902946,0.01603924,0.0015393057,0.02008674,0.004111301,-0.006111717,0.007829814,-0.006518172,-0.00019686075,0.0054915254,0.0035044402,0.00043034344,0.00087979366,-0.014913074,-0.014094249,0.0074283723,-0.0009600162,-0.011463912,-0.0014109671,-0.011358337,0.0028738843,-0.0024911244,0.0028633396,-0.0019031764,-0.0027362022,-0.0031099867,0.009741577,-0.0045183846,-0.012732425,0.0070361407,-0.007982407,-0.001989003,-0.010393364,0.002993011,-0.0030504765,0.00076018804,0.00556084,-0.0074883904,0.0056725033,0.0058762934,-0.0071248924,-0.0016368522,0.0004587495,-0.008748931,-0.00015565482,-0.011154376,0.0048940517,0.0075937416,-0.009430402,-0.0015846923,0.010099597,-0.010470701,-0.0066389623,0.0073895208,-0.0073479824,-0.002998773,0.0004972363,-0.020005254,-0.005422553,-0.0032702123,-0.015264473,-0.001534518,0.009775049,-0.010983059,0.004779983,0.003638353,0.006419241,0.020318588,0.017626293,-0.007214041,0.0077548595,0.009761514,0.0030240216,0.019617353,0.0032975476,0.0051434743,0.012457585,0.0055819373,-0.0016183094,0.017984038,-0.00981573,-0.00909446,0.012592142,-0.007925192,-0.008369944,0.0034543697,0.0030798095,-0.011551244,0.011585077,0.01006857,-0.021281341,-0.014468113,-0.017785652,-0.009095076,0.0019611062,-0.022255214,-0.012311037,0.004568399,0.004137565,-0.006767341,0.009039437,0.0029294507,-0.014148551,0.008856339,-0.00063495286,0.010020372,0.00991288,0.009119122,0.0066502066,0.022215813,0.017956078,0.0005949092,0.021442153,0.017377963,0.011309039,0.016928919,0.010361664,0.006765213,0.009363541,0.0070918766,0.008060182,0.017576788,-0.0004900765,0.0022958494,0.01410313,0.002685548,-0.0009529132,0.012417863,-0.0067538456,0.0074074524,0.011053791,0.009019513,0.012930956,0.017182827,0.013068757,0.007815642,0.016033614,0.016844725,-0.001496122,0.008430408,0.0008235676,-0.0003313741,0.0032621583,-0.0119479615,0.00220668,-0.0069180634,-0.006831144,-0.008922662,-0.016462795,0.0008246052,-0.008411389,-0.0040907753,0.004687511,-0.00083372294,-0.010013444,-0.000112629175,-0.01650933,-0.015787713,-0.017801156,-0.000116940304,-0.0010308919,-0.007458037,-0.0024787865,-0.012424185,-0.019148352,0.0049504414,-0.013775294,-0.016857728,0.00609918,-0.002323805,0.007929561,0.015915899,-0.0010751283,0.004093817,0.015194592,0.0030045894,0.016861465,0.018249603,0.00843213,0.009790368,0.006742327,0.0016334316,0.011166293,0.00014418419,0.011052439,0.01263883,0.018520197,0.021232722,0.017991412,0.016240368,0.025755478,0.013537954,0.02641844,0.006115817,0.0073454883,0.017975183,0.013605688,-0.013492859,0.0153672425,0.0024944698,-0.010384937,-0.0027104057,0.0037152842,0.0028017785,0.00088929676,0.0064757545,-0.004815007,-0.0014266504,0.0012112105,0.010088426,0.002820534,-0.008907336,0.012804607,-0.0056469543,-0.0056740125,-0.0055769808,-0.0047010574,-0.004226064,-0.003191866,-0.0050880173,-0.0076335166,-0.011997922,-0.019646855,-0.011826573,-0.022551462,-0.009772951,-0.013364739,-0.002155871,0.000103519575,-0.014218332,0.0032319217,0.0004413907,0.004343202,0.0012643649,0.0034390541,0.008393823,0.012649045,0.005966598,0.011517381,0.008352325,-0.00014244036,-0.0029436254,0.0054649366,-0.010682352,-0.005312184,0.0068718255,-0.01455661,0.0063665756,0.0062680887,-0.02022338,0.0033817473,-0.0017420652,-0.020427914,-0.00079989847,0.011018906,-0.0025151276,0.010112986,0.010601327,0.01055562,0.0058966978,0.0017425204,0.005583324,0.01882657,0.019545374,-0.00899031,0.013040966,0.01586693,-0.006219115,0.017910108,0.004939135,-0.0010100129,0.012584783,0.009067882,-0.018292245,-0.001232835,-0.004121558,-0.0076171285,0.008093888,-0.0019008527,0.0032301887,0.0019983181,0.0052583897,-0.010637396,-0.012784478,-0.011910585,-0.026677197,-0.016051585,-0.01078547,-0.012855487,-0.010624309,0.000985586,-0.009004086,0.000018415656,-0.009029833,0.0058709,0.0055014393,0.008017637,0.018483972,0.024854938,0.017290361,0.009458374,0.027232151,0.014194144,0.0046055224,0.011942134,0.027799211,0.006841582,0.014068126,0.008391525,0.0010596139,0.011613357,0.0016523218,0.010896939,0.015881673,0.005905903,0.013720655,0.009518502,0.007544461,0.0030751773,0.007618027,-0.004808487,0.008028478,0.016452445,-0.0021163102,0.0014181281,0.009367454,-0.0033765335,0.01087843,0.023000564,0.0154350875,0.011229621,0.0118479915,0.004365639,0.010885828,-0.000104891405,0.005545142,-0.0010294922,0.0022421367,-0.012681108,-0.013454259,-0.013803433,-0.015336954,-0.00034683594,0.0050648144,-0.0028729923,-0.0035696288,-0.0037809296,-0.003095806,-0.003673165,-0.0072424663,-0.012459273,-0.0005196648,0.0068390314,0.0072756317,0.011268015,0.0053320657,-0.0044246893,-0.0032370843,-0.0046032537,-0.008750297,0.005466923,-0.006606442,0.005829079,0.008265549,-0.004656901,-0.001625234,0.014788268,-0.007475974,-0.0027867064,0.0126622515,0.0057201586,0.007362742,0.0021697436,0.009791351,0.009442745,-0.00023337148,0.013475281,-0.00048736148,0.008250325,0.014012133,0.008253589,0.0176298,0.020131262,0.021721888,0.014727024,0.015168674,0.0004103865,0.0029577105,-0.0007898677,-0.00085799943,0.017002795,-0.0063897837,-0.005594871,0.012125023,0.0016632045,0.009099393,0.0055346885,-0.0041870843,-0.0013027894,0.009204514,0.009347768,-0.010653673,0.008976861,-0.0037665656,-0.00021807269,-0.011736768,-0.013043229,0.0048368187,-0.0193409,-0.0072056,-0.018842336,-0.015387343,-0.006797333,-0.012610388,-0.022941338,-0.027300976,-0.012990028,-0.010176178,-0.016220786,-0.006772625,-0.0007600806,-0.0100154225,-0.0063264794,0.0050794613,0.001514648,0.011643632,0.008896419,0.012092674,0.0021639941,-0.0063274573,0.00038811387,0.012824151,0.0029488283,-0.0065210746,0.018145725,0.0009650751,-0.0016564898,0.004731013,-0.009338497,0.00097109994,0.002022261,-0.015349142,-0.011597062,0.0014831895,-0.017544799,0.0051186676,0.005174639,-0.006117684,0.009996601,0.0030946431,-0.00785404,0.009599197,0.005183241,-0.0004960189,0.020482035,0.009450321,-0.004654462,0.020686315,0.005980595,-0.0070517054,0.02511084,0.014776581,-0.0037621956,0.007433984,0.006621556,-0.0129399495,0.006909959,0.01370492,-0.01779835,-0.0033219527,0.004794572,-0.01819232,-0.000763156,0.0014635721,-0.0066646817,-0.00046790016,-0.01603561,-0.009722581,-0.0046969503,-0.016899398,0.00012514167,0.0019344895,-0.0033848744,-0.0029090634,0.015822371,0.0057773027,-0.0013771015,-0.0014436032,0.0040220493,0.013782027,0.012307815,0.007113019,0.006003738,0.014052931,0.01539808,-0.004653415,0.009994193,0.013168507,-0.0058448976,0.001374351,0.0058595007,0.005870704,0.011921013,-0.0074530984,0.0039546536,0.0061845505,-0.0007819321,0.013614567,0.018696273,-0.00013562749,-0.0048905867,0.0011207849,-0.008604437,-0.0013025458,0.001725733,-0.012354598,0.0073934654,0.0036119372,0.009693641,-0.0014890964,0.010137971,0.0024674786,0.01462911,0.012786372,0.012615825,-0.0030869658,0.007177482,-0.0004853166,-0.00074311334,-0.011132295,-0.0070154453,-0.013067654,-0.0034012797,0.000031068976,-0.0014811424,0.007205053,0.0015176007,0.0054276017,0.012227417,0.0033846342,-0.0037993558,0.004754304,0.00008952934,-0.00021888231,0.004496444,0.010240392,0.011723087,0.0055621886,0.009496044,-0.0031538375,-0.00076803874,0.010696348,0.007623477,-0.0014519017,-0.0011983044,0.011958987,-0.006073314,-0.00322642,0.016891453,0.0035954372,0.0052333875,0.012806791,0.013897779,0.015205854,0.01352315,0.011427916,0.010012674,0.00019226491,0.011098538,0.016450873,0.01686905,0.0062310947,0.0048123314,0.0012875735,0.01175419,0.013233957,-0.004900517,0.0007311005,0.003771408,0.00469604,-0.00030696052,0.008165215,0.0072456077,0.0004161024,-0.0068404665,0.0058166576,0.009322769,0.010424534,0.007805903,0.0043270765,0.004217438,0.015444017,0.006951727,-0.00016816845,0.0076087723,-0.0008678076,-0.002045952,0.0046505523,-0.0032916802,-0.0044114576,-0.004224513,-0.0053354204,-0.015109475,-0.0064738216,-0.004497131,-0.0029135614,-0.0156394,-0.010210716,-0.010876777,-0.0074732876,-0.011683067,-0.009188239,0.0005357326,-0.0020344732,0.0056308494,0.008298974,0.0009203514,0.012803395,-0.0011956557,0.008495082,0.014149267,0.0005779175,-0.006659713,0.017848065,-0.009723826,0.004273697,0.00083563454,-0.008132094,0.006067953,-0.00176379,-0.0071444237,0.0028552462,-0.0037105086,-0.014262609,-0.0014500117,-0.0083810715,-0.002426603,0.0009829095,-0.0051610083,-0.00006152912,0.004223549,0.00056181743,-0.0064484403,0.011003155,-0.013272818,-0.013697045,0.00211601,-0.009197771,-0.0012564204,0.0059380815,0.005284499,0.0010985576,0.010469562,0.010660911,-0.012754507,0.00031503392,0.007972059,-0.017867684,0.004699141,-0.0012632456,-0.008711017,-0.00072477164,0.0029079125,-0.017832892,0.004355429,-0.0033859934,-0.0072619445,-0.0023020937,-0.006655777,-0.012911423,-0.002785179,0.003164862,-0.002550339,0.0040718294,-0.0070537357,-0.010371861,0.00912485,0.0029575585,0.005066302,0.009940781,0.012928145,0.010628086,0.014297162,0.016747894,0.0047239475,0.023024509,0.012252272,0.0023031922,0.011734577,-0.00051581534,-0.010780414,-0.004379532,-0.007783158,-0.00042763574,0.0067185066,0.003103695,0.0009289508,0.014457743,0.000275232,-0.00071407034,0.009926152,0.005424195,-0.007024417,-0.0008454306,-0.005237744,0.0017001557,0.004074889,0.003128792,0.0053049503,0.003695933,0.006488926,0.0037886149,0.015071021,0.0037762823,0.014832111,0.00082900183,0.000854677,0.008822254,0.004201299,0.010602122,0.007346251,-0.0022676752,0.009934572,-0.0018724801,0.0043822923,0.008020274,0.019688722,0.0014765274,0.016281683,0.010239797,0.017716425,0.024858717,-0.0033429617,0.002626964,0.003658952,-0.0058383355,0.0069966223,0.010877797,0.0077726254,0.013784401,0.009433282,0.0038009183,0.011788288,0.006945683,0.0124894595,0.006773337,0.00040286788,0.012295598,-0.013119207,0.004262601,0.017270114,-0.0014540746,0.010181317,0.002716659,0.0034192533,0.0018841932,-0.014212046,0.0033298847,0.008070092,-0.011279771,0.0059449533,0.020837994,0.0027329864,0.014419204,0.017661024,0.016648233,0.00036044657,0.018401124,-0.0029749682,-0.012625907,-0.0030807294,-0.00060384895,-0.005508142,0.0025550888,0.0047120387,0.0023054134,0.010152786,0.018830342,0.001279422,0.0016278937,0.02451669,0.0032964658,-0.0005448766,0.019168798,-0.0026394774,0.0016043787,0.016040897,0.005112101,0.0033995633,0.0068608,-0.013394173,0.0022405821,0.0043735914,-0.009727738,-0.009035186,-0.0005019492,-0.011261744,-0.015025892,-0.01583576,-0.012278832,-0.0015650312,-0.0039574374,-0.01518589,0.0016928497,-0.010186314,-0.012080695,0.005197054,-0.011222486,-0.007650266,-0.0032271675,0.01072877,0.0058456324,0.017845586,-0.0052662794,0.007396446,0.015848363,-0.01597382,-0.000033989683,0.0017084144,-0.015414478,0.00045823562,-0.011697053,0.0062590595,-0.002152305,0.0030851217,0.0036952246,-0.004267631,0.0023411456,-0.004847239,0.010025575,0.007395207,0.008783665,0.0070161177,-0.008516275,0.0030473461,0.011890934,-0.0056230496,-0.0025085334,-0.0018959179,-0.014945955,-0.015793923,-0.0015583914,-0.0089387065,-0.0077543645,0.013152851,0.0022954047,0.006830509,0.0033441908,0.00843795,-0.0028848234,0.01112478,0.0029822006,-0.013048492,0.010927419,-0.0011850173,-0.010566899,0.011687177,0.001822641,-0.00436598,-0.0017389085,-0.00255961,-0.013346304,0.0083487015,0.0044166995,-0.002024341,0.010777585,-0.0019299686,-0.0034396644,0.008373067,-0.00023775964,0.0021166455,0.007598022,0.0057975305,0.012250294,0.018149938,0.007231372,0.0093905805,0.018072614,0.016227596,-0.0067630005,0.016846659,0.007997799,0.004745122,0.0021869068,-0.0010111606,-0.0007017367,0.0023737194,-0.0065972134,0.021817127,0.010795681,0.0024930574,0.010730207,0.011947897,0.005749538,0.0016684362,0.014846883,0.0010027612,0.008657538,0.01613308,0.0061300187,0.012850015,0.0105945915,0.011180968,0.01735134,0.014642018,0.006632882,0.003908679,0.015870877,0.012024887,0.0071515343,0.011739206,0.008972572,0.011623892,0.007270145,0.0037983474,0.007836669,0.0022040433,0.010010613,0.018622285,0.004965835,0.0104494,0.0070733665,0.01854145,0.023450125,0.0016742541,0.0032731562,0.0059514754,0.0009097906,-0.0039027215,-0.0006280574,0.013757017,-0.010116755,0.007875921,0.02132297,0.00574931,0.014832166,0.009575387,-0.0040691565,-0.0015782946,0.0064152726,-0.010592525,0.003929996,-0.0007690627,-0.006407049,0.012576192,-0.0027836652,0.0042397743,0.0026198465,-0.027101083,-0.018605664,-0.010686569,-0.0023435573,-0.014505366,0.011902243,0.009038431,-0.0067625986,0.009242886,-0.0027034234,-0.0035232962,0.00024244947,-0.012563694,-0.022165276,-0.0060284534,0.009503038,-0.015544299,-0.009840488,0.00036126142,-0.0088941995,0.0034912366,0.010460198,0.011313103,0.010053391,0.012486656,0.0029798676,-0.0066884914,-0.0002454022,-0.015740614,0.0019638315,0.0044130175,-0.00057548285,0.0035017102,-0.006406528,-0.006806492,0.0010883177,-0.0061022523,-0.011583155,-0.0048530027,-0.00091168756,-0.013459006,-0.0025770823,-0.00522341,-0.014451315,-0.0047497917,-0.0014986865,-0.009399388,-0.0010940552,-0.014801311,-0.008833849,-0.0016771685,-0.009204035,0.0027596622,-0.0066044554,0.009636779,0.0023472114,0.017707169,-0.0057379087,-0.0067308834,0.0060691205,-0.009750371,-0.0029096992,0.002527991,-0.011104527,0.0063989954,-0.010195325,-0.000793079,0.001546322,0.0076159537,0.008976575,-0.0006633647,0.0065344046,0.0022228598,0.017830066,-0.002685599,0.0077380356,0.017092256,0.008295145,0.01305746,0.018057495,0.004148804,-0.01104349,0.0014323456,-0.0066572414,-0.0005154187,0.008114278,0.007177443,-0.0053004073,0.00853394,-0.0068890722,0.0012181704,0.017910859,0.011267934,0.008010317,0.021267213,0.01085183,0.0061407266,0.0026610154,0.0020151546,-0.004781125,0.0002621488,-0.009442301,-0.001361232,-0.007353499,-0.0083633,-0.012050804,-0.0049978173,-0.00014614772,0.001186674,0.008048992,-0.002412464,0.009507507,0.011443901,0.011598429,0.011621271,0.0026681928,0.009909516,0.0036712703,-0.0017010609,-0.0004674134,0.0065394645,0.008915159,0.0028828585,-0.0049929083,0.017488608,0.010531578,-0.011992103,0.00025964787,-0.0026826775,-0.0065599666,0.0014489791,-0.0068049333,0.00024786443,0.0035628427,-0.0011299263,0.0016330534,0.012052694,0.011425093,0.0017986154,0.015078804,0.0072464636,0.00754469,0.0097250715,0.0005611541,0.009670486,0.021913799,0.0041748695,0.008996675,0.0076785036,0.008536832,0.011679496,-0.00034195557,0.013228272,0.0005874431,0.011969963,0.015354601,0.005654119,0.008078642,0.0026740616,-0.006342875,-0.0029785163,-0.0035585924,0.0099887345,0.00019612395,0.011177972,0.0078055514,0.0115801925,0.020498794,-0.0055849953,-0.0014977807,0.012285053,-0.0015600112,-0.00042120458,0.013859237,0.0053964616,0.0015764834,0.005910735,0.014258422,-0.00443435,0.010007419,-0.0038007647,-0.0051432257,-0.0022518507,-0.011353218,-0.005787553,0.0024769695,-0.0063455147,-0.010344498,-0.005181418,-0.010120147,-0.018799772,0.0042387657,-0.0032664998,-0.008330956,-0.0015733307,0.002131672,-0.0030269886,0.00040016533,-0.013528317,-0.013825539,-0.0008414498,-0.008451235,-0.021308947,-0.018332213,-0.0105265165,-0.01812867,-0.010288345,-0.0021741462,-0.015212264,-0.010187967,0.005714727,0.002841911,0.0042539784,-0.0027047796,-0.0037929043,-0.0076292804,0.005100452,-0.00015707502,-0.01008796,-0.005791187,-0.0034568121,-0.00666531,0.0081200795,-0.00815848,0.004321193,-0.012662078,-0.005460805,-0.0038085757,-0.01091709,-0.013476892,-0.000626912,-0.0061276057,-0.020168256,-0.006688326,-0.0046572797,-0.0034187632,-0.00088961684,-0.021082638,-0.008002325,-0.008457233,-0.0019754972,-0.0016009206,-0.008296203,-0.0047572334,-0.012218142,-0.010891843,-0.0074329847,-0.010871047,-0.0003538643,-0.0028634013,-0.018476332,-0.0015671366,-0.0030035726,-0.005488082,-0.005329201,-0.0018806704,-0.0036676934,0.0025832974,0.00010739439,-0.0012653631,-0.00498632,-0.0058671483,0.010575041,-0.012865746,0.006873156,0.0069423337,-0.013045584,-0.0049360027,0.004565859,0.0014537978,0.008067147,0.0038484945,-0.0054343464,-0.001436357,-0.0046412917,-0.0029752173,0.0003993944,0.014020021,-0.0015039375,0.0021136221,0.011811426,0.0046677957,0.0061552236,0.014402647,-0.0043886253,0.0031832193,0.016042648,0.006610952,0.0014984065,0.013857036,-0.00084178406,-0.008609957,-0.00022463495,-0.0075961924,-0.008276287,-0.003041291,-0.019662423,-0.00079970004,-0.013090825,-0.008979099,-0.005529706,0.0075136297,-0.000120183446,0.010122115,0.0028957573,-0.008312629,0.008022084,0.0027957498,-0.0037836656,-0.003403222,0.0015409172,-0.0033379267,0.00869264,0.00763921,-0.0008185388,-0.004926551,0.009184952,0.010312147,0.000065313565,0.006717304,-0.0038783369,-0.0077262865,-0.009359845,-0.0054379264,-0.0010890329,-0.007870936,-0.004712445,0.0033147838,0.01103461,-0.0005558031,-0.0055479305,0.004904279,0.012608851,-0.0016175051,0.00960401,0.0053842594,0.0062673306,0.011580948,-0.0019182237,-0.0068885484,-0.004344282,-0.0036559727,0.00868018,0.005476395,0.0012853708,0.004132053,-0.0004092643,0.009173537,-0.0062322696,-0.00027942905,-0.0006476594,-0.010599241,-0.010078359,0.011908743,-0.00069547934,0.010459636,0.021241328,0.0016349222,-0.002895459,0.015569446,0.0014168433,-0.0006234739,0.010211507,0.009458796,0.00019869923,0.0054731574,0.012120713,0.0023302862,0.011096505,-0.000054495376,0.0077064764,0.0019653162,-0.007849605,-0.00029340415,0.009818606,-0.013206824,-0.0056442837,0.0034917402,-0.017012132,-0.02330259,-0.014526159,0.0094487695,-0.014448735,-0.0074960003,0.0031017992,-0.0074979537,-0.010380281,0.008733643,-0.00916087,0.0005012551,-0.0008994822,-0.013502843,-0.01222822,-0.013886589,-0.027911503,-0.023599038,-0.001245331,-0.011747618,-0.0024459716,0.0041510686,-0.008309006,-0.0009770411,0.0071190796,0.004703005,0.0044526253,-0.001772807,-0.0037343206,-0.0012842369,0.0058235815,0.00050663896,-0.0054424386,0.008687321,-0.0068556685,-0.0035461483,0.00077150756,0.002956564,-0.0020847835,-0.0017666568,-0.009700577,0.0027816186,-0.017034177,-0.006866745,-0.0004339902,0.00090157334,-0.007732752,-0.010229471,-0.004931582,-0.011714357,-0.008110224,-0.00033099443,-0.0053252084,-0.0014128912,-0.009776069,0.00061257626,-0.006442633,0.00017588981,-0.0119822975,-0.009952429,0.0003889017,0.0007402427,-0.0056498023,-0.004045644,-0.0049906196,-0.0025809833,-0.0060243923,-0.009759054,-0.005285109,0.007481235,0.0063607465,0.009118302,-0.013052191,0.006197107,-0.0013085228,-0.007532525,-0.0057054544,0.00034424147,0.007852054,0.008961538,-0.0020523667,-0.0024680672,-0.0009148081,-0.008195576,-0.009671211,0.009437385,-0.011186973,0.001540039,0.0055426634,0.00010080418,-0.0026239885,-0.00026209475,0.006104881,-0.0014669916,0.004152092,0.004258463,0.0022325853,0.013358213,0.005288473,0.01297765,0.012759332,0.0021112629,0.00078912324,0.009583063,0.007769903,-0.0019410066,0.0017290975,0.0027743212,0.0021315066,-0.006327133,-0.0067667942,0.0033648522,-0.0006008381,-0.009239945,-0.0060819415,-0.0071665104,-0.001925884,0.0035136198,0.00069311913,-0.007229232,0.0036453856,0.005739014,-0.003284774,0.006340852,0.009035959,0.00032257068,0.010949171,0.011690643,0.011595033,0.005650415,0.0064713643,-0.0016918891,-0.0075480207,0.0040724077,-0.005487066,0.000008062262,-0.004191157,-0.005502412,-0.0057573766,-0.0015596361,-0.0075879167,-0.0071508368,-0.0048884596,0.008132914,0.005743026,-0.00055583904,-0.0005801565,0.0029232777,-0.0029260952,-0.0014829772,0.0057721836,-0.0039203223,0.011549208,0.009363382,-0.001943429,0.007768737,-0.006326847,-0.004636575,0.009053104,0.0006819438,0.0025293247,-0.0050566914,-0.008138268,-0.002524896,-0.0015291905,-0.0011189345,-0.0024474387,-0.00023088676,0.010524778,-0.007867692,0.012488648,-0.0021911,-0.007924649,0.021984352,-0.0040768995,0.0054746834,0.016155668,0.0055605597,0.004863704,0.00870321,-0.00014961434,0.0070069088,0.0009681506,-0.0017414907,-0.009983585,-0.0022834113,0.011614511,0.008349447,0.017781027,0.0059000812,-0.0009670939,-0.0053891297,-0.006579862,-0.012115361,-0.011101148,0.016119597,-0.0056191795,-0.014736009,0.0045584096,-0.008931224,-0.012347108,-0.0039158426,-0.011713159,0.00034439785,0.0087037925,-0.002901078,-0.012961948,-0.014840798,-0.0228846,-0.006490283,0.0018736459,-0.0036228646,-0.013143692,0.016497884,-0.00027741,-0.0042549176,0.00941883,0.012793281,0.000600487,0.012607931,-0.0057159984,-0.0035596488,0.0035592923,0.0038053705,0.0037820523,-0.0019622303,-0.007358412,-0.006516699,0.004487214,-0.009659113,-0.005184733,0.0036034225,-0.00029621535,-0.002715068,0.011067198,-0.009236743,-0.009355641,0.008912156,-0.0073322714,-0.0055963933,0.009123377,0.0031942618,0.016439296,0.008669792,-0.0066939658,0.017121062,0.005991832,0.008140784,0.010304699,0.00017086914,0.009537142,0.00041363493,0.0025143544,-0.00796155,0.0071056676,0.0045378823,0.0016019886,0.001657823,-0.007904732,0.008548332,-0.000018658387,0.006297911,0.0023374557,-0.0018096212,-0.0099330135,0.010182815,0.00041900357,0.0013738474,0.008441145,-0.010182887,-0.0028483567,-0.004447777,-0.013041184,-0.005500723,0.005130113,-0.00044886043,-0.01767235,-0.0017587529,-0.010341432,-0.0036584502,0.0010374968,0.00097001914,-0.011015727,0.0039050586,-0.006089163,0.006324275,0.015589772,0.006970251,0.012168627,0.016910134,0.014027245,-0.0022989982,0.022718497,0.0027810105,0.0074161235,0.019307198,0.0073211957,-0.0040923236,0.016831614,-0.0004391933,-0.0034601085,0.011254832,0.009245718,-0.0074318065,0.0067305593,-0.006431378,-0.0070100124,-0.00866338,-0.005995182,-0.0055989213,0.012943895,0.00930064,0.0032219265,0.0042756717,0.0056910934,-0.00019997775,0.00024498167,-0.00015995002,0.010204907,0.005625867,0.012326739,0.00009312973,0.016082864,0.009017792,-0.0108366795,-0.00773559,-0.0076868385,-0.008499392,0.00061893347,-0.0015877688,0.006249422,0.008025549,0.0070806406,0.006019713,0.0060868217,0.0014281645,-0.0023736884,-0.008483215,-0.010131384,0.0032556867,0.004324977,0.00077131315,0.0060868612,0.0027226827,-0.008432537,-0.006073228,-0.007935905,-0.0015597149,-0.007012085,-0.004046967,0.0068448833,0.01340271,-0.0012921195,0.008395076,0.011589494,0.002566517,-0.0040592793,-0.008260403,-0.00997567,-0.006311894,0.010750275,0.006610363,0.010067981,0.0027110467,-0.0069350963,0.0046892315,0.007948245,-0.003540725,0.00887202,0.01533802,0.0011744443,0.015790649,0.0031115203,0.00026625814,0.0008431878,0.0054881936,-0.0114944475,-0.006031093,0.007050584,-0.002314467,-0.001756999,0.02019318,0.004079004,-0.009087392,0.0051840576,-0.016133647,-0.011558261,0.015806342,-0.009349102,-0.0031288555,0.004652029,-0.0053658853,-0.0031242801,0.0029854004,0.000055061482,0.00008565636,0.013338726,0.0043195295,0.0066718156,-0.0017337176,-0.01131116,-0.01732602,-0.009288252,-0.018014304,-0.006300888,0.008740348,-0.0020728447,-0.01772098,0.012127265,0.010839501,-0.0050174654,-0.00041672547,-0.00253114,-0.0053337156,0.004193144,-0.0064099636,-0.0106431395,0.0010436558,-0.009031593,-0.0062793237,-0.00065244007,-0.008728089,0.0029479926,0.0067069754,0.0050563966,0.00000285081,0.021836225,0.0035289226,0.008074283,0.018827377,0.009270169,0.016844839,0.014005074,0.02022433,0.026908917,0.010643365,0.014018068,0.021800704,0.014798473,0.011227702,0.02112148,0.012806712,0.010979173,0.018996669,-0.006918193,-0.0066412846,-0.003136217,0.0027012634,0.008158781,0.003959758,-0.0048618508,0.003194732,0.0009019783,-0.0038296268,-0.0008654509,0.006134273,0.0046593132,-0.0006714435,0.0016789151,0.0043634586,0.0060350266,0.0027187592,-0.012952488,0.0012993688,-0.0026453207,-0.004659982,-0.011688642,-0.015651137,-0.010101959,-0.005472612,-0.016823709,-0.006490713,0.00021233327,-0.0026864011,-0.0045964145,-0.0021520786,-0.009932584,-0.005513074,0.018114964,0.005162296,-0.0043822606,0.015500791,0.00755276,0.0066749044,0.016709065,0.00090518163,0.0045501105,0.009522013,-0.003604449,-0.002814509,0.003975018,-0.002031587,0.010877631,0.013800163,0.011518556,0.0050173285,0.009395374,-0.0011834832,-0.011412628,-0.0021498809,-0.007385174,-0.0017233612,0.0043392973,-0.004179823,0.009836264,0.0018140991,0.00042890894,-0.008043369,0.0009760652,-0.0064575104,-0.0013252306,-0.0066235536,-0.0037114974,-0.00041523785,-0.000042549964,0.0039885095,-0.010492676,-0.004121565,-0.017674599,-0.008447791,-0.014694262,-0.013150414,-0.0017119157,-0.006911231,-0.013887174,0.0031322765,-0.001635441,-0.015828084,0.004098835,-0.0023209162,-0.009765033,0.0023996276,-0.0057434393,-0.0048902053,-0.01035014,-0.005219952,-0.0042176615,-0.0048826514,-0.014833036,-0.011161055,-0.0018346948,-0.012782297,-0.009669657,-0.000098342505,-0.010166961,0.00651814,0.009523892,-0.011120833,-0.005965472,0.009598305,-0.009146256,-0.00721716,0.010695144,-0.00172084,0.018341055,0.012332533,-0.0052419514,0.0073877512,0.0075311977,-0.010462028,0.010796832,0.009683566,0.00071666937,0.011147897,0.010538889,-0.011030494,0.012493295,-0.000788587,-0.016157364,-0.00449789,-0.0041943174,-0.011324104,0.001412505,0.01826524,0.007302813,0.0029561815,0.0069810334,-0.0032077085,-0.0013339984,0.013346367,0.005237056,0.0056147627,0.009881485,-0.009737829,-0.012630943,0.012281787,-0.0030830565,-0.015260141,0.005792015,-0.005691613,-0.00916872,-0.0032215458,-0.007688716,-0.0066403984,0.0045438856,-0.0029690803,-0.0037914838,0.006282736,0.003858142,-0.0052284957,0.010991224,0.0013201626,0.0009577196,-0.004484162,-0.015274988,-0.019050026,0.0024511914,0.0013087541,0.004092007,0.0010758108,-0.0025149314,-0.0013984363,0.0040268274,-0.00060204417,-0.006681189,0.006388435,0.00097590237,0.0016457892,0.016182201,0.016573723,0.014551812,0.03168121,0.02078166,0.022891652,0.03038125,0.020994375,0.02648125,0.008372624,0.010239404,0.0262911,0.0031958346,0.003648076,0.020377522,0.014083017,0.019681806,0.020346252,-0.0052844794,0.012292992,0.0027011144,-0.013116326,0.00024888283,-0.005295451,-0.009366722,-0.008958738,0.0065046605,-0.0024707862,-0.0034860848,0.015191133,0.0016424537,0.010640804,0.007161169,0.0042281975,0.009605178,-0.006142491,-0.006393063,-0.0049311365,-0.007952027,-0.010599208,0.011641275,0.0019747717,-0.0066229324,-0.0002662182,-0.010863054,-0.0064295637,0.0054577715,0.0039667254,0.002776747,0.01010101,-0.0011789004,0.0073711476,0.0050785816,0.010013932,-0.000028432489,0.0152243,0.0019365011,0.011041234,0.009918293,-0.005270039,0.0072523733,0.018556625,0.0056750276,0.008651544,0.0072296397,-0.0063402895,-0.0028359646,-0.0040032035,0.0009912901,-0.000014221025,0.005628351,0.0060318103,-0.018489337,-0.0055412166,-0.007352973,-0.0024851193,0.009826059,-0.004848216,0.0027244294,0.012363779,0.006620404,-0.0068313023,-0.005860764,-0.00020676367,-0.015150562,-0.0028899706,-0.0010807924,-0.009340368,-0.005279743,-0.0024765541,-0.010116998,-0.0066302735,-0.012966208,-0.021010868,-0.008258779,-0.019663827,-0.010308474,-0.013835986,-0.01192463,-0.006743107,-0.019847918,-0.010117914,-0.011799014,-0.00819695,-0.028398385,-0.014404529,-0.014381163,-0.017792283,-0.010209219,-0.016178122,-0.009486756,0.002089699,-0.013981038,-0.004774558,0.007407603,0.0017685554,-0.00086489285,0.012427329,-0.008972166,0.0008124045,0.003123436,0.0031902175,-0.0048591807,0.0085851075,0.0033067719,0.013729283,0.006028767,0.0039278204,0.007886113,0.004877981,0.0070090746,0.009205692,-0.004730855,-0.009358721,0.0042794473,-0.0016915951,-0.0021245086,0.014525283,0.006562879,0.0058191856,0.008582318,-0.007657209,-0.013429714,0.009024424,-0.010587691,-0.0022792313,-0.0028909582,0.001251597,-0.0034227548,0.0010185274,-0.0014898597,-0.004573319,0.0042512044,0.0073366947,-0.0023391645,-0.0056635966,0.005148506,-0.011978048,-0.007530088,-0.0011084345,-0.013054066,-0.010629023,0.017839136,-0.0037325062,-0.017514817,0.005462095,-0.020181453,-0.010800345,0.0030080462,-0.013399367,-0.012650422,0.022867253,0.012956858,-0.0073669762,0.015163113,0.003919888,0.0026710613,0.00075011706,0.003863815,-0.00786955,0.005721935,-0.011181299,-0.014436418,-0.008946306,-0.016610801,-0.00986169,0.002482506,-0.013598212,-0.0071186596,0.0064755743,-0.0033126294,-0.011027521,0.0069217538,-0.0019183672,0.0036914286,0.01919374,0.00766402,0.0056413086,0.009967845,0.01394815,0.019744625,0.013395047,0.011234494,0.016104791,0.0036716065,0.007008106,0.0055639255,0.0076063145,0.004359533,0.01459336,0.0017382471,-0.0030134716,0.003937434,-0.016382031,-0.000036961028,0.0070950137,-0.009502585,-0.0043010465,-0.0069759246,0.0038104188,0.009207563,0.008197939,0.008587972,0.0037412609,0.0060832645,0.009524736,-0.00009859662,0.0013004737,0.0071798447,0.013259342,-0.00068162906,0.01066316,0.013268873,0.007366688,-0.0021800317,0.014804598,0.0030791014,0.0047030677,0.0031162351,-0.004816916,0.011546041,0.0066660047,0.010502536,-0.0009056494,0.0034519036,0.0027256652,0.012917602,0.0058589517,0.0018420187,0.005288763,0.018727882,0.006439129,0.01959201,0.023188753,0.005716561,0.007198066,0.014341074,0.008428742,0.0077213766,-0.0095087895,-0.005345769,0.0010954677,0.0015144136,-0.007772949,-0.008588827,0.0027335607,-0.0049359635,-0.0049884203,0.0014815464,-0.0022762013,-0.009365133,0.0072328243,-0.00057803234,-0.0098541835,0.010531993,0.0058212588,-0.011230776,0.0018858371,0.009693678,0.0042272997,0.0012750695,0.012147546,0.0045796414,0.0036767246,-0.0031336797,-0.00548857,-0.00008130381,-0.01896807,-0.017587107,-0.011662184,-0.020983137,-0.01251444,-0.015152895,-0.0141708115,-0.02713876,-0.025630243,-0.017122557,-0.00809634,-0.005930214,-0.018584508,-0.0017257484,0.0006955438,0.0010280763,0.0059729614,-0.0021989688,-0.0015762937,0.00901609,-0.010559,0.0056987978,-0.0048868135,-0.0031313791,0.006587492,-0.008333866,-0.00010144038,0.004985529,0.0025463293,0.003263464,0.0030483818,0.013561011,-0.0005822479,0.008145482,0.0065296874,-0.0138244815,-0.0005168014,-0.008360731,0.0003485112,-0.0081813885,0.00763639,0.0013996223,-0.0031023736,0.0074756085,0.005848239,0.0036879987,-0.0028973876,-0.008378273,0.001164657,-0.009598653,-0.01219694,-0.009493302,-0.013039665,-0.018397711,-0.014885316,0.009463755,0.009192284,0.0038457522,0.016678939,0.000054504926,-0.0043222685,0.012754522,0.0028424216,-0.011296685,-0.0016355694,-0.0068316483,-0.010915094,0.0041469773,-0.011969561,-0.0058114687,0.006240005,-0.0009338486,-0.01757091,0.009243573,-0.0073489305,-0.015690709,0.020529192,0.00069716887,-0.0066774106,0.035938703,0.012751872,0.011234178,0.023137959,0.006405277,0.010693245,0.011226782,-0.005416869,-0.022165034,-0.0071370862,-0.019249164,-0.024200382,0.006097417,0.004114893,-0.010436277,0.016053969,0.0019325466,-0.0091088945,0.0038981147,-0.011717997,0.004346459,0.0062085823,0.00041574828,0.0020993405,0.0055707446,0.00086523674,0.0095982095,0.0018792473,0.0008758435,0.019275002,-0.008442112,0.0016627222,0.0059214933,-0.0089662885,0.002308185,0.0022941737,-0.014042171,-0.011804501,-0.006742618,-0.0004333286,-0.009117651,0.008056374,-0.010564107,-0.012528678,-0.015421699,-0.00263931,-0.016884945,-0.0036667276,-0.0052295476,0.011103866,0.00019697267,0.009287802,0.010238777,0.004380655,-0.0019698578,0.0013829747,0.0031070127,0.0053430405,0.007520073,-0.0025783323,0.01445919,0.009093551,0.0007057012,0.012459332,0.008754078,0.012215672,0.0172537,0.019991573,0.001878876,0.0038075387,0.014386163,0.004998175,0.011706564,0.022483082,-0.00960038,0.0049562296,0.011015822,-0.0012321802,0.007998446,0.021681953,0.0024863451,0.0122505035,0.011565959,0.0030963665,0.009585885,-0.0041734157,0.00029573866,-0.0027798496,0.0030509492,-0.0096105365,-0.0004318306,0.0038824151,-0.004368811,-0.0060996506,-0.000995722,0.0012001992,-0.008084656,-0.0027157934,-0.0048448495,-0.0074195643,-0.006574396,-0.004166927,-0.008974585,0.010857178,0.0020880383,-0.0028000125,0.001022422,-0.0021255638,-0.0036728098,0.0013730195,0.007887579,-0.0009183985,0.007018975,-0.0004460526,0.0023682113,0.0024666393,-0.016324174,-0.016918723,-0.006184371,-0.009746295,-0.018840997,-0.014117902,-0.016661782,-0.0063358,-0.0035253416,-0.0067466684,0.00047089084,-0.0047305073,0.0020022807,-0.0014750272,0.010359678,0.0069573293,0.010576344,0.0046762573,0.002679797,0.005377791,-0.010881067,-0.006556397,-0.006570507,-0.011755796,-0.0079932315,-0.0047732433,0.007264262,0.0055999574,-0.007836349,-0.009352214,0.0057216287,-0.015575832,-0.011227962,-0.011447885,-0.014108352,-0.017491302,-0.004601562,-0.008301913,-0.0042008315,-0.0022661327,0.0027118358,-0.00619975,-0.004190626,0.010432971,0.0018727364,0.008554753,0.0010985635,-0.003993002,0.00013375968,-0.0031617598,-0.008965322,-0.009614499,0.01361233,0.0007393333,-0.0035386626,0.026035853,0.006702834,-0.0035406768,0.013128942,0.0076397755,-0.0038022476,0.011562358,-0.002848927,-0.020320404,0.021585423,-0.006261775,-0.014961363,0.028241154,0.001985864,-0.004300516,0.02485276,0.0047516096,-0.009815132,0.010210475,-0.0048681223,0.003955953,0.016605958,0.00889637,0.007417681,0.018504154,-0.0040024254,0.00058134366,0.0074588526,-0.004422093,-0.02106831,0.002971722,0.0030613006,-0.00038867776,0.01786069,0.003353367,0.017986014,0.018094653,-0.0015388705,0.011316376,0.0022946126,-0.0013689386,0.0062400736,0.008891571,0.009357503,0.002288158,0.017092174,0.013798476,0.0152057465,0.0021978398,-0.002794271,0.016765084,0.011228535,-0.00081050355,0.020837724,-0.002931547,0.0022970028,0.01035167,-0.0057933386,-0.007738904,-0.005271105,0.008064529,-0.008551116,-0.0008307247,0.0010449631,-0.016880931,-0.013367135,-0.015695877,-0.007014023,-0.0057162433,-0.0073372605,0.0024802436,0.00020938776,0.0021256637,0.016534284,0.009636267,0.0023594794,0.0112834405,0.006069242,-0.0002626149,0.01961509,0.0058741635,0.0024091657,0.006755259,0.0050823423,0.013232774,0.0044678785,0.0030984723,0.006861337,0.017451687,-0.0035590795,0.0029785666,0.001879665,0.0059501915,0.009744414,0.00859544,0.002050296,0.0061476734,0.010815168,-0.007585029,-0.00037431938,0.0051635155,0.0016871195,-0.00094703067,0.021508364,-0.001643032,0.011659923,0.0063232076,0.0061156573,0.01141165,0.0017841313,0.007359821,0.0007483288,-0.0026126348,0.002126665,0.0013599886,-0.0018448647,-0.0025087036,-0.00093172997,0.007731438,0.0022002207,0.00459195,0.004576702,0.0003638732,0.0061123283,0.017886635,0.008477267,0.007513059,0.019403853,0.01468612,0.019650582,0.020923955,0.015230638,0.006747173,0.025092103,0.016788954,0.0021927932,0.0050787292,0.0051330845,-0.010738138,-0.008663343,-0.0012040064,-0.007237526,-0.015119249,-0.0060467278,-0.0058556413,0.00069533766,0.009074031,0.016053058,0.0116933575,0.017984193,0.006130404,0.013509793,0.025121378,0.002839278,0.008071099,0.017505428,0.013011949,0.0016762527,-0.002917321,-0.0048145265,0.0065858145,0.009592618,0.010141785,0.0061814147,0.022448849,-0.005382309,0.0059259865,0.013685605,-0.01383952,-0.01967405,-0.0015734965,-0.016389597,-0.017276239,-0.001866715,0.0030189445,-0.0050487933,-0.008997583,-0.0059817773,0.0051043467,0.003395137,0.0008233776,0.0031787993,0.01155372,0.0016978934,-0.0005791481,-0.0088264095,0.008557258,0.0040166434,0.009225969,0.004752302,-0.009221828,-0.0014626815,0.015642874,0.0071038674,0.0055776834,0.015102099,-0.006491799,-0.009873743,0.012050548,-0.0070964918,-0.013898446,0.016731273,-0.008090899,-0.016002523,0.012571643,0.0059669614,0.0034031416,0.004841063,-0.0058636274,-0.0006065667,0.002673418,-0.005899323,0.002148534,0.019009719,-0.0040889215,-0.007801584,0.010179492,-0.004632538,-0.004422937,0.012434451,-0.0012493106,-0.008537262,0.02300675,0.007174397,0.011719312,0.011460532,0.0073064733,0.02083203,-0.0027042532,-0.009690586,-0.0072560874,-0.007995343,-0.015842864,-0.001589373,0.012280019,0.009149798,0.01602058,0.011817324,-0.0020622087,0.009171676,0.01337096,0.009409828,0.01745485,0.012714304,0.008478811,0.020997265,0.004092909,0.0065922895,0.014229933,0.0012273346,-0.0052051027,-0.004315789,0.0009349317,-0.0057158116,0.009661008,-0.0063096373,-0.014473044,-0.0029069292,-0.0044506006,-0.0044421484,-0.017617622,0.002432506,-0.00023413182,0.010214219,0.0026355304,0.0061662365,0.006457736,0.0006187659,0.0035048441,0.0043012355,-0.006405939,0.0045064865,-0.0022243382,0.009512702,0.004686353,-0.0025849922,-0.0021795856,0.00384885,-0.010376182,0.008697012,0.004594627,-0.0059848893,0.0034648306,0.012062088,0.010362573,0.004794466,0.0029099174,0.0035059445,-0.005222155,0.013312332,-0.018914126,-0.0061711157,0.011840784,-0.0094027,-0.0108944345,0.011910969,-0.003955831,0.0047333213,0.007721878,0.0060726632,-0.005350296,0.0065367455,0.0048583434,0.0037012678,-0.0007863348,-0.00601621,0.0065706265,0.0064713224,-0.0012115595,-0.0013889754,0.0031090314,0.003145622,0.0041377647,0.00074550044,0.00094146724,0.008303875,0.0057015377,0.017830817,0.0037185757,0.009907442,0.021848159,0.013238471,0.013354885,0.01707526,0.01876937,0.024218451,0.009128158,0.005106133,0.005897169,0.010969428,-0.0068987296,0.00077875506,-0.0075048343,0.005755544,-0.013183126,-0.004450204,-0.0059409286,-0.00008858303,-0.00037367697,0.01099654,0.018431459,0.003418044,0.019761307,0.01994938,0.009695746,0.0031140097,0.00893251,-0.00047801377,0.008180992,0.0031247076,-0.0014747062,0.008792782,0.0035986423,0.015352524,-0.0003255916,-0.00022489676,0.01915267,0.018790107,0.0036073895,0.0149731375,0.0055594333,-0.0071558184,0.009317534,-0.0063399347,-0.003278725,-0.002555497,-0.001682428,-0.0040629418,0.012379488,-0.0045052823,-0.0004519764,0.0130855255,0.0042657168,0.010577576,0.010661532,0.0027640257,0.00894092,0.0019365649,0.008750517,-0.005627942,-0.0020756044,0.0031832512,-0.007035868,-0.0047737546,0.0026881301,0.0076323505,-0.00093079224,0.011059374,0.0025044447,-0.003026549,0.008433602,-0.009870598,-0.01126783,0.0181168,0.00018057863,-0.01293523,0.02353106,0.005308428,-0.009051468,0.0149101205,0.0018140725,0.0057246503,0.012804307,0.0032684843,-0.00010257233,0.0035204142,0.0008349906,-0.0073141814,0.01593348,-0.0011925382,-0.014580468,0.004265808,-0.0096038245,-0.012344248,0.021119727,0.0070540863,0.0120423585,0.003689282,0.008999049,0.0029916766,0.00017256611,0.0011472345,-0.013324517,-0.01023719,-0.012372686,0.000673272,-0.0107230395,-0.008324764,0.0070568603,-0.0041792165,-0.012870592,0.0014236344,-0.008376241,-0.011468401,-0.0031105606,-0.0049663866,-0.00312274,0.0008096776,0.0024434305,-0.0045217834,0.012696614,-0.0146091785,-0.008016744,-0.013811413,-0.0039835423,-0.0014122833,0.00066086143,-0.0015873357,-0.004289514,-0.0154923955,0.00015372859,-0.010836129,-0.01548389,0.005764476,0.011225911,0.014432541,0.0064020334,0.0009102759,0.010122973,-0.0002444606,-0.0030485273,-0.0030815208,-0.007876048,-0.0049485294,0.0061435695,-0.0021565408,0.00819108,-0.0039915363,0.002220664,-0.0053160577,0.0058781677,0.010387079,0.0053169113,0.006617026,0.003749509,0.012007388,0.014389558,-0.0041808714,0.013778778,-0.0064823595,-0.0017038569,0.0046664267,-0.014756672,-0.0070315273,0.0038456363,-0.00096197444,-0.0017616621,0.0013185479,-0.008679644,0.0057711704,-0.0035599107,-0.00061194086,-0.00658591,-0.012600899,-0.001305935,0.0027965377,-0.011570897,-0.004756067,0.0044267564,0.0035302362,0.0055181,-0.00020119007,-0.0059830295,0.004897682,-0.0031091897,0.0011498072,0.016119769,0.00048136414,0.008617758,0.023658684,0.0039389296,0.009980421,0.012224087,0.00421479,0.0044861767,0.019070357,-0.0043203146,0.011417912,0.007341705,0.009455216,0.0074114366,0.0046394784,0.004827411,0.00652888,0.00079949974,-0.011574183,-0.013207318,0.005835282,-0.0129744485,-0.017238168,-0.0065833475,0.0079793865,0.0054533104,0.010261752,0.0059641073,0.011181583,0.011683931,0.0059294053,-0.002512064,-0.00021070271,0.017654834,0.008151365,0.003512325,0.015366848,-0.0030023134,0.012098197,0.0076507195,0.005267157,0.024549628,0.0034463906,-0.0042811343,0.010785518,0.0038858266,-0.004162857,0.011953718,0.0034350296,-0.004222899,0.012063723,-0.0059767347,0.002452105,0.003679449,0.004470833,0.0096039,0.018818414,-0.0019687682,0.016402606,0.020389212,-0.0033366499,0.007635816,0.018750964,0.0063545243,0.008043904,0.0103434175,0.008696202,-0.009224264,0.009270526,-0.0072195297,-0.016693104,-0.008334325,0.013179253,-0.008609882,-0.005779607,0.00033948172,-0.008702962,-0.027408874,0.002118241,-0.0013793316,-0.012868652,0.0133870095,-0.001072626,0.0030805331,0.016080832,0.009100534,-0.0058830706,0.0043781553,0.007718227,0.0065932963,0.010325761,-0.0020228648,-0.0016219699,0.0046877,-0.012009325,-0.009192926,0.0068182885,-0.0020513705,-0.0125865955,0.015199134,0.0134923905,-0.0025271038,0.003940851,0.011355247,0.010209471,-0.008244568,-0.0031395708,-0.004728983,-0.008415202,-0.0060912115,0.0022315155,-0.01426827,0.0015001089,-0.0026471065,0.0026390275,-0.0009330604,-0.0008216239,-0.002113214,-0.0026730278,-0.002200988,-0.0007440883,-0.0058978787,0.010319396,-0.010685841,-0.0073735993,-0.0022519543,-0.012545086,-0.015324369,-0.0039246636,0.00379611,-0.012520647,-0.010410606,0.00051953207,-0.0031418896,-0.0011456994,0.0002182763,-0.0013872638,0.0017320962,0.012953632,0.010507331,0.0079409415,0.0075876354,0.008572567,0.012861377,-0.013035668,0.005589019,-0.0014785887,-0.00093837205,-0.008382707,0.0042196075,-0.00039017157,0.011557989,-0.0022269643,0.012657247,-0.0010218475,0.0068291426,-0.000729051,0.0037977567,-0.0032959816,-0.00050169503,0.013042893,0.011710363,0.00861978,0.005008435,0.0039799665,0.000081596,0.0068189907,-0.0017452226,-0.009947829,-0.0058388747,-0.001093028,-0.021530261,0.0044995253,-0.0076199006,0.01096207,0.009656961,0.0020079378,0.002442067,0.0033010892,0.0007922053,0.0072636893,-0.005935739,0.0014868273,-0.0012099709,-0.0022143803,0.0003986876,0.010045254,0.00031490653,0.01215089,-0.00040759522,0.014421221,0.023540543,0.0061921487,0.021517495,0.03165873,0.0035817814,0.023712555,0.018243449,-0.0038884175,0.006636992,0.010938215,0.005395429,-0.0008691063,0.01037871,0.0010338592,0.016635261,0.0059900037,0.0025697602,-0.0065640584,0.006505859,-0.010551751,-0.006107014,-0.0069590695,-0.0069849477,-0.020261507,-0.01093627,0.008606043,0.0016229462,0.0034954415,0.0065882807,-0.0022905983,0.0049550463,-0.00003075077,-0.0026784355,0.011386459,0.007304486,-0.0043830005,0.018102333,0.020660708,-0.0024038847,0.021684995,0.009979378,0.009620095,0.021793002,0.0100240875,0.0054816008,0.0077124666,0.011785394,-0.0002771084,0.011798377,-0.00616139,0.0058465316,0.009511126,-0.005089225,0.0067434674,0.005567794,0.0014222161,0.009605243,0.024103358,0.0086801695,0.009279556,0.013319928,0.010445877,0.005035061,0.016873825,0.014453357,0.018382356,0.01565426,0.0045317146,0.0024025938,0.0040287436,0.0007918188,-0.01046027,-0.013368833,0.006298849,-0.019556329,-0.00740229,0.0027590832,-0.021519884,-0.014985036,0.0066890027,-0.008155253,-0.019632038,-0.000027295499,0.009930767,0.0054457188,0.010004782,-0.0044486662,0.0023129738,0.005952687,-0.002722485,0.0037864803,0.008239336,0.0054630376,0.0010481734,-0.009719814,-0.004159773,-0.007956286,-0.0070373476,-0.00383167,-0.01174141,0.0037064608,0.0024301764,0.00026868514,-0.00408577,-0.00030853084,-0.00092626427,-0.011471546,-0.008482954,-0.013685998,-0.0012456055,-0.005874811,-0.00059829815,-0.008710246,-0.017057879,-0.013843709,-0.007582329,-0.00859342,-0.005927317,0.00065114076,-0.003376244,0.00050331996,-0.006464446,-0.010997825,0.007951021,-0.0061337673,-0.0049773487,-0.007922417,-0.010824075,-0.006711906,-0.0047113164,-0.011197814,-0.00054127217,-0.005013293,-0.00016745768,-0.0019031564,0.009768693,0.0020654562,-0.0056920853,0.003495437,0.011160163,0.012147718,0.0051094433,0.0070457943,0.002574464,0.014779142,-0.003188892,0.003584947,0.006871061,-0.009538589,-0.0035776321,-0.0010213562,0.00365804,-0.005982706,0.0049661216,-0.003340853,0.0008497056,-0.00215895,0.0081408555,0.0070467712,0.005043418,-0.002405248,0.019267472,0.0014181574,0.003193199,0.017819889,0.0021744582,-0.014123784,-0.00454836,-0.007953868,-0.010975663,0.0012694481,-0.007422566,-0.0074858307,-0.0075471336,-0.017148439,0.0061692838,0.0055073635,-0.009256417,0.0022986534,0.009648635,0.0039837565,0.007781459,0.0030044327,0.00053756573,0.0023890445,0.0034841893,0.009760134,0.005616757,0.014494232,0.014172278,0.014377674,0.017017303,0.016691076,0.0139548965,0.018616471,0.035142746,-0.005063547,0.007206825,0.022402124,0.00825229,0.009314888,0.016095715,0.0008632216,0.014794439,0.013287753,0.007084476,0.00907856,0.011864035,-0.0023095163,-0.0037920761,0.0047584004,-0.008947134,-0.010735068,0.0034708409,-0.000010951493,-0.007731322,0.004115847,0.0034406597,-0.015166946,-0.0035409566,-0.006091023,-0.011981371,-0.016434003,-0.010598665,-0.013034835,-0.013429156,0.008010881,-0.002716368,0.0003369182,-0.0007996504,-0.012116542,0.014232641,0.0085746925,-0.0054892097,0.01107665,0.0051418752,0.0015656372,0.0021910847,0.0013273136,-0.010661539,0.007543585,-0.01304741,0.00073474407,-0.0004095287,-0.005790692,-0.00834014,0.0066461056,-0.008512156,0.0037700154,0.018996596,-0.0070473137,-0.0048391502,0.014407597,0.009579809,-0.0013902811,0.020437168,0.008668034,0.0011206437,0.0068980157,0.013164782,-0.0036111162,0.0005443301,0.016071856,-0.0006573041,-0.0069714654,0.012668242,-0.0028738687,-0.0007158134,0.0044461475,-0.012138102,-0.008456688,0.011400348,-0.0037298014,0.0010594843,0.015287562,0.012378253,0.0006336978,0.013524298,0.0033315213,-0.001504457,0.010016572,-0.011354478,-0.0072524585,0.015032166,-0.009532529,0.002001371,0.011378939,0.002041408,-0.009967388,0.008311095,-0.000014375149,-0.018406838,-0.0030190872,0.003180526,-0.004947249,0.005881259,-0.0010225067,0.0012905137,-0.011674911,-0.019080304,-0.01954877,-0.012095447,-0.021129329,-0.018899377,-0.018519055,-0.023660507,-0.017715486,-0.005278208,-0.009580699,-0.0029160294,-0.0089683505,-0.011006371,-0.0014040717,-0.017905343,-0.012617226,-0.007865605,-0.007436682,-0.011504309,-0.005323194,-0.014378805,-0.019722851,-0.0056346776,-0.027391026,-0.0075420067,-0.007821149,-0.0028156694,-0.00040655682,-0.0019548808,-0.0039459,-0.013541685,-0.002685193,-0.0035665915,0.0022292316,0.0009511621,0.00079658814,0.004467655,0.013241914,0.009206001,-0.0022168048,0.016164444,-0.0014129089,-0.0036568672,-0.005723572,-0.00032095233,0.008352254,-0.009430651,-0.00036153707,-0.007528885,-0.010345885,-0.008597687,-0.005559041,0.0014420231,-0.007680179,0.0132469395,0.00096534926,-0.012065481,0.009182198,-0.008870369,-0.0051619094,0.005533141,-0.0030712618,-0.021280548,0.00085986184,-0.007673193,-0.020045703,0.007207492,-0.002970835,0.013660113,0.0074329562,-0.009030807,-0.0018680717,0.0033037853,-0.004504049,0.0065624407,-0.004673214,0.0059228814,0.0055919676,-0.006479098,0.009197744,0.01446162,0.0060544885,0.0148252165,0.00036654616,0.0039607375,0.028502561,-0.0031338013,0.0046699503,0.025611628,0.009688373,0.017612537,0.011794141,0.0036789866,-0.0029690224,0.0101371715,0.0065573985,0.013895801,0.009781378,0.006052352,0.01167105,0.025954997,0.00992537,0.008117565,0.021351263,0.010490635,0.005175078,0.01890107,-0.0029536386,-0.00477997,0.014920006,-0.0066509503,-0.0007300094,-0.009005371,0.0025908705,-0.007919012,-0.00944891,-0.011174099,-0.0102265505,0.0006276695,0.0054631094,-0.005778581,-0.0012505148,-0.009833039,-0.0023124132,-0.0075974814,-0.007744536,-0.0021523072,-0.0036127348,0.0019424539,-0.01391782,-0.0018794321,0.008640613,0.006071814,0.020473804,0.005122761,0.0005350362,0.01951749,-0.022633856,-0.01782467,0.00859564,-0.021934895,-0.018135158,-0.0021852707,-0.0070747966,-0.0148399295,0.0124804275,-0.008525699,-0.0068225292,-0.003332044,0.0023758775,0.00065893703,-0.00848111,0.021215275,0.0010012734,0.008064971,0.008550199,0.011762255,0.018410081,0.018740147,0.0045135044,-0.005535863,0.006040121,-0.013186623,-0.004724133,0.0037358832,-0.011255502,-0.00991858,0.011511334,-0.003503324,-0.000015177291,0.0029349609,-0.00788948,-0.019474842,0.0033766674,-0.0067129745,-0.007943918,0.010349258,-0.013817996,-0.011804337,0.004368584,0.0021231554,-0.009475375,0.0037988096,-0.01011633,-0.012334232,0.0077244807,-0.005325408,-0.015283496,0.0049409145,-0.012798942,-0.009270666,-0.023194568,-0.012479815,-0.016504288,-0.025626503,-0.020735173,-0.011541329,-0.024373429,-0.017672868,-0.012853646,-0.0063054445,-0.017816907,-0.012146862,-0.02033671,-0.012358587,0.0040008835,-0.013814093,-0.004078712,0.0060844584,-0.0045348583,-0.011387652,-0.0033984715,-0.024099173,-0.026224628,-0.008549633,-0.016224967,-0.010675182,-0.0035110693,-0.022330368,-0.017982965,0.0037057556,-0.00981104,0.003422085,-0.0054917918,0.0029420552,-0.005709827,0.0043313,0.002070752,0.011753552,0.0012399077,0.007045447,0.0022747687,-0.00035519173,0.0061292793,0.015786186,-0.0055734315,0.0030255527,0.0059943236,0.0066207615,0.0072147027,0.0040368405,-0.008644821,0.00386113,0.011912609,0.0016384101,-0.015669774,0.0070767677,-0.014570905,-0.0027955032,-0.00022007272,-0.0021271387,-0.020807514,0.0060254964,-0.009575989,-0.011447136,0.0010633349,-0.018430993,-0.017578248,0.0054245433,-0.0028662232,-0.0062034046,0.0026488057,-0.0092796525,-0.00008933745,-0.0047249226,0.0006273428,0.0052789235,0.009653082,-0.0030638473,0.006408651,-0.0016274508,0.008924081,0.0010473045,-0.002019958,0.00090715877,0.013324986,0.0059590302,0.01937483,0.007920097,0.015639573,0.025316373,0.0036568944,0.002890288,0.011501882,0.005559578,0.0030806973,0.022661762,0.006085854,0.015602595,0.008780887,0.001761824,0.010380026,0.011158795,0.0046922243,0.0061879153,0.0076333517,0.010378014,0.007948666,0.019092396,0.017370244,0.0066077802,0.018392049,0.0048338175,-0.0053260694,0.0027355903,0.0114961,0.0012938925,0.004556096,0.008938496,-0.009915564,0.0049927854,-0.0074906047,-0.016592333,-0.0013150052,-0.00981686,-0.016433908,-0.009989918,-0.015523007,-0.005166194,-0.009533896,-0.00058414927,0.0012675042,0.0004518552,0.0039570853,-0.0042830845,0.008138597,-0.0026320328,0.0062789284,0.02058389,-0.012090116,-0.0102728065,0.0065982,-0.020644328,-0.009597046,0.012261098,-0.016474731,-0.011983656,0.0022904922,0.0032775814,-0.0020849665,-0.014938599,-0.002916692,-0.0008967562,-0.0077708834,0.019390687,0.0006752453,-0.0008135069,0.02215813,0.020685479,0.007177873,0.015223081,0.01900838,0.015407599,0.015266026,-0.010524374,-0.005086635,0.014470009,-0.006487551,-0.008873822,0.0039182757,0.002686379,-0.010999612,0.002010772,0.008494747,0.0007552592,0.010023682,0.007285433,-0.0036810718,0.01738399,0.011480704,0.007186136,0.010983699,-0.0048294,-0.0064055026,0.010205805,-0.0025453665,-0.0030576272,-0.002531057,-0.0027149345,-0.002654338,-0.0064263185,-0.010632794,-0.011453093,-0.008378104,-0.0036082007,-0.0039327946,-0.021830507,-0.021511897,-0.01302466,-0.011968889,-0.011071382,-0.0032338898,-0.0136125265,-0.0046182717,0.0063080885,-0.0030227972,-0.0038053836,0.0009701531,0.009470815,0.0013923679,0.011030755,-0.0089370385,0.0021561473,0.00056337647,-0.013638961,-0.014724231,0.010865842,-0.005306386,-0.013519469,0.015571087,0.0012120653,-0.0077090156,0.0061957715,-0.0026762332,-0.0041474565,0.009958994,0.005362364,0.004292063,0.0061835414,-0.0014301531,0.006337236,0.0076909084,-0.00054517854,0.007857311,0.011034584,-0.0019077724,0.013571494,-0.007455368,-0.0029694135,0.008440734,-0.0018334407,0.0037105186,0.009242023,-0.009339479,-0.0029927366,0.011714859,-0.011488652,-0.0014322626,0.01736441,0.0057931216,-0.0007399628,0.008778323,-0.0077922037,-0.0018994892,0.013958092,-0.0066848113,-0.0053924867,0.00090901286,-0.0066742967,-0.010814114,0.0028044784,-0.0093498705,0.010301942,-0.005510401,-0.011454257,0.0021874849,0.0040350817,0.0034522729,0.007065045,-0.0038030478,-0.013091159,0.0003498559,-0.006075363,0.0024761967,0.0036010053,0.002054262,0.0037398625,0.0001681418,0.011206523,0.0070069204,0.007850722,0.011423326,0.014032717,0.0058452557,0.018034974,0.008106527,-0.00038137834,-0.0055118804,0.012911674,-0.009291639,0.012669248,0.0046386416,0.007025596,0.0041776067,0.013040274,0.0070483517,0.019910997,0.022124795,0.002044008,0.019698057,0.026690884,0.01567182,0.010992948,0.019192876,-0.0019199495,-0.002297319,0.008173778,-0.0053335205,-0.010556984,0.014000308,-0.000115047245,-0.001751919,0.0022288486,-0.011239575,-0.014578024,-0.011002878,-0.016909918,-0.01356256,0.004469996,-0.012395756,-0.0028335818,-0.009501982,-0.0037902717,-0.0016852341,-0.009289568,0.0018381361,-0.0030864847,0.005437435,0.004976299,0.007906731,0.004766484,0.0028178925,0.005014783,0.014801071,-0.014009595,-0.0035338486,0.0041719386,-0.009900398,-0.01832306,-0.0062312884,-0.01143648,-0.021142038,-0.02064742,-0.0014666159,-0.021192312,-0.01796647,0.011903868,0.0073203184,-0.008526924,0.026929898,0.023408707,0.014041704,0.021624431,0.021704214,0.022364363,0.008632178,0.006248134,-0.0068049156,0.016246002,-0.0088694235,-0.003828598,0.008371885,0.005416545,-0.012693559,0.015381392,0.0053533944,-0.007323745,0.02417937,0.003359777,0.0042132665,0.013766756,0.018032687,-0.00032510748,0.011409082,0.014143541,0.0017866229,0.01959403,0.016325299,0.008607595,0.017063266,0.013118812,0.00677236,-0.0017626393,0.012558461,-0.0041931556,0.0046621747,0.005770559,-0.0032497365,0.00085286837,-0.008602656,-0.008683267,-0.001892555,0.0001740853,0.013692302,-0.0012097617,0.006427722,0.01349376,0.0012036837,-0.0018816055,0.015325877,0.0106703965,0.014792975,0.014743179,-0.0046900394,-0.0034463766,0.013947661,-0.011465675,0.006270731,0.0073873885,-0.0043908083,0.0027001486,0.019921068,0.0029417546,0.0025402599,0.019144338,0.0019754888,0.0066975774,0.010481833,0.0043444294,0.021265723,0.0025270088,0.0013908801,0.013997327,0.01023023,-0.0043909093,0.0041472386,0.0012854134,0.00023573331,0.020376546,-0.0005166113,0.010631963,0.025921972,-0.0018123355,0.003942375,0.010754642,-0.016090617,-0.004153911,0.009439587,-0.014063798,0.004878014,0.00062096276,-0.011112544,-0.0041547245,0.015181079,-0.007849348,-0.008019255,0.0126839895,-0.010497493,-0.008127889,0.010143321,-0.0055023227,-0.019783951,0.005018607,-0.019350346,-0.0020172321,-0.01306133,-0.007053281,-0.0010847804,-0.015076486,-0.0102329,0.0064287656,-0.008503348,-0.0024455497,0.010872259,-0.002037745,0.0013802425,0.007681981,-0.002952279,-0.002596163,-0.009523723,-0.0023814603,-0.00033109976,-0.008476037,0.0061660972,0.0018817581,-0.011530674,0.0011042122,0.007658987,-0.003765854,0.0068835686,0.0035969839,-0.00587717,-0.0065027657,0.0041368753,-0.008629245,0.0103218015,0.0018389967,0.0034826654,0.021149434,0.021329837,0.0038480195,0.017468838,0.014288894,-0.0056367065,-0.0002663518,0.0074123666,-0.012386279,-0.008264505,0.0025836665,-0.007597565,-0.0047518867,-0.0071210945,-0.014302234,-0.0033922126,-0.0071483757,-0.006566109,-0.017463196,-0.0042220177,-0.008704437,-0.0052937376,-0.00026743492,-0.012708725,-0.0063949227,-0.016671024,0.00524572,-0.00077117956,0.0032173984,0.0012481232,-0.0034446665,-0.00077449734,-0.0063324613,-0.0049797376,0.0023348457,-0.0041393833,-0.015335016,-0.0023930513,0.0019250114,-0.012557608,-0.0034816742,-0.0007417362,-0.014012479,-0.01031761,0.0013758938,-0.018851962,-0.021802165,-0.006370583,-0.012495014,-0.018574636,0.009168179,-0.009255074,-0.011953769,0.00915006,-0.0011606112,0.00006759436,0.020482231,-0.0008951358,0.008055396,0.0028393227,-0.017624144,-0.01796999,0.0046975072,-0.015363423,-0.020655634,0.01943864,0.007936297,-0.00013522581,-0.0010018167,-0.0071211117,-0.0005061793,0.0037534393,-0.0029131905,0.0048519815,0.021058252,0.009254236,-0.00011318033,0.0279065,0.022746852,0.012614743,0.017659452,0.017984672,-0.0041696653,0.013198032,0.013719962,0.0076380624,0.00774163,0.0008527734,0.0041710474,0.009182244,-0.002611753,-0.008758419,0.00012817941,0.010581172,0.0112047,-0.0005033866,0.0033512863,0.013013088,-0.010598281,-0.0042998996,0.012404416,0.0008816167,0.0020795409,0.004034321,0.014264481,0.0081533585,0.019310737,0.0005882186,0.009508603,0.028293839,0.0027097145,0.0013072934,0.015554464,0.0106043825,0.016024115,0.013783563,0.0017204579,0.017539755,0.0052729114,0.01792974,0.021342695,-0.0018215416,0.009245139,0.008455849,0.011437335,-0.0013107199,0.00871481,0.0015977975,0.0005745259,0.01870839,0.0055362135,-0.0011431349,0.009712327,-0.0076728733,0.0033167638,0.006867738,-0.007587602,-0.002707161,0.018530356,-0.0023946753,0.0018183278,0.004170687,-0.0035370556,-0.0069079315,0.0032878371,-0.018026443,-0.008142832,0.011942856,-0.0011607151,0.0049227765,0.017550593,-0.006258382,-0.013601481,-0.0045114127,-0.021277625,-0.012471405,-0.0070491624,-0.021356167,-0.0004981765,-0.009801948,-0.013229747,0.0029940666,-0.010188267,-0.017079128,0.004953676,-0.0057286103,-0.012625403,0.0014601438,0.0053028166,-0.008337854,0.016014049,-0.0052555786,-0.0066986857,-0.005475728,0.004192332,-0.00035229107,0.000600163,0.006629544,0.0042730565,0.0017656329,-0.0008177353,-0.006851845,-0.0052239443,-0.0033780336,-0.002921998,0.006986273,0.009037097,-0.008687206,0.0013986223,0.0065167993,0.00088695047,0.006631018,0.016715888,0.0067864354,0.014675945,0.024357168,0.019958984,-0.0060976436,0.0034427436,0.007875678,0.009647742,0.0010800738,0.010182791,0.000092272436,0.008369354,-0.0007607043,-0.0077271895,-0.000111821406,-0.008652922,0.00016057078,-0.008568693,-0.0010667854,-0.010763693,-0.0070322584,-0.004443084,-0.0138770845,-0.010298292,-0.00946749,-0.0008541745,0.004613388,0.006092891,0.004325661,-0.003966148,0.00096481794,-0.0045442497,-0.012407399,0.0017780294,0.00064545346,-0.0139137255,0.003917899,0.0077650086,0.005468747,0.00045867814,0.016041884,-0.0013928183,0.0026163226,0.002168339,-0.011526818,0.005129949,0.0054733567,-0.0044707493,-0.002396322,0.008527242,-0.0056325174,0.00944238,0.00065807905,-0.0010260745,-0.0016012386,0.0071345307,0.0044404184,-0.008124855,0.0047281203,-0.01784116,-0.011818853,0.004382481,-0.0049864515,-0.020004041,0.016548961,0.005126818,-0.0005598512,0.008811522,0.0037323586,-0.010094265,0.004657311,0.0025724247,0.009836688,0.010436057,0.0029944233,0.012279211,0.036080517,0.024794977,0.011863337,0.022927906,0.0092586,-0.0021044237,0.009025236,0.008284191,0.0016060398,0.007980136,0.00873616,-0.0060268696,0.007978725,0.005044943,-0.000044600696,0.0034511427,0.00018065854,0.0013977136,-0.0115976175,0.0023024494,-0.00979945,-0.009269149,-0.0016012497,-0.0046612234,-0.0058791824,-0.0019892394,0.0103154145,0.0046465336,0.00039473354,0.0025556348,-0.006745579,0.009876749,0.006552009,0.0011939,-0.0027303624,0.0048728734,0.004977458,-0.010481297,0.009179463,0.0021469407,-0.0011531463,0.00478711,0.0063718352,0.01982841,-0.00092006795,0.0028596427,0.00899139,0.011787216,-0.005619288,0.011421798,0.010796614,0.0013974512,-0.0006141112,0.0020075475,-0.0052454644,0.0058446205,-0.010230271,-0.00932491,-0.0023855458,-0.0129011,-0.005086506,0.00911094,-0.0069269272,-0.011033501,0.008873413,-0.016183348,-0.00858987,-0.00086228084,-0.0044937325,0.003859578,0.00641579,-0.0011812223,-0.00026159067,0.0076357382,0.00089727057,-0.0012636927,0.006343392,-0.013994521,-0.013561529,0.0052830675,-0.015945336,-0.01404154,-0.00076599076,-0.015700523,-0.011031203,-0.010802234,-0.0036521803,0.006669134,0.004432697,